{
  "layer_sizes": [
    32,
    16,
    4
  ],
  "learning_rate": 0.3,
  "seed": 42,
  "output_activation": "softmax",
  "weights": [
    [
      [
        0.07617926993860784,
        -0.2599960265601239,
        0.7034872174671165,
        0.6458801506592041,
        -0.6956716237831588,
        -0.4786565486916842,
        0.03196010079182134,
        -0.00697931446370168,
        0.25197394550567553,
        -0.2576995400808473,
        0.09356002949130329,
        0.08587853885435617,
        0.14207194703794268,
        0.20942414778073226,
        0.1168773355630114,
        -0.21482311572080956
      ],
      [
        0.09218769602062471,
        -0.23972065020724972,
        0.2123030505900641,
        -0.07083288643854888,
        -0.13398302091714695,
        0.07616375006727562,
        0.30563533466850756,
        0.11350798346250572,
        -0.12257847775537031,
        -0.056224624211352235,
        0.06349430224166565,
        0.06646896266033381,
        0.08779345362845661,
        0.013709690387873575,
        0.5354119002176153,
        -0.1016037540961539
      ],
      [
        -0.12806068226788433,
        -0.20344318206196943,
        0.14303056853874285,
        0.19471596014224432,
        -0.1601380094599665,
        0.15955508501175938,
        -0.2061203039228099,
        0.3908587279257347,
        0.16256875947897031,
        0.18350171219235656,
        -0.2707519180421809,
        0.020702250620651282,
        0.006086903379371359,
        -0.08632119136389242,
        0.21785719448704746,
        0.05589888719367057
      ],
      [
        0.16972839076797372,
        0.016894767372222865,
        0.06679770611993051,
        0.11405849994064576,
        -0.43011452748704043,
        0.10487929803687036,
        -0.11759316357319888,
        -0.04561419657605575,
        -0.08040795446761606,
        0.39759190036662784,
        -0.26864502453331446,
        0.22340054857485597,
        -0.4322597173568565,
        -0.15421792776951657,
        0.0406882662762514,
        0.14655558283981954
      ],
      [
        0.17780664494821374,
        0.1983368087999813,
        -0.0736639943971321,
        -0.08894596894128134,
        0.2560736839256188,
        -0.05692655352500399,
        -0.31892158083448047,
        -0.2890701717503625,
        -0.20636556244714177,
        0.14230955959815286,
        0.05373297093225411,
        0.18647534109160951,
        -0.08989788332763105,
        0.07905331684479988,
        0.15639759849183418,
        -0.0773366349300596
      ],
      [
        0.11419380938935286,
        -0.16548148526666281,
        -0.09807298637802193,
        -0.15378588219156794,
        -0.38672734142809173,
        0.36813925636465633,
        -0.11735058505068097,
        0.1552638836616281,
        0.10469014251188373,
        0.14344155741819123,
        0.09676328309652503,
        -0.04951342455804169,
        -0.12121427728157892,
        -0.11392511309069688,
        -0.42183360848950746,
        -0.3617781181057718
      ],
      [
        -0.3306749030886006,
        -0.24931170690037044,
        0.08349712602316267,
        -0.35766043339698284,
        -0.2920173560792192,
        0.8791983808251032,
        -0.08906599276535648,
        0.5266946885711108,
        -0.2682715949853046,
        0.020210328207179187,
        -0.39406725055765646,
        -0.14076538919418355,
        0.17545021100563288,
        -0.6433201166173057,
        0.10860591088646433,
        0.05943390058306947
      ],
      [
        -0.1485374889241986,
        -0.36151446359711364,
        0.027735237354799366,
        -0.13618138376782343,
        0.053948080483637174,
        0.12494228951660767,
        0.40044472283022886,
        0.013805873035147513,
        -0.24046359225719535,
        0.07943741463791308,
        0.036814414955352336,
        0.34066119027356395,
        0.217662106223846,
        0.07958537611868702,
        0.36582572280489045,
        -0.2971907635807127
      ],
      [
        -0.15993788318743693,
        -0.23164398535138123,
        -0.23355352368232876,
        -0.4978618873636139,
        0.4335245627721769,
        -0.02720017784536143,
        -0.36770157362566447,
        -0.2538947703018854,
        0.08571691610767512,
        0.11595871570514069,
        1.0594380774008527,
        1.0654131140073317,
        0.1230861487419335,
        -0.27034170921249323,
        -0.5330115701828273,
        0.06692786558595895
      ],
      [
        -0.2032352738275815,
        -0.10383931504492133,
        -0.28912527265833876,
        -0.18888807207863276,
        0.5412318837654868,
        0.06761763829066807,
        -0.039658709259672076,
        -0.2589134382064529,
        -0.41133228193096283,
        -0.21514990353678734,
        0.5468097167733259,
        0.7789299759004699,
        0.052052420791155844,
        0.22272769855123709,
        -0.12482389963478802,
        -0.29623594160425615
      ],
      [
        -0.24127919055809297,
        -0.1813065161339383,
        0.2632657172010401,
        -0.1998287707314403,
        0.5492810108255374,
        -0.4171283580751765,
        0.23289325321856102,
        -0.1720461252750421,
        -0.10706340604322978,
        0.23413352388958822,
        -0.38913696120238905,
        0.0142252382313715,
        -0.113745870085195,
        0.18508586551799328,
        -0.3194843935799048,
        0.04314697943052987
      ],
      [
        0.3947728141026087,
        0.03999790339335956,
        -0.2985112974352216,
        0.07697443397529197,
        0.6661591453181575,
        -0.13655093821245584,
        -0.10273180770843429,
        0.00828831071346431,
        0.03928517798669616,
        0.6282631534224445,
        -0.17963142803956503,
        -0.40341007006927376,
        -0.34203979981141625,
        0.9042192895176174,
        0.43091643019582426,
        -0.04487980332065016
      ],
      [
        -0.09579683028399694,
        0.36536107306055055,
        -0.28772570761600297,
        -0.31120886777693507,
        0.029180553626013347,
        0.27094292353749394,
        -0.001280466680017824,
        0.18734980633843135,
        0.06114885387784315,
        0.39958361044448687,
        -0.08172826449457095,
        0.12364661817318584,
        -0.5356275741635662,
        -0.15317294102867515,
        -0.21080756757321778,
        -0.304703265105907
      ],
      [
        -0.2195380917321877,
        -0.08353086017520302,
        0.2466755954423938,
        -0.2896999772747621,
        0.07252103513917758,
        -0.17149140784720807,
        -0.08191827359049021,
        0.21938107247576782,
        0.16574249326992688,
        0.35131402704769055,
        -0.005351582124115831,
        -0.1530681501927316,
        -0.03281912927885871,
        0.12383758948471861,
        0.04414333961342776,
        -0.27109701805834163
      ],
      [
        0.022622445406968554,
        0.057057082534726286,
        0.6470684692368704,
        0.5111093549805468,
        -0.14844767564913175,
        -0.1222948899011075,
        -0.3658605004592508,
        -0.17898513734125482,
        0.11011488491653058,
        0.318427905409063,
        -0.14899612174754273,
        -0.14261910729200497,
        -0.5136766824933977,
        0.02254691153068632,
        -0.2656036029648908,
        -0.13235985684151844
      ],
      [
        -0.21921519454189706,
        -0.023565638563139247,
        -0.4217321379857674,
        -0.32486310918761874,
        0.5971749399976475,
        -0.37230469483232137,
        -0.2741963946136599,
        0.42791999822994553,
        0.7574804263290468,
        -0.2759271570193308,
        -0.0587874015086483,
        0.1063063904600715,
        0.45531998604266416,
        -0.18350087794014625,
        -0.061319461485527436,
        0.194334394015436
      ],
      [
        0.10869151861665466,
        -0.09403901780752481,
        -0.01575578127561983,
        -0.30182574993236655,
        0.005319725996906895,
        -0.11704592201605225,
        0.05804247240656399,
        -0.1701401885551372,
        0.14909826465523016,
        0.27014345464196177,
        0.0721321696054758,
        0.10885660482474498,
        0.03643441183573302,
        0.06323448993976678,
        -0.18038950838571186,
        0.079123565418327
      ],
      [
        -0.024321649603372367,
        0.5232920772326487,
        0.411038685472201,
        0.1383598402992538,
        -0.12590114043311862,
        -0.3285519175096681,
        0.29778573827221627,
        0.034378922436401574,
        0.15124948486684808,
        -0.41918199655654353,
        0.2651344580779044,
        0.13452258727853486,
        -0.25446209616235343,
        -0.05466781019557404,
        0.0659293010891299,
        0.013116699589060907
      ],
      [
        -0.07304279645088875,
        -0.025872067016490214,
        -0.04529438469833085,
        0.0800388301857458,
        0.43273615523886266,
        -0.6921136597466377,
        -0.05921256612742106,
        0.012819721492728668,
        0.10521213144072034,
        -0.07601414514331804,
        -0.40590560793128666,
        0.10291637365347152,
        0.4549831284823123,
        -0.32025195956212105,
        0.21595700342454707,
        -0.08213130578072347
      ],
      [
        -0.015331086457211825,
        -0.26322462767598725,
        -0.06591408323557871,
        0.36690935083486853,
        0.21052697248750002,
        0.3826288518386724,
        0.2943529722444234,
        0.07846328588201097,
        0.46719726556089347,
        0.12671278987157913,
        0.24027188188762413,
        -0.05322523565873298,
        0.03978202890606738,
        -0.111142564158156,
        0.24739598364871326,
        -0.2945759057787164
      ],
      [
        0.19558758560441533,
        -0.047662764376289864,
        0.31051173322022024,
        0.22961544934294353,
        0.5200247014022735,
        0.13224462327084774,
        -0.39301006391331017,
        -0.04804667707493326,
        -0.2617881641297585,
        -0.11260546040456428,
        0.4110819460075394,
        0.18030095544936817,
        -0.15158703220342043,
        -0.19021594994318664,
        0.008195523219065198,
        -0.30414003734528194
      ],
      [
        -0.16778506934914528,
        0.07800236788781097,
        0.30652796888006445,
        0.19408857021623852,
        -0.507959215158952,
        0.025642632743751427,
        0.01800839330814448,
        0.07216418749279017,
        0.43526605443174726,
        -0.498845069014181,
        -0.11450101860941707,
        0.16864408342328283,
        -0.3722530249222195,
        0.4322006536802906,
        0.0920891531751646,
        0.211645996460851
      ],
      [
        -0.14273591538044864,
        0.20344092249155263,
        0.2579809830763169,
        -0.014719755830689964,
        -0.051109064363865815,
        0.3755809800307575,
        -0.21583631618484542,
        0.15329327241454455,
        -0.05750128588133157,
        0.13560942035175524,
        0.16297731904423415,
        -0.2957490872829595,
        -0.05048938166807,
        0.25286943645962184,
        -0.18589705720314104,
        -0.20556250432258008
      ],
      [
        0.050576547957798396,
        0.21109629762133003,
        -0.006280392030777694,
        0.25930088674426527,
        0.1044892081030919,
        0.5184501869328416,
        0.13852912533102332,
        0.7720887175611546,
        -0.07066107498475294,
        -0.4611196187532472,
        0.31408484769594575,
        -0.14553992452756354,
        0.007732986997582679,
        0.20989322076001019,
        -0.40056488526473133,
        -0.31291180352653486
      ],
      [
        -0.4003194842797134,
        -0.19853407250635596,
        0.1276091113576389,
        0.17294516286332132,
        0.13393170682271166,
        -0.40364052048690524,
        -0.577525859158161,
        -0.017719987502787513,
        -0.08673037439063848,
        0.13181094311615738,
        0.20876324424367693,
        0.055477860739614596,
        0.2131788462852296,
        0.12051623519568032,
        0.13251617640036667,
        -0.1761683157174706
      ],
      [
        -0.044902853457864635,
        0.04919402416423931,
        0.22283207870774524,
        -0.05653709089601443,
        0.19515497592360143,
        -0.11690874749265823,
        -0.02938554183203259,
        0.17607137665563505,
        -0.46705145874459353,
        -0.3071535818316856,
        -0.3372715116723462,
        -0.562486527237132,
        -0.14642053509752803,
        0.2505718665988482,
        -0.07122101659564369,
        0.04944752048546303
      ],
      [
        0.27230437417769815,
        0.3319215330669229,
        -0.15338555657492167,
        0.18470612191781288,
        0.2977684906771031,
        -0.18099405952753367,
        -0.1486000880496838,
        -0.37013412814125407,
        -0.21469500918828674,
        -0.18307709828706184,
        0.7611516093225568,
        0.7671399552969952,
        -0.3260615884213256,
        0.07524968786045241,
        -0.2601359847893836,
        0.11867427211580049
      ],
      [
        -0.03277166267193165,
        -0.4577264564618826,
        0.24977420774551162,
        -0.10935197604205417,
        -0.0686118976028155,
        -0.3178871523362361,
        -0.16357081917188887,
        0.07566422632334623,
        -0.016097451215155965,
        0.09913000075762468,
        0.12375530117057025,
        0.3510829166069858,
        -0.06255096277482863,
        -0.30600106254451964,
        0.26680560414299576,
        -0.08287204302431367
      ],
      [
        0.27864811114434423,
        0.0958442782956176,
        0.4830900359646658,
        0.4979329450729752,
        0.2798403134118751,
        0.3661334602873336,
        0.017345283783194675,
        0.11212898195146269,
        0.5252342742483439,
        -0.25585381637928906,
        -0.04302187106984009,
        -0.11503515699134498,
        0.20404132551202694,
        -0.28072835544862734,
        -0.39739187332724224,
        -0.5182458589978229
      ],
      [
        -0.27934602824740196,
        -0.11466882123483325,
        0.44257652185331153,
        0.8950467621687801,
        0.06858551585712483,
        -0.3936344510615115,
        0.08692711311273923,
        -0.029688225465387415,
        0.18508327537172395,
        0.001892854166393159,
        0.02850331501944446,
        -0.19338406597388472,
        0.39152715583122816,
        -0.3578707104968769,
        0.0015847655905671105,
        0.6494184316489581
      ],
      [
        0.05576993565631878,
        0.3583036266515432,
        0.01557051980654802,
        0.08684286514046353,
        -0.10196322862900473,
        0.2037942408772099,
        -0.1948705991813549,
        0.2597156937190946,
        -0.22838081951103553,
        0.19820507248906252,
        0.20173875696480595,
        0.06674079837862171,
        -0.08695188265946345,
        0.0194958344630769,
        -0.07716826388660315,
        0.23388678136628732
      ],
      [
        -0.4578515210537809,
        -0.08390184202966156,
        -0.7125502362975884,
        -0.39241729296925026,
        0.574157960722542,
        0.1700277683284356,
        -0.1798700583211976,
        -0.5271693448483533,
        -0.8007772671640808,
        0.06929329070689967,
        0.3999342222742616,
        0.022201706838922995,
        -0.14595977934883028,
        0.4667107003550735,
        -0.3902395882486107,
        -0.07433084067440886
      ]
    ],
    [
      [
        0.03517059787236524,
        -0.030441177383622633,
        0.2795921856254451,
        0.12185048828754223
      ],
      [
        0.236288929723784,
        -0.24337635437311497,
        0.3174256817704341,
        0.5759161808951202
      ],
      [
        -0.5056143456254658,
        -0.632851848479099,
        0.998408508651022,
        -0.11216900955272092
      ],
      [
        0.13387109343157785,
        -0.3515402688615478,
        1.3152311181375846,
        -0.1967725778484569
      ],
      [
        0.9708964158176672,
        0.5136577858869436,
        -0.4134544199192875,
        -0.8872328307603299
      ],
      [
        -0.45193606741972986,
        -0.12583745864517884,
        -0.8631946592028313,
        1.1141015607661204
      ],
      [
        -0.19048442609815874,
        0.4058130579682384,
        -0.8464988487604472,
        -0.2780929967127053
      ],
      [
        -0.8388650768422209,
        -0.5306283660325827,
        -0.052365936636238904,
        0.5576835552326631
      ],
      [
        -0.31520620649543385,
        -0.1562947594834592,
        0.5548824843259836,
        -0.5139071030430408
      ],
      [
        0.6727683993181767,
        -0.1400228844831162,
        -0.13482387314307281,
        0.41917100017669234
      ],
      [
        -0.31744910128698756,
        1.393841479134678,
        -0.10010350950863442,
        -0.29134496534686405
      ],
      [
        -0.9175604943154589,
        0.7056050171150998,
        -0.6755102862157876,
        -0.4981309583374275
      ],
      [
        -0.16666621296875672,
        0.056412786060113886,
        0.31601631297636934,
        -0.365137143261063
      ],
      [
        0.9741054208957615,
        -0.004998034261145756,
        -0.25538993164018176,
        -0.42131720999664396
      ],
      [
        0.19389855090539515,
        0.06645869919769361,
        -0.5119903025767354,
        -0.02403464999668504
      ],
      [
        0.09264364981575933,
        -0.3180901422618369,
        0.0671197752194088,
        -0.5143574223742244
      ]
    ]
  ],
  "biases": [
    [
      [
        0.0,
        0.0,
        0.20137350076247484,
        0.2397300237766965,
        0.3463543178774154,
        0.45401902858956816,
        0.0,
        0.2945382312234211,
        0.30110081744491013,
        0.2987886072873989,
        0.11950230717987599,
        0.14775599020245722,
        0.2019001514799561,
        0.28570474955154107,
        0.0,
        0.0
      ]
    ],
    [
      [
        0.23349718818765822,
        -0.48678881972979,
        -0.08688112003118499,
        0.34017275157331667
      ]
    ]
  ]
}