{
  "layer_sizes": [
    32,
    16,
    4
  ],
  "learning_rate": 0.3,
  "seed": 42,
  "output_activation": "softmax",
  "weights": [
    [
      [
        0.09849253843820627,
        -0.2329185949892056,
        0.19719714669015947,
        0.28797666190867605,
        -0.47055398329570275,
        -0.3255448767155795,
        0.0641263117995151,
        -0.061137201291836474,
        0.015665752907645776,
        -0.20961030570952743,
        0.24627843396158314,
        0.22392741605800787,
        0.04085031853627648,
        0.2756191275992484,
        0.1387996782254614,
        -0.21482311572080956
      ],
      [
        0.11450096452022314,
        -0.21264321863633143,
        0.2291969230653633,
        0.04035400506430946,
        -0.0290107770185588,
        -0.17023238610098534,
        0.33780154567620135,
        -0.020708923723141443,
        -0.08721591325705881,
        -0.08438271143818996,
        0.15950623663421318,
        0.12084044829179026,
        0.12752579704496952,
        0.10151407660921084,
        0.5573342428800651,
        -0.1016037540961539
      ],
      [
        -0.09893629533346002,
        -0.17285691314067334,
        0.17439150948839496,
        0.3682615434013624,
        0.020567394257449294,
        -0.210039119240632,
        -0.157809079135714,
        0.1399534492392779,
        0.2276465618573894,
        0.12976278533049077,
        -0.11005178788034124,
        0.1070216418786908,
        0.06602473291320185,
        0.047099454454473236,
        0.2408636696714514,
        0.05589888719367057
      ],
      [
        0.10033094933462668,
        0.12033983188114845,
        -0.2635014970336053,
        0.6259179292534791,
        -0.4582414776723962,
        -0.07991780408932533,
        -0.11367657603051459,
        -0.5671880154025233,
        -0.16405203161006304,
        0.36315658060968786,
        -0.26954529176511993,
        0.683635747534676,
        -0.4294610857174395,
        -0.08372125749644371,
        0.2611885307758446,
        0.14655558283981954
      ],
      [
        0.10840920351486667,
        0.30178187330890677,
        -0.4229626147682108,
        0.35250792462770214,
        0.1205414476058087,
        -0.04782608122040372,
        -0.3150049932917963,
        -0.6907903568425579,
        -0.32512954030379493,
        0.1137114388145301,
        -0.017481078824167905,
        0.6141874974037478,
        -0.11555680439762182,
        0.03963492276917856,
        0.3768978629914272,
        -0.0773366349300596
      ],
      [
        0.14331819632377724,
        -0.13489521634536672,
        -0.07036680779674681,
        -0.009416003278442974,
        -0.24990565272609178,
        0.12174312019639545,
        -0.06903936026358501,
        -0.019571218034975527,
        0.16201968378300605,
        0.10560701226167807,
        0.22267191618502893,
        0.024359939984654955,
        -0.06897129738301866,
        -0.027502247454379757,
        -0.3988271333051037,
        -0.3617781181057718
      ],
      [
        -0.3391910620269134,
        -0.4066594175190954,
        0.001341880757634362,
        -0.6075509945414561,
        0.2900779729114503,
        0.32480707444651635,
        0.5769178172463075,
        0.17378964794986568,
        -0.23199972880086428,
        -0.051359389466907504,
        0.2351945151309046,
        -0.08240746791734788,
        0.4410281767081959,
        -0.43183010579808717,
        0.2573026013439817,
        0.05943390058306947
      ],
      [
        -0.1570536478625114,
        -0.5188621742158387,
        -0.08056929899475744,
        -0.5135544079673915,
        0.4427876642599737,
        0.00546303638086072,
        1.066428532841893,
        -0.07042815103516198,
        -0.25446968195386127,
        0.04481890873907904,
        0.5276991998514909,
        0.342147694867902,
        0.4397289538224916,
        0.08921776478737733,
        0.5145224132624077,
        -0.2971907635807127
      ],
      [
        -0.1376246146878384,
        -0.20456655378046293,
        -0.0878681030503969,
        -0.2913360540782046,
        0.17599255057135732,
        -0.055555674274693344,
        -0.3355353626179707,
        -0.23597132350782637,
        0.09824450414626681,
        0.21318231815746286,
        0.5256116631688228,
        0.7579450487026032,
        0.12794500246497154,
        -0.2535757041507259,
        -0.5110892275203776,
        0.06692786558595895
      ],
      [
        -0.18241983153033636,
        -0.07469073091950318,
        -0.1505311053018278,
        0.00014750822914200173,
        0.26079961467563323,
        0.039262141861336156,
        -0.014823879113356534,
        -0.20451210128049999,
        -0.4131398858068643,
        -0.1093491534824772,
        -0.006637657799977582,
        0.46089591144924075,
        0.051123946925922516,
        0.23949370361300454,
        -0.09978851527843292,
        -0.29623594160425615
      ],
      [
        -0.18303041668924439,
        -0.12013397829134619,
        0.5729107407978333,
        -0.033309729363817944,
        0.3077308182764225,
        -0.2257317945217566,
        0.32951570279275283,
        0.05084824609267106,
        0.04450656369853499,
        -0.022242195025474407,
        -0.0510456459736829,
        0.20948067259454187,
        -0.04003930882915541,
        -0.32154683039737214,
        -0.27347144321109695,
        0.04314697943052987
      ],
      [
        0.6709564778440186,
        0.2617847997765879,
        0.6090704515559733,
        0.36445931840272017,
        0.32457703746756955,
        0.054845625340964085,
        -0.4849768926731045,
        0.7316630263679087,
        0.46130549139949256,
        0.37603089981944293,
        -0.044176114638120524,
        -0.5818315116441151,
        -0.34203979981141625,
        0.3652756245410539,
        0.15268496295719056,
        -0.04487980332065016
      ],
      [
        0.18038683345741297,
        0.5871479694437788,
        0.3619686125725716,
        0.06932102876312789,
        0.15890830071312442,
        -0.0986512807148974,
        -0.383525551644688,
        0.41423012422180844,
        0.4385100189838225,
        0.3439623671488741,
        -0.06733849721816064,
        -0.11472955539477546,
        -0.5125430252577556,
        -0.059635958999287975,
        -0.48903903481185135,
        -0.304703265105907
      ],
      [
        -0.23101917361029975,
        -0.06765513839726088,
        0.1746200238727583,
        -0.46566381815159136,
        -0.16787632698736726,
        -0.12104235833339462,
        -0.13811450237648493,
        0.5302984274384375,
        0.024647277629460333,
        0.4000947606831114,
        -0.18902427762228605,
        -0.25497575786739357,
        -0.1003255130990213,
        0.0606241978178054,
        0.06800531139730034,
        -0.27109701805834163
      ],
      [
        0.011141363528856476,
        0.07293280431266844,
        0.575012897667235,
        0.3351455141037171,
        -0.3888450377756766,
        -0.07184584038729402,
        -0.42205672924524557,
        0.13193221762141522,
        -0.030980330723936085,
        0.3672086390444839,
        -0.33266881724571296,
        -0.24452671496666703,
        -0.5811830663135601,
        -0.04066648013622692,
        -0.24174163118101819,
        -0.13235985684151844
      ],
      [
        -0.23069627642000912,
        -0.0076899167851970755,
        -0.49378770955540285,
        -0.5008269500644481,
        0.356777577871103,
        -0.32185564531850774,
        -0.3303926233996547,
        0.7388373531926153,
        0.6163852106885804,
        -0.22714642338390983,
        -0.24246009700681853,
        0.004398782785409502,
        0.38781360222250166,
        -0.24671426960705936,
        -0.037457489701654856,
        0.194334394015436
      ],
      [
        0.12201782990213293,
        -0.054534670909607424,
        -0.06641891304299043,
        -0.395829987147429,
        -0.17974016346011332,
        -0.06659687250223878,
        0.04622039824598835,
        0.09795898288066761,
        0.05173952143304462,
        0.308292516250753,
        -0.05243948988464831,
        0.054022539421567525,
        0.0029075155108108756,
        -0.006170075869906308,
        -0.13978891555983133,
        0.079123565418327
      ],
      [
        0.09323599770403351,
        0.6503946248692409,
        0.46962547741321964,
        0.4306000641040262,
        -0.013139205528774523,
        -0.2781028679958545,
        0.48794231675619804,
        0.009392979729505072,
        0.27670682992446477,
        -0.452201706232163,
        0.4424881629840191,
        0.3032662421434469,
        -0.13274514002067167,
        -0.1488370725762865,
        0.16308884762575937,
        0.013116699589060907
      ],
      [
        -0.0507295279512903,
        0.0012053645544281013,
        -0.053409996813176236,
        0.09097611083648989,
        0.38507780711604567,
        -0.6416646102328244,
        -0.027046355119727285,
        0.0620515521371708,
        0.09386453970549287,
        -0.08932796914645502,
        -0.4127515053737698,
        0.11147830312929809,
        0.4561801976870189,
        -0.38965652537179424,
        0.23787934608699707,
        -0.08213130578072347
      ],
      [
        -0.029682438804851923,
        -0.24337997545355955,
        -0.15155855773427543,
        0.1574291002788642,
        -0.07375393967303778,
        0.433077901352486,
        0.22410768626193,
        0.45928288362275266,
        0.29863165451504664,
        0.19192983196260643,
        0.01899972193700108,
        -0.17538036957082448,
        -0.038814557133819295,
        -0.17435595582506921,
        0.27722344837855406,
        -0.2945759057787164
      ],
      [
        0.21790085410401386,
        -0.02058533280537156,
        0.30239612110537484,
        0.24055272999368757,
        0.47236635327945675,
        0.1826936727846612,
        -0.3608438529056164,
        0.0011851535695088747,
        -0.27313575586498606,
        -0.1259192844077011,
        0.40423604856505624,
        0.1888628849251948,
        -0.1503899629987142,
        -0.25962051575285955,
        0.030117865881515174,
        -0.30414003734528194
      ],
      [
        -0.13866068241472082,
        0.108588636809107,
        0.30922466287119516,
        0.2382088382772493,
        -0.5237681184783574,
        0.07609168225756495,
        0.06631961809524047,
        0.08077782362627589,
        0.44588543946933057,
        -0.5218353509469934,
        -0.09145021735594407,
        0.19670789181034948,
        -0.35854531923546595,
        0.36141456728559734,
        0.11509562835956841,
        0.211645996460851
      ],
      [
        -0.11361152844602415,
        0.23402719141284872,
        0.2875145428417807,
        0.14423797525543144,
        0.10765448184584206,
        0.06758580982043147,
        -0.16752509139774951,
        -0.0595769177769856,
        0.003702385943439092,
        0.08982268434256582,
        0.3062817006694059,
        -0.2156527093825914,
        0.00560102304812538,
        0.36279119218696343,
        -0.1628905820187371,
        -0.20556250432258008
      ],
      [
        0.07970093489222271,
        0.24168256654262613,
        0.02325316773468596,
        0.4182586178303868,
        0.2632527543127997,
        0.21045501672251546,
        0.18684035011811922,
        0.5592185273696234,
        -0.009457403159982258,
        -0.5069063547624362,
        0.45738922932111753,
        -0.06544354662719555,
        0.06382339171377806,
        0.31981497648735185,
        -0.3775584100803276,
        -0.31291180352653486
      ],
      [
        -0.37119509734528916,
        -0.16794780358505987,
        0.1303058053487695,
        0.21706543092433211,
        0.1181228035033065,
        -0.3531914709730916,
        -0.5292146343710651,
        -0.009106351369301807,
        -0.0761109893530551,
        0.10882066118334499,
        0.2318140454971499,
        0.08354166912668134,
        0.2268865519719832,
        0.049730148800987105,
        0.1555226515847706,
        -0.1761683157174706
      ],
      [
        -0.0535136648664487,
        0.06110081549769597,
        0.16436541006717098,
        -0.1989845220936683,
        -0.001358836168950534,
        -0.06645969797884475,
        -0.07153271342152866,
        0.41708648884023336,
        -0.5806762789796799,
        -0.2748091566518714,
        -0.4833447427180634,
        -0.6441466086743646,
        -0.20283671669796652,
        0.1873584749319351,
        -0.053324537757739245,
        0.04944752048546303
      ],
      [
        0.29461764267729657,
        0.35899896463784126,
        -0.007700135942989803,
        0.3912319552032219,
        0.04023647847628366,
        -0.20934955595686552,
        -0.11643387704199004,
        -0.3522106813471949,
        -0.2021674211496951,
        -0.08585349583473985,
        0.22732519509052637,
        0.4596718899922666,
        -0.32120273469828736,
        0.0920156929222199,
        -0.2382136421269336,
        0.11867427211580049
      ],
      [
        -0.0036472757375073093,
        -0.4271401875405864,
        0.25247090173664216,
        -0.06523170798104343,
        -0.08442080092222058,
        -0.2674381028224225,
        -0.11525959438479288,
        0.08427786245683193,
        -0.005478066177572583,
        0.07613971882481231,
        0.1468061024240433,
        0.3791467249940527,
        -0.048843257088075034,
        -0.37678714893921283,
        0.2898120793273995,
        -0.08287204302431367
      ],
      [
        0.3077724980787685,
        0.12643054721691369,
        -0.012387728706315089,
        0.1732124437327131,
        0.5368073987027427,
        0.5192451322634383,
        0.06565650857029066,
        0.017352900612371453,
        0.3108930584231252,
        -0.21744103993764477,
        0.13959323209639615,
        0.042515599123546764,
        0.11533033349240818,
        -0.2159148962151315,
        -0.3743853981428385,
        -0.5182458589978229
      ],
      [
        -0.2502216413129777,
        -0.08408255231353721,
        -0.052901242817669315,
        0.5703262608285184,
        0.32555260114799267,
        -0.2405227790854068,
        0.13523833789983514,
        -0.12446430680447865,
        -0.02925794045349499,
        0.04030563060803755,
        0.2111184181856807,
        -0.03583330985899297,
        0.30281616381160925,
        -0.2930572512633809,
        0.0245912407749709,
        0.6494184316489581
      ],
      [
        0.08489432259074307,
        0.3888898955728394,
        0.04327669838782317,
        0.23121274405358855,
        0.03485846007299517,
        -0.04260189529105111,
        -0.146559374394259,
        0.08488059202249093,
        -0.17105127823991315,
        0.1603705273325493,
        0.3276473900533098,
        0.14061416292131831,
        -0.03470890276090318,
        0.10591870009939403,
        -0.05416178870219936,
        0.23388678136628732
      ],
      [
        -0.469332602931893,
        -0.06802612025171942,
        -0.5520586104972446,
        -0.5078308462735017,
        0.16543135731750572,
        0.2237962454929215,
        -0.2360662871071923,
        -0.09601689289793763,
        -0.8510137910819341,
        -0.07012864316073332,
        0.45470589525203975,
        0.027730962916193955,
        -0.18425388039126875,
        0.11627005237507657,
        -0.3663776164647382,
        -0.07433084067440886
      ]
    ],
    [
      [
        0.1438159683060489,
        -0.20199315714065996,
        0.615599429985499,
        -0.15125014674915785
      ],
      [
        0.5606911420388335,
        -0.6640249855146414,
        0.7074694683305961,
        0.28211881316143567
      ],
      [
        -0.36183246112428796,
        -0.18060327941448928,
        0.8833789345077396,
        -0.5931698889752257
      ],
      [
        1.2409004156709196,
        -0.5188878503309604,
        0.6891676246377568,
        -0.5103908251185583
      ],
      [
        -0.1971012344213053,
        0.6551982371117896,
        0.16081542295705942,
        -0.43504547462255
      ],
      [
        -0.15859139664721128,
        0.15992420193033224,
        -0.5535794288215994,
        0.22537999903685876
      ],
      [
        -0.39642936002843016,
        1.1257187766088084,
        -1.0906501667522799,
        -0.5479024634311711
      ],
      [
        -1.4059428987732434,
        -0.4642608870606755,
        0.2664709774596928,
        0.7395569840958465
      ],
      [
        -0.2788984837388453,
        -0.16157086314085592,
        0.5517224323284448,
        -0.5417786701446944
      ],
      [
        0.09244638579454324,
        0.0784924103086979,
        0.1989564390100333,
        0.44719740675540554
      ],
      [
        0.13997979064770366,
        0.9917174313727996,
        0.0653460772785495,
        -0.5120993963068602
      ],
      [
        0.5937533679935619,
        -0.22591927919489205,
        -0.8973083629861613,
        -0.8561224475660827
      ],
      [
        -0.20675214850055057,
        0.512999530012899,
        -0.0741376736416864,
        -0.3914839650639985
      ],
      [
        0.30288864435471385,
        0.24595322130912775,
        -0.010779455145006995,
        -0.24566216552104425
      ],
      [
        0.2657700655008598,
        0.3131363006461524,
        -0.7077846843923482,
        -0.1467893842249963
      ],
      [
        0.09264364981575933,
        -0.3180901422618369,
        0.0671197752194088,
        -0.5143574223742244
      ]
    ]
  ],
  "biases": [
    [
      [
        0.3012015868399146,
        0.3398066663986632,
        0.1704333637399375,
        0.4111651764953615,
        0.07127571624238772,
        0.0,
        0.36161566735192446,
        0.6482663215296542,
        0.17473201002568428,
        0.11930652002634264,
        0.20583190591451045,
        0.16849741757230188,
        0.2752939565817994,
        -0.08106764356561483,
        0.2452509480326598,
        0.0
      ]
    ],
    [
      [
        0.00893475864953844,
        -0.3399649146374303,
        -0.6051637602913315,
        0.9361939162792239
      ]
    ]
  ]
}