{
  "layer_sizes": [
    32,
    16,
    4
  ],
  "learning_rate": 0.3,
  "seed": 42,
  "output_activation": "softmax",
  "weights": [
    [
      [
        0.07435957201327222,
        -0.31643585280881675,
        0.16486990210768368,
        0.27476345744170994,
        -0.4991313704750613,
        -0.3638426630870375,
        0.06462227257193355,
        -0.047671730396416055,
        0.04980491696321314,
        -0.2000335731645014,
        0.26504636979483553,
        0.1840800814516697,
        0.04920073313851838,
        0.3259746311655529,
        0.12387876486215933,
        -0.21482311572080956
      ],
      [
        0.09218769602062471,
        -0.24789142301456113,
        0.21961257532681813,
        -0.012481477746563224,
        -0.02021012187271078,
        -0.17983078945792202,
        0.23444607456372826,
        -0.28346601093867707,
        0.0488219965925261,
        0.1091415065393031,
        0.04157443782700217,
        0.2000533049068812,
        0.04447109479551979,
        0.34334895685687083,
        0.9169101295055543,
        -0.1016037540961539
      ],
      [
        -0.12806068226788433,
        -0.21161395486928083,
        0.1539948556438739,
        0.2822430731802229,
        -0.002481395400114413,
        -0.2196375225975687,
        -0.27730956402758905,
        -0.08218544346530123,
        0.3417174949341635,
        0.33296346123765924,
        -0.2578802853835086,
        0.1667326195825415,
        -0.02954060581829527,
        0.2903158552871534,
        0.5993554237749863,
        0.05589888719367057
      ],
      [
        0.1679086928426381,
        -0.03954505887647005,
        0.049536952828565385,
        0.19744433480354162,
        -0.3756615282755188,
        -0.1182155904607832,
        -0.0849309917930867,
        -0.1283305443713559,
        -0.014780356467385566,
        0.3869627365374926,
        -0.17126090284418236,
        0.2317016862423028,
        -0.38802438415573687,
        -0.03955692807289912,
        0.04768969557539929,
        0.14655558283981954
      ],
      [
        0.17598694702287812,
        0.1418969825512883,
        -0.10992416490604007,
        -0.07596566982223514,
        0.20312139700268617,
        -0.08612386759186161,
        -0.2862594090543681,
        -0.2519328858113906,
        -0.17585786516111743,
        0.1375175947423346,
        0.08080331009676973,
        0.16225343611137466,
        -0.07412010283591917,
        0.08379925219272313,
        0.16339902779098214,
        -0.0773366349300596
      ],
      [
        0.11237411146401724,
        -0.22192131151535582,
        -0.11350635848519862,
        -0.05581219515567568,
        -0.3103324847088621,
        0.08344533382493759,
        -0.0846884132705688,
        0.03451244737140131,
        0.17419187106576267,
        0.1248602027363797,
        0.211543153322325,
        -0.03498927353292326,
        -0.07313151926282406,
        0.024234776696944852,
        -0.4148321791903596,
        -0.3617781181057718
      ],
      [
        -0.3324946010139362,
        -0.30575153314906334,
        0.07720065983692848,
        -0.18674748549610867,
        -0.10591321182144967,
        0.2865092880750584,
        -0.05640382098524432,
        0.2157678098062512,
        -0.17939921366318384,
        -0.038131980738013826,
        -0.19230863764851686,
        -0.0951261713807079,
        0.2427700931125633,
        -0.38766577637454247,
        0.11560734018561226,
        0.05943390058306947
      ],
      [
        -0.15035718684953422,
        -0.4179542898458065,
        -0.004710519915463291,
        -0.09275089892204397,
        0.046796479527073734,
        -0.03283474999059719,
        0.43310689461034124,
        -0.028449989178776603,
        -0.20186916681618083,
        0.058046317467972716,
        0.10019604707206974,
        0.32942899140454174,
        0.24147087022685906,
        0.1333820942109219,
        0.37282715210403833,
        -0.2971907635807127
      ],
      [
        -0.16142560547758059,
        -0.25017771235190905,
        -0.11043895598060982,
        -0.3165644106542361,
        0.14520114645052268,
        -0.060691863061148286,
        -0.3409981079980868,
        -0.2284793469695518,
        0.11886594957238443,
        0.21953385768784417,
        0.5288789505514547,
        0.7235131506462624,
        0.13033107606687688,
        -0.22018886239678995,
        -0.5272874429602902,
        0.06692786558595895
      ],
      [
        -0.20505497175291712,
        -0.1602791412936143,
        -0.17576709660888265,
        0.004424556739810244,
        0.2551224843853087,
        0.0009643554898782374,
        -0.006996537479559871,
        -0.22752452051697342,
        -0.3646655298368039,
        -0.10834956853943904,
        0.03175123837454828,
        0.43161457598940334,
        0.06526168911643583,
        0.28984920717930907,
        -0.11782247033564007,
        -0.29623594160425615
      ],
      [
        -0.2430988884834286,
        -0.23774634238263131,
        0.5093745362648603,
        -0.16572439146219,
        0.19824972762248394,
        -0.26402958089321454,
        0.26555542499867324,
        0.1276266592159453,
        0.014845731924762757,
        0.0030367771950351534,
        -0.11850004777821917,
        0.10115014796495285,
        -0.08105281133698063,
        -0.26223711151826734,
        -0.31248296428075695,
        0.04314697943052987
      ],
      [
        0.39295311617727313,
        -0.01644192285533335,
        -0.052402478371401294,
        0.11107881324454237,
        0.315127862115104,
        0.01654783896950617,
        -0.07006963592832212,
        0.30796109520445175,
        0.1611943159546888,
        0.3971664067278916,
        0.09100548538460494,
        -0.31648516033569246,
        -0.3093467410632019,
        0.4568963124813571,
        0.43791785949497214,
        -0.04487980332065016
      ],
      [
        -0.09579683028399694,
        0.35719030025323917,
        -0.276761420510872,
        -0.2236817547389566,
        0.18683716768586542,
        -0.10824968407183415,
        -0.07246972678479703,
        -0.2856943650526047,
        0.2402975893330363,
        0.5490453594897894,
        -0.0688566318358986,
        0.2696769871350761,
        -0.5712550833612325,
        0.22346410562237065,
        0.17069066171472097,
        -0.304703265105907
      ],
      [
        -0.2195380917321877,
        -0.09170163298251446,
        0.22897563558900327,
        -0.331598179434891,
        0.03366334216220871,
        -0.13064076169033131,
        -0.15310753369526942,
        0.005855815904674512,
        0.2904328113842845,
        0.5315244210220462,
        -0.13012927837381014,
        -0.06529336410181413,
        -0.1146767623236022,
        0.2962679039227055,
        0.42564156890136645,
        -0.27109701805834163
      ],
      [
        0.022622445406968554,
        0.26868862214390243,
        0.6723494020911731,
        0.43252045102813197,
        -0.24618493070042993,
        0.12878796760835987,
        -0.3658605004592508,
        -0.149570613241364,
        0.050806074200582745,
        0.2952388510203693,
        -0.23788309699593638,
        -0.13652477729714285,
        -0.5368222574346637,
        -0.10897508218307413,
        -0.2656036029648908,
        -0.13235985684151844
      ],
      [
        -0.21921519454189706,
        -0.031736411370450676,
        -0.4394320978391578,
        -0.36676131134774764,
        0.5583172470206786,
        -0.33145404867544465,
        -0.3453856547184392,
        0.214394741658852,
        0.882170744443405,
        -0.09571676304497495,
        -0.18356509775834262,
        0.194081176550989,
        0.37346235299792063,
        -0.011070563502159217,
        0.3201787678024113,
        0.194334394015436
      ],
      [
        0.09728788487183519,
        -0.4395638217221784,
        -0.17598031198961775,
        -0.5713098053287817,
        -0.05954343599366631,
        -0.04308390331360965,
        0.7440224825787418,
        -0.19066214093320263,
        0.07246974350715914,
        0.24646755809107085,
        0.6640864443109766,
        0.04738170861791438,
        0.0356589175608138,
        0.17893810623911838,
        -0.1993658806668342,
        0.079123565418327
      ],
      [
        -0.035725283348191826,
        0.17776727331799524,
        0.25081415475820285,
        -0.13112421509716132,
        -0.19076430242369188,
        -0.2545898988072253,
        0.9837657484443942,
        0.013856970058336035,
        0.07462096371877715,
        -0.44285789310743456,
        0.8570887327834055,
        0.07304769107170427,
        -0.2552375904372725,
        0.0610358061037776,
        0.04695292880800754,
        0.013116699589060907
      ],
      [
        -0.07304279645088875,
        -0.025872067016490214,
        -0.06299434455172134,
        0.514030303604213,
        0.27059818937642693,
        -0.8955827079347294,
        -0.46931690143063176,
        0.537499302457165,
        0.301947798935507,
        -0.20054897584042317,
        -0.6896681387875959,
        -0.05110931480105936,
        0.6730595073587302,
        -0.5212582400916446,
        -0.1026884858038067,
        -0.08213130578072347
      ],
      [
        -0.015331086457211825,
        -0.26322462767598725,
        -0.08361404308896916,
        0.8009008242533355,
        0.04838900662506467,
        0.1791598036505815,
        -0.11575136305878736,
        0.6031428668464475,
        0.6639329330556806,
        0.002177959174473919,
        -0.04349064896868488,
        -0.20725092411326393,
        0.25785840778248525,
        -0.3121488446876793,
        -0.0712495055796405,
        -0.2945759057787164
      ],
      [
        0.19558758560441533,
        0.16396877523288625,
        0.3357926660745229,
        0.15102654539052968,
        0.4222874463509754,
        0.3833274807803152,
        -0.39301006391331017,
        -0.018632152975042636,
        -0.3210969748457063,
        -0.13579451479325771,
        0.32219497075914627,
        0.18639528544423029,
        -0.17473260714468658,
        -0.321737943656947,
        0.008195523219065198,
        -0.30414003734528194
      ],
      [
        -0.16778506934914528,
        0.2896339074969871,
        0.3318089017343671,
        0.11549966626382456,
        -0.60569647021025,
        0.2767254902532188,
        0.01800839330814448,
        0.10157871159268081,
        0.37595724371579947,
        -0.5220341234028744,
        -0.20338799385781064,
        0.17473841341814494,
        -0.3953985998634856,
        0.3006786599665299,
        0.0920891531751646,
        0.211645996460851
      ],
      [
        -0.14273591538044864,
        0.41507246210072896,
        0.31009878170495264,
        0.021528803242006705,
        0.025726130113949055,
        0.2682196178160853,
        -0.21583631618484542,
        -0.038776029810580655,
        -0.06622580981009209,
        0.08962391188668478,
        0.1943439241675394,
        -0.23762218777479607,
        -0.03125225757989441,
        0.302055284867896,
        -0.18589705720314104,
        -0.20556250432258008
      ],
      [
        0.04313793650708016,
        0.012253394060350921,
        -0.08450522491817702,
        0.4894225090692076,
        0.1498498773445486,
        0.08508387366691546,
        0.3091959626329802,
        0.8377430366720975,
        0.08445109524385491,
        -0.5505153032903293,
        0.6263154364704517,
        -0.21000322723395204,
        0.19125208737610935,
        0.3760436101826458,
        -0.5710258514070611,
        -0.31291180352653486
      ],
      [
        -0.4018072065698571,
        -0.2170677995068838,
        0.09692264631258056,
        0.15865408693803398,
        0.05548195457906013,
        -0.358327659759547,
        -0.550822393530583,
        0.039003819679929094,
        -0.07745652069974833,
        0.12484865864340179,
        0.2051846341838257,
        0.029607892159100823,
        0.21676198909184108,
        0.08449851113994322,
        0.13824030362290335,
        -0.1761683157174706
      ],
      [
        -0.044902853457864635,
        0.2608255637734155,
        0.2481130115620477,
        -0.1351259948484283,
        0.09741772087230323,
        0.13417411001680915,
        -0.02938554183203259,
        0.20548590075552586,
        -0.5263602694605415,
        -0.33034263622037935,
        -0.4261584869207393,
        -0.5563921972422702,
        -0.16956611003879418,
        0.11904987288508795,
        -0.07122101659564369,
        0.04944752048546303
      ],
      [
        0.27230437417769815,
        0.6493688424806873,
        0.04718685538000469,
        0.2833604197039212,
        -0.026279474982560107,
        0.09160115603661535,
        -0.1486000880496838,
        -0.37297491776699265,
        -0.26417622847891675,
        -0.0988410033211408,
        0.11747804850459911,
        0.4707102068712051,
        -0.34554537884426,
        -0.004256036005291077,
        -0.2601359847893836,
        0.11867427211580049
      ],
      [
        -0.03277166267193165,
        -0.08737126214582423,
        0.30729081013058396,
        -0.2154589063386821,
        -0.1910047224496573,
        0.08367106116997185,
        -0.16357081917188887,
        0.10365835561036757,
        -0.09647764445385555,
        0.07127253071766443,
        -0.006840777247848938,
        0.3774361211417029,
        -0.08569653771609483,
        -0.4887545077934156,
        0.26680560414299576,
        -0.08287204302431367
      ],
      [
        0.27864811114434423,
        0.466199472611676,
        0.042432179687626616,
        0.02298524537507436,
        0.4302234771753063,
        0.8703542962558325,
        0.017345283783194675,
        0.03673339376590708,
        0.2198934801468422,
        -0.22230822804479258,
        -0.014053647575496087,
        0.040804995271196805,
        0.0784770528643884,
        -0.32788225506933405,
        -0.39739187332724224,
        -0.5182458589978229
      ],
      [
        -0.27934602824740196,
        0.044054833472048895,
        -0.04106222713142067,
        0.45678976426316514,
        0.2518427726812808,
        -0.09004742308866638,
        0.08692711311273923,
        -0.10318995390045059,
        -0.09216234203277558,
        0.041662996702578746,
        0.11308367607382269,
        -0.0645557464311491,
        0.2659628831835896,
        -0.3367160080707363,
        0.0015847655905671105,
        0.6494184316489581
      ],
      [
        0.05576993565631878,
        0.7286588209676015,
        0.09809660678176486,
        0.08098554569594978,
        -0.07172546145444152,
        0.30850726870134326,
        -0.1948705991813549,
        0.10426108517602657,
        -0.26205085651619625,
        0.1555033392254015,
        0.1740005103814176,
        0.13890355906896834,
        -0.07156218338892296,
        -0.006048658754808584,
        -0.07716826388660315,
        0.23388678136628732
      ],
      [
        -0.4578515210537809,
        0.23354546738410278,
        -0.4332316597194598,
        -0.4288012602452294,
        0.29165441786238994,
        0.5247469574864023,
        -0.1798700583211976,
        -0.3784666536359628,
        -0.7832749745059163,
        -0.14521070828569224,
        0.5216855467217991,
        0.14923881694562138,
        -0.13989307151237237,
        0.013807149304805743,
        -0.3902395882486107,
        -0.07433084067440886
      ]
    ],
    [
      [
        0.034558239967627205,
        -0.028505564780435828,
        0.27892248170549794,
        0.1211969375090406
      ],
      [
        0.006266880438635274,
        -0.44891960898574873,
        0.05119419382742342,
        1.2777129727359138
      ],
      [
        -0.4746411335625222,
        -0.3459949203797813,
        0.33867895008077514,
        0.22973040885526508
      ],
      [
        0.024680872192622404,
        -0.4761912834360129,
        1.1818307755798063,
        0.17046900052274183
      ],
      [
        0.16313687891706746,
        0.44857973607658813,
        -0.06950380491664938,
        -0.3583458590520128
      ],
      [
        -0.43323393867600046,
        -0.034988920960331654,
        -0.8195212876994559,
        0.9608775228341685
      ],
      [
        -0.49964220173984614,
        1.1007601470594528,
        -0.9839934023599102,
        -0.5263877565627696
      ],
      [
        -0.8329102478469489,
        -0.3577623561593699,
        0.6612003658521686,
        -0.33470358612422946
      ],
      [
        0.4173570297239114,
        -0.31940009288875404,
        0.37252783374452886,
        -0.9010103552756366
      ],
      [
        0.8406219696273245,
        -0.009780228246722015,
        -0.06553208351209283,
        0.05178298400017048
      ],
      [
        -0.3952863903264286,
        1.3449112940720656,
        -0.354009037997184,
        0.08932803724373999
      ],
      [
        -0.08244424374489705,
        -0.4205109937212973,
        -0.6802340009176907,
        -0.20240748336968875
      ],
      [
        -0.21500085943515457,
        -0.022088198839049694,
        0.5342485361968772,
        -0.45653373511600914
      ],
      [
        0.6708239523083747,
        0.41067374349603597,
        -0.31431215765650344,
        -0.474785293150117
      ],
      [
        0.955665644235106,
        -0.25807717429573274,
        -0.7574155103231055,
        -0.2158406620865991
      ],
      [
        0.09264364981575933,
        -0.3180901422618369,
        0.0671197752194088,
        -0.5143574223742244
      ]
    ]
  ],
  "biases": [
    [
      [
        -0.018698850380896248,
        0.34441834653886144,
        -0.04487360705249955,
        0.2459574187306468,
        -0.24417250850391212,
        0.4815864103477836,
        0.28877689674384976,
        0.15308932305608397,
        0.5341239603693119,
        0.238346005291072,
        0.15989101558442748,
        0.0836680621632584,
        0.2973061219558833,
        0.30881206394281296,
        0.32302731450979555,
        0.0
      ]
    ],
    [
      [
        -0.026954043979983078,
        -0.24187466561235016,
        0.06623019528130447,
        0.20259851431102885
      ]
    ]
  ]
}