{
  "layer_sizes": [
    32,
    16,
    4
  ],
  "learning_rate": 0.3,
  "seed": 42,
  "output_activation": "softmax",
  "weights": [
    [
      [
        0.07617926993860784,
        -0.2667698206476881,
        0.2578999554307338,
        0.27238568238256305,
        -0.4387783587645116,
        -0.37007912592088926,
        0.03196010079182134,
        -0.07045481950070838,
        -0.004200289376072199,
        -0.21576082475316763,
        0.2868657314005995,
        0.19674702846681355,
        0.03730034369966417,
        0.316358933418816,
        0.11361899437563537,
        -0.21482311572080956
      ],
      [
        0.09218769602062471,
        -0.24649444429481382,
        0.28989973180593753,
        0.024763025538196384,
        0.0027648475126324764,
        -0.2147666353062951,
        0.30563533466850756,
        -0.03002654193201337,
        -0.1070819555407768,
        -0.09053323048183003,
        0.2000935340732296,
        0.09366006070059603,
        0.1239758222083573,
        0.14225388242877857,
        0.5321535590302393,
        -0.1016037540961539
      ],
      [
        -0.05887543829058349,
        -0.08242783399937734,
        0.10528378573662583,
        0.23483982500104864,
        -0.2823889538524434,
        0.6077632927531211,
        -0.2061203039228099,
        0.4143766777170653,
        0.07851526059267928,
        0.13578856707629874,
        -0.4328428867451229,
        0.03864735039369813,
        -0.015699680473991923,
        -0.09342196976477607,
        0.21785719448704746,
        0.05589888719367057
      ],
      [
        0.16972839076797372,
        0.01012097328465875,
        0.14256700615161547,
        0.19506655974439469,
        -0.3153085165649691,
        -0.12445205329463499,
        -0.11759316357319888,
        -0.15111363347564835,
        -0.06878556280667093,
        0.3712354849488264,
        -0.14944154123841835,
        0.2443686332574467,
        -0.39992477359459117,
        -0.04917262581963589,
        0.03742992508887537,
        0.14655558283981954
      ],
      [
        0.17780664494821374,
        0.1915630147124172,
        -0.016894111582989958,
        -0.07834344488138226,
        0.263474408713236,
        -0.09236033042571337,
        -0.31892158083448047,
        -0.27471597491568295,
        -0.22986307150040283,
        0.12179034315366838,
        0.1026226717025338,
        0.17492038312651856,
        -0.08602049227477336,
        0.0741835544459863,
        0.15313925730445815,
        -0.0773366349300596
      ],
      [
        0.11419380938935286,
        -0.1722552793542269,
        -0.020476305162148507,
        -0.0581899702148227,
        -0.2499794729983124,
        0.07720887099108578,
        -0.11735058505068097,
        0.011729358267109026,
        0.12018666472647724,
        0.10913295114771339,
        0.23336251492808902,
        -0.02232232651777942,
        -0.08503190870167823,
        0.014619078950208024,
        -0.4250919496768835,
        -0.3617781181057718
      ],
      [
        -0.3306749030886006,
        -0.25608550098793476,
        0.17023071315997854,
        -0.1891252605552556,
        -0.04556020011089981,
        0.2802728252412066,
        -0.08906599276535648,
        0.19298472070195877,
        -0.23340442000246925,
        -0.053859232326680086,
        -0.17048927604275288,
        -0.08245922436556417,
        0.23086970367370901,
        -0.3972814741212794,
        0.1053475696990883,
        0.05943390058306947
      ],
      [
        -0.1485374889241986,
        -0.3682882576846779,
        0.08831953340758679,
        -0.09512867398119108,
        0.10714949123762361,
        -0.03907121282444897,
        0.40044472283022886,
        -0.0512330782830689,
        -0.25587437315546624,
        0.04231906587930646,
        0.1220154086778338,
        0.3420959384196857,
        0.22957048078800477,
        0.12376639646418512,
        0.3625673816175144,
        -0.2971907635807127
      ],
      [
        -0.15993788318743693,
        -0.23841777943894532,
        -0.027165294309822532,
        -0.30692703360431756,
        0.20776817510254883,
        -0.100089923480003,
        -0.36770157362566447,
        -0.2452889417166985,
        0.07837846186254882,
        0.20703179911382266,
        0.5661989606078391,
        0.730764661111409,
        0.1243950276283593,
        -0.21283589833115818,
        -0.5362699113702033,
        0.06692786558595895
      ],
      [
        -0.2032352738275815,
        -0.11061310913248543,
        -0.0827370432858326,
        0.002046781680663283,
        0.3154754960958584,
        -0.005272107343973551,
        -0.039658709259672076,
        -0.2503076096212657,
        -0.41867073617608924,
        -0.1240768201281054,
        0.05357059998031232,
        0.4442815230045473,
        0.05336129967758161,
        0.28023350943257214,
        -0.12808224082216405,
        -0.29623594160425615
      ],
      [
        -0.24127919055809297,
        -0.3858695139714264,
        0.3685171761431102,
        -0.6006203623507839,
        0.8461569441345117,
        -0.007905228071986957,
        0.23289325321856102,
        0.19158770251938118,
        -0.0391594744145226,
        -0.010190631533858506,
        0.43160004278698,
        -0.006589608829789511,
        -0.113745870085195,
        0.009425960188288417,
        -0.3194843935799048,
        0.04314697943052987
      ],
      [
        0.3947728141026087,
        0.033224109305795425,
        0.040627574951648815,
        0.10870103818539525,
        0.3754808738256537,
        0.01031137613565439,
        -0.10273180770843429,
        0.2851780061001594,
        0.10718910961540337,
        0.38143915513922544,
        0.11282484699036902,
        -0.3038182133205485,
        -0.3212471305020562,
        0.44728061473462016,
        0.4276580890084482,
        -0.04487980332065016
      ],
      [
        -0.09579683028399694,
        0.3585872789729863,
        -0.2064742640317526,
        -0.186437251454197,
        0.20981213707120885,
        -0.14318552992020714,
        -0.001280466680017824,
        -0.03225489604594098,
        0.08439363719973339,
        0.34937062246865663,
        0.08966246441032887,
        0.16328374292879097,
        -0.49175035594839533,
        0.022369031194278313,
        -0.2140659087605938,
        -0.304703265105907
      ],
      [
        -0.2195380917321877,
        -0.09030465426276711,
        0.2992627920681227,
        -0.29435367615013136,
        0.05663831154755197,
        -0.16557660753870435,
        -0.08191827359049021,
        0.2592952849113384,
        0.13452885925098151,
        0.33184968400091336,
        0.02838981787241734,
        -0.17168660830809926,
        -0.03517203491076473,
        0.09517282949461318,
        0.04088499842605173,
        -0.27109701805834163
      ],
      [
        0.031648378010321096,
        0.06730676922956005,
        0.6804780011330686,
        0.49347672936310305,
        -0.2063902806016965,
        -0.001564701082504053,
        -0.3658605004592508,
        -0.10780033370888524,
        0.06490307718319752,
        0.2994196198813379,
        -0.1622439766567106,
        -0.16418700581915632,
        -0.5256767924602445,
        -0.03174112364665974,
        -0.2682675103892279,
        -0.13235985684151844
      ],
      [
        -0.21921519454189706,
        -0.030339432650703355,
        -0.3691449413600384,
        -0.329516808062988,
        0.5812922164060219,
        -0.3663898945238175,
        -0.2741963946136599,
        0.4678342106655157,
        0.7262667923101017,
        -0.295391500066108,
        -0.025046001512115154,
        0.08768793234470383,
        0.4529670804107581,
        -0.2121656379302515,
        -0.06457780267290347,
        0.194334394015436
      ],
      [
        0.10869151861665466,
        0.07302953422297336,
        -0.25093564251138917,
        -0.29060080525928433,
        -0.10310773836755613,
        -0.2429817080184978,
        0.05804247240656399,
        -0.2809419362861812,
        0.11788463063628475,
        0.25317895445495714,
        0.07782411237809066,
        0.4493217400522279,
        0.013288836894466841,
        0.06841104793544227,
        -0.18038950838571186,
        0.079123565418327
      ],
      [
        -0.024321649603372367,
        0.6903606292631466,
        0.1758588242364317,
        0.14958478497233646,
        -0.2343286047975818,
        -0.4544877035121135,
        0.29778573827221627,
        -0.0764228252946426,
        0.1200358508479027,
        -0.43614649674354816,
        0.27082640085051923,
        0.47498772250601773,
        -0.2776076711036195,
        -0.04949125219989851,
        0.0659293010891299,
        0.013116699589060907
      ],
      [
        -0.07304279645088875,
        0.14119648501400797,
        -0.28047424593410025,
        0.09126377485882836,
        0.32430869087439945,
        -0.8180494457490837,
        -0.05921256612742106,
        -0.09798202623831546,
        0.07399849742177488,
        -0.09297864533032246,
        -0.4002136651586716,
        0.44338150888095446,
        0.43183755354104625,
        -0.31507540156644565,
        0.21595700342454707,
        -0.08213130578072347
      ],
      [
        -0.015331086457211825,
        -0.09615607564548917,
        -0.3010939444713481,
        0.37813429550795075,
        0.10209950812303689,
        0.25669306583622703,
        0.2943529722444234,
        -0.0323384618490332,
        0.435983631541948,
        0.10974828968457469,
        0.24596382466023892,
        0.28723989956875,
        0.016636453964801207,
        -0.10596600616248052,
        0.24739598364871326,
        -0.2945759057787164
      ],
      [
        0.20461351820776785,
        -0.03741307768145605,
        0.34392126511641824,
        0.21198282372550056,
        0.462082096449709,
        0.2529748120894511,
        -0.39301006391331017,
        0.023138126557436176,
        -0.3069999718630915,
        -0.13161374593228897,
        0.39783409109837203,
        0.15873305692221681,
        -0.1635871421702674,
        -0.24450398512053245,
        0.005531615794728049,
        -0.30414003734528194
      ],
      [
        -0.1407072715390877,
        0.20147274967616896,
        0.27120209371209747,
        0.22225913759076238,
        -0.6148390840988618,
        0.2312998426299453,
        0.01800839330814448,
        0.14190703991352976,
        0.3620578992696391,
        -0.5198971398826266,
        -0.12215059096731824,
        0.33248022589145915,
        -0.37896157454571666,
        0.4032062741258872,
        0.0867613383264903,
        0.211645996460851
      ],
      [
        -0.13169590412206136,
        0.08901868578879898,
        0.679308207586356,
        0.1657254818674088,
        0.24181290297527866,
        0.1325311402176712,
        -0.21583631618484542,
        0.12841695755360594,
        -0.05525240902201894,
        0.08584909464928335,
        0.4506286584122886,
        -0.48919827070029415,
        0.04475825395804527,
        0.4412743552041778,
        -0.19893042195264515,
        -0.20556250432258008
      ],
      [
        0.050576547957798396,
        0.006533299783841913,
        -0.16074374307551623,
        -0.06303354493544008,
        0.8507331388420571,
        0.4282815831722852,
        0.13852912533102332,
        0.6772632360794368,
        -0.05129042221651105,
        -0.5008805730166285,
        0.9963605570236128,
        -0.23253251693951604,
        0.02697011108575826,
        0.643215072345232,
        -0.40056488526473133,
        -0.31291180352653486
      ],
      [
        -0.4003194842797134,
        -0.2034894562902625,
        0.9314629611616949,
        0.706600352323168,
        -0.21695250931030408,
        -0.6737192303990539,
        -0.577525859158161,
        0.11427934076939215,
        -0.11794400840958394,
        0.09918049530370227,
        -0.03879979467836203,
        -0.19430703015574288,
        0.3203362090347672,
        -0.11040607663837114,
        0.11209689196905455,
        -0.1761683157174706
      ],
      [
        -0.035876920854512113,
        0.053905690337862834,
        0.31370596660990757,
        -0.043719894622362,
        0.17725708881819413,
        -0.0325882255177051,
        -0.02938554183203259,
        0.2542920090555607,
        -0.5122632664779266,
        -0.32820565270013086,
        -0.2957292010176377,
        -0.5821748061504562,
        -0.14142127545888636,
        0.22452960162540586,
        -0.07654883144431798,
        0.04944752048546303
      ],
      [
        0.28133030678105064,
        0.3421712197617567,
        0.03382500806805343,
        0.36266204893503484,
        0.02995222164653579,
        -0.13906841665207556,
        -0.1486000880496838,
        -0.3302577083592676,
        -0.23603163714780065,
        -0.09154795735932765,
        0.22092323762384194,
        0.4295420619892887,
        -0.33439991386984086,
        0.10713222355454687,
        -0.26279989221372074,
        0.11867427211580049
      ],
      [
        -0.02374573006857911,
        -0.44747676976704887,
        0.2831837396417094,
        -0.12698460165949718,
        -0.12655450255538014,
        -0.19715696351763254,
        -0.16357081917188887,
        0.14684902995571564,
        -0.06130925894848896,
        0.0801217152298999,
        0.11050744626140253,
        0.32951501807983447,
        -0.07455107274167563,
        -0.36028909772186585,
        0.2641416967186586,
        -0.08287204302431367
      ],
      [
        0.34783335512164526,
        0.21685962635820957,
        -0.08149545245808434,
        0.03979072533239962,
        0.23385105059285022,
        1.3370475442571912,
        0.017345283783194675,
        0.29177612909015904,
        0.16176175715841512,
        -0.2114152581918368,
        -0.1831978667683857,
        -0.025858692361445924,
        0.03360592010521441,
        -0.3564363204343808,
        -0.39739187332724224,
        -0.5182458589978229
      ],
      [
        -0.26570941799187225,
        -0.09472323012571202,
        0.5648234715880583,
        0.9287373791031931,
        0.0009512272009074112,
        -0.33203934248968725,
        0.08692711311273923,
        0.027232744447637795,
        -0.09223975904364808,
        0.03398019930489508,
        -0.06667560726478204,
        -0.26907871072323647,
        0.3598509868192512,
        -0.4468979716225064,
        -0.014514032793548997,
        0.6494184316489581
      ],
      [
        0.05576993565631878,
        0.5253721786820414,
        -0.1945998568390768,
        0.19831742066566047,
        -0.057760100972062724,
        -0.2189867308073101,
        -0.1948705991813549,
        -0.03453479184203894,
        -0.21288429729644198,
        0.16639630907835729,
        0.3102885315724515,
        0.4530154897617345,
        -0.07156218338892296,
        0.18188134448976273,
        -0.07716826388660315,
        0.23388678136628732
      ],
      [
        -0.4578515210537809,
        0.08316671000083664,
        -0.7151829001633784,
        -0.32064206072359014,
        0.29740125507958753,
        0.047411409976662405,
        -0.1798700583211976,
        -0.5177359955916515,
        -0.7411322094604128,
        -0.13587387698315864,
        0.644070533522825,
        0.4701037058183389,
        -0.13989307151237237,
        0.1846600020376653,
        -0.3902395882486107,
        -0.07433084067440886
      ]
    ],
    [
      [
        -0.0052507389013080105,
        -0.07674403281761753,
        0.22591346371199045,
        0.262253402408665
      ],
      [
        0.7208851937592855,
        -0.46610915234050054,
        0.12727726803248943,
        0.5042011285649489
      ],
      [
        -1.101722283272512,
        -0.1798663262251761,
        1.1460099246350046,
        -0.11664801014357974
      ],
      [
        0.27000150257078287,
        -0.7538295661146578,
        1.092711217702622,
        0.29190621070041195
      ],
      [
        -0.03658912041617091,
        1.1513224040540109,
        -0.32335259664607785,
        -0.6075137359667683
      ],
      [
        -0.524190585913727,
        0.14780926976992836,
        -1.2441628759814136,
        1.2936775676235925
      ],
      [
        -0.19048442609815874,
        0.4058130579682384,
        -0.8464988487604472,
        -0.2780929967127053
      ],
      [
        -1.0305600915436897,
        0.09311493010405994,
        -0.11866637954540048,
        0.1919357167066501
      ],
      [
        -0.11708199837784278,
        -0.0835588642041601,
        0.03734375780691331,
        -0.2672284799208611
      ],
      [
        0.2188034786815196,
        0.19889517296276432,
        0.23540516974093312,
        0.16398882048346292
      ],
      [
        0.48160961824906773,
        1.0941876272676432,
        -0.06703738375049034,
        -0.8238159587740279
      ],
      [
        0.7395643620684124,
        -0.7548826094262207,
        -0.8428069301813872,
        -0.527471544214378
      ],
      [
        -0.07944103705408673,
        0.05166324597468381,
        0.20912727533490816,
        -0.34072374144884177
      ],
      [
        0.26023032710209265,
        0.6699783495111302,
        -0.13573593990705257,
        -0.5020724917083796
      ],
      [
        0.19318926863313937,
        0.0656921783301001,
        -0.5099726225391555,
        -0.02457652689441562
      ],
      [
        0.09264364981575933,
        -0.3180901422618369,
        0.0671197752194088,
        -0.5143574223742244
      ]
    ]
  ],
  "biases": [
    [
      [
        0.10498371010441335,
        0.2693225585430449,
        0.382348933763358,
        0.31301031753613345,
        0.132715852701588,
        0.6320242666875444,
        0.0,
        0.32865737841986004,
        -0.16281754759354547,
        -0.02508637670916974,
        0.37737925168181663,
        0.36304521215051144,
        0.14056944194336202,
        0.23046960736283173,
        -0.03269804506070184,
        0.0
      ]
    ],
    [
      [
        0.5064176438137779,
        -0.42020269427915596,
        -0.08282492823022161,
        -0.0033900213044003916
      ]
    ]
  ]
}