{
  "layer_sizes": [
    32,
    16,
    3
  ],
  "learning_rate": 0.3,
  "seed": 42,
  "output_activation": "softmax",
  "weights": [
    [
      [
        0.07617926993860784,
        -0.31748696427865164,
        0.7745632770365392,
        -0.5214135907527967,
        -0.6408556807806265,
        -0.3255448767155795,
        0.03196010079182134,
        0.7930202688903442,
        -0.011610848324325254,
        -0.213260981893395,
        0.22442756577725081,
        0.15709726959889622,
        0.01650767439030401,
        0.24017227798481938,
        0.5618195896571873,
        -0.21482311572080956
      ],
      [
        0.09000503530253137,
        -0.2113723059262952,
        0.26703806970084304,
        0.012670786771012032,
        -0.021159011816577238,
        -0.17023238610098534,
        0.30563533466850756,
        0.010625894760520617,
        -0.10817615441393713,
        -0.0880333876220574,
        0.14401108955335892,
        0.09181673959211009,
        0.1031831528989971,
        0.10155722885593288,
        0.5674107354598112,
        -0.1016037540961539
      ],
      [
        -0.1302433429859777,
        -0.1750948377810149,
        0.201420350017899,
        0.3073953376977984,
        -0.00343028534398087,
        -0.210039119240632,
        -0.2061203039228099,
        0.2119064622338965,
        0.18471934392770026,
        0.13578856707629874,
        -0.15544363365715183,
        0.05849605426777041,
        0.029171452285182056,
        0.048524127286215434,
        0.24985602972924342,
        0.05589888719367057
      ],
      [
        0.16754573004988035,
        0.04524311165317741,
        0.1197053440465211,
        0.18297432097721028,
        -0.33923237589417876,
        -0.07991780408932533,
        -0.11759316357319888,
        -0.11046119678311431,
        -0.06987976167983126,
        0.37373532780859897,
        -0.20552398575828906,
        0.2425253121489608,
        -0.4207174429039512,
        -0.08986927939248152,
        0.0726871015184474,
        0.14655558283981954
      ],
      [
        0.17562398423012038,
        0.22668515308093584,
        -0.03975577368808437,
        -0.09043568364856651,
        0.23955054938402642,
        -0.04782608122040372,
        -0.31892158083448047,
        -0.23406353822314907,
        -0.23095727037356314,
        0.12429018601344101,
        0.04654022718266307,
        0.17307706201803266,
        -0.10681316158413356,
        0.033486900873140754,
        0.18839643373403014,
        -0.0773366349300596
      ],
      [
        0.11201114867125953,
        -0.13713314098570828,
        -0.04333796726724292,
        -0.07028220898200699,
        -0.27390333232752206,
        0.12174312019639545,
        -0.11735058505068097,
        0.05238179495964302,
        0.11909246585331693,
        0.11163279400748602,
        0.1772800704082183,
        -0.024165647626265403,
        -0.10582457801103844,
        -0.026077574622637555,
        -0.38983477324731153,
        -0.3617781181057718
      ],
      [
        -0.3328575638066939,
        -0.2209633626194159,
        0.1473690510548842,
        -0.20121749932244,
        -0.06948405944010953,
        0.32480707444651635,
        -0.08906599276535648,
        0.23363715739449287,
        -0.23449861887562956,
        -0.051359389466907504,
        -0.22657172056262356,
        -0.08430254547405011,
        0.21007703436434888,
        -0.4379781276941249,
        0.1406047461286603,
        0.05943390058306947
      ],
      [
        -0.15072014964229197,
        -0.33316611931615925,
        0.06545787130249245,
        -0.10722091274837534,
        0.08322563190841385,
        0.00546303638086072,
        0.40044472283022886,
        -0.010580641590534913,
        -0.25696857202862655,
        0.04481890873907904,
        0.06593296415796306,
        0.34025261731119966,
        0.20877781147864463,
        0.08306974289133953,
        0.3978245580470864,
        -0.2971907635807127
      ],
      [
        -0.1621205439055303,
        -0.2032956410704267,
        -0.05002695641491698,
        -0.3190192723715017,
        0.18384431577333904,
        -0.055555674274693344,
        -0.36770157362566447,
        -0.20463650502416417,
        0.07728426298938851,
        0.20953164197359528,
        0.5101165160879687,
        0.728921340002923,
        0.1036023583189991,
        -0.2535325519040038,
        -0.5010127349406314,
        0.06692786558595895
      ],
      [
        -0.20541793454567486,
        -0.07549097076396674,
        -0.10559870539092693,
        -0.010045457086521055,
        0.29155163676664875,
        0.039262141861336156,
        -0.039658709259672076,
        -0.20965517292873168,
        -0.41976493504924955,
        -0.12157697726833272,
        -0.0025118445395583573,
        0.44243820189606126,
        0.03256863036822146,
        0.2395368558597266,
        -0.09282506439259203,
        -0.29623594160425615
      ],
      [
        -0.24346185127618633,
        -0.15295817185298377,
        0.5795429274828159,
        -0.18019440528852135,
        0.2346788800038242,
        -0.2257317945217566,
        0.23289325321856102,
        0.145496006804187,
        -0.04025367328768292,
        -0.010190631533858506,
        -0.15276313069232586,
        0.11197377387161064,
        -0.113745870085195,
        -0.3125494628378498,
        -0.2874855583377089,
        0.04314697943052987
      ],
      [
        0.3925901533845154,
        0.06834624767431412,
        0.017765912846554405,
        0.096608799418211,
        0.35155701449644405,
        0.054845625340964085,
        -0.10273180770843429,
        0.3258304427926933,
        0.10609491074224306,
        0.383938997998998,
        0.05674240247049829,
        -0.30566153442903454,
        -0.34203979981141625,
        0.40658396116177464,
        0.4629152654380202,
        -0.04487980332065016
      ],
      [
        -0.09797949100209027,
        0.39370941734150494,
        -0.22933592613684692,
        -0.19852949022138142,
        0.18588827774199906,
        -0.0986512807148974,
        -0.001280466680017824,
        0.008397540646593012,
        0.08329943832657308,
        0.3518704653284292,
        0.033580019890458154,
        0.16144042182030507,
        -0.5125430252577556,
        -0.018327622378567283,
        -0.17880873233102185,
        -0.304703265105907
      ],
      [
        -0.22172075245028106,
        -0.05518251589424845,
        0.2764011299630281,
        -0.3064459149173155,
        0.032714452218342266,
        -0.12104235833339462,
        -0.08191827359049021,
        0.2999477216038721,
        0.1334346603778212,
        0.3343495268606859,
        -0.027692626647453367,
        -0.17352992941658515,
        -0.05596470422012488,
        0.054476175921767594,
        0.07614217485562375,
        -0.27109701805834163
      ],
      [
        0.02043978468887521,
        0.08540542681568086,
        0.6767940037575049,
        0.49436341733799305,
        -0.18825425856996705,
        -0.07184584038729402,
        -0.3658605004592508,
        -0.09841848821315047,
        0.07780705202442481,
        0.3014634052220584,
        -0.1713371662708804,
        -0.16308088651585853,
        -0.5368222574346637,
        -0.04681450203226472,
        -0.23360476772269484,
        -0.13235985684151844
      ],
      [
        -0.22139785525999042,
        0.004782705717815291,
        -0.39200660346513294,
        -0.3416090468301721,
        0.5573683570768129,
        -0.32185564531850774,
        -0.2741963946136599,
        0.5084866473580494,
        0.7251725934369414,
        -0.2928916572063354,
        -0.08112844603198587,
        0.0858446112362179,
        0.4321744111013981,
        -0.25286229150309714,
        -0.02932062624333143,
        0.194334394015436
      ],
      [
        0.10650885789856132,
        -0.06569067352657024,
        0.01396975324501477,
        -0.31857168757491994,
        -0.034486856923928375,
        -0.06659687250223878,
        0.05804247240656399,
        -0.08957353942703289,
        0.11679043176312442,
        0.25317895445495714,
        0.04979112508213826,
        0.08839482560089137,
        0.013288836894466841,
        -0.006126923623184256,
        -0.1483906731435159,
        0.079123565418327
      ],
      [
        -0.02650431032146571,
        0.551640421513603,
        0.4407642199928355,
        0.12161390265670048,
        -0.16570772335395392,
        -0.2781028679958545,
        0.29778573827221627,
        0.11494557156450577,
        0.11894165197474238,
        -0.43614649674354816,
        0.24279341355456693,
        0.11406080805468125,
        -0.2776076711036195,
        -0.12402922375852504,
        0.09792813633132588,
        0.013116699589060907
      ],
      [
        -0.07522545716898209,
        0.002476277264464324,
        -0.015568850177696299,
        0.06329289254319241,
        0.3929295723180271,
        -0.6416646102328244,
        -0.05921256612742106,
        0.09338637062083288,
        0.07290429854861455,
        -0.09297864533032246,
        -0.4282466524546239,
        0.08245459442961792,
        0.43183755354104625,
        -0.38961337312507216,
        0.24795583866674303,
        -0.08213130578072347
      ],
      [
        -0.01751374717530517,
        -0.23487628339503272,
        -0.03618854871494414,
        0.35016341319231514,
        0.17072038956666472,
        0.433077901352486,
        0.2943529722444234,
        0.15902993501011528,
        0.4348894326687877,
        0.10974828968457469,
        0.21793083736428648,
        -0.07368701488258658,
        0.016636453964801207,
        -0.18050397772110702,
        0.27939481889090917,
        -0.2945759057787164
      ],
      [
        0.19340492488632197,
        -0.019314420095335325,
        0.3402372677408547,
        0.21286951170039015,
        0.48021811848143825,
        0.1826936727846612,
        -0.39301006391331017,
        0.03251997205317095,
        -0.2940959970218643,
        -0.12956996059156867,
        0.38874090148420215,
        0.1598391762255146,
        -0.17473260714468658,
        -0.25957736350613747,
        0.04019435846126121,
        -0.30414003734528194
      ],
      [
        -0.16996773006723864,
        0.10635071216876554,
        0.3362535034006989,
        0.17734263257368513,
        -0.5477657980797866,
        0.07609168225756495,
        0.01800839330814448,
        0.15273083662089448,
        0.4029582215396415,
        -0.5158095692011857,
        -0.13684206313275465,
        0.14818230419942927,
        -0.3953985998634856,
        0.3628392401173395,
        0.1240879884173606,
        0.211645996460851
      ],
      [
        -0.144918576098542,
        0.23178926677250716,
        0.31454338337128446,
        0.08337176955186736,
        0.08365680224441185,
        0.06758580982043147,
        -0.21583631618484542,
        0.01237609521763292,
        -0.03922483198625002,
        0.09584846608837377,
        0.2608898548925954,
        -0.2641782969935118,
        -0.03125225757989441,
        0.36421586501870556,
        -0.1538982219609451,
        -0.20556250432258008
      ],
      [
        0.04839388723970505,
        0.23944464190228457,
        0.050282008264189874,
        0.3573924121268228,
        0.23925507471136967,
        0.21045501672251546,
        0.13852912533102332,
        0.6311715403642421,
        -0.05238462108967137,
        -0.5008805730166285,
        0.411997383544307,
        -0.1139691342381159,
        0.02697011108575826,
        0.321239649319094,
        -0.3685660500225354,
        -0.31291180352653486
      ],
      [
        -0.40250214499780673,
        -0.17018572822540143,
        0.15733464587827348,
        0.15619922522076793,
        0.09412512390187631,
        -0.3531914709730916,
        -0.577525859158161,
        0.06284666162531674,
        -0.11903820728274425,
        0.11484644292915294,
        0.18642219972033927,
        0.03501608151576096,
        0.19003327134396344,
        0.0511548216327293,
        0.1645150116425626,
        -0.1761683157174706
      ],
      [
        -0.04708551417595798,
        0.0775423684451939,
        0.25255761322837966,
        -0.07328302853856775,
        0.15534839300276615,
        -0.06645969797884475,
        -0.02938554183203259,
        0.2566380257837395,
        -0.4993592916366993,
        -0.32411808201869025,
        -0.35961255619568344,
        -0.5829483064609856,
        -0.16956611003879418,
        0.1812104530358973,
        -0.03922218135344766,
        0.04944752048546303
      ],
      [
        0.2575221108138634,
        0.8128506949610138,
        0.3205460553435209,
        1.2858700558774383,
        -0.5277179863861083,
        -0.20934955595686552,
        -0.1486000880496838,
        -0.970156376167035,
        -0.2220334634334131,
        -0.08950417201860729,
        0.00789939943620627,
        0.8125492252593324,
        -0.34554537884426,
        0.09820686706497973,
        -0.4070369712516322,
        0.11867427211580049
      ],
      [
        -0.034954323390024994,
        -0.4293781121809282,
        0.27949974226614593,
        -0.12609791368460757,
        -0.10841848052365077,
        -0.2674381028224225,
        -0.16357081917188887,
        0.15623087545145053,
        -0.0484052841072617,
        0.08216550057062026,
        0.10141425664723269,
        0.33062113738313226,
        -0.08569653771609483,
        -0.3753624761074707,
        0.2988044393851917,
        -0.08287204302431367
      ],
      [
        0.2764654504262509,
        0.12419262257657218,
        0.014641111823188824,
        0.11234623802914906,
        0.5128097191013131,
        0.5192451322634383,
        0.017345283783194675,
        0.08930591360698997,
        0.2679658404934361,
        -0.2114152581918368,
        0.09420138631958555,
        -0.0060099884873736015,
        0.0784770528643884,
        -0.21449022338338924,
        -0.3653930380850463,
        -0.5182458589978229
      ],
      [
        -0.2837113496835887,
        -0.05797213267292416,
        0.021553092085859635,
        0.5346123196425301,
        0.32661150061630045,
        -0.2405227790854068,
        0.08692711311273923,
        -0.0032530285321389534,
        -0.07327935725634442,
        0.046331412353845504,
        0.17666036557389186,
        -0.08390317396882291,
        0.2659628831835896,
        -0.2977806003276766,
        0.06558243607495913,
        0.6494184316489581
      ],
      [
        0.05358727493822543,
        0.3866519709324976,
        0.07030553891732712,
        0.17034653835002436,
        0.01086078047156503,
        -0.04260189529105111,
        -0.1948705991813549,
        0.15683360501710952,
        -0.2139784961696023,
        0.16639630907835729,
        0.28225554427649924,
        0.09208857531039799,
        -0.07156218338892296,
        0.10734337293113622,
        -0.04516942864440712,
        0.23388678136628732
      ],
      [
        -0.4578515210537809,
        -0.3153483894338616,
        -1.1012906475468116,
        -0.39433807818076805,
        1.214509996890897,
        0.2237962454929215,
        -0.1798700583211976,
        -0.314078561063693,
        -0.7411322094604128,
        -0.13587387698315864,
        0.8675726206894799,
        -0.2331985574996385,
        -0.13989307151237237,
        0.11627005237507657,
        -0.47156590519443264,
        -0.07433084067440886
      ]
    ],
    [
      [
        0.033554640172723735,
        -0.027654835800488886,
        0.27842180174195286
      ],
      [
        -0.26712870088887286,
        0.7798446570700031,
        -0.39795289254291843
      ],
      [
        0.9979915981440033,
        0.6448457709814405,
        -1.0924951585150822
      ],
      [
        -0.7600394451657633,
        1.2156296614525137,
        -0.36481725923782077
      ],
      [
        -0.2869794738524208,
        -0.379673528473542,
        1.5209551108386274
      ],
      [
        0.04648725634649368,
        0.09129767603465035,
        0.5532113618837944
      ],
      [
        -0.1279051789169342,
        -0.3327369079765173,
        -0.15859139664721128
      ],
      [
        0.886004419122104,
        -1.152079770853308,
        0.09780012387679606
      ],
      [
        -0.18931399336421348,
        0.4050650488965119,
        -0.846921272422666
      ],
      [
        -0.2780929967127053,
        -0.5962565329963868,
        -0.2921162292410467
      ],
      [
        -0.19860884139402996,
        -0.36446514044293793,
        0.4976884211941698
      ],
      [
        -0.17162248742080277,
        0.45976363423875566,
        -0.629084232912052
      ],
      [
        0.24990908717949742,
        0.23428780066056978,
        0.13613146836535608
      ],
      [
        0.21997268373717446,
        0.09027337988016418,
        0.7108248775511201
      ],
      [
        0.4880070374229784,
        -0.38555224853227893,
        -0.5082297723446056
      ],
      [
        -0.36495996716566187,
        -0.4399872200040327,
        -0.31423730364298325
      ]
    ]
  ],
  "biases": [
    [
      [
        -0.01926041432803613,
        0.2501537924968729,
        0.4184959502792521,
        0.22195068243132396,
        0.2211063270281989,
        0.0,
        0.0,
        0.4346688381133231,
        -0.00965551974232063,
        0.0,
        0.0964828774301342,
        0.004021432821539819,
        0.0,
        -0.05425188075907921,
        0.2823667552498199,
        0.0
      ]
    ],
    [
      [
        -0.20283549652923064,
        -0.1467653217968715,
        0.34960081832610185
      ]
    ]
  ]
}