{
  "layer_sizes": [
    32,
    16,
    4
  ],
  "learning_rate": 0.3,
  "seed": 42,
  "output_activation": "softmax",
  "weights": [
    [
      [
        0.07617926993860784,
        -0.2599960265601239,
        0.21802545112562965,
        0.226080602598403,
        -0.5012941886733625,
        -0.16702254414627618,
        0.03196010079182134,
        0.0058902009384025076,
        0.007263519348730676,
        -0.21195787713670214,
        0.21369351928347521,
        0.19058973936034715,
        -0.013298437590414047,
        0.29310420524030684,
        0.1518775880694569,
        -0.22138835504719667
      ],
      [
        0.09218769602062471,
        -0.23972065020724972,
        0.22907223996828177,
        0.048975185838673815,
        0.0055554220249423095,
        -0.20780957324278884,
        0.30563533466850756,
        -0.02777711955235286,
        -0.0757480313181362,
        -0.08534266992930732,
        0.17335415377040952,
        0.10955482486901204,
        0.12804802609189195,
        0.135496923857677,
        0.519548625210182,
        -0.06994190101458461
      ],
      [
        -0.12806068226788433,
        -0.20344318206196943,
        0.16345452028533755,
        0.34369973676545984,
        0.02328414849753869,
        -0.2476163063824355,
        -0.2061203039228099,
        0.17350344792102299,
        0.21714746702350127,
        0.13847928476904886,
        -0.12610056944010123,
        0.0762341395446724,
        0.054036325478076956,
        0.08246382228795951,
        0.20199391947961381,
        0.08756074027523984
      ],
      [
        0.16972839076797372,
        0.016894767372222865,
        0.08173951431395982,
        0.2192787200448722,
        -0.3125179420526594,
        -0.1174949912311289,
        -0.11759316357319888,
        -0.14886421109598777,
        -0.03745163858403034,
        0.37642604550134906,
        -0.17618092154123846,
        0.2602633974258628,
        -0.3958525697110563,
        -0.05592958439073744,
        0.02482499126881781,
        0.17821743592138872
      ],
      [
        0.17780664494821374,
        0.1983368087999813,
        -0.07772160342064562,
        -0.05413128458090474,
        0.26626498322554576,
        -0.08540326836220728,
        -0.31892158083448047,
        -0.27246655253602237,
        -0.19852914727776214,
        0.12698090370619114,
        0.07588329139971378,
        0.19081514729493448,
        -0.0819482883912387,
        0.0674265958748848,
        0.14053432348440054,
        -0.045674781848490324
      ],
      [
        0.11419380938935286,
        -0.16548148526666281,
        -0.08130379699980417,
        -0.03397780991434525,
        -0.24718889848600273,
        0.08416593305459188,
        -0.11735058505068097,
        0.013978780646769532,
        0.1515205889491179,
        0.1143235117002361,
        0.2066231346252689,
        -0.006427562349363422,
        -0.08095970481814359,
        0.007862120379106496,
        -0.43769688349694086,
        -0.3301162650242026
      ],
      [
        -0.3306749030886006,
        -0.24931170690037044,
        0.20859128382606057,
        -0.5104858590571166,
        -0.36215824149590914,
        1.2314240787570874,
        -0.08906599276535648,
        0.5488380830129149,
        -0.30121106203257414,
        -0.055655393588722145,
        -0.4247508059502565,
        -0.17450235740120934,
        -0.030104977774979398,
        -0.48657666516810166,
        0.3384147738616096,
        -0.09602939547475113
      ],
      [
        -0.1485374889241986,
        -0.36151446359711364,
        0.09484840325083885,
        0.1600353429038245,
        0.29859083351333904,
        -0.020345507510388567,
        0.40044472283022886,
        0.07836121589754627,
        -0.09070534713720436,
        0.05932104163858835,
        0.24641701692936618,
        0.42518643429370195,
        0.3009436781729338,
        0.23684075120899475,
        0.3230103747284483,
        -0.14844216563485127
      ],
      [
        -0.15993788318743693,
        -0.23164398535138123,
        -0.37314910534829965,
        -0.1464489237373805,
        0.09099456262561813,
        -0.10474941507196195,
        -0.36770157362566447,
        -0.5762295443531439,
        0.004179462248195805,
        0.26674373713260296,
        0.42076771461510243,
        1.312331186191513,
        0.06211345758599851,
        0.06723078530848234,
        -0.5330115701828273,
        0.06692786558595895
      ],
      [
        -0.2032352738275815,
        -0.10383931504492133,
        -0.4287208543243098,
        0.16252489154760041,
        0.19870188361892802,
        -0.009931598935932467,
        -0.039658709259672076,
        -0.5812482122577115,
        -0.49286973579044224,
        -0.06436488210932527,
        -0.09186064601242447,
        1.0258480480846515,
        -0.00892027036477911,
        0.560300193072213,
        -0.12482389963478802,
        -0.29623594160425615
      ],
      [
        -0.24127919055809297,
        -0.1813065161339383,
        0.5511907070414952,
        -0.18475453333336547,
        0.22401770286118178,
        -0.16183153460881772,
        0.23289325321856102,
        0.1431506055170735,
        -0.020618801944332927,
        -0.008439160143610699,
        -0.1503104260427421,
        0.11702624353711538,
        -0.11848459451930346,
        -0.28939373228238624,
        -0.30846890070858946,
        0.05280717954002368
      ],
      [
        0.3947728141026087,
        0.03999790339335956,
        -0.010586307594766645,
        0.09204867137336671,
        0.34089583735380175,
        0.11874588525390314,
        -0.10273180770843429,
        0.3234850415055797,
        0.12572978208559304,
        0.38569046938924595,
        0.05919510712008204,
        -0.30060906476352983,
        -0.3467785242455247,
        0.4297396917172382,
        0.44193192306713963,
        -0.03521960321115635
      ],
      [
        -0.09579683028399694,
        0.36536107306055055,
        -0.267301755869408,
        -0.1622250911537195,
        0.21260271158351854,
        -0.1362284678567009,
        -0.001280466680017824,
        -0.030005473666280463,
        0.11572756142237399,
        0.3545611830211793,
        0.06292308410750884,
        0.1791785070972069,
        -0.4876781520648608,
        0.015612072623176772,
        -0.2266708425806514,
        -0.2730414120243378
      ],
      [
        -0.2195380917321877,
        -0.08353086017520302,
        0.2384353002304669,
        -0.27014151584965407,
        0.059428886059861796,
        -0.15861954547519813,
        -0.08191827359049021,
        0.2615447072909988,
        0.1658627834736222,
        0.337040244553436,
        0.0016504375695973223,
        -0.15579184413968333,
        -0.031099831027229977,
        0.08841587092351168,
        0.02828006460599417,
        -0.23943516497677242
      ],
      [
        0.022622445406968554,
        0.057057082534726286,
        0.6388281740249439,
        0.5306678164056543,
        -0.16153982472844758,
        -0.10942302752909759,
        -0.3658605004592508,
        -0.1368215025260239,
        0.11023517512022572,
        0.3041541229148085,
        -0.14199410205382978,
        -0.1453428012389567,
        -0.5119573842417687,
        -0.012874807030520656,
        -0.28146687797232417,
        -0.10069800375994917
      ],
      [
        -0.21921519454189706,
        -0.023565638563139247,
        -0.6731391413018709,
        -0.6590440713628865,
        1.1129046256324384,
        -0.28988490186243804,
        -0.2741963946136599,
        0.5579016875719387,
        0.9899800044942024,
        -0.3068677284096748,
        0.35566573537631696,
        -0.15814534592554283,
        0.6306361250042497,
        -0.222002259714192,
        -0.040621946584711514,
        0.11875433832775835
      ],
      [
        0.10869151861665466,
        -0.09403901780752481,
        -0.2671627845917233,
        -0.6360067121076343,
        0.5210494116316976,
        -0.03462612904616927,
        0.05804247240656399,
        -0.04015849921314379,
        0.381597842820386,
        0.23920288325161795,
        0.4865853064904411,
        -0.15559513156086932,
        0.21175055079731822,
        0.024733108165720916,
        -0.15969199348489596,
        0.0035435097306492393
      ],
      [
        -0.024321649603372367,
        0.5232920772326487,
        0.4027983902602746,
        0.1579183017243623,
        -0.13899328951243445,
        -0.31568005513765846,
        0.29778573827221627,
        0.07654255725163228,
        0.1513697750705434,
        -0.4334557790507981,
        0.27213647777161765,
        0.13179889333158315,
        -0.2527427979107246,
        -0.09008952875678096,
        0.050066026081696316,
        0.04477855267063017
      ],
      [
        -0.07304279645088875,
        -0.025872067016490214,
        -0.0535346799102576,
        0.09959729161085419,
        0.41964400615954645,
        -0.6792417973746279,
        -0.05921256612742106,
        0.05498335630795939,
        0.10533242164441547,
        -0.09028792763757239,
        -0.39890358823757327,
        0.10019267970651986,
        0.4567024267339411,
        -0.35567367812332806,
        0.20009372841711343,
        -0.050469452699154184
      ],
      [
        -0.015331086457211825,
        -0.26322462767598725,
        -0.07415437844750539,
        0.38646781225997656,
        0.1974348234081842,
        0.39550071421068206,
        0.2943529722444234,
        0.12062692069724171,
        0.46731755576458867,
        0.11243900737732476,
        0.24727390158133708,
        -0.05594892960568462,
        0.041501327157696104,
        -0.1465642827193629,
        0.23153270864127962,
        -0.2629140526971472
      ],
      [
        0.19558758560441533,
        -0.047662764376289864,
        0.3022714380082938,
        0.24917391076805206,
        0.5069325523229579,
        0.1451164856428577,
        -0.39301006391331017,
        -0.005883042259702541,
        -0.26166787392606333,
        -0.12687924289881855,
        0.4180839657012528,
        0.17757726150241643,
        -0.14986773395179176,
        -0.22563766850439343,
        -0.007667751788368378,
        -0.27247818426371273
      ],
      [
        -0.16778506934914528,
        0.07800236788781097,
        0.298287673668138,
        0.21364703164134705,
        -0.5210513642382671,
        0.03851449511576141,
        0.01800839330814448,
        0.11432782230802092,
        0.43538634463544246,
        -0.513118851508436,
        -0.10749899891570397,
        0.1659203894763311,
        -0.3705337266705907,
        0.3967789351190836,
        0.07622587816773105,
        0.24330784954242018
      ],
      [
        -0.14273591538044864,
        0.20344092249155263,
        0.2975305411712748,
        0.04915892853489147,
        0.045064831664770745,
        0.2261081423897349,
        -0.21583631618484542,
        0.04806867896420981,
        -0.026666824388286832,
        0.09715157084506665,
        0.2438000872953418,
        -0.2684922649914924,
        -0.061058369560612454,
        0.38165779041304193,
        -0.15089680469669559,
        -0.2121277436489672
      ],
      [
        0.050576547957798396,
        0.21109629762133003,
        0.01231617853162857,
        0.39369681119448424,
        0.26596950855288903,
        0.17287782958071196,
        0.13852912533102332,
        0.5927685260513686,
        -0.019956497993870424,
        -0.49818985532387844,
        0.4413404477613576,
        -0.09623104896121396,
        0.051834984278653164,
        0.3551793443208381,
        -0.4164281602721647,
        -0.28124995044496565
      ],
      [
        -0.4003194842797134,
        -0.19853407250635596,
        0.11936881614571217,
        0.19250362428842985,
        0.12083955774339593,
        -0.3907686581148956,
        -0.577525859158161,
        0.024443647312443244,
        -0.08661008418694334,
        0.11753716062190302,
        0.21576526393738987,
        0.052754166792662975,
        0.21489814453685827,
        0.08509451663447339,
        0.1166529013929331,
        -0.14450646263590142
      ],
      [
        -0.044902853457864635,
        0.04919402416423931,
        0.21459178349581834,
        -0.03697862947090602,
        0.1820628268442856,
        -0.10403688512064832,
        -0.02938554183203259,
        0.21823501147086596,
        -0.46693116854089833,
        -0.32142736432594016,
        -0.3302694919786328,
        -0.5652102211840837,
        -0.14470123684589936,
        0.21515014803764143,
        -0.08708429160307724,
        0.0811093735670323
      ],
      [
        0.27230437417769815,
        0.3319215330669229,
        -0.007824819040071148,
        0.39985313597758626,
        0.07480267751978478,
        -0.24692674309866902,
        -0.1486000880496838,
        -0.3592788771764063,
        -0.1906995392107724,
        -0.08681345432585721,
        0.24117311222672275,
        0.4483862665694886,
        -0.32068050565136513,
        0.125998540170686,
        -0.275999259796817,
        0.1503361251973697
      ],
      [
        -0.03277166267193165,
        -0.4577264564618826,
        0.24153391253358472,
        -0.08979351461694571,
        -0.0817040466821312,
        -0.30501528996422644,
        -0.16357081917188887,
        0.11782786113857696,
        -0.01597716101146075,
        0.08485621826337034,
        0.13075732086428335,
        0.3483592226600344,
        -0.06083166452319996,
        -0.3414227811057266,
        0.25094232913556236,
        -0.05121018994274439
      ],
      [
        0.27864811114434423,
        0.0958442782956176,
        -0.0233247179093725,
        0.14865063709681084,
        0.5395241529428326,
        0.48166794512163424,
        0.017345283783194675,
        0.050902899294116476,
        0.30039396358923703,
        -0.20872454049908667,
        0.12354445053663625,
        0.011728096789528377,
        0.10334192605728325,
        -0.18055052838164512,
        -0.41325514833467564,
        -0.4865840059162536
      ],
      [
        -0.27934602824740196,
        -0.11466882123483325,
        0.4953873718986694,
        0.9640028947332314,
        0.08813585249627946,
        -0.45878748185060575,
        0.08692711311273923,
        0.1899193026386502,
        -0.06424258318633295,
        0.019957505264727567,
        0.03788573353398549,
        -0.311129488201083,
        0.264812584869251,
        -0.45064777635101083,
        -0.11852429210505477,
        0.9234161319343828
      ],
      [
        0.05576993565631878,
        0.3583036266515432,
        0.5915653131041618,
        0.6248893779583014,
        -0.2025582885787179,
        -0.2608665980562499,
        -0.1948705991813549,
        0.3992642014656199,
        -0.20603592097275122,
        0.1400224019892393,
        0.15441470540161467,
        -0.13468201542077157,
        -0.0727124817032616,
        -0.05167182498823575,
        -0.1972773215822251,
        0.5078844816517121
      ],
      [
        -0.4578515210537809,
        -0.08390184202966156,
        -0.48824333413953547,
        -0.3123085439715643,
        0.3927365703647345,
        0.186219058351118,
        -0.1798700583211976,
        -0.36477061304537645,
        -0.7097982852377726,
        -0.13318315929040853,
        0.6453806104439234,
        0.12691487664390433,
        -0.11502819831947757,
        0.14406172548078292,
        -0.4061028632560441,
        -0.04266898759283958
      ]
    ],
    [
      [
        0.03517059787236524,
        -0.030441177383622633,
        0.2795921856254451,
        0.12185048828754223
      ],
      [
        0.236288929723784,
        -0.24337635437311497,
        0.3174256817704341,
        0.5759161808951202
      ],
      [
        -0.6127360508013492,
        -0.7338876496580387,
        0.9345428261398199,
        0.15985417931330456
      ],
      [
        0.4453252109110989,
        -0.6735242907534987,
        1.403842288073613,
        -0.27485384337205465
      ],
      [
        0.15091087479393236,
        1.1333078997356005,
        -0.30182621466989346,
        -0.798525608834646
      ],
      [
        -0.23530560116341398,
        -0.2593254065529198,
        -0.9682867726503838,
        1.1360511558650979
      ],
      [
        -0.19048442609815874,
        0.4058130579682384,
        -0.8464988487604472,
        -0.2780929967127053
      ],
      [
        -1.2926454448925246,
        -0.04836170110800994,
        0.13066798416596054,
        0.3461633375561936
      ],
      [
        -0.4192922656481459,
        0.633948051126398,
        -0.14847597743535293,
        -0.49670539273885006
      ],
      [
        0.30736784317534355,
        0.14488176290718746,
        0.21625194136828213,
        0.14859109441786686
      ],
      [
        0.30419047179540926,
        0.8574266693364989,
        0.05742058046132231,
        -0.5340938186010377
      ],
      [
        0.9850379601204078,
        -0.831110133198842,
        -0.797778891730567,
        -0.7417456569445735
      ],
      [
        -0.1709883833314335,
        0.3566317832696211,
        -0.07706015242062862,
        -0.2679575047108952
      ],
      [
        0.7140050982786944,
        0.14327249791209914,
        -0.19011967748200692,
        -0.37475767371099655
      ],
      [
        0.12127071525316273,
        -0.02827590597889362,
        -0.6011272432247432,
        0.23246473148014213
      ],
      [
        -0.09513986092559593,
        -0.43628131315453844,
        0.48348733104580227,
        -0.6247502965665613
      ]
    ]
  ],
  "biases": [
    [
      [
        0.0,
        0.0,
        0.22612980139016411,
        0.40632343868463183,
        0.3119280145813594,
        0.5383539594574974,
        0.0,
        0.5169081803087571,
        0.28988340293788906,
        0.02653196209403321,
        0.26517131865027727,
        0.11424131481161302,
        0.02995420634753875,
        0.2629039337089564,
        0.06309943066929743,
        0.1995756975030811
      ]
    ],
    [
      [
        0.023946264520514418,
        -0.21378542433529943,
        -0.14950447011259269,
        0.33934362992737793
      ]
    ]
  ]
}