{
  "layer_sizes": [
    32,
    16,
    3
  ],
  "learning_rate": 0.3,
  "seed": 42,
  "output_activation": "softmax",
  "weights": [
    [
      [
        0.07617926993860784,
        -0.2599960265601239,
        0.20808789288829832,
        0.2927444970801488,
        -0.4570624058232232,
        -0.3255448767155795,
        0.026859457685073473,
        -0.02855454066600985,
        -0.009881726051836563,
        -0.19609227270288204,
        0.2206967010398952,
        0.1932444691869697,
        0.012072493483895165,
        0.2768230347578448,
        0.11051453308693093,
        -0.21482311572080956
      ],
      [
        0.09218769602062471,
        -0.23972065020724972,
        0.24008766926350214,
        0.04512184023578207,
        -0.015519199546079537,
        -0.17023238610098534,
        0.3005346915617597,
        0.01187373690268512,
        -0.11276339221654116,
        -0.07086467843154426,
        0.13392450371252523,
        0.09015750142075221,
        0.09874797199258825,
        0.10271798376780727,
        0.5290490977415346,
        -0.1016037540961539
      ],
      [
        -0.12806068226788433,
        -0.20344318206196943,
        0.17446994958055792,
        0.3398463911625683,
        0.0022095269265168405,
        -0.210039119240632,
        -0.21122094702955777,
        0.21315430437606095,
        0.1801321061250962,
        0.15295727626681171,
        -0.16553021949798552,
        0.056836816096412564,
        0.024736271378773204,
        0.049684882198089836,
        0.211494392010967,
        0.05589888719367057
      ],
      [
        0.16972839076797372,
        0.016894767372222865,
        0.09275494360918013,
        0.21542537444198032,
        -0.3335925636236807,
        -0.07991780408932533,
        -0.12269380667994675,
        -0.10921335464094979,
        -0.07446699948243529,
        0.39090403699911214,
        -0.21561057159912275,
        0.24086607397760282,
        -0.42515262381036006,
        -0.08870852448060712,
        0.03432546380017094,
        0.14655558283981954
      ],
      [
        0.17780664494821374,
        0.1983368087999813,
        -0.06670617412542532,
        -0.05798463018379647,
        0.24519036165452407,
        -0.04782608122040372,
        -0.3240222239412283,
        -0.23281569608098457,
        -0.2355445081761672,
        0.14145889520395397,
        0.03645364134182942,
        0.17141782384667467,
        -0.11124834249054241,
        0.034647655785015156,
        0.15003479601575373,
        -0.0773366349300596
      ],
      [
        0.11419380938935286,
        -0.16548148526666281,
        -0.07028836770458385,
        -0.03783115551723694,
        -0.26826352005702403,
        0.12174312019639545,
        -0.12245122815742884,
        0.053629637101807515,
        0.11450522805071288,
        0.12880150319799902,
        0.16719348456738461,
        -0.025824885797623275,
        -0.11025975891744728,
        -0.024916819710763163,
        -0.4281964109655879,
        -0.3617781181057718
      ],
      [
        -0.3306749030886006,
        -0.24931170690037044,
        0.12041865061754323,
        -0.16876644585766998,
        -0.06384424716961187,
        0.32480707444651635,
        -0.09416663587210436,
        0.23488499953665734,
        -0.23908585667823362,
        -0.0341906802763944,
        -0.23665830640345725,
        -0.08596178364540799,
        0.20564185345794014,
        -0.4368173727822506,
        0.10224310841038386,
        0.05943390058306947
      ],
      [
        -0.1485374889241986,
        -0.36151446359711364,
        0.33768103328635224,
        0.19835547449005494,
        -0.2196423186095086,
        0.00546303638086072,
        0.3659001648492981,
        -0.29731911583634735,
        -0.25587437315546624,
        -0.03120345871827249,
        0.08330298466266624,
        0.5392078248022115,
        0.2194290992491805,
        0.08921776478737733,
        0.36582572280489045,
        -0.2971907635807127
      ],
      [
        -0.15993788318743693,
        -0.23164398535138123,
        -0.0769773568522579,
        -0.2865682189067318,
        0.18948412804383669,
        -0.055555674274693344,
        -0.3728022167324123,
        -0.20338866288199972,
        0.07269702518678446,
        0.22670035116410825,
        0.5000299302471348,
        0.7272621018315651,
        0.09916717741259025,
        -0.2523717969921294,
        -0.539374372658908,
        0.06692786558595895
      ],
      [
        -0.2032352738275815,
        -0.10383931504492133,
        -0.132549105828268,
        0.022405596378248984,
        0.2971914490371468,
        0.039262141861336156,
        -0.04475935236641995,
        -0.20840733078656723,
        -0.4243521728518536,
        -0.10440826807781958,
        -0.012598430380392043,
        0.4407789637247032,
        0.028133449461812617,
        0.240697610771601,
        -0.13118670211086847,
        -0.29623594160425615
      ],
      [
        -0.24127919055809297,
        -0.1813065161339383,
        0.8417055732719598,
        -0.4509710778248093,
        0.3912255401474183,
        -0.2257317945217566,
        0.23289325321856102,
        0.22585076997929807,
        -0.0391594744145226,
        0.2955856190371473,
        -0.013946697537653537,
        0.13960962673721147,
        -0.113745870085195,
        -0.3401781490735559,
        -0.3194843935799048,
        0.04314697943052987
      ],
      [
        0.3947728141026087,
        0.03999790339335956,
        0.2799285586356981,
        -0.17416787311807702,
        0.5081036746400384,
        0.054845625340964085,
        -0.10273180770843429,
        0.4061852059678042,
        0.10718910961540337,
        0.6897152485700039,
        0.1955588356251707,
        -0.2780256815634339,
        -0.34203979981141625,
        0.3789552749260685,
        0.43091643019582426,
        -0.04487980332065016
      ],
      [
        -0.09579683028399694,
        0.36536107306055055,
        0.032826719652296756,
        -0.46930616275766934,
        0.3424349378855932,
        -0.0986512807148974,
        -0.001280466680017824,
        0.088752303821704,
        0.08439363719973339,
        0.6576467158994352,
        0.17239645304513052,
        0.1890762746859058,
        -0.5125430252577556,
        -0.04595630861427334,
        -0.21080756757321778,
        -0.304703265105907
      ],
      [
        -0.2195380917321877,
        -0.08353086017520302,
        0.5385637757521721,
        -0.5772225874536037,
        0.18926111236193643,
        -0.12104235833339462,
        -0.08191827359049021,
        0.38030248477898304,
        0.13452885925098151,
        0.640125777431692,
        0.11112380650721904,
        -0.14589407655098444,
        -0.05596470422012488,
        0.026847489686061543,
        0.04414333961342776,
        -0.27109701805834163
      ],
      [
        0.022622445406968554,
        0.057057082534726286,
        0.6498436033201647,
        0.5268144708027628,
        -0.1826144462994694,
        -0.07184584038729402,
        -0.37096114356599863,
        -0.09717064607098592,
        0.07321981422182076,
        0.31863211441257155,
        -0.18142375211171408,
        -0.16474012468721652,
        -0.541257438341073,
        -0.04565374712039032,
        -0.2719664054409712,
        -0.13235985684151844
      ],
      [
        -0.21921519454189706,
        -0.023565638563139247,
        -0.41895700390247376,
        -0.30915799336540223,
        0.5630081693473098,
        -0.32185564531850774,
        -0.27929703772040776,
        0.5097344895002139,
        0.7205853556343373,
        -0.27572294801582226,
        -0.09121503187281957,
        0.08418537306486001,
        0.4277392301949892,
        -0.25170153659122274,
        -0.06768226396160791,
        0.194334394015436
      ],
      [
        0.10869151861665466,
        -0.09403901780752481,
        0.2861929152288747,
        -0.012995300336490002,
        -0.33735480744185103,
        -0.06659687250223878,
        0.023497914425633273,
        -0.37631201367284534,
        0.11788463063628475,
        0.17715658699760564,
        0.06716114558684144,
        0.28735003309190327,
        0.023940124665002706,
        2.1098272853545107e-05,
        -0.18038950838571186,
        0.079123565418327
      ],
      [
        -0.024321649603372367,
        0.5232920772326487,
        0.7129873819766954,
        0.42719028989513075,
        -0.46857567387187665,
        -0.2781028679958545,
        0.2632411802912855,
        -0.17179290268130687,
        0.1200358508479027,
        -0.5121688642008996,
        0.2601634340592701,
        0.31301601554569314,
        -0.26695638333308375,
        -0.11788120186248724,
        0.0659293010891299,
        0.013116699589060907
      ],
      [
        -0.07304279645088875,
        -0.025872067016490214,
        -0.5535617507903883,
        0.3431599660191484,
        0.6719751592874802,
        -0.6416646102328244,
        -0.05921256612742106,
        0.49405237937451935,
        0.03552046346537367,
        -0.2064559222048933,
        -0.6114966988398693,
        -0.15365454631316908,
        0.3911486095826725,
        -0.3834653512290344,
        0.1728643591332051,
        -0.08213130578072347
      ],
      [
        -0.015331086457211825,
        -0.26322462767598725,
        -0.5741814493276362,
        0.6300304866682707,
        0.4497659765361178,
        0.433077901352486,
        0.2943529722444234,
        0.5596959437638018,
        0.3975055975855468,
        -0.0037289871899962206,
        0.03468079097904092,
        -0.3097961556253735,
        -0.02405248999357243,
        -0.17435595582506921,
        0.2043033393573713,
        -0.2945759057787164
      ],
      [
        0.19558758560441533,
        -0.047662764376289864,
        0.3132868673035139,
        0.24532056516516018,
        0.4858579307519363,
        0.1826936727846612,
        -0.398110707020058,
        0.03376781419533543,
        -0.29868323482446835,
        -0.11240125140105553,
        0.37865431564336854,
        0.15817993805415662,
        -0.17916778805109532,
        -0.25841660859426313,
        0.0018327207429847297,
        -0.30414003734528194
      ],
      [
        -0.16778506934914528,
        0.07800236788781097,
        0.3093031029633581,
        0.20979368603845516,
        -0.5421259858092897,
        0.07609168225756495,
        0.012907750201396607,
        0.15397867876305896,
        0.39837098373703744,
        -0.4986408600106726,
        -0.14692864897358834,
        0.14652306602807127,
        -0.39983378076989445,
        0.3639999950292138,
        0.08572635069908413,
        0.211645996460851
      ],
      [
        -0.14273591538044864,
        0.20344092249155263,
        0.28759298293394364,
        0.11582282301663739,
        0.08929661451490954,
        0.06758580982043147,
        -0.2209369592915933,
        0.01362393735979742,
        -0.04381206978885407,
        0.11301717527888691,
        0.2508032690517618,
        -0.26583753516486985,
        -0.03568743848630327,
        0.3653766199305799,
        -0.1922598596792215,
        -0.20556250432258008
      ],
      [
        0.050576547957798396,
        0.21109629762133003,
        0.023331607826848916,
        0.3898434655915927,
        0.24489488698186732,
        0.21045501672251546,
        0.13342848222427545,
        0.6324193825064068,
        -0.056971858892275413,
        -0.4837118638261153,
        0.4019107977034734,
        -0.11562837240947378,
        0.022534930179349412,
        0.32240040423096833,
        -0.4069276877408118,
        -0.31291180352653486
      ],
      [
        -0.4003194842797134,
        -0.19853407250635596,
        0.13038424544093244,
        0.18865027868553796,
        0.09976493617237399,
        -0.3531914709730916,
        -0.582626502264909,
        0.06409450376748124,
        -0.1236254450853483,
        0.1320151521196659,
        0.17633561387950558,
        0.03335684334440311,
        0.1855980904375547,
        0.052315576544603705,
        0.12615337392428622,
        -0.1761683157174706
      ],
      [
        -0.044902853457864635,
        0.04919402416423931,
        0.2256072127910387,
        -0.0408319750737977,
        0.16098820527326377,
        -0.06645969797884475,
        -0.034486184938780466,
        0.25788586792590396,
        -0.5039465294393033,
        -0.3069493728281771,
        -0.36969914203651705,
        -0.5846075446323434,
        -0.17400129094520292,
        0.18237120794777173,
        -0.07758381907172415,
        0.04944752048546303
      ],
      [
        0.27230437417769815,
        0.3319215330669229,
        0.003190610255149191,
        0.39599979037469474,
        0.05372805594876291,
        -0.20934955595686552,
        -0.15370073115643168,
        -0.3196280207213685,
        -0.22771490010917747,
        -0.07233546282809415,
        0.20174346216883846,
        0.4289889431212284,
        -0.3499805597506689,
        0.09321960008081633,
        -0.26649878726546405,
        0.11867427211580049
      ],
      [
        -0.03277166267193165,
        -0.4577264564618826,
        0.25254934182880523,
        -0.09364686021983752,
        -0.10277866825315309,
        -0.2674381028224225,
        -0.16867146227863675,
        0.157478717593615,
        -0.052992521909865746,
        0.0993342097611334,
        0.09132767080639899,
        0.3289618992117742,
        -0.09013171862250367,
        -0.37420172119559636,
        0.2604428016669153,
        -0.08287204302431367
      ],
      [
        0.27864811114434423,
        0.0958442782956176,
        0.28686427380704876,
        0.41792262526757934,
        0.20994176858339023,
        0.5192451322634383,
        -0.017199274197736043,
        -0.19743256063882267,
        0.2690600393665964,
        -0.2874376256491884,
        0.1115714068242887,
        0.19294521900363829,
        0.08912834063492425,
        -0.20834220148735144,
        -0.39739187332724224,
        -0.5182458589978229
      ],
      [
        -0.27934602824740196,
        -0.11466882123483325,
        0.2463507596956946,
        0.8150364423633845,
        -0.0013130289713600913,
        -0.2405227790854068,
        0.05238255513180852,
        -0.33924976805567253,
        -0.07109095951002378,
        -0.029690955103506025,
        0.18309659291357314,
        0.1145963100210985,
        0.2766141709541254,
        -0.285484556535601,
        0.0015847655905671105,
        0.6494184316489581
      ],
      [
        0.05576993565631878,
        0.3583036266515432,
        -0.24638187426832692,
        0.38294692643593303,
        0.19610823083210785,
        -0.04260189529105111,
        -0.19997124228810279,
        0.42381397129968107,
        -0.2412914806752638,
        0.11654351052431469,
        0.17039620341549266,
        -0.04875136726006767,
        -0.10002891006143427,
        0.10850412784301061,
        -0.1089822762670055,
        0.23388678136628732
      ],
      [
        -0.4578515210537809,
        -0.08390184202966156,
        -0.29438016206227074,
        -0.46123162175065197,
        0.47891974734686277,
        0.2237962454929215,
        -0.18497070142794547,
        -0.24856821403042498,
        -0.7468136461361772,
        0.061891211589967715,
        0.6943958563992544,
        0.12410889072921964,
        -0.1443282524187811,
        0.09133371745425956,
        -0.39660239072469117,
        -0.07433084067440886
      ]
    ],
    [
      [
        0.03517059787236524,
        -0.030441177383622633,
        0.2795921856254451
      ],
      [
        0.12185048828754223,
        0.236288929723784,
        -0.24337635437311497
      ],
      [
        0.711055835623453,
        0.988144581705819,
        -1.14885820671891
      ],
      [
        -1.3573970936091915,
        0.7737480038400317,
        0.6744220468180888
      ],
      [
        0.7701935446044614,
        -0.703694650522123,
        0.7878032144303259
      ],
      [
        0.04648725634649368,
        0.09129767603465035,
        0.5532113618837944
      ],
      [
        -0.15192357486085353,
        -0.28991341948185284,
        -0.1773964891979564
      ],
      [
        0.27892153581456197,
        -1.152984488366298,
        0.7057877246973278
      ],
      [
        -0.19317487875734005,
        0.40308508003212373,
        -0.8410804181651512
      ],
      [
        0.4945740138165751,
        -1.0079644736668356,
        -0.6530752990998783
      ],
      [
        0.2831438869927417,
        0.13177808953013392,
        -0.48030753716567365
      ],
      [
        -0.2055412467895277,
        0.4628206427499712,
        -0.5982224820545426
      ],
      [
        0.21047215191942095,
        0.2213299433674604,
        0.1885262609185418
      ],
      [
        0.22074196886298003,
        0.0953120116658016,
        0.7050169606396772
      ],
      [
        -0.04878181313175823,
        -0.12547849124864335,
        -0.2315146790735045
      ],
      [
        -0.36495996716566187,
        -0.4399872200040327,
        -0.31423730364298325
      ]
    ]
  ],
  "biases": [
    [
      [
        0.0,
        0.0,
        0.5907088267189488,
        0.7510962487785195,
        0.2813413760070126,
        0.0,
        -0.08070303707197225,
        0.5113031081527944,
        -0.0664353875267718,
        0.30891033022513137,
        0.10282312575178613,
        0.12168537262010871,
        -0.04536914853503303,
        -0.07538396041319217,
        -0.07440287947904273,
        0.0
      ]
    ],
    [
      [
        -0.11425039746863902,
        -0.03967903728101269,
        0.15392943474965184
      ]
    ]
  ]
}