{
  "layer_sizes": [
    32,
    16,
    4
  ],
  "learning_rate": 0.3,
  "seed": 42,
  "output_activation": "softmax",
  "weights": [
    [
      [
        0.07617926993860784,
        -0.2612956556563309,
        0.16343843504521774,
        0.27935706892928136,
        -0.4498655557538706,
        -0.3255448767155795,
        0.03196010079182134,
        -0.13386904619221662,
        -0.004200289376072199,
        -0.20247862178717346,
        0.31049393890399424,
        0.21572410421052426,
        0.01650767439030401,
        0.33847712492957643,
        0.13268379714980671,
        -0.21482311572080956
      ],
      [
        0.09218769602062471,
        -0.24102027930345718,
        0.19543821142042156,
        0.03173441208491458,
        -0.008322349476726736,
        -0.17023238610098534,
        0.30563533466850756,
        -0.09344076862352158,
        -0.1070819555407768,
        -0.07725102751583579,
        0.22372174157662414,
        0.1126371364443068,
        0.1031831528989971,
        0.16437207393953907,
        0.5512183618044108,
        -0.1016037540961539
      ],
      [
        -0.12806068226788433,
        -0.20474281115817689,
        0.12982049173747734,
        0.3264589630117008,
        0.009406376995869633,
        -0.210039119240632,
        -0.2061203039228099,
        0.10783979884985415,
        0.18581354280086057,
        0.1465709271825203,
        -0.0757329816338865,
        0.07931645111996713,
        0.029171452285182056,
        0.11133897236982156,
        0.23366365607384282,
        0.05589888719367057
      ],
      [
        0.16972839076797372,
        0.015595138276015504,
        0.04810548576609952,
        0.20203794629111282,
        -0.3263957135543281,
        -0.07991780408932533,
        -0.11759316357319888,
        -0.21452786016715655,
        -0.06878556280667093,
        0.38451768791482044,
        -0.12581333373502385,
        0.26334570900115745,
        -0.4207174429039512,
        -0.027054434308875365,
        0.056494727863046705,
        0.14655558283981954
      ],
      [
        0.17780664494821374,
        0.19703717970377385,
        -0.1113556319685059,
        -0.071372058334664,
        0.2523872117238769,
        -0.04782608122040372,
        -0.31892158083448047,
        -0.3381302016071912,
        -0.22986307150040283,
        0.1350725461196626,
        0.12625087920592834,
        0.19389745887022924,
        -0.10681316158413356,
        0.09630174595674688,
        0.17220406007862954,
        -0.0773366349300596
      ],
      [
        0.11419380938935286,
        -0.16678111436287027,
        -0.11493782554766445,
        -0.05121858366810446,
        -0.2610666699876714,
        0.12174312019639545,
        -0.11735058505068097,
        -0.051684868424399205,
        0.12018666472647724,
        0.12241515411370762,
        0.2569907224314836,
        -0.0033452507740686934,
        -0.10582457801103844,
        0.0367372704609686,
        -0.406027146902712,
        -0.3617781181057718
      ],
      [
        -0.3306749030886006,
        -0.25061133599657787,
        0.07576919277446265,
        -0.18215387400853747,
        -0.05664739710025905,
        0.32480707444651635,
        -0.08906599276535648,
        0.1295704940104506,
        -0.23340442000246925,
        -0.040577029360685905,
        -0.14686106853935835,
        -0.0634821486218534,
        0.21007703436434888,
        -0.37516328261051896,
        0.12441237247325962,
        0.05943390058306947
      ],
      [
        -0.1485374889241986,
        -0.3628140926933207,
        -0.006141986977929155,
        -0.08815728743447286,
        0.09606229424826443,
        0.00546303638086072,
        0.40044472283022886,
        -0.1146473049745771,
        -0.25587437315546624,
        0.05560126884530064,
        0.14564361618122826,
        0.3610730141633963,
        0.20877781147864463,
        0.14588458797494566,
        0.3816321843916859,
        -0.2971907635807127
      ],
      [
        -0.15993788318743693,
        -0.23294361444758868,
        -0.1216268146953385,
        -0.2999556470575993,
        0.19668097811318952,
        -0.055555674274693344,
        -0.36770157362566447,
        -0.30870316840820644,
        0.07837846186254882,
        0.22031400207981683,
        0.5898271681112334,
        0.7497417368551195,
        0.1036023583189991,
        -0.19071770682039763,
        -0.5172051085960319,
        0.06692786558595895
      ],
      [
        -0.2032352738275815,
        -0.1051389441411287,
        -0.1771985636713486,
        0.009018168227381496,
        0.3043882991064994,
        0.039262141861336156,
        -0.039658709259672076,
        -0.31372183631277395,
        -0.41867073617608924,
        -0.11079461716211111,
        0.07719880748370689,
        0.4632585987482579,
        0.03256863036822146,
        0.30235170094333264,
        -0.10901743804799273,
        -0.29623594160425615
      ],
      [
        -0.24127919055809297,
        -0.06143560787642486,
        0.5312370798190692,
        -0.22437884962557317,
        0.17618382336806818,
        -0.2257317945217566,
        0.23289325321856102,
        0.19676247209150707,
        -0.0391594744145226,
        -0.0013753456300605016,
        -0.17759928022051116,
        0.128912672882675,
        -0.113745870085195,
        -0.34032827966412066,
        -0.2397367180567683,
        0.03833866238055493
      ],
      [
        0.3947728141026087,
        0.038698274297152176,
        -0.053833945433867166,
        0.11567242473211352,
        0.3643936768362947,
        0.054845625340964085,
        -0.10273180770843429,
        0.22176377940865116,
        0.10718910961540337,
        0.39472135810521947,
        0.13645305449376355,
        -0.2848411375768379,
        -0.34203979981141625,
        0.4693988062453806,
        0.4467228917826197,
        -0.04487980332065016
      ],
      [
        -0.09579683028399694,
        0.3640614439643435,
        -0.3009357844172684,
        -0.17946586490747887,
        0.19872494008184954,
        -0.0986512807148974,
        -0.001280466680017824,
        -0.09566912273744918,
        0.08439363719973339,
        0.36265282543465066,
        0.11329067191372344,
        0.18226081867250166,
        -0.5125430252577556,
        0.04448722270503888,
        -0.1950011059864224,
        -0.304703265105907
      ],
      [
        -0.2195380917321877,
        -0.08483048927141039,
        0.2048012716826067,
        -0.2873822896034131,
        0.045551114558192746,
        -0.12104235833339462,
        -0.08191827359049021,
        0.19588105821982996,
        0.13452885925098151,
        0.3451318869669074,
        0.052018025375811884,
        -0.15270953256438857,
        -0.05596470422012488,
        0.11729102100537372,
        0.059949801200223064,
        -0.27109701805834163
      ],
      [
        0.022622445406968554,
        0.055757453438518886,
        0.6051941454770835,
        0.5134270426518953,
        -0.17541759623011657,
        -0.07184584038729402,
        -0.3658605004592508,
        -0.2024851515971927,
        0.07890125089758512,
        0.31224576532827986,
        -0.09162651424761507,
        -0.14226048966366195,
        -0.5368222574346637,
        0.016000343051341435,
        -0.24979714137809533,
        -0.13235985684151844
      ],
      [
        -0.21921519454189706,
        -0.02486526765934661,
        -0.46360646174555425,
        -0.32254542151626975,
        0.5702050194166624,
        -0.32185564531850774,
        -0.2741963946136599,
        0.40441998397400747,
        0.7262667923101017,
        -0.28210929710011395,
        -0.0014177940087205824,
        0.1066650080884146,
        0.4321744111013981,
        -0.19004744641949095,
        -0.045512999898732136,
        0.194334394015436
      ],
      [
        0.10869151861665466,
        -0.09533864690373219,
        -0.05763010503540681,
        -0.29950806226101756,
        -0.021650194584077926,
        -0.06659687250223878,
        0.05804247240656399,
        -0.19364020281107505,
        0.11788463063628475,
        0.2639613145611786,
        0.1295017771054035,
        0.10921522245308808,
        0.013288836894466841,
        0.05668792146042191,
        -0.1645830467989165,
        0.079123565418327
      ],
      [
        -0.024321649603372367,
        0.5219924481364413,
        0.3691643617124142,
        0.14067752797060296,
        -0.15287106101410344,
        -0.2781028679958545,
        0.29778573827221627,
        0.010878908180463593,
        0.1200358508479027,
        -0.4253641366373267,
        0.3225040655778322,
        0.13488120490687794,
        -0.2776076711036195,
        -0.06121437867491891,
        0.08173576267592518,
        0.013116699589060907
      ],
      [
        -0.07304279645088875,
        -0.027171696112697572,
        -0.08716870845811785,
        0.08235651785709495,
        0.4057662346578778,
        -0.6416646102328244,
        -0.05921256612742106,
        -0.01068029276320929,
        0.07399849742177488,
        -0.08219628522410086,
        -0.3485360004313587,
        0.10327499128181462,
        0.43183755354104625,
        -0.3267985280414662,
        0.23176346501134243,
        -0.08213130578072347
      ],
      [
        -0.015331086457211825,
        -0.2645242567721943,
        -0.10778840699536567,
        0.3692270385062175,
        0.1835570519065152,
        0.433077901352486,
        0.2943529722444234,
        0.05496327162607301,
        0.435983631541948,
        0.1205306497907963,
        0.29764148938755175,
        -0.05286661803038984,
        0.016636453964801207,
        -0.11768913263750076,
        0.26320244523550873,
        -0.2945759057787164
      ],
      [
        0.19558758560441533,
        -0.04896239347249725,
        0.2686374094604334,
        0.2319331370142927,
        0.4930547808212889,
        0.1826936727846612,
        -0.39301006391331017,
        -0.07154669133087126,
        -0.293001798148704,
        -0.1187876004853471,
        0.46845155350746737,
        0.1806595730777112,
        -0.17473260714468658,
        -0.19676251842253129,
        0.0240019848058605,
        -0.30414003734528194
      ],
      [
        -0.16778506934914528,
        0.13740655604422486,
        0.2785057691193195,
        0.16074897174385244,
        -0.574051512024095,
        0.07609168225756495,
        0.01800839330814448,
        0.13133020823243546,
        0.4040524204128018,
        -0.5069942832973875,
        -0.11767314775817425,
        0.1651212032104935,
        -0.3953985998634856,
        0.37518826318433546,
        0.13842439997159717,
        0.20924183793586354
      ],
      [
        -0.14273591538044864,
        0.3018104955029529,
        0.17784605064334047,
        0.7027524127928902,
        0.18111623312758682,
        0.06758580982043147,
        -0.21583631618484542,
        -0.3767541507526849,
        -0.0381306331130897,
        0.07244244666710557,
        0.1358766670982544,
        -0.5268146552187071,
        -0.03125225757989441,
        1.0607817282322285,
        -0.06188743390594969,
        -0.20556250432258008
      ],
      [
        0.050576547957798396,
        0.3094658706327303,
        -0.08641532446375426,
        0.9767730553678452,
        0.33671450559454474,
        0.21045501672251546,
        0.13852912533102332,
        0.24204129439392488,
        -0.05129042221651105,
        -0.5242865924378968,
        0.28698419574996614,
        -0.3766054924633113,
        0.02697011108575826,
        1.0178055125326173,
        -0.27655526196754004,
        -0.31291180352653486
      ],
      [
        -0.4003194842797134,
        0.09742433633102841,
        0.03853382544248795,
        0.20998936633686702,
        0.09390307827616638,
        -0.3531914709730916,
        -0.577525859158161,
        0.10806712400738931,
        -0.11794400840958394,
        0.16773815835194095,
        0.40010972269569695,
        0.1389280930875997,
        0.19003327134396344,
        0.13463669044778448,
        0.3771152284522579,
        -0.18818910834240796
      ],
      [
        -0.044902853457864635,
        0.6285531007470668,
        0.2955991179382372,
        -0.3627951066562947,
        -0.1783205104638738,
        -0.06645969797884475,
        -0.02938554183203259,
        0.9036361511216515,
        -0.498265092763539,
        -0.32411808201869025,
        -0.7921788395041599,
        -0.5834040299620762,
        -0.16956611003879418,
        -0.19712456345605361,
        0.24891862089629854,
        0.026412186988514375
      ],
      [
        0.27230437417769815,
        -0.13989009409886918,
        -0.07950789526130227,
        -0.0829787495163329,
        0.545096876728872,
        -0.20934955595686552,
        -0.1486000880496838,
        -0.3742865958594241,
        -0.2220334634334131,
        -0.02358369898243144,
        0.6563516334143153,
        0.7927687519722662,
        -0.34554537884426,
        0.10150455669586864,
        0.17698264577473227,
        0.11867427211580049
      ],
      [
        -0.03277166267193165,
        -0.9295380836276746,
        0.16985083631235365,
        -0.5726254001108649,
        0.3885901525269559,
        -0.2674381028224225,
        -0.16357081917188887,
        0.10282014245555925,
        -0.04731108523410138,
        0.14808597360679618,
        0.5459358420518761,
        0.6927417080628121,
        -0.08569653771609483,
        -0.36591676458054406,
        0.7039242347071117,
        -0.08287204302431367
      ],
      [
        0.27864811114434423,
        0.1552484664520315,
        -0.0431066224581908,
        0.09575257719931632,
        0.4865240051570047,
        0.5192451322634383,
        0.017345283783194675,
        0.06790528521853098,
        0.2690600393665964,
        -0.20259997228803878,
        0.11337030169416598,
        0.010928910523690768,
        0.0784770528643884,
        -0.2021412003163931,
        -0.35105662653080966,
        -0.5206500175228104
      ],
      [
        -0.27934602824740196,
        -0.05526463307841928,
        -0.08362013656954508,
        0.49286639429512147,
        0.2752692076022544,
        -0.2405227790854068,
        0.08692711311273923,
        -0.0739119221983191,
        -0.07109095951002378,
        0.0551466982576435,
        0.18489548778345063,
        -0.06741999845884897,
        0.2659628831835896,
        -0.2792835553646428,
        0.04792001238699962,
        0.6470142731239706
      ],
      [
        0.05576993565631878,
        0.7236012003342509,
        0.022880044543302044,
        0.19912753056107432,
        -0.421308680227356,
        -0.04260189529105111,
        -0.1948705991813549,
        0.10812800118888292,
        -0.21288429729644198,
        0.1914524581685258,
        0.49799392480089016,
        0.12456980797060989,
        -0.07156218338892296,
        -0.22510602112181594,
        -0.5392410117610432,
        0.23388678136628732
      ],
      [
        -0.4578515210537809,
        0.2813957316530464,
        -0.49770299878099944,
        -0.3198319508281761,
        -0.06614732417570583,
        0.2237962454929215,
        -0.1798700583211976,
        -0.3750732025607296,
        -0.7411322094604128,
        -0.11081772789299016,
        0.8317759267512633,
        0.14165802402721422,
        -0.13989307151237237,
        -0.22232736357391336,
        -0.8523123361230508,
        -0.07433084067440886
      ]
    ],
    [
      [
        0.03517059787236524,
        -0.030441177383622633,
        0.2795921856254451,
        0.12185048828754223
      ],
      [
        0.23452441070451396,
        -0.9922248664132056,
        0.6542630301180155,
        0.9896918636068992
      ],
      [
        -0.38778730800374495,
        -0.353764229552146,
        0.31369377527633346,
        0.17563106727329378
      ],
      [
        1.375569860503833,
        -0.5024338021507635,
        0.22874672807391508,
        -0.20109342156782556
      ],
      [
        0.3201870890619876,
        0.7578829174501274,
        -0.30883904288046304,
        -0.5853640126066579
      ],
      [
        -0.15859139664721128,
        0.15992420193033224,
        -0.5535794288215994,
        0.22537999903685876
      ],
      [
        -0.19048442609815874,
        0.4058130579682384,
        -0.8464988487604472,
        -0.2780929967127053
      ],
      [
        -0.7095557373741687,
        -0.4760155764268998,
        -0.3049604678145611,
        0.6263559573372499
      ],
      [
        -0.08958249860185169,
        -0.05628035100757468,
        0.07190860207798161,
        -0.35657133716450595
      ],
      [
        0.047429522503737276,
        0.336700070560695,
        0.3665112244228013,
        0.06645182438144642
      ],
      [
        0.0719329892029887,
        0.731704426319221,
        0.9960706914179807,
        -1.114764203947998
      ],
      [
        -0.9971772990983752,
        0.49720408011236433,
        -0.10211390360373447,
        -0.7835095991638288
      ],
      [
        -0.02498928858151643,
        0.11819117613918109,
        0.018081448203036535,
        -0.2706575929540375
      ],
      [
        1.328253160529511,
        -0.06466624569365113,
        -0.551467792152864,
        -0.41971887768520577
      ],
      [
        -0.02385965976148884,
        0.6641873293456059,
        -1.160918685350134,
        0.24492331329568467
      ],
      [
        0.09261138510326615,
        -0.31812780852283734,
        0.06707500217002203,
        -0.514242718351344
      ]
    ]
  ],
  "biases": [
    [
      [
        0.0,
        0.6582505895196477,
        -0.16552430248448066,
        0.1879094820003444,
        0.06575110542407178,
        0.0,
        0.0,
        0.19508164087521604,
        0.0,
        0.12068607671014596,
        0.5249431371549431,
        0.2381418787496715,
        0.0,
        0.18777524617774996,
        0.5486917084410667,
        -0.026750437232693654
      ]
    ],
    [
      [
        -0.3384380828396248,
        -0.44436462012045136,
        0.15409662049892442,
        0.6287060824611521
      ]
    ]
  ]
}