{
  "layer_sizes": [
    32,
    16,
    4
  ],
  "learning_rate": 0.3,
  "seed": 42,
  "output_activation": "softmax",
  "weights": [
    [
      [
        0.09601989623021712,
        -0.26580502481151225,
        0.20060887141915282,
        0.27185678886866665,
        -0.3937180862810538,
        -0.3255448767155795,
        0.03196010079182134,
        -0.11195971433017726,
        -0.004200289376072199,
        -0.19723779386294887,
        0.3191529765225799,
        0.20550395204186353,
        0.01650767439030401,
        0.3296944295321087,
        0.11615962970241038,
        -0.21482311572080956
      ],
      [
        0.11202832231223399,
        -0.24552964845863773,
        0.23260864779435664,
        0.02423413202429991,
        0.04782511999608993,
        -0.17023238610098534,
        0.30563533466850756,
        -0.07153143676148227,
        -0.1070819555407768,
        -0.07201019959161117,
        0.23238077919521,
        0.10241698427564606,
        0.1031831528989971,
        0.15558937854207106,
        0.5346941943570143,
        -0.1016037540961539
      ],
      [
        -0.14107198832936416,
        -0.20344318206196943,
        0.11280890808060234,
        0.12316792883573224,
        -0.2109462661374273,
        -0.210039119240632,
        -0.2061203039228099,
        0.5110957811889302,
        0.17817754437616903,
        0.12526392644781212,
        -0.16637742682217357,
        0.05804033076667994,
        -0.00825291885144747,
        -0.012639404648310008,
        0.41261697971545847,
        0.05589888719367057
      ],
      [
        0.11065122055807892,
        0.04194165917105247,
        -0.21472909302075965,
        0.5052121304224709,
        -0.3989074989286751,
        -0.07991780408932533,
        -0.11759316357319888,
        -0.3738778645959595,
        -0.06878556280667093,
        0.35470686131902746,
        -0.3895119551847787,
        0.522056769781613,
        -0.4207174429039512,
        0.2865073135258931,
        0.4028450228915928,
        0.14655558283981954
      ],
      [
        0.11872947473831895,
        0.22338370059881096,
        -0.37419021075536524,
        0.23180212579669418,
        0.17987542634952988,
        -0.04782608122040372,
        -0.31892158083448047,
        -0.49748020603599424,
        -0.22986307150040283,
        0.10526171952386976,
        -0.13744774224382666,
        0.4526085196506849,
        -0.10681316158413356,
        0.4098634937915155,
        0.5185543551071754,
        -0.0773366349300596
      ],
      [
        0.1340344356809622,
        -0.17129048351805082,
        -0.07776738917372945,
        -0.058718863728719144,
        -0.20491920051485482,
        0.12174312019639545,
        -0.11735058505068097,
        -0.029775536562359848,
        0.12018666472647724,
        0.1276559820379323,
        0.2656497600500693,
        -0.013565402942729392,
        -0.10582457801103844,
        0.027954575063500662,
        -0.4225513143501085,
        -0.3617781181057718
      ],
      [
        -0.3108342767969912,
        -0.2551207051517588,
        0.11293962914839764,
        -0.18965415406915204,
        -0.0004999276274423462,
        0.32480707444651635,
        -0.08906599276535648,
        0.15147982587248993,
        -0.23340442000246925,
        -0.035336201436461316,
        -0.1382020309207725,
        -0.07370230079051414,
        0.21007703436434888,
        -0.3839459780079867,
        0.10788820502586331,
        0.05943390058306947
      ],
      [
        -0.12869686263258923,
        -0.367323461848502,
        0.031028449396005863,
        -0.09565756749508748,
        0.15220976372108103,
        0.00546303638086072,
        0.40044472283022886,
        -0.09273797311253776,
        -0.25587437315546624,
        0.06084209676952523,
        0.1543026537998141,
        0.3508528619947359,
        0.20877781147864463,
        0.13710189257747776,
        0.3651080169442894,
        -0.2971907635807127
      ],
      [
        -0.14009725689582755,
        -0.23745298360276923,
        -0.0844563783214035,
        -0.307455927118214,
        0.25282844758600614,
        -0.055555674274693344,
        -0.36770157362566447,
        -0.28679383654616697,
        0.07837846186254882,
        0.22555483000404142,
        0.5984862057298195,
        0.7395215846864586,
        0.1036023583189991,
        -0.19950040221786566,
        -0.5337292760434283,
        0.06692786558595895
      ],
      [
        -0.18339464753597212,
        -0.10964831329630943,
        -0.1400281272974135,
        0.0015178881667668193,
        0.3605357685793162,
        0.039262141861336156,
        -0.039658709259672076,
        -0.2918125044507345,
        -0.41867073617608924,
        -0.1055537892378865,
        0.0858578451022927,
        0.4530384465795975,
        0.03256863036822146,
        0.29356900554586485,
        -0.12554160549538912,
        -0.29623594160425615
      ],
      [
        -0.2214385642664836,
        -0.1871155143853263,
        0.5451135055763296,
        -0.16863106003523337,
        0.30366301181649147,
        -0.2257317945217566,
        0.23289325321856102,
        0.06333867528218409,
        -0.0391594744145226,
        0.005832556496587677,
        -0.06439344105047476,
        0.12257401855514662,
        -0.113745870085195,
        -0.25851731315171156,
        -0.32020209944050587,
        0.04314697943052987
      ],
      [
        0.4146134403942181,
        0.03418890514197147,
        -0.016663509059932156,
        0.10817214467149884,
        0.4205411463091115,
        0.054845625340964085,
        -0.10273180770843429,
        0.24367311127069047,
        0.10718910961540337,
        0.39996218602944406,
        0.14511209211234935,
        -0.2950612897454983,
        -0.34203979981141625,
        0.4606161108479129,
        0.4301987243352232,
        -0.04487980332065016
      ],
      [
        -0.09836139607108912,
        0.25107751839567727,
        -0.48791825313488096,
        -0.6371789980349815,
        0.7189855773520186,
        -0.0986512807148974,
        -0.001280466680017824,
        -0.0008232317060021336,
        0.08288855998321706,
        0.45792125799958183,
        0.7234895400524901,
        0.12628793136331082,
        -0.5199194762740439,
        0.0015597510166604728,
        -0.2846185597229606,
        -0.304703265105907
      ],
      [
        -0.2325493977936675,
        -0.08353086017520302,
        0.18778968802573165,
        -0.4906733237793816,
        -0.17480152857510417,
        -0.12104235833339462,
        -0.08191827359049021,
        0.599137040558906,
        0.12689286082628998,
        0.3238248862321993,
        -0.03862641981247512,
        -0.17398565291767576,
        -0.09338907535675442,
        -0.006687356012757852,
        0.23890312484183876,
        -0.27109701805834163
      ],
      [
        0.20603631587200025,
        0.14056071559766653,
        1.2553500682583503,
        0.836609505004894,
        -0.342922781971065,
        -0.07184584038729402,
        -0.3658605004592508,
        -0.1033599165260471,
        0.07890125089758512,
        0.2837624096369558,
        -0.27583527918173156,
        -0.33023009938733416,
        -0.5368222574346637,
        -0.14507060784032272,
        -0.48994822860199716,
        -0.13235985684151844
      ],
      [
        -0.20469164230345624,
        -0.02831487526977651,
        -0.43418009102877286,
        -0.3574968969228054,
        0.5853924999375251,
        -0.32185564531850774,
        -0.2741963946136599,
        0.4777898408507525,
        0.7252705971219604,
        -0.2811646995898651,
        -0.010875135115744306,
        0.09442786617126224,
        0.42729201375503767,
        -0.2163473478101717,
        -0.03649779919978303,
        0.194334394015436
      ],
      [
        0.12853214490826398,
        -0.0998480160589129,
        -0.0204596686614718,
        -0.30700834232163227,
        0.03449727488873876,
        -0.06659687250223878,
        0.05804247240656399,
        -0.17173087094903572,
        0.11788463063628475,
        0.26920214248540325,
        0.1381608147239893,
        0.09899507028442735,
        0.013288836894466841,
        0.04790522606295394,
        -0.18110721424631285,
        0.079123565418327
      ],
      [
        -0.004481023311763043,
        0.5174830789812606,
        0.40633479808634904,
        0.1331772479099884,
        -0.0967235915412868,
        -0.2781028679958545,
        0.29778573827221627,
        0.03278824004250291,
        0.1200358508479027,
        -0.42012330871310205,
        0.33116310319641795,
        0.12466105273821722,
        -0.2776076711036195,
        -0.06999707407238678,
        0.0652115952285288,
        0.013116699589060907
      ],
      [
        -0.09581258205847855,
        -0.025872067016490214,
        -0.13506975278744665,
        -0.24024087457724158,
        0.04856904023179931,
        -0.6416646102328244,
        -0.05921256612742106,
        0.653911377750433,
        0.060635500178564665,
        -0.11139676643017413,
        -0.43918044561964564,
        0.08199887092852741,
        0.36634490405194464,
        -0.50126057043252,
        0.5567866275742664,
        -0.08213130578072347
      ],
      [
        0.004509539834397505,
        -0.2690336259273756,
        -0.07061797062143067,
        0.3617267584456028,
        0.23970452137933182,
        0.433077901352486,
        0.2943529722444234,
        0.07687260348811234,
        0.435983631541948,
        0.12577147771502095,
        0.30630052700613747,
        -0.06308677019905061,
        0.016636453964801207,
        -0.12647182803496884,
        0.24667827778811227,
        -0.2945759057787164
      ],
      [
        0.2154282118960247,
        -0.05347176262767796,
        0.30580784583436826,
        0.22443285695367812,
        0.5492022502941054,
        0.1826936727846612,
        -0.39301006391331017,
        -0.049637359468831924,
        -0.293001798148704,
        -0.11354677256112249,
        0.4771105911260532,
        0.17043942090905045,
        -0.17473260714468658,
        -0.20554521381999935,
        0.007477817358464155,
        -0.30414003734528194
      ],
      [
        -0.22686223955904006,
        0.10304925968664067,
        0.0018190663334183665,
        0.4995804420189458,
        -0.6074409211142834,
        0.07609168225756495,
        0.01800839330814448,
        -0.1106858311919508,
        0.4040524204128018,
        -0.5348380356907574,
        -0.3208300325592443,
        0.4277137618320815,
        -0.3953985998634856,
        0.7392158330357139,
        0.45424590979050605,
        0.211645996460851
      ],
      [
        -0.10305466279723,
        0.19182292598877645,
        0.2931100339323366,
        0.1316507245760184,
        0.2466816449394841,
        0.06758580982043147,
        -0.21583631618484542,
        -0.10268030254865165,
        -0.0381306331130897,
        0.1278948421492662,
        0.4485630273413193,
        -0.24252208412534942,
        -0.03125225757989441,
        0.46613214249494406,
        -0.18733246892434322,
        -0.20556250432258008
      ],
      [
        0.07041717424940769,
        0.20528729936994203,
        0.01585258635770332,
        0.3689557573801105,
        0.30823920652403697,
        0.21045501672251546,
        0.13852912533102332,
        0.5490142088422392,
        -0.05129042221651105,
        -0.4848573849861825,
        0.500367073186158,
        -0.10336888955457993,
        0.02697011108575826,
        0.3752717990052322,
        -0.4012825911253324,
        -0.31291180352653486
      ],
      [
        -0.38047885798810405,
        -0.20434307075774397,
        0.12290522397178688,
        0.1677625704740559,
        0.1631092557145435,
        -0.3531914709730916,
        -0.577525859158161,
        -0.019310669896686145,
        -0.11794400840958394,
        0.1308696309595991,
        0.2747918893621903,
        0.045616326199297,
        0.19003327134396344,
        0.10518697131886756,
        0.13179847053976568,
        -0.1761683157174706
      ],
      [
        0.08431535400900175,
        0.11502924760429509,
        0.6499559587854461,
        0.0031007813523151193,
        -0.18767536382283212,
        -0.06645969797884475,
        -0.02938554183203259,
        0.6543997803806847,
        -0.5072955560626369,
        -0.3505203715921145,
        -0.4443135337398636,
        -0.7148270916440757,
        -0.21382481613652426,
        0.02544125816759544,
        -0.01777061873432161,
        0.04944752048546303
      ],
      [
        0.45571824464273003,
        0.415425166129863,
        0.6086970751933355,
        0.7057948245768256,
        -0.10658027972283275,
        -0.20934955595686552,
        -0.1486000880496838,
        -0.32581729117642966,
        -0.2220334634334131,
        -0.10720516760370984,
        0.10733193509882115,
        0.26349896842111076,
        -0.34554537884426,
        -0.006197260639116043,
        -0.48448061042649004,
        0.11867427211580049
      ],
      [
        -0.01824811043349085,
        -0.46247569316851983,
        0.23732625470250612,
        -0.14198576377724068,
        -0.08039433766293773,
        -0.2674381028224225,
        -0.16357081917188887,
        0.1255340689441535,
        -0.04830728042224272,
        0.09389245818709054,
        0.17166756756347432,
        0.3392043923181767,
        -0.09057893506245521,
        -0.33884753241454535,
        0.29162726642874,
        -0.08287204302431367
      ],
      [
        0.2914742035656158,
        0.09109504158898037,
        -0.0329055097433213,
        0.07570538557385854,
        0.5170301407039704,
        0.5192451322634383,
        0.017345283783194675,
        0.1040677082447251,
        0.2670676489903137,
        -0.20106134909736634,
        0.1644546972358272,
        0.0025732664476707185,
        0.06871225817166762,
        -0.1867567699819619,
        -0.3471617771868481,
        -0.5182458589978229
      ],
      [
        -0.2595054019557926,
        -0.12047781948622134,
        -0.06030182419465192,
        0.5210234003782425,
        0.3705390533592298,
        -0.2405227790854068,
        0.08692711311273923,
        -0.13466862533186294,
        -0.07109095951002378,
        0.06235460038429169,
        0.25409626205072117,
        -0.07375865278637736,
        0.2659628831835896,
        -0.23760042874550058,
        0.0008670597299660749,
        0.6494184316489581
      ],
      [
        0.07561056194792808,
        0.35249462840015483,
        0.03587611701084054,
        0.18190988360331234,
        0.0798449122842322,
        -0.04260189529105111,
        -0.1948705991813549,
        0.07467627349510661,
        -0.21288429729644198,
        0.18241949710880342,
        0.3706252339183503,
        0.10268881999393396,
        -0.07156218338892296,
        0.1613755226172744,
        -0.07788596974720423,
        0.23388678136628732
      ],
      [
        -0.43801089476217153,
        -0.08971084028104966,
        -0.484706926313461,
        -0.33704959778593807,
        0.43500626833588263,
        0.2237962454929215,
        -0.1798700583211976,
        -0.4085249302545058,
        -0.7411322094604128,
        -0.11985068895271248,
        0.7044072358687234,
        0.11977703605053833,
        -0.13989307151237237,
        0.1641541801651769,
        -0.39095729410921176,
        -0.07433084067440886
      ]
    ],
    [
      [
        -0.012173981669785961,
        -0.10200975521651419,
        0.50072600487991,
        0.019629826408119944
      ],
      [
        0.22037161525998533,
        -0.294390775399057,
        0.459316666867291,
        0.5009569312880038
      ],
      [
        -0.7454725407804085,
        -0.7001689602960157,
        1.272755812935218,
        -0.07934100686505544
      ],
      [
        0.830868232912436,
        -0.6002106466122377,
        1.1290287404757167,
        -0.45889696191675666
      ],
      [
        -0.28838117691220344,
        1.1236432514631172,
        -0.27259150267236104,
        -0.37880362085355973
      ],
      [
        -0.15859139664721128,
        0.15992420193033224,
        -0.5535794288215994,
        0.22537999903685876
      ],
      [
        -0.19048442609815874,
        0.4058130579682384,
        -0.8464988487604472,
        -0.2780929967127053
      ],
      [
        -1.1173703688997167,
        -0.44339933960323524,
        -0.23192853340727518,
        0.9285224176318467
      ],
      [
        -0.08981791358426323,
        -0.056593340913665816,
        0.07163313078528188,
        -0.35574746098330357
      ],
      [
        0.14081431815016007,
        0.47386298993710796,
        0.07068623209085309,
        0.13172910169055901
      ],
      [
        -0.13469210155366526,
        1.462954862326744,
        -0.013959101129771636,
        -0.6293597566511152
      ],
      [
        0.35682115163953443,
        -0.31323463218249187,
        -0.7698518027112258,
        -0.6593314384993912
      ],
      [
        -0.03561586038449623,
        0.10482006647777224,
        0.00543065435615529,
        -0.23400911764276766
      ],
      [
        0.866465424481269,
        0.12739541848310165,
        -0.08425115341164961,
        -0.6172094445549308
      ],
      [
        0.6549702724345994,
        -0.38589877602348843,
        -1.094132392736247,
        0.5493931938548046
      ],
      [
        0.09264364981575933,
        -0.3180901422618369,
        0.0671197752194088,
        -0.5143574223742244
      ]
    ]
  ],
  "biases": [
    [
      [
        0.1840821720065029,
        0.03679015491525602,
        0.1883416021003131,
        0.37382746650294657,
        0.06905601132411654,
        0.0,
        0.0,
        0.5276902414511275,
        -0.019620285246323883,
        0.05724528710157051,
        0.48992075781861855,
        0.1834869439333218,
        -0.09615989894531993,
        0.38091679702395814,
        0.6272561698271093,
        0.0
      ]
    ],
    [
      [
        -0.03378811565612512,
        -0.2207369038179714,
        -0.1211372192342376,
        0.37566223870833415
      ]
    ]
  ]
}