{
  "layer_sizes": [
    32,
    16,
    4
  ],
  "learning_rate": 0.3,
  "seed": 42,
  "output_activation": "softmax",
  "weights": [
    [
      [
        0.07346747178449599,
        -0.29627406668160405,
        0.2872303338125913,
        0.28601040586995813,
        -0.38297525226594886,
        -0.28328880452519967,
        0.03196010079182134,
        -0.09974497997774173,
        0.03322010388623976,
        -0.24863995406027475,
        0.3080341384784168,
        0.20289638386354641,
        0.01650767439030401,
        0.3444707028382512,
        0.14323494247443963,
        -0.0648262721497964
      ],
      [
        0.09083179694356876,
        -0.25785967026798995,
        0.2694213427573066,
        0.012953135639514099,
        0.006176181562440012,
        -0.14910435000579542,
        0.30563533466850756,
        -0.04897453646312363,
        -0.08837175890962076,
        -0.10572287370549727,
        0.1771696187696921,
        0.09558521609417425,
        0.1031831528989971,
        0.1390354513000922,
        0.5485907036733292,
        -0.026605332310647316
      ],
      [
        -0.12941658134494033,
        -0.2215822021227095,
        0.20380362307436242,
        0.3076776865663001,
        0.023904908035036386,
        -0.18891108314544208,
        -0.2061203039228099,
        0.1523060310102522,
        0.20452373943201654,
        0.11809908099285889,
        -0.12228510444081866,
        0.06226453076983456,
        0.029171452285182056,
        0.0860023497303749,
        0.2310359979427616,
        0.13089730897917715
      ],
      [
        0.16837249169091772,
        -0.001244252688517241,
        0.12208861710298455,
        0.18325666984571243,
        -0.3118971825151616,
        -0.058789767994135364,
        -0.11759316357319888,
        -0.17006162800675856,
        -0.050075366175514946,
        0.356045841725159,
        -0.1723654565419559,
        0.24629378865102486,
        -0.4207174429039512,
        -0.05239105694832208,
        0.05386706973196551,
        0.2215540046253261
      ],
      [
        0.169309533282368,
        0.3403046110328875,
        -0.2545481197498887,
        -0.11558794816614179,
        0.3292859811288174,
        -0.13596769437052353,
        -0.31892158083448047,
        -0.34375409480701186,
        -0.1120438749517412,
        0.2213346901008215,
        -0.08550461372039117,
        0.2611055366137699,
        -0.10681316158413356,
        0.34152113341062046,
        0.1586905816216297,
        -0.05858276348164055
      ],
      [
        0.10569669772350712,
        -0.023513683033756626,
        -0.2581303133290473,
        -0.09543447349958227,
        -0.18416790058273086,
        0.033601507046275673,
        -0.11735058505068097,
        -0.05730876162421985,
        0.2380058612751389,
        0.20867729809486654,
        0.04523522950516405,
        0.063862826969472,
        -0.10582457801103844,
        0.28195665791484215,
        -0.4195406253597121,
        -0.34302424665735265
      ],
      [
        -0.3320308021656564,
        -0.26745072696111055,
        0.1497523241113476,
        -0.20093515045393787,
        -0.042148866061092284,
        0.3459351105417062,
        -0.08906599276535648,
        0.17403672617084856,
        -0.21469422337131328,
        -0.0690488755503474,
        -0.1934131913462904,
        -0.08053406897198595,
        0.21007703436434888,
        -0.40049990524996554,
        0.12178471434217844,
        0.13443232236857602
      ],
      [
        -0.1498933880012546,
        -0.37965348365785373,
        0.06784114435895588,
        -0.10693856387987329,
        0.11056082528743119,
        0.02659107247605068,
        0.40044472283022886,
        -0.07018107281417917,
        -0.23716417652431035,
        0.02712942265563912,
        0.09909149337429612,
        0.34402109381326373,
        0.20877781147864463,
        0.12054796533549898,
        0.3790045262606048,
        -0.2221923417952062
      ],
      [
        -0.16129378226449292,
        -0.24978300541212128,
        -0.04764368335845348,
        -0.318736923503,
        0.21117950915235623,
        -0.03442763817950335,
        -0.36770157362566447,
        -0.26423693624780853,
        0.09708865849370488,
        0.1918421558901554,
        0.5432750453043017,
        0.7326898165049869,
        0.1036023583189991,
        -0.21605432945984454,
        -0.5198327667271134,
        0.14192628737146554
      ],
      [
        -0.2045911729046375,
        -0.12197833510566143,
        -0.10321543233446345,
        -0.009763108218018977,
        0.31888683014566593,
        0.060390177956526146,
        -0.039658709259672076,
        -0.26925560415237604,
        -0.39996053954493327,
        -0.13926646335177265,
        0.030646684676774713,
        0.44620667839812533,
        0.03256863036822146,
        0.27701507830388605,
        -0.11164509617907392,
        -0.22123751981874962
      ],
      [
        -0.24263508963514896,
        -0.19944553619467836,
        0.5819262005392797,
        -0.1799120564200192,
        0.2620140733828412,
        -0.20460375842656667,
        0.23289325321856102,
        0.0858955755805427,
        -0.020449277783366603,
        -0.027880117617298417,
        -0.1196046014759927,
        0.1157422503736748,
        -0.113745870085195,
        -0.2750712403936904,
        -0.30630559012419045,
        0.11814540121603642
      ],
      [
        0.3862757024367632,
        0.1819657056262658,
        -0.19702643321524993,
        0.07145653490063572,
        0.4412924462412351,
        -0.033295987809155714,
        -0.10273180770843429,
        0.21613988620883048,
        0.22500830616406503,
        0.4809835020863784,
        -0.07530243843255598,
        -0.21763305983329712,
        -0.34203979981141625,
        0.7146181936992545,
        0.43320941332561963,
        -0.026125931872231112
      ],
      [
        -0.10429394194984268,
        0.5073288752934565,
        -0.4441282721986513,
        -0.2236817547389566,
        0.2756237094867901,
        -0.18679289386501718,
        -0.001280466680017824,
        -0.10129301593726986,
        0.20221283374839505,
        0.4489149694158096,
        -0.0984648210125961,
        0.2494688964160424,
        -0.5125430252577556,
        0.2897066101589124,
        -0.2085145844434223,
        -0.28594939365748784
      ],
      [
        -0.2195380917321877,
        0.2735786101371648,
        0.3588235048086528,
        -0.4782689400663999,
        -0.12776617313338298,
        -0.005115939266076902,
        -0.08191827359049021,
        0.2618998582765227,
        0.0009881046219562387,
        0.6419757974244128,
        -0.10161324620756226,
        -0.17398565291767576,
        -0.05596470422012488,
        -0.11554704949385991,
        0.09645599567197474,
        -0.4418029637151694
      ],
      [
        0.022622445406968554,
        0.5927212880032775,
        0.8241403132129549,
        0.24920501187315408,
        -0.41644690706268594,
        0.10204378821368254,
        -0.3658605004592508,
        -0.13086115056531417,
        -0.12140988104595281,
        0.762902811067648,
        -0.27675119902853285,
        -0.16353661001694914,
        -0.5368222574346637,
        -0.3049233511037248,
        -0.18713461887707017,
        -0.38841877532676033
      ],
      [
        -0.2277123062077428,
        0.11840216366976693,
        -0.6067989495269372,
        -0.36676131134774764,
        0.6471037888216035,
        -0.4099972584686275,
        -0.2741963946136599,
        0.3987960907741868,
        0.8440859888587633,
        -0.19584715311895498,
        -0.2131732869350402,
        0.17387308583195524,
        0.4321744111013981,
        0.0551719410343825,
        -0.05902647835573196,
        0.21308826546385504
      ],
      [
        0.10019440695080892,
        0.04792878442538138,
        -0.20082259281678957,
        -0.34372395209249546,
        0.05524857482086263,
        -0.1547384856523585,
        0.05804247240656399,
        -0.19926409601089573,
        0.23570382718494642,
        0.35022345854233755,
        -0.082253715820916,
        0.17642330019662875,
        0.013288836894466841,
        0.30190730891429546,
        -0.17809652525591635,
        0.09787743686674603
      ],
      [
        -0.02543018594450672,
        0.6016395078036323,
        0.46794065913346816,
        0.07898665747133365,
        -0.18326553812765337,
        -0.23058170676623171,
        0.29778573827221627,
        0.060156934349934466,
        0.10048910977484106,
        -0.37034273589432043,
        0.25147341360645153,
        0.11705864484797802,
        -0.2776076711036195,
        -0.13823344259478038,
        0.09035329350310153,
        0.02989210165396773
      ],
      [
        -0.07415133279202311,
        0.00588672953716097,
        -0.005332412240933519,
        0.03980036921812278,
        0.3930392288770233,
        -0.6092672526540628,
        -0.05921256612742106,
        0.03713522020772833,
        0.07187353275348932,
        -0.06730792189641241,
        -0.41134936765734426,
        0.0854524312229147,
        0.43183755354104625,
        -0.3808342256613499,
        0.2335562673163251,
        -0.043085542697857304
      ],
      [
        -0.015331086457211825,
        -0.5283572219202507,
        -0.17345974864583869,
        0.07537945918167704,
        0.5187777094686671,
        0.7477115257927341,
        0.2943529722444234,
        0.10539195519218102,
        0.43541698922472927,
        0.04753518720812621,
        0.7672154870946709,
        -0.06769149268450143,
        0.016636453964801207,
        -0.22416456852000807,
        0.4013243547726358,
        -0.3748765183756621
      ],
      [
        0.19558758560441533,
        -0.31279535862055335,
        0.20296606780996027,
        -0.06191444231024752,
        0.8282754383834406,
        0.49732729722490904,
        -0.39301006391331017,
        -0.021118007764763247,
        -0.29356844046592273,
        -0.19178306306801718,
        0.9380255512145866,
        0.16583469842359974,
        -0.17473260714468658,
        -0.3032379543050386,
        0.16212389434298766,
        -0.38444064994222765
      ],
      [
        -0.1688936056902796,
        0.10976116444146215,
        0.3464899413374621,
        0.15385010924861553,
        -0.547656141520791,
        0.1084890398363266,
        0.01800839330814448,
        0.09647968620778985,
        0.40192745574451616,
        -0.4901388457672755,
        -0.11994477833547494,
        0.15118014099272586,
        -0.3953985998634856,
        0.37161838758106175,
        0.10968841706694267,
        0.25069175954371725
      ],
      [
        -0.14409181445750463,
        0.18530190243081257,
        0.316926656427748,
        0.08365411842036945,
        0.11099199562342918,
        0.08871384591562145,
        -0.21583631618484542,
        -0.04722433600601132,
        -0.019420436481933707,
        0.0781589800049339,
        0.2940483841089287,
        -0.26040982049144773,
        -0.03125225757989441,
        0.40169408746286495,
        -0.1727182537474269,
        -0.13056408253707352
      ],
      [
        0.04207943629195266,
        0.35306409985423615,
        -0.16451033779761445,
        0.3322401476092473,
        0.3289905064561606,
        0.12231340357239569,
        0.13852912533102332,
        0.5214809837803797,
        0.06652877433215063,
        -0.40383606892924806,
        0.2799525426412528,
        -0.02594065964237854,
        0.02697011108575826,
        0.6292738818565737,
        -0.39827190213493596,
        -0.2941579320781157
      ],
      [
        -0.4014280206208476,
        -0.16677527595270475,
        0.1675710838150362,
        0.1327067018956983,
        0.09423478046087247,
        -0.32079411339433,
        -0.577525859158161,
        0.0065955112122121524,
        -0.1200689730778695,
        0.14051716636306294,
        0.20331948451761903,
        0.03801391830905777,
        0.19003327134396344,
        0.059933969096451774,
        0.1501154402921447,
        -0.13712255263460443
      ],
      [
        -0.044902853457864635,
        0.05868569582818337,
        0.7744849127558242,
        0.3105893437264614,
        -0.029286753205237485,
        -0.16054710407471465,
        -0.02938554183203259,
        0.20737976050601825,
        -0.498265092763539,
        -0.46980547660572297,
        -0.5333371710940905,
        -0.6518673714216684,
        -0.16956611003879418,
        0.1316201304561023,
        -0.1448538017734216,
        0.5809923429494195
      ],
      [
        0.27230437417769815,
        0.34141320473086695,
        0.5520683102199344,
        0.7474211091749539,
        -0.13654690252973825,
        -0.30343696205273546,
        -0.1486000880496838,
        -0.37013412814125407,
        -0.2220334634334131,
        -0.23519156660564006,
        0.03810543311126521,
        0.361729116331904,
        -0.34554537884426,
        0.04246852258914683,
        -0.3337687699671616,
        0.6502190945797567
      ],
      [
        -0.034127561748987574,
        -0.4758654765226227,
        0.28188301532260956,
        -0.12581556481610542,
        -0.08108328714463348,
        -0.24631006672723255,
        -0.16357081917188887,
        0.0966304442278062,
        -0.028600888602945393,
        0.06447601448718039,
        0.13457278586356575,
        0.33438961388519634,
        -0.08569653771609483,
        -0.3378842536633113,
        0.2799844075987101,
        -0.007873621238807102
      ],
      [
        0.27729221206728843,
        0.0777052582348775,
        0.01702438487965226,
        0.11262858689765111,
        0.54014491248033,
        0.5403731683586287,
        0.017345283783194675,
        0.029705482383345735,
        0.28777023599775237,
        -0.22910474427527666,
        0.1273599155359186,
        -0.0022415119853094823,
        0.0784770528643884,
        -0.17701200093922995,
        -0.38421306987152787,
        -0.4432474372123163
      ],
      [
        -0.28070192732445776,
        -0.13280784129557335,
        -0.023489129231701957,
        0.5097424039934567,
        0.32889011492557957,
        -0.21939474299021688,
        0.08692711311273923,
        -0.11211172503350436,
        -0.052380762878867775,
        0.028641926270405585,
        0.19888510162520323,
        -0.08059042096784917,
        0.2659628831835896,
        -0.2541543559874794,
        0.014763569046281226,
        0.7244168534344648
      ],
      [
        0.05466139931518445,
        0.2566583847009222,
        0.33076866760035073,
        0.2300318672361659,
        0.12240203155934891,
        0.10488562824007676,
        -0.1948705991813549,
        0.09829693786723624,
        -0.21530495943265004,
        0.08357592852401594,
        0.5065470488294275,
        0.06272592800336853,
        -0.07156218338892296,
        0.06104373959443934,
        -0.01766743223656823,
        0.5084104927381843
      ],
      [
        -0.4592074201308367,
        -0.10204086209040165,
        -0.44789423135051104,
        -0.34833059417072404,
        0.3933573299022324,
        0.24492428158811141,
        -0.1798700583211976,
        -0.3859680299561474,
        -0.7224220128292566,
        -0.1535633630665985,
        0.6491960754432057,
        0.11294526786906652,
        -0.13989307151237237,
        0.14760025292319806,
        -0.37706078479289634,
        0.0006675811110976829
      ]
    ],
    [
      [
        0.09585711757524366,
        -0.05811790803579636,
        0.2620198688171803,
        0.10641301604510213
      ],
      [
        0.5461512218708614,
        -0.8558978475004771,
        0.2192182759833798,
        0.9767827876624599
      ],
      [
        -1.3595659028225489,
        -0.2718562613193165,
        0.7650151740322011,
        0.6141802951033993
      ],
      [
        0.24905233239194707,
        -0.10396292169986782,
        0.911943376204899,
        -0.15624342203781919
      ],
      [
        0.6106829266276287,
        0.7801666711711134,
        -0.2870240528705137,
        -0.9199585939032349
      ],
      [
        -0.41559643114248584,
        0.6545109549468515,
        -0.726321816688316,
        0.16054066838233014
      ],
      [
        -0.19048442609815874,
        0.4058130579682384,
        -0.8464988487604472,
        -0.2780929967127053
      ],
      [
        -0.5442439002689687,
        -0.3159161756027599,
        0.06867062066769222,
        -0.07268636907434334
      ],
      [
        0.3421306125845495,
        -0.25955007060834007,
        -0.07040209585585416,
        -0.44270403081630577
      ],
      [
        0.5062214308177234,
        -0.013373490784568641,
        -0.5873858757781969,
        0.9116305776137225
      ],
      [
        0.01050304694800223,
        1.4004156315585257,
        -0.14269581011276922,
        -0.5832789654015664
      ],
      [
        -0.07687570884538297,
        -0.27586668382276713,
        -0.4241593035449674,
        -0.608695025540457
      ],
      [
        -0.02498928858151643,
        0.11819117613918109,
        0.018081448203036535,
        -0.2706575929540375
      ],
      [
        1.008525884720475,
        -0.1646176909118806,
        0.024027420244023857,
        -0.5755353690548276
      ],
      [
        0.03221285722919354,
        0.3772877370775388,
        -0.6163882530144257,
        -0.06878004376263833
      ],
      [
        -0.14714444450845054,
        -0.4723723859321799,
        0.8714252030978562,
        -0.9245925122581189
      ]
    ]
  ],
  "biases": [
    [
      [
        -0.023298164518965422,
        0.609074444551779,
        0.6003245998730101,
        0.0027749927246256837,
        0.43083866624218287,
        0.3489330256681436,
        0.0,
        -0.15256230901201082,
        0.07634291016450383,
        0.4765119315796911,
        0.23189558746413766,
        0.13653083475602723,
        0.0,
        0.3229997568428208,
        0.2399109842584657,
        0.5092339261247293
      ]
    ],
    [
      [
        0.20937296853241127,
        -0.23709363138156767,
        -0.11263651325629426,
        0.1403571761054508
      ]
    ]
  ]
}