{
  "layer_sizes": [
    32,
    16,
    4
  ],
  "learning_rate": 0.3,
  "seed": 42,
  "output_activation": "softmax",
  "weights": [
    [
      [
        0.07549710648947516,
        -0.2599960265601239,
        0.2038358468064775,
        0.26482984653388386,
        -0.4976620909401992,
        -0.2691510589261213,
        0.07019022140030635,
        -0.007218920528765579,
        0.0007598290678648253,
        -0.16957579667404377,
        0.21069561970306397,
        0.20855081997855213,
        0.030487884509848743,
        0.2707900188600784,
        0.1168773355630114,
        -0.21482311572080956
      ],
      [
        0.09150553257149203,
        -0.23972065020724972,
        0.23583562318168133,
        0.017207189689517267,
        -0.05611888466305546,
        -0.11383856831152687,
        0.34386545527699247,
        0.03320935703992945,
        -0.1021218370968398,
        -0.044348202402706226,
        0.12392342237569398,
        0.10546385221233466,
        0.11716336301854187,
        0.09668496787004076,
        0.5354119002176153,
        -0.1016037540961539
      ],
      [
        -0.1288950660916332,
        -0.20344318206196943,
        0.16030367701867201,
        0.3406269266005521,
        0.024406292339691087,
        -0.2169539234170019,
        -0.15933371646055808,
        0.14442874408546785,
        0.23019140235643762,
        0.12602328236612928,
        -0.14049200527123012,
        0.11496244202881752,
        0.05647126956379028,
        0.07117722987526684,
        0.21785719448704746,
        0.05589888719367057
      ],
      [
        0.16889400694422485,
        0.016894767372222865,
        0.0785886710472942,
        0.2162059098799644,
        -0.31139579821050684,
        -0.08683260826569517,
        -0.0708065761109471,
        -0.1779389149315429,
        -0.024407703251093912,
        0.36397004309842956,
        -0.19057235737236736,
        0.2989916999100079,
        -0.3934176256253431,
        -0.06721617680343012,
        0.0406882662762514,
        0.14655558283981954
      ],
      [
        0.17257775096742878,
        0.1983368087999813,
        -0.40619550219633727,
        0.10839666811206103,
        0.22226191252600705,
        -0.2522988785410134,
        -0.39755565137821164,
        -0.6501681656012662,
        -0.2949376311155179,
        0.3037136047460728,
        -0.16928289574910427,
        0.6907672266434315,
        -0.14191397404438044,
        0.03963492276917856,
        0.15639759849183418,
        -0.0773366349300596
      ],
      [
        0.1089649154085679,
        -0.16548148526666281,
        -0.40977769577549583,
        0.12855014277862054,
        -0.29119196918554124,
        -0.08272967712421413,
        -0.19598465559441208,
        -0.3637228324184742,
        0.055112105111362344,
        0.29105621274011784,
        -0.038543052523549046,
        0.4935245169991334,
        -0.1409253904712853,
        -0.019929552726599763,
        -0.42183360848950746,
        -0.3617781181057718
      ],
      [
        -0.3313570665377332,
        -0.24931170690037044,
        0.04234355226851345,
        -0.3086014848836524,
        0.07953146448410417,
        0.4744395967212825,
        0.16477792942561587,
        0.2582786565256368,
        -0.22799725240243934,
        -0.0472642901750557,
        0.0005131980221361075,
        -0.100082483486748,
        0.304245756340889,
        -0.38887444881497146,
        0.10860591088646433,
        0.05943390058306947
      ],
      [
        -0.1485374889241986,
        -0.36151446359711364,
        -0.12343405392984641,
        -0.3468451804173886,
        0.41071940056322326,
        0.18413550163800907,
        0.8136234524669026,
        -0.05589510992342039,
        -0.2550176970009534,
        -0.03104720599788949,
        0.5286537062628454,
        0.2834061094158483,
        0.3624423135529857,
        0.19265135809496126,
        0.36582572280489045,
        -0.2971907635807127
      ],
      [
        -0.16062004663656962,
        -0.23164398535138123,
        -0.15505245520128777,
        -0.4264032579327144,
        0.33285983969755273,
        0.09407684800007274,
        -0.11385765143469205,
        -0.17999500589302012,
        0.08378562946257866,
        0.2136267412654471,
        0.737201434672728,
        0.7131414019902248,
        0.19777108029553916,
        -0.2044288730248502,
        -0.5330115701828273,
        0.06692786558595895
      ],
      [
        -0.2039174372767142,
        -0.10383931504492133,
        -0.13680115191008882,
        -0.005509054168015832,
        0.2565917639201708,
        0.09565595965079456,
        -0.0014285886511870348,
        -0.1870717106493229,
        -0.41371061773215223,
        -0.07789179204898153,
        -0.022599511717223335,
        0.45608531451628576,
        0.0465488404877662,
        0.23466459487383437,
        -0.12482389963478802,
        -0.29623594160425615
      ],
      [
        -0.24605433470202165,
        -0.1813065161339383,
        0.3921813692109672,
        0.03669171384070602,
        0.29025988461923113,
        -0.28734697581582863,
        0.3065910556401892,
        -0.05314737416194328,
        0.004405655360374257,
        0.11115761660034837,
        -0.23744449331262904,
        0.4890860174564449,
        -0.07344394113655646,
        -0.290433753891219,
        -0.3194843935799048,
        0.04314697943052987
      ],
      [
        0.3940906506534761,
        0.03999790339335956,
        -0.013436533672607453,
        0.10114520233671623,
        0.3165971416499661,
        0.11123944313042249,
        -0.06450168709994926,
        0.348413905072102,
        0.11214922805934037,
        0.42762418321834916,
        0.0366547352928333,
        -0.29201442180881004,
        -0.3280595896918713,
        0.4017117001758826,
        0.43091643019582426,
        -0.04487980332065016
      ],
      [
        -0.09647899373312961,
        0.36536107306055055,
        -0.2494731996622112,
        -0.21203704565515755,
        0.09778148963495814,
        0.019789660372551254,
        0.03692867358319923,
        0.11771832703934267,
        0.0580320660300862,
        0.4472245958905261,
        -0.016824549566753624,
        0.1426528147688412,
        -0.5069019944715851,
        -0.04771415121265086,
        -0.21080756757321778,
        -0.304703265105907
      ],
      [
        -0.2195380917321877,
        -0.08353086017520302,
        0.3137919894073972,
        -0.46990806006209235,
        -0.3997218914174647,
        0.35455895092817236,
        -0.08207909135524433,
        0.9155451775499902,
        -0.10555699480162016,
        0.7304004112047494,
        -0.27101041524219494,
        -0.4226030637088474,
        -0.11988587249205102,
        -0.1272816592868738,
        0.04414333961342776,
        -0.27109701805834163
      ],
      [
        0.022622445406968554,
        0.057057082534726286,
        1.1293851255457286,
        0.8255768933186743,
        -0.24215972332747976,
        -0.08937901612564376,
        -0.4072042385855552,
        0.101048637159075,
        0.4212251044232471,
        0.13670927910652594,
        -0.28881810523402823,
        -0.2685737663483409,
        -0.4843041904498842,
        -0.04066648013622692,
        -0.2656036029648908,
        -0.13235985684151844
      ],
      [
        -0.21921519454189706,
        -0.023565638563139247,
        0.06058451832309083,
        -0.010395570849490755,
        0.5034628923192997,
        -0.33938882105685747,
        -0.31554013273996434,
        0.7079537727302748,
        1.0685906458357635,
        -0.45764578332186795,
        -0.1986093849951338,
        -0.019648268596264406,
        0.48469247808617766,
        -0.24671426960705936,
        -0.061319461485527436,
        0.194334394015436
      ],
      [
        0.10785713479290578,
        -0.09403901780752481,
        -0.027146919754212195,
        -0.28534009867216625,
        -0.006650279240256437,
        -0.07351167667860863,
        0.10482905986881579,
        -0.15705125757546143,
        0.16226249019186179,
        0.24341366974478768,
        0.06474275346805994,
        0.14486121336193836,
        0.04058865417307508,
        0.016526178965867108,
        -0.18038950838571186,
        0.079123565418327
      ],
      [
        -0.025156033427121253,
        0.5232920772326487,
        0.3996475469936086,
        0.1548454915594546,
        -0.13787114567028197,
        -0.28501767217222423,
        0.34457232573446805,
        0.04746785341607713,
        0.16441371040347974,
        -0.44591178145371757,
        0.2577450419404886,
        0.17052719581572823,
        -0.2503078538250114,
        -0.10137612116947364,
        0.0659293010891299,
        0.013116699589060907
      ],
      [
        -0.07387718027463763,
        -0.025872067016490214,
        -0.05668552317692325,
        0.0965244814459465,
        0.42076615000169904,
        -0.6485794144091941,
        -0.01242597866516925,
        0.02590865247240428,
        0.11837635697735185,
        -0.10274393004049198,
        -0.41329502406870217,
        0.1389209821906649,
        0.45913737081965433,
        -0.3669602705360209,
        0.21595700342454707,
        -0.08213130578072347
      ],
      [
        -0.01616547028096071,
        -0.26322462767598725,
        -0.07730522171417101,
        0.3833950020950688,
        0.19855696725033667,
        0.4261630971761163,
        0.3411395597066752,
        0.09155221686168656,
        0.48036149109752474,
        0.09998300497440517,
        0.23288246575020818,
        -0.017220627121539555,
        0.04393627124340944,
        -0.1578508751320557,
        0.24739598364871326,
        -0.2945759057787164
      ],
      [
        0.19490542215528264,
        -0.047662764376289864,
        0.3090348212216931,
        0.2174059146188955,
        0.4452582456349603,
        0.2390874905741197,
        -0.35477994330482526,
        0.05510343433257978,
        -0.28804167970476696,
        -0.08588477537221742,
        0.3686532343065372,
        0.17348628884573905,
        -0.16075239702514182,
        -0.2644496244920295,
        0.008195523219065198,
        -0.30414003734528194
      ],
      [
        -0.16846723279827797,
        0.07800236788781097,
        0.30505105688153733,
        0.18187903549219048,
        -0.5827256709262657,
        0.13248550004702336,
        0.05623851391662949,
        0.17531429890030326,
        0.4090125388567388,
        -0.47212438398183443,
        -0.15692973031041957,
        0.1618294168196537,
        -0.38141838974394066,
        0.3579669791314474,
        0.0920891531751646,
        0.211645996460851
      ],
      [
        -0.14273591538044864,
        0.20344092249155263,
        0.17230167689777715,
        -0.13813396033550276,
        0.2562592453585724,
        0.3021956174431508,
        0.10988684244034636,
        0.09727213655749911,
        -0.0847768310408298,
        0.11409751639879497,
        0.5775871849927929,
        -0.35809636820233454,
        0.07729955504727555,
        0.41487533591679626,
        -0.18589705720314104,
        -0.20556250432258008
      ],
      [
        0.050576547957798396,
        0.21109629762133003,
        -0.13860991696814898,
        0.11776814445780937,
        0.5667488433661789,
        0.3891274819796638,
        0.551707854967697,
        0.5858570720313568,
        -0.05043374606199819,
        -0.576746687753597,
        0.8747181256491896,
        -0.1708156421334673,
        0.18063461316009932,
        0.4308212645227157,
        -0.40056488526473133,
        -0.31291180352653486
      ],
      [
        -0.4003194842797134,
        -0.19853407250635596,
        0.6099257676664972,
        0.4874127012014497,
        0.0402196591443636,
        -0.37072464671144134,
        -0.6188695972844656,
        0.2623137869975422,
        0.22437984511607803,
        -0.049907683186379705,
        0.0689412607571914,
        -0.07047679831672134,
        0.2425513383287428,
        0.057302843528767106,
        0.13251617640036667,
        -0.1761683157174706
      ],
      [
        -0.0455850169069973,
        0.04919402416423931,
        0.2324203397030154,
        -0.08679058397234407,
        0.06724160489572521,
        0.05198124310860389,
        0.00882359843118447,
        0.36595881217648896,
        -0.5246266639331867,
        -0.2287639514565933,
        -0.4100171256528953,
        -0.601735913512449,
        -0.1639250792526236,
        0.1518239242018136,
        -0.07122101659564369,
        0.04944752048546303
      ],
      [
        0.27146999035394925,
        0.3319215330669229,
        -0.010975662306736803,
        0.3967803258126785,
        0.07592482136193719,
        -0.2162643601332354,
        -0.101813500587432,
        -0.38835358101196166,
        -0.17765560387783605,
        -0.09926945672877681,
        0.22678167639559385,
        0.48711456905363354,
        -0.3182455615656519,
        0.11471194775799333,
        -0.2601359847893836,
        0.11867427211580049
      ],
      [
        -0.03360604649568053,
        -0.4577264564618826,
        0.23838306926691918,
        -0.09286632478185347,
        -0.08058190283997871,
        -0.27435290699879217,
        -0.11678423170963705,
        0.08875315730302182,
        -0.0029332256785243468,
        0.07240021586045074,
        0.11636588503315437,
        0.3870875251441794,
        -0.0583967204374866,
        -0.35270937351841947,
        0.26680560414299576,
        -0.08287204302431367
      ],
      [
        0.27781372732059534,
        0.0958442782956176,
        -0.02647556117603814,
        0.14557782693190313,
        0.5406462967849847,
        0.5123303280870686,
        0.06413187124544649,
        0.02182819545856137,
        0.3134378989221731,
        -0.22118054290200626,
        0.10915301470550723,
        0.050456399273673486,
        0.10577687014299668,
        -0.19183712079433793,
        -0.39739187332724224,
        -0.5182458589978229
      ],
      [
        -0.28018041207115085,
        -0.11466882123483325,
        -0.06698907528739231,
        0.5426916440277084,
        0.3293914992302343,
        -0.2474375832617767,
        0.133713700574991,
        -0.11998901195828875,
        -0.02671309995444676,
        0.03656612764367602,
        0.18067820079479177,
        -0.02789250970886629,
        0.2932627004621977,
        -0.2689794758425875,
        0.0015847655905671105,
        0.6494184316489581
      ],
      [
        0.054935551832569894,
        0.3583036266515432,
        0.02918886591810012,
        0.2035781272527785,
        0.038697358155236984,
        -0.04951669946742095,
        -0.1480840117191031,
        0.08935588686868083,
        -0.16850643774086493,
        0.15663102436818782,
        0.29720717266242097,
        0.14855496307144497,
        -0.04426236611031475,
        0.12999647552018753,
        -0.07716826388660315,
        0.23388678136628732
      ],
      [
        -0.4586859048775298,
        -0.08390184202966156,
        -0.49139417740620145,
        -0.31538135413647206,
        0.3938587142068871,
        0.2168814413165516,
        -0.13308347085894578,
        -0.39384531688093183,
        -0.6967543499048355,
        -0.1456391616933281,
        0.6309891746127938,
        0.16564317912804932,
        -0.11259325423376411,
        0.13277513306809008,
        -0.3902395882486107,
        -0.07433084067440886
      ]
    ],
    [
      [
        0.03586487066182988,
        -0.03069399621603201,
        0.27935841218865554,
        0.1216428077672765
      ],
      [
        0.236288929723784,
        -0.24337635437311497,
        0.3174256817704341,
        0.5759161808951202
      ],
      [
        -0.7591098019613262,
        -0.5709971763780762,
        0.9140074601754661,
        0.16387282315767215
      ],
      [
        0.6244893227232959,
        -0.3756719570275932,
        1.0249088191924307,
        -0.3729368200289748
      ],
      [
        0.1319293090590349,
        0.8239129709026602,
        0.018923768888616358,
        -0.7908990978253189
      ],
      [
        -0.3620219486384052,
        0.36682054274084563,
        -0.839521780296859,
        0.5078565616927989
      ],
      [
        -0.21831285011530593,
        0.7483427965941886,
        -1.2529759700737002,
        -0.1863171900082551
      ],
      [
        -1.346599098107898,
        -0.41513913381155326,
        0.1938716042886883,
        0.7036908033523839
      ],
      [
        -0.2679544915506847,
        -0.23395760272520538,
        0.7234630845127782,
        -0.6520765749328384
      ],
      [
        0.5620825485643535,
        -0.22940771900388277,
        -0.2452616858547801,
        0.7296794981629892
      ],
      [
        -0.043213820493313494,
        1.3881449659903193,
        -0.22514708935130032,
        -0.434840153153513
      ],
      [
        0.6746536541696311,
        -0.4918297325423085,
        -0.6192106331231411,
        -0.9492100102577559
      ],
      [
        -0.20445283158218383,
        0.3764483944987047,
        0.07345532992572443,
        -0.4048251500355819
      ],
      [
        0.2625462932348786,
        0.3377093090360107,
        -0.08601085025074334,
        -0.221844507022356
      ],
      [
        0.19389855090539515,
        0.06645869919769361,
        -0.5119903025767354,
        -0.02403464999668504
      ],
      [
        0.09264364981575933,
        -0.3180901422618369,
        0.0671197752194088,
        -0.5143574223742244
      ]
    ]
  ],
  "biases": [
    [
      [
        -0.009512754186733011,
        0.0,
        0.18458667876939358,
        0.4944109441878796,
        0.20070611516362508,
        0.5030722427815202,
        0.6112985112999517,
        0.580604965393378,
        0.2587668573611166,
        0.3159964349403453,
        0.11173281866013299,
        0.3422992121759505,
        0.27243133487960364,
        -0.007951011390815502,
        0.0,
        0.0
      ]
    ],
    [
      [
        0.5945728324543895,
        -0.6344564775091572,
        -0.22292888305613945,
        0.2628125281109072
      ]
    ]
  ]
}