{
  "layer_sizes": [
    32,
    16,
    4
  ],
  "learning_rate": 0.3,
  "seed": 42,
  "output_activation": "softmax",
  "weights": [
    [
      [
        0.07405407667146562,
        -0.25140450709672085,
        0.23235030487143968,
        0.2447477682207295,
        -0.4074637427669538,
        -0.3611738475171403,
        0.03196010079182134,
        -0.06483567180174224,
        -0.004200289376072199,
        -0.17840184867374456,
        0.2660287075124009,
        0.22960717825630267,
        0.036889048255628325,
        0.34223487068666636,
        0.16312974379807046,
        -0.21482311572080956
      ],
      [
        0.09006250275348249,
        -0.23112913074384656,
        0.2643500812466436,
        -0.002874888623637315,
        0.0340794635101899,
        -0.20586135690254606,
        0.30563533466850756,
        -0.02440739423304719,
        -0.1070819555407768,
        -0.05317425440240688,
        0.17925651018503092,
        0.12652021049008505,
        0.1235645267643214,
        0.16812981969662888,
        0.5816643084526745,
        -0.1016037540961539
      ],
      [
        -0.13018587553502656,
        -0.19485166259856626,
        0.19873236156369928,
        0.29184966230314874,
        0.051808189982786294,
        -0.24566809004219273,
        -0.2061203039228099,
        0.1768731732403287,
        0.18581354280086057,
        0.1706477002959492,
        -0.12019821302547988,
        0.0931995251657454,
        0.04955282615050637,
        0.11509671812691154,
        0.26410960272210665,
        0.05589888719367057
      ],
      [
        0.1676031975008315,
        0.025486286835625864,
        0.11701735559232143,
        0.16742864558256113,
        -0.2839939005674113,
        -0.11554677489088613,
        -0.11759316357319888,
        -0.14549448577668206,
        -0.06878556280667093,
        0.4085944610282493,
        -0.17027856512661707,
        0.27722878304693577,
        -0.4003360690386271,
        -0.02329668855178547,
        0.08694067451131053,
        0.14655558283981954
      ],
      [
        0.17568145168107152,
        0.20692832826338448,
        -0.04244376214228401,
        -0.10598135904321593,
        0.29478902471079366,
        -0.08345505202196452,
        -0.31892158083448047,
        -0.269096827216717,
        -0.22986307150040283,
        0.15914931923309147,
        0.08178564781433492,
        0.20778053291600762,
        -0.08643178771880926,
        0.10005949171383689,
        0.2026500067268933,
        -0.0773366349300596
      ],
      [
        0.11206861612221064,
        -0.15688996580325965,
        -0.04602595572144256,
        -0.0858278843766564,
        -0.2186648570007548,
        0.08611414939483467,
        -0.11735058505068097,
        0.017348505966075206,
        0.12018666472647724,
        0.1464919272271365,
        0.2125254910398903,
        0.010537823271709592,
        -0.08544320414571413,
        0.04049501621805853,
        -0.3755812002544484,
        -0.3617781181057718
      ],
      [
        -0.33280009635574276,
        -0.24072018743696727,
        0.14468106260068442,
        -0.21676317471708917,
        -0.014245584113342393,
        0.28917810364495555,
        -0.08906599276535648,
        0.19860386840092506,
        -0.23340442000246925,
        -0.016500256247257015,
        -0.19132629993095157,
        -0.049599074576075146,
        0.23045840822967326,
        -0.37140553685342903,
        0.15485831912152342,
        0.05943390058306947
      ],
      [
        -0.15066268219134082,
        -0.35292294413371084,
        0.06276988284829278,
        -0.12276658814302462,
        0.138464107235181,
        -0.030165934420700057,
        0.40044472283022886,
        -0.04561393058410271,
        -0.25587437315546624,
        0.07967804195872953,
        0.10117838478963492,
        0.3749560882091747,
        0.229159185343969,
        0.14964233373203564,
        0.4120781310399495,
        -0.2971907635807127
      ],
      [
        -0.16206307645457915,
        -0.22305246588797806,
        -0.052714944869116605,
        -0.33456494776615137,
        0.2390827911001061,
        -0.09118464507625412,
        -0.36770157362566447,
        -0.239669794017732,
        0.07837846186254882,
        0.24439077519324573,
        0.5453619367196398,
        0.7636248109008978,
        0.1239837321843234,
        -0.18695996106330787,
        -0.4867591619477681,
        0.06692786558595895
      ],
      [
        -0.21386124016329267,
        -0.06088171772790633,
        0.07066332983417489,
        0.01283522401053319,
        0.6679703296794363,
        -0.13888271214646775,
        -0.039658709259672076,
        -0.1877885567856861,
        -0.41867073617608924,
        0.052718688829919674,
        0.21745043127888816,
        0.6177784503902983,
        0.13447549969484304,
        0.547807722479056,
        0.10643814154050754,
        -0.29623594160425615
      ],
      [
        -0.2434043838252352,
        -0.17271499667053514,
        0.5768549390286165,
        -0.1957400806831705,
        0.28991735533059143,
        -0.26136076532331737,
        0.23289325321856102,
        0.1104627178106191,
        -0.0391594744145226,
        0.024668501685791985,
        -0.11751771006065388,
        0.14667724476958574,
        -0.0933644962198707,
        -0.24597687199715387,
        -0.2732319853448458,
        0.04314697943052987
      ],
      [
        0.38145471041186757,
        0.2951320861022098,
        -0.3772563333738434,
        0.1469676820817418,
        0.4860709218459416,
        -0.17896336096339052,
        -0.10273180770843429,
        0.02927530219636231,
        0.10718910961540337,
        0.80025585358095,
        -0.2259593174175458,
        -0.3221063905081715,
        -0.34203979981141625,
        0.693480992873501,
        0.7618035426863901,
        -0.04487980332065016
      ],
      [
        -0.10911493397473812,
        0.6204952557694008,
        -0.6243581723572448,
        -0.14817060755785055,
        0.3204021850914965,
        -0.3324602670192519,
        -0.001280466680017824,
        -0.2881575999497379,
        0.08439363719973339,
        0.7681873209103813,
        -0.24912169999758593,
        0.14499556574116804,
        -0.5125430252577556,
        0.2685694093331589,
        0.12007954491734837,
        -0.304703265105907
      ],
      [
        -0.2216632849993299,
        -0.07493934071180008,
        0.27371314150882875,
        -0.32199159031196517,
        0.08795292754510944,
        -0.15667132913495535,
        -0.08191827359049021,
        0.26491443261030423,
        0.13452885925098151,
        0.3692086600803362,
        0.0075527939842185395,
        -0.1388264585186102,
        -0.03558333035480057,
        0.12104876676246369,
        0.09039574784848689,
        -0.27109701805834163
      ],
      [
        0.02049725213982632,
        0.06564860199812925,
        0.6741060153033055,
        0.47881774194334337,
        -0.1330157832432,
        -0.10747481118885482,
        -0.3658605004592508,
        -0.1334517772067182,
        0.07890125089758512,
        0.33632253844170873,
        -0.1360917456392084,
        -0.12837741561788357,
        -0.5164408835693394,
        0.019758088808431357,
        -0.2193511947298317,
        -0.13235985684151844
      ],
      [
        -0.22134038780903928,
        -0.014974119099736241,
        -0.3946945919193323,
        -0.3571547222248218,
        0.6126068324035792,
        -0.35748461612006854,
        -0.2741963946136599,
        0.47345335836448166,
        0.7262667923101017,
        -0.25803252398668514,
        -0.04588302540031397,
        0.12054808213419284,
        0.45255578496672216,
        -0.1862897006624012,
        -0.015067053250468327,
        0.194334394015436
      ],
      [
        0.10656632534951244,
        -0.08544749834412188,
        0.011281764790815102,
        -0.3341173629695696,
        0.020751618402838738,
        -0.10222584330379958,
        0.05804247240656399,
        -0.12460682842060064,
        0.11788463063628475,
        0.2880380876746074,
        0.08503654571381013,
        0.12309829649886632,
        0.033670210759791146,
        0.060445667217511816,
        -0.13413710015065275,
        0.079123565418327
      ],
      [
        -0.0264468428705146,
        0.5318835966960519,
        0.4380762315386361,
        0.10606822726205106,
        -0.11046924802718681,
        -0.3137318387974153,
        0.29778573827221627,
        0.07991228257093794,
        0.1200358508479027,
        -0.4012873635238979,
        0.27803883418623876,
        0.14876427895265631,
        -0.25722629723829543,
        -0.05745663291782892,
        0.11218170932418901,
        0.013116699589060907
      ],
      [
        -0.07516798971803097,
        -0.017280547553087208,
        -0.018256838631895953,
        0.04774721714854305,
        0.44816804764479456,
        -0.6772935810343851,
        -0.05921256612742106,
        0.0583530816272651,
        0.07399849742177488,
        -0.058119512110671956,
        -0.3930012318229521,
        0.11715806532759286,
        0.4522189274063703,
        -0.32304078228437627,
        0.2622094116596062,
        -0.08213130578072347
      ],
      [
        -0.017068571206944442,
        -0.24553516750774798,
        -0.06508052308584109,
        0.3328651647569926,
        0.16698322401899038,
        0.4968291578660931,
        0.2943529722444234,
        0.12254928961770933,
        0.435983631541948,
        0.13273455507727913,
        0.21339685852633805,
        -0.06034266340434106,
        0.030864649801479974,
        -0.15586840396663476,
        0.27381966622549586,
        -0.2945759057787164
      ],
      [
        0.1938501008546827,
        -0.16907085335428354,
        0.3170569231369861,
        -0.07336879048520477,
        0.7418728229810561,
        0.41954320840637316,
        -0.39301006391331017,
        -0.10266774608204769,
        -0.293001798148704,
        -0.18217241332132142,
        0.7843417283799075,
        0.3750086131835167,
        -0.16050441130800777,
        -0.10120212926577764,
        0.14847860061918303,
        -0.30414003734528194
      ],
      [
        -0.16778506934914528,
        -0.18854897636752505,
        0.29977315221312656,
        -0.36317696437527464,
        -0.06425439626314969,
        0.4077983102157919,
        0.01800839330814448,
        -0.08567887732430689,
        0.4040524204128018,
        -0.6606595291734987,
        0.6189987634298888,
        0.5344821214629057,
        -0.3953985998634856,
        0.6252713338864796,
        0.31027685621192214,
        0.211645996460851
      ],
      [
        -0.14273591538044864,
        0.2851924149646913,
        0.12882054726734682,
        0.05821950503429209,
        -0.2811738739748055,
        0.7795282484646743,
        -0.21583631618484542,
        -0.02808432847701712,
        -0.0381306331130897,
        0.05358766212139749,
        0.00961703314459697,
        -0.379188885947068,
        -0.0499162608530152,
        0.13340692955838795,
        -0.27320856614017663,
        -0.20556250432258008
      ],
      [
        0.050576547957798396,
        0.2763545609836932,
        0.6198679147239917,
        0.8322986457651741,
        0.04925090365079217,
        -0.11072129556617188,
        0.13852912533102332,
        1.107506295736102,
        -0.05129042221651105,
        -0.5538931953295348,
        0.1954515454803625,
        -0.2648565773449814,
        0.15469555361135098,
        0.169021644008139,
        -0.6597863597595276,
        -0.31291180352653486
      ],
      [
        -0.4003194842797134,
        -0.13327580914399256,
        0.7269205523380752,
        0.6311054588591195,
        -0.09587904715870108,
        -0.6743677832617792,
        -0.577525859158161,
        0.5391814169971771,
        -0.11794400840958394,
        0.06183382061624664,
        -0.030123638343605232,
        -0.11587136159110449,
        0.3177587138695561,
        -0.10106318367822563,
        -0.1267052980944295,
        -0.1761683157174706
      ],
      [
        -0.046640338207597255,
        0.06688348433247866,
        0.22366563885748275,
        -0.09058127697389005,
        0.15161122745509178,
        -0.002708441465237743,
        -0.02938554183203259,
        0.22015738039133365,
        -0.498265092763539,
        -0.3011318166259855,
        -0.3641465350336318,
        -0.5696039549827401,
        -0.15533791420211537,
        0.20584602679036956,
        -0.04479733401886113,
        0.04944752048546303
      ],
      [
        0.270179180910556,
        0.3405130525303257,
        0.027453022238290496,
        0.34800306151527516,
        0.1033267190050324,
        -0.24497852675842624,
        -0.1486000880496838,
        -0.3559091518571009,
        -0.2220334634334131,
        -0.054645038798956776,
        0.24707546864134414,
        0.4653516521905615,
        -0.32516400497893594,
        0.15863143600963797,
        -0.21388357655432452,
        0.11867427211580049
      ],
      [
        -0.03277166267193165,
        -0.3964128371070284,
        0.1283512415946866,
        -0.15125017820218276,
        -0.38830563245549804,
        0.2665187261607597,
        -0.16357081917188887,
        0.11357099136103264,
        -0.04731108523410138,
        0.05046989759538806,
        -0.0897738079550216,
        0.2442492647926927,
        -0.09969454017093542,
        -0.5469321722286994,
        0.20132197244021902,
        -0.08287204302431367
      ],
      [
        0.27652291787720207,
        0.10443579775902054,
        0.011953123368989156,
        0.09680056263449965,
        0.5680481944280795,
        0.4836161614618776,
        0.017345283783194675,
        0.05427262461342218,
        0.2690600393665964,
        -0.17655612497218634,
        0.12944680695125743,
        0.028693482410601392,
        0.0988584267297127,
        -0.14791763254269324,
        -0.3511394650921832,
        -0.5182458589978229
      ],
      [
        -0.2814712215145441,
        -0.10607730177143032,
        -0.028560390742365077,
        0.49391437973030505,
        0.35679339687332984,
        -0.27615174988696756,
        0.08692711311273923,
        -0.08754458280342796,
        -0.07109095951002378,
        0.081190545573496,
        0.20097199304054206,
        -0.04965542657193837,
        0.2863442570489137,
        -0.22505998759094278,
        0.047837173825626224,
        0.6494184316489581
      ],
      [
        0.053644742389176533,
        0.366895146114946,
        0.06761755046312744,
        0.1548008629553752,
        0.06609925579833217,
        -0.0782308660926119,
        -0.1948705991813549,
        0.12180031602354162,
        -0.21288429729644198,
        0.20125544229800774,
        0.31750096490817104,
        0.12679204620837295,
        -0.051180809523598624,
        0.17391596377183222,
        -0.03091585565154404,
        0.23388678136628732
      ],
      [
        -0.4578515210537809,
        -0.0021503495565227855,
        -0.6360003405109124,
        -0.37376520755680126,
        0.0011914603039979558,
        0.9357386841371643,
        -0.1798700583211976,
        -0.366828022427153,
        -0.7411322094604128,
        -0.17813468095013482,
        0.3647647244788738,
        -0.005833797586553675,
        -0.1585570747854932,
        -0.12068690498127886,
        -0.47755109718564637,
        -0.07433084067440886
      ]
    ],
    [
      [
        0.045059239330715546,
        -0.03472057752870102,
        0.27678661078642314,
        0.1190468218132922
      ],
      [
        0.6203741996083266,
        -0.5096911454654031,
        0.2718593054654814,
        0.5037120784078188
      ],
      [
        -0.9937196439086129,
        0.1823009877477703,
        0.9658627972263768,
        -0.40667083607179694
      ],
      [
        0.32875571021872496,
        -0.44045619779243106,
        1.1325671290063322,
        -0.12007727657346849
      ],
      [
        0.566423098962633,
        0.5250692754253499,
        -0.03178611519305205,
        -0.8758393081699377
      ],
      [
        -0.6792634546904284,
        0.08100408406438557,
        -1.041116267318679,
        1.3125090134431026
      ],
      [
        -0.19048442609815874,
        0.4058130579682384,
        -0.8464988487604472,
        -0.2780929967127053
      ],
      [
        -0.813347395196518,
        -0.5822146397749086,
        0.7674387243370997,
        -0.23605251364405253
      ],
      [
        -0.08958249860185169,
        -0.05628035100757468,
        0.07190860207798161,
        -0.35657133716450595
      ],
      [
        1.1699288496614615,
        -0.4034608240636333,
        -0.06435672808185618,
        0.11498134435270811
      ],
      [
        -0.4299895461956743,
        0.9777154718602825,
        -0.002548752121983162,
        0.13976672944956714
      ],
      [
        -0.36925232734437863,
        0.3961114375946501,
        -0.5409988231848167,
        -0.8714570088190287
      ],
      [
        -0.11536899574482039,
        -0.033644007198602305,
        0.32802093059125154,
        -0.33838218484116506
      ],
      [
        0.607743611457167,
        0.41377881198401184,
        -0.09178729848971774,
        -0.6373348799536709
      ],
      [
        0.5877573828979216,
        0.29128303634274266,
        -0.8318034425868459,
        -0.32290467912415016
      ],
      [
        0.09264364981575933,
        -0.3180901422618369,
        0.0671197752194088,
        -0.5143574223742244
      ]
    ]
  ],
  "biases": [
    [
      [
        -0.02381261053776191,
        0.27477597870943543,
        0.2757984343811835,
        0.1972476165881226,
        0.2619788255547437,
        0.6940690685762835,
        0.0,
        0.2065003370491634,
        0.0,
        0.34745764635614235,
        -0.004428726455924655,
        0.14151563649769286,
        0.19819839235986958,
        0.24941557505229528,
        0.33916593689499597,
        0.0
      ]
    ],
    [
      [
        -0.12823198012701467,
        -0.33332793053358706,
        0.02476126040686862,
        0.43679865025373316
      ]
    ]
  ]
}