{
  "layer_sizes": [
    32,
    16,
    4
  ],
  "learning_rate": 0.3,
  "seed": 42,
  "output_activation": "softmax",
  "weights": [
    [
      [
        0.07617926993860784,
        -0.2599960265601239,
        0.1944051118954204,
        0.2818972693292077,
        -0.418186614596358,
        -0.3255448767155795,
        0.03196010079182134,
        -0.11301239389377547,
        0.024099441070501843,
        -0.22346416669446334,
        0.27518749663795244,
        0.19329381880240612,
        0.01650767439030401,
        0.3401013719018117,
        0.16034576064997316,
        -0.21482311572080956
      ],
      [
        0.09218769602062471,
        -0.23972065020724972,
        -0.06391320527683363,
        0.4721078009970405,
        -0.21198364980604908,
        -0.17023238610098534,
        0.30563533466850756,
        -0.42251239956197756,
        -0.1070819555407768,
        -0.10709770844768614,
        0.0657538770442674,
        0.17997341985218435,
        0.1031831528989971,
        0.48127170345351045,
        1.0747614706027433,
        -0.1016037540961539
      ],
      [
        -0.12806068226788433,
        -0.20344318206196943,
        -0.1295309249597778,
        0.7668323519238265,
        -0.1942549233334527,
        -0.210039119240632,
        -0.2061203039228099,
        -0.2212318320886019,
        0.18581354280086057,
        0.11672424625067002,
        -0.23370084616624326,
        0.14665273452784466,
        0.029171452285182056,
        0.42823860188379304,
        0.757206764872175,
        0.05589888719367057
      ],
      [
        0.16972839076797372,
        0.016894767372222865,
        0.077833010572137,
        0.18104786268781597,
        -0.3907617014759747,
        -0.07991780408932533,
        -0.11759316357319888,
        -0.036724879314134797,
        -0.11952214262185366,
        0.4288972066011152,
        -0.24036342489083423,
        0.31614274390136954,
        -0.4312794751841883,
        -0.08018438762449774,
        0.07622655206474852,
        0.14655558283981954
      ],
      [
        0.17780664494821374,
        0.1983368087999813,
        -0.08162810716246843,
        -0.08236190111061736,
        0.2435896001329606,
        -0.04782608122040372,
        -0.31892158083448047,
        -0.26082879384860513,
        -0.23135067544726204,
        0.13711629751679838,
        0.05779951431248621,
        0.19668331989524782,
        -0.11033383901087929,
        0.07258505898865046,
        0.19193588428033123,
        -0.0773366349300596
      ],
      [
        0.11419380938935286,
        -0.16548148526666281,
        -0.09076346164126795,
        -0.1337612111274781,
        -0.5119302404930071,
        0.12174312019639545,
        -0.11735058505068097,
        0.38830399580120173,
        -0.06856404729504717,
        0.2738880709734781,
        -0.01033084653236371,
        0.1670505268470045,
        -0.13281114410220393,
        -0.13265829211841976,
        -0.42183360848950746,
        -0.3617781181057718
      ],
      [
        -0.3306749030886006,
        -0.24931170690037044,
        0.10549671758050011,
        -0.19314371678449074,
        -0.0654450086911753,
        0.32480707444651635,
        -0.08906599276535648,
        0.2068719017690367,
        -0.23489202394932845,
        -0.03853327796355014,
        -0.2153124334328004,
        -0.060696287596834805,
        0.20655635693760316,
        -0.3988799695786153,
        0.1441441966749614,
        0.05943390058306947
      ],
      [
        -0.1485374889241986,
        -0.36151446359711364,
        0.023585537828108325,
        -0.09914713021042618,
        0.08726468265734813,
        0.00546303638086072,
        0.40044472283022886,
        -0.03734589721599096,
        -0.25736197710232533,
        0.0576450202424364,
        0.07719225128778617,
        0.363858875188415,
        0.2052571340518989,
        0.12216790100684924,
        0.4013640085933875,
        -0.2971907635807127
      ],
      [
        -0.15993788318743693,
        -0.23164398535138123,
        -0.07523980719037818,
        -0.19626698742596413,
        0.3585228204743848,
        -0.055555674274693344,
        -0.36770157362566447,
        -0.3146750913344784,
        0.1463015098775971,
        0.19733243705328654,
        0.6571031334958786,
        0.7496967812022651,
        0.10008168089225337,
        -0.07146408560878934,
        -0.39085842702883894,
        0.06692786558595895
      ],
      [
        -0.2032352738275815,
        -0.10383931504492133,
        -0.31717015993247477,
        -0.5031396922220585,
        0.927217464080428,
        0.039262141861336156,
        -0.039658709259672076,
        -0.31108967731323056,
        -0.41867073617608924,
        -0.16397171946596725,
        0.550094348599371,
        0.5333171315681933,
        0.03256863036822146,
        0.3354440438851082,
        -0.15633724181506808,
        -0.29623594160425615
      ],
      [
        -0.24127919055809297,
        -0.1813065161339383,
        0.3679714729412684,
        -0.6732886404240587,
        0.8703447073176033,
        -0.2257317945217566,
        0.23289325321856102,
        0.044061502419688,
        -0.0391594744145226,
        -0.052585373731493,
        0.39984306244660334,
        0.20285270354374277,
        -0.113745870085195,
        -0.21664227481246812,
        -0.35099773576018495,
        0.04314697943052987
      ],
      [
        0.3947728141026087,
        0.03999790339335956,
        -0.01607495563985854,
        0.16496871536344448,
        0.46564480056090846,
        0.054845625340964085,
        -0.10273180770843429,
        0.2086686858992123,
        0.1637885705085516,
        0.36353262839686135,
        0.1564846151499673,
        -0.308425588039787,
        -0.34203979981141625,
        0.5293141233774195,
        0.5178532803697475,
        -0.04487980332065016
      ],
      [
        -0.09579683028399694,
        0.36536107306055055,
        -0.271208259611231,
        -0.19045570768343215,
        0.18992732849093324,
        -0.0986512807148974,
        -0.001280466680017824,
        -0.018367714978863043,
        0.08290603325287416,
        0.36469657683178636,
        0.04483930702028128,
        0.18504667969752023,
        -0.5160637026845014,
        0.02077053573694246,
        -0.1752692817847207,
        -0.304703265105907
      ],
      [
        -0.2195380917321877,
        -0.08353086017520302,
        0.7192132594185295,
        -0.05523568581537218,
        -0.05130340218118121,
        -0.12104235833339462,
        -0.08191827359049021,
        0.4739778420727924,
        0.3118768446482428,
        0.33186754731742985,
        -0.18805228667379548,
        -0.36116560020332006,
        -0.05596470422012488,
        -0.037404519015798464,
        -0.1912861378586517,
        -0.27109701805834163
      ],
      [
        0.022622445406968554,
        0.057057082534726286,
        1.119606133213006,
        0.7455736464399364,
        -0.27227211296949066,
        -0.07184584038729402,
        -0.3658605004592508,
        0.07561163225576978,
        0.25624923629484647,
        0.2989814256788023,
        -0.33169682629722236,
        -0.35071655730259343,
        -0.5368222574346637,
        -0.13869519696983074,
        -0.5010330804369701,
        -0.13235985684151844
      ],
      [
        -0.21921519454189706,
        -0.023565638563139247,
        -0.4394320978391578,
        -0.4050880489756435,
        0.31934144891132743,
        -0.32185564531850774,
        -0.2741963946136599,
        0.8444088481996085,
        0.5375160802885774,
        -0.13063638024034332,
        -0.26873936297256784,
        0.27706078570948794,
        0.40518784501023264,
        -0.3594430089988793,
        -0.061319461485527436,
        0.194334394015436
      ],
      [
        0.10869151861665466,
        -0.09403901780752481,
        -0.033455741129010286,
        -0.3916323741273653,
        -0.32575634736335013,
        -0.06659687250223878,
        0.05804247240656399,
        0.34264377794434586,
        -0.1180537593906208,
        0.4559980506624474,
        -0.18198907280233384,
        0.3275289745677514,
        -0.02044437071949004,
        -0.14088982596692137,
        -0.18038950838571186,
        0.079123565418327
      ],
      [
        -0.024321649603372367,
        0.5232920772326487,
        0.4001310385626165,
        0.14321772837052957,
        -0.12119211985659076,
        -0.2781028679958545,
        0.29778573827221627,
        0.03173556047890467,
        0.1483355812944767,
        -0.44634968154461635,
        0.2871976233117905,
        0.11245091949875977,
        -0.2776076711036195,
        -0.05959013170268353,
        0.10939772617609152,
        0.013116699589060907
      ],
      [
        -0.07304279645088875,
        -0.025872067016490214,
        0.4272432792778049,
        0.3145031216451357,
        0.3089117179185036,
        -0.6416646102328244,
        -0.05921256612742106,
        0.26741649108975313,
        0.2513464828190362,
        -0.0954606248735786,
        -0.5886063124809657,
        -0.10518107635711697,
        0.43183755354104625,
        -0.48149406806263817,
        -0.019472474047532388,
        -0.08213130578072347
      ],
      [
        -0.015331086457211825,
        -0.26322462767598725,
        0.4066235807405571,
        0.6013736422942585,
        0.08670253516714116,
        0.433077901352486,
        0.2943529722444234,
        0.33306005547903544,
        0.6133316169392093,
        0.10726631014131856,
        0.057571177337944375,
        -0.26132268566932143,
        0.016636453964801207,
        -0.27238467265867294,
        0.011966506176633803,
        -0.2945759057787164
      ],
      [
        0.19558758560441533,
        -0.047662764376289864,
        0.29960408631063573,
        0.23447333741421936,
        0.5247337219788015,
        0.1826936727846612,
        -0.39301006391331017,
        -0.05069003903243017,
        -0.26470206770212973,
        -0.139773145392637,
        0.4331451112414257,
        0.15822928766959304,
        -0.17473260714468658,
        -0.1951382714502959,
        0.05166394830602685,
        -0.30414003734528194
      ],
      [
        -0.16778506934914528,
        0.07800236788781097,
        0.29562032197047994,
        0.19894645828751437,
        -0.5032501945824239,
        0.07609168225756495,
        0.01800839330814448,
        0.06952082553529335,
        0.43235215085937606,
        -0.5260127540022544,
        -0.09243785337553102,
        0.1465724156435077,
        -0.3953985998634856,
        0.42727833217318073,
        0.13555757826212633,
        0.211645996460851
      ],
      [
        -0.14273591538044864,
        0.20344092249155263,
        0.27391020194106547,
        0.10497559526569648,
        0.12817240574177513,
        0.06758580982043147,
        -0.21583631618484542,
        -0.07083391586796821,
        -0.009830902666515661,
        0.08564528128730553,
        0.30529406464981895,
        -0.26578818554943334,
        -0.03125225757989441,
        0.4286549570745468,
        -0.1424286321161793,
        -0.20556250432258008
      ],
      [
        0.050576547957798396,
        0.21109629762133003,
        0.00964882683397088,
        0.3789962378406514,
        0.28377067820873275,
        0.21045501672251546,
        0.13852912533102332,
        0.5479615292786412,
        -0.022990691769936993,
        -0.5110837578176972,
        0.4564015933015306,
        -0.11557902279403738,
        0.02697011108575826,
        0.38567874137493524,
        -0.3570964601777698,
        -0.31291180352653486
      ],
      [
        -0.4003194842797134,
        -0.19853407250635596,
        0.11546231240388935,
        0.1642730077587172,
        0.09816417465081057,
        -0.3531914709730916,
        -0.577525859158161,
        0.03608140599986068,
        -0.11943161235644317,
        0.12767255443251033,
        0.19768148685016243,
        0.05862233939297628,
        0.18651259391721772,
        0.09025297974823901,
        0.16805446218886375,
        -0.1761683157174706
      ],
      [
        -0.044902853457864635,
        0.04919402416423931,
        0.21192443179816078,
        -0.05167920282473861,
        0.1998639965001293,
        -0.06645969797884475,
        -0.02938554183203259,
        0.17342801469813834,
        -0.46996536231696473,
        -0.33432126681975843,
        -0.3152083464384599,
        -0.5845581950169071,
        -0.16956611003879418,
        0.2456495450917389,
        -0.02775259150868202,
        0.04944752048546303
      ],
      [
        0.27230437417769815,
        0.3319215330669229,
        -0.01049217073772883,
        0.3851525626237534,
        0.09260384717562843,
        -0.20934955595686552,
        -0.1486000880496838,
        -0.4040858739491342,
        -0.1937337329868391,
        -0.09970735681967553,
        0.25623425776689573,
        0.42903829273666494,
        -0.34554537884426,
        0.15649793722478358,
        -0.21666755970242185,
        0.11867427211580049
      ],
      [
        -0.03277166267193165,
        -0.4577264564618826,
        0.23886656083592717,
        -0.1044940879707783,
        -0.06390287702628748,
        -0.2674381028224225,
        -0.16357081917188887,
        0.07302086436584938,
        -0.019011354787527336,
        0.07196231576955202,
        0.14581846640445634,
        0.3290112488272107,
        -0.08569653771609483,
        -0.31092338405162945,
        0.3102740292299573,
        -0.08287204302431367
      ],
      [
        0.27864811114434423,
        0.0958442782956176,
        -0.025992069607030193,
        0.13395006374297816,
        0.5573253225986761,
        0.5192451322634383,
        0.017345283783194675,
        0.00609590252138887,
        0.29735976981317064,
        -0.22161844299290512,
        0.13860559607680917,
        -0.007619877043295091,
        0.0784770528643884,
        -0.15005113132754763,
        -0.3539234482402807,
        -0.5182458589978229
      ],
      [
        -0.27934602824740196,
        -0.11466882123483325,
        -0.06650558371838441,
        0.5310638808387834,
        0.34607052504392566,
        -0.2405227790854068,
        0.08692711311273923,
        -0.1357213048954611,
        -0.04279122906344974,
        0.03612822755277724,
        0.2101307821660937,
        -0.08596878602583481,
        0.2659628831835896,
        -0.22719348637579725,
        0.04505319067752878,
        0.6494184316489581
      ],
      [
        0.05576993565631878,
        0.3583036266515432,
        0.028433205442942998,
        0.17842032088797363,
        0.014899831220499234,
        -0.04260189529105111,
        -0.1948705991813549,
        0.13006834939165346,
        -0.2143719012433012,
        0.17922242058171461,
        0.2935148314063224,
        0.11569483318761331,
        -0.07508286081566869,
        0.14644153104664606,
        -0.04162997809810605,
        0.23388678136628732
      ],
      [
        -0.4578515210537809,
        -0.08390184202966156,
        -0.49214983788135847,
        -0.3455392809149485,
        0.34227699910678433,
        0.2237962454929215,
        -0.1798700583211976,
        -0.3028820678107413,
        -0.7672443013414336,
        -0.10187988183522188,
        0.6042474702255116,
        0.15778863618181435,
        -0.14693442636586382,
        0.1345135554207856,
        -0.35470130246011367,
        -0.07433084067440886
      ]
    ],
    [
      [
        0.03517059787236524,
        -0.030441177383622633,
        0.2795921856254451,
        0.12185048828754223
      ],
      [
        0.236288929723784,
        -0.24337635437311497,
        0.3174256817704341,
        0.5759161808951202
      ],
      [
        -0.5258703127722879,
        -0.32424624797235885,
        1.1726291810662592,
        -0.5747393153278755
      ],
      [
        1.0766831645491766,
        -0.7113764115494913,
        1.0310867067104335,
        -0.495604094850961
      ],
      [
        -0.25611528504802394,
        1.3465962206759683,
        -0.13076275056710188,
        -0.77585123403585
      ],
      [
        -0.15859139664721128,
        0.15992420193033224,
        -0.5535794288215994,
        0.22537999903685876
      ],
      [
        -0.19048442609815874,
        0.4058130579682384,
        -0.8464988487604472,
        -0.2780929967127053
      ],
      [
        -1.0287542566942827,
        -0.6363473561362485,
        0.15597478274410007,
        0.6449510058080515
      ],
      [
        -0.30009441906403983,
        -0.21709568855560304,
        0.36096990280302665,
        -0.27430537987933445
      ],
      [
        0.048175677384290926,
        -0.07896862852400907,
        0.21646382908277517,
        0.6314217639256229
      ],
      [
        0.21590078967224913,
        1.1871852064948345,
        -0.33060234726515136,
        -0.3875397459097397
      ],
      [
        -0.2570505566168608,
        -0.10601462171013515,
        -1.1113308323405806,
        0.08879928891400213
      ],
      [
        -0.02706807203864908,
        0.11583095738425056,
        0.016028676899196563,
        -0.26416581943813433
      ],
      [
        0.8221294297590725,
        0.29640360723638853,
        -0.3295021279005116,
        -0.49663066409715906
      ],
      [
        1.0562313069784668,
        -0.316394786624102,
        -0.7672183184583732,
        -0.2482859043663234
      ],
      [
        0.09264364981575933,
        -0.3180901422618369,
        0.0671197752194088,
        -0.5143574223742244
      ]
    ]
  ],
  "biases": [
    [
      [
        0.0,
        0.0,
        0.3251688455059475,
        0.556966927607545,
        0.277012000227194,
        0.0,
        0.0,
        0.5212521881596152,
        0.015270973540315537,
        0.21245052258013156,
        0.15282023731045075,
        0.26957453146564153,
        -0.05331399615087901,
        0.336705339119211,
        0.3330329132769897,
        0.0
      ]
    ],
    [
      [
        -0.21268716167701118,
        -0.3030091048001988,
        -0.32887604264234466,
        0.8445723091195542
      ]
    ]
  ]
}