{
  "layer_sizes": [
    32,
    16,
    3
  ],
  "learning_rate": 0.3,
  "seed": 42,
  "output_activation": "softmax",
  "weights": [
    [
      [
        0.07617926993860784,
        -0.24945736739875563,
        0.220362674220179,
        0.22356259459669836,
        -0.4597270861546652,
        -0.29542388037736494,
        0.055617025559808034,
        -0.07386529326299258,
        0.040869017839264575,
        -0.2214621640626318,
        0.22303667424841847,
        0.19285377705175136,
        0.01650767439030401,
        0.3201619940152799,
        0.1168773355630114,
        -0.21482311572080956
      ],
      [
        0.09218769602062471,
        -0.22918199104588152,
        0.2523624505953829,
        -0.024060062247668327,
        -0.01818387987752124,
        -0.14011138976277082,
        0.32929225943649426,
        -0.03343701569429753,
        -0.06201264832544004,
        -0.09623456979129422,
        0.1362644769210485,
        0.08976680928553399,
        0.1031831528989971,
        0.14605694302524247,
        0.5354119002176153,
        -0.1016037540961539
      ],
      [
        -0.12806068226788433,
        -0.19290452290060123,
        0.1867447309124386,
        0.2706644886791178,
        -0.0004551534049248682,
        -0.1799181229024175,
        -0.18246337915482327,
        0.16784355177907823,
        0.23088285001619727,
        0.12758738490706195,
        -0.16319024628946224,
        0.0564461239611943,
        0.029171452285182056,
        0.09302384145552497,
        0.21785719448704746,
        0.05589888719367057
      ],
      [
        0.16972839076797372,
        0.027433426533591133,
        0.10502972494106083,
        0.14624347195853,
        -0.3362572439551227,
        -0.04979680775111074,
        -0.09393623880521208,
        -0.15452410723793253,
        -0.023716255591334206,
        0.36553414563936215,
        -0.21327059839059948,
        0.24047538184238448,
        -0.4207174429039512,
        -0.045369565223172,
        0.0406882662762514,
        0.14655558283981954
      ],
      [
        0.17780664494821374,
        0.2088754679613495,
        -0.05443139279354461,
        -0.1271665326672469,
        0.24252568132308241,
        -0.01770508488218914,
        -0.29526465606649377,
        -0.27812644867796726,
        -0.18479376428506614,
        0.11608900384420419,
        0.03879361455035257,
        0.17102713171145634,
        -0.10681316158413356,
        0.07798661504245029,
        0.15639759849183418,
        -0.0773366349300596
      ],
      [
        0.11419380938935286,
        -0.1549428261052946,
        -0.058013586372703145,
        -0.10701305800068737,
        -0.270928200388466,
        0.15186411653460996,
        -0.09369366028269417,
        0.008318884504824858,
        0.16525597194181393,
        0.1034316118382492,
        0.1695334577759079,
        -0.02621557793284153,
        -0.10582457801103844,
        0.018422139546671944,
        -0.42183360848950746,
        -0.3617781181057718
      ],
      [
        -0.3306749030886006,
        -0.23877304773900224,
        0.13269343194942385,
        -0.2379483483411203,
        -0.06650892750105353,
        0.35492807078473093,
        -0.06540906799736969,
        0.1895742469396746,
        -0.18833511278713255,
        -0.05956057163614432,
        -0.23431833319493398,
        -0.08635247578062621,
        0.21007703436434888,
        -0.3934784135248155,
        0.10860591088646433,
        0.05943390058306947
      ],
      [
        -0.1485374889241986,
        -0.35097580443574544,
        0.05078225219703214,
        -0.1439517617670557,
        0.08620076384746991,
        0.035584032719075294,
        0.42410164759821556,
        -0.05464355204535306,
        -0.21080506594012952,
        0.036617726569842225,
        0.058186351525652553,
        0.3382026870046237,
        0.20877781147864463,
        0.12756945706064907,
        0.36582572280489045,
        -0.2971907635807127
      ],
      [
        -0.15993788318743693,
        -0.22110532619001302,
        -0.0647025755203772,
        -0.3557501213901823,
        0.18681944771239503,
        -0.025434677936478765,
        -0.34404464885767777,
        -0.2486994154789825,
        0.1234477690778856,
        0.20133045980435849,
        0.502369903455658,
        0.7268714096963463,
        0.1036023583189991,
        -0.20903283773469422,
        -0.5330115701828273,
        0.06692786558595895
      ],
      [
        -0.2032352738275815,
        -0.09330065588355303,
        -0.12027432449638728,
        -0.04677630610520142,
        0.2945267687057048,
        0.06938313819955075,
        -0.016001784491685357,
        -0.25371808338355,
        -0.37360142896075255,
        -0.12977815943756954,
        -0.010258457171868867,
        0.4403882715894853,
        0.03256863036822146,
        0.2840365700290361,
        -0.12482389963478802,
        -0.29623594160425615
      ],
      [
        -0.24127919055809297,
        -0.1813065161339383,
        0.8241367710535236,
        -0.2802744618987591,
        0.829586981609073,
        -0.48906457929176567,
        0.47450717997384256,
        0.4651832418162309,
        -0.1597486382409442,
        -0.010190631533858506,
        -0.2678329907653531,
        0.054640451964006874,
        -0.113745870085195,
        -0.47390311225851695,
        -0.3194843935799048,
        0.04314697943052987
      ],
      [
        0.3947728141026087,
        0.050536562554727826,
        0.0030902937410941097,
        0.059877950399530616,
        0.35453214643550013,
        0.08496662167917872,
        -0.0790748829404475,
        0.2817675323378751,
        0.15225841683074007,
        0.3757378158297612,
        0.048995789838187795,
        -0.3077114647356105,
        -0.34203979981141625,
        0.45108367533108407,
        0.43091643019582426,
        -0.04487980332065016
      ],
      [
        -0.09579683028399694,
        0.37589973222191875,
        -0.24401154524230736,
        -0.2352603392400617,
        0.18886340968105506,
        -0.06853028437668275,
        0.022376458087968898,
        -0.035665369808225135,
        0.12946294441507017,
        0.3436692831591924,
        0.025833407258147652,
        0.15939049151372875,
        -0.5125430252577556,
        0.026172091790742216,
        -0.21080756757321778,
        -0.304703265105907
      ],
      [
        -0.2195380917321877,
        0.15449997177548852,
        0.5212849903762002,
        -0.331598179434891,
        -0.6110511093193772,
        -0.1076295729374529,
        -0.14234888879676633,
        -0.08307004248198699,
        0.8411337897257414,
        0.27880629299227866,
        -0.06261884704186965,
        -0.052053770771325975,
        -0.05596470422012488,
        0.0039121680899528635,
        0.04414333961342776,
        -0.27109701805834163
      ],
      [
        0.022622445406968554,
        0.06759574169609456,
        0.6621183846520448,
        0.4576325683193124,
        -0.18527912663091106,
        -0.04172484404907944,
        -0.3422035756912641,
        -0.14248139866796866,
        0.1239705581129219,
        0.29326222305282157,
        -0.1790837789031908,
        -0.16513081682243486,
        -0.5368222574346637,
        -0.0023147878629552086,
        -0.2656036029648908,
        -0.13235985684151844
      ],
      [
        -0.21921519454189706,
        -0.01302697940177098,
        -0.40668222257059294,
        -0.37833989584885275,
        0.5603434890158682,
        -0.29173464898029317,
        -0.2505394698456732,
        0.4644237369032314,
        0.7713360995254386,
        -0.30109283937557224,
        -0.08887505866429637,
        0.08379468092964179,
        0.4321744111013981,
        -0.20836257733378755,
        -0.061319461485527436,
        0.194334394015436
      ],
      [
        0.10869151861665466,
        -0.08350035864615651,
        -0.0007058658604455416,
        -0.35530253659360056,
        -0.03151172498487239,
        -0.03647587616402421,
        0.08169939717455077,
        -0.13363644988185105,
        0.16295393785162146,
        0.24497777228572035,
        0.04204451244982777,
        0.08634489529431527,
        0.013288836894466841,
        0.03837279054612524,
        -0.18038950838571186,
        0.079123565418327
      ],
      [
        -0.024321649603372367,
        0.5338307363940171,
        0.42608860088737543,
        0.0848830536380201,
        -0.16273259141489793,
        -0.24798187165763996,
        0.32144266304020297,
        0.07088266110968759,
        0.16510515806323942,
        -0.444347678912785,
        0.23504680092225652,
        0.11201087774810514,
        -0.2776076711036195,
        -0.0795295095892155,
        0.0659293010891299,
        0.013116699589060907
      ],
      [
        -0.07304279645088875,
        -0.015333407855121942,
        -0.03024446928315658,
        0.02656204352451204,
        0.3959047042570832,
        -0.6115436138946102,
        -0.03555564135943437,
        0.04932346016601475,
        0.11906780463711167,
        -0.10117982749955928,
        -0.43599326508693453,
        0.08040466412304181,
        0.43183755354104625,
        -0.34511365895576274,
        0.21595700342454707,
        -0.08213130578072347
      ],
      [
        -0.015331086457211825,
        -0.25268596851461905,
        -0.05086416782040437,
        0.3134325641736345,
        0.1736955215057207,
        0.4631988976907006,
        0.3180098970124101,
        0.11496702455529702,
        0.4810529387572847,
        0.10154710751533787,
        0.21018422473197607,
        -0.07573694518916269,
        0.016636453964801207,
        -0.1360042635517974,
        0.24739598364871326,
        -0.2945759057787164
      ],
      [
        0.19558758560441533,
        -0.0371241052149216,
        0.3255616486353947,
        0.17613866268170986,
        0.4831932504204943,
        0.21281466912287572,
        -0.3693531391453235,
        -0.011542938401647208,
        -0.24793249093336725,
        -0.13777114276080546,
        0.3809942888518915,
        0.15778924591893828,
        -0.17473260714468658,
        -0.2150776493368279,
        0.008195523219065198,
        -0.30414003734528194
      ],
      [
        -0.16778506934914528,
        0.08854102704917927,
        0.3215778842952389,
        0.14061178355500484,
        -0.5447906661407313,
        0.1062126785957796,
        0.04166531807613118,
        0.10866792616607623,
        0.4491217276281385,
        -0.5240107513704225,
        -0.14458867576506507,
        0.14613237389285294,
        -0.3953985998634856,
        0.4073389542866489,
        0.0920891531751646,
        0.211645996460851
      ],
      [
        -0.14273591538044864,
        0.21397958165292083,
        0.2998677642658244,
        0.04664092053318698,
        0.0866319341834679,
        0.09770680615864612,
        -0.1921793914168588,
        -0.03168681523718522,
        0.006938674102247057,
        0.08764728391913695,
        0.2531432422602848,
        -0.26622822730008777,
        -0.03125225757989441,
        0.408715579188015,
        -0.18589705720314104,
        -0.20556250432258008
      ],
      [
        0.050576547957798396,
        0.22163495678269823,
        0.035606389158729594,
        0.3206615631081422,
        0.24223020665042566,
        0.24057601306072998,
        0.16218605009900994,
        0.5871086299094246,
        -0.006221115001174287,
        -0.5090817551858653,
        0.40425077091199635,
        -0.116019064544692,
        0.02697011108575826,
        0.3657393634884034,
        -0.40056488526473133,
        -0.31291180352653486
      ],
      [
        -0.4003194842797134,
        -0.18799541334498776,
        0.14265902677281309,
        0.11946837620208764,
        0.09710025584093235,
        -0.3230704746348771,
        -0.5538689343901742,
        0.018783751170498575,
        -0.07287470119424716,
        0.10664526075991612,
        0.17867558708802886,
        0.032966151209184835,
        0.19003327134396344,
        0.09565453580203886,
        0.13251617640036667,
        -0.1761683157174706
      ],
      [
        -0.044902853457864635,
        0.05973268332560758,
        0.23788199412291938,
        -0.11001387755724813,
        0.1583235249418221,
        -0.03633870164063018,
        -0.00572861706404587,
        0.2125751153289212,
        -0.4531957855482023,
        -0.33231926418792707,
        -0.3673591688279941,
        -0.5849982367675622,
        -0.16956611003879418,
        0.22571016720520692,
        -0.07122101659564369,
        0.04944752048546303
      ],
      [
        0.27230437417769815,
        0.16526470530004325,
        -0.37981174051482275,
        0.3349072736733271,
        0.21162321624476452,
        0.2445675635200196,
        -0.16956477771214742,
        -0.37013412814125407,
        -0.5028133483160021,
        -0.08950417201860729,
        0.3506102119136329,
        0.3543412670199097,
        -0.34554537884426,
        0.5821608066783077,
        -0.2601359847893836,
        0.11867427211580049
      ],
      [
        -0.03277166267193165,
        -0.4366491381391462,
        0.2975739984292504,
        -0.17440734720439297,
        -0.07741163757580086,
        -0.20719611014599318,
        -0.11625696963591536,
        0.11736331981953532,
        0.042827529196572116,
        0.06576313623214664,
        0.09685482454763344,
        0.3269770002710703,
        -0.08569653771609483,
        -0.2925110696648893,
        0.26680560414299576,
        -0.08287204302431367
      ],
      [
        0.27864811114434423,
        0.14853757410245896,
        0.13096499379198753,
        0.029301051006048254,
        0.6279116950755445,
        0.6698501139545113,
        0.13562990762312824,
        0.06602442244378386,
        0.49440657544328015,
        -0.25242116903802087,
        0.09920349581812006,
        -0.014436746015892269,
        0.0784770528643884,
        -0.01658374012099288,
        -0.39739187332724224,
        -0.5182458589978229
      ],
      [
        -0.27934602824740196,
        -0.11466882123483325,
        0.218721441282542,
        0.4093799985147166,
        0.8964630231518111,
        -0.5038555638554159,
        0.3285410398680208,
        0.2671759412021838,
        -0.1916801233364454,
        0.046331412353845504,
        0.050656712335842735,
        -0.14169221937751708,
        0.2659628831835896,
        -0.4529862278523059,
        0.0015847655905671105,
        0.6494184316489581
      ],
      [
        0.05576993565631878,
        0.596334458602235,
        0.31518939933049867,
        0.14519427383244918,
        -0.6329047810661546,
        -0.02918910989510935,
        -0.2553012143876311,
        -0.2261841590687498,
        0.49372063317831855,
        0.11085307520995007,
        0.24732932388208279,
        0.21356473395565725,
        -0.07156218338892296,
        0.05677936509932145,
        -0.07716826388660315,
        0.23388678136628732
      ],
      [
        -0.4578515210537809,
        -0.2505586697965413,
        -0.8602302556142875,
        -0.37725440627582346,
        0.5295571090897147,
        0.6777133649698063,
        -0.20083474798366122,
        -0.37562586401022424,
        -1.0219120943430013,
        -0.13587387698315864,
        0.7548177101308337,
        0.03286987709432539,
        -0.13989307151237237,
        0.6002239919884046,
        -0.3902395882486107,
        -0.07433084067440886
      ]
    ],
    [
      [
        0.03517059787236524,
        -0.030441177383622633,
        0.2795921856254451
      ],
      [
        -0.08576987808664281,
        0.4950078055973551,
        -0.29447486387250105
      ],
      [
        0.7524302452004648,
        0.8118803632774556,
        -1.013968397867559
      ],
      [
        -0.2891683053741786,
        0.45615894775138643,
        -0.0762176853282785
      ],
      [
        1.2471386463000615,
        -1.0785180164059411,
        0.6856814786185446
      ],
      [
        -0.48962623648717,
        0.14272238074664945,
        1.0379001500054588
      ],
      [
        0.26812421235604866,
        -0.5645384162270058,
        -0.3228192796697058
      ],
      [
        0.42262497597854,
        -0.6672079961968651,
        0.076307792363917
      ],
      [
        -0.3616299595369567,
        1.065805740682065,
        -1.3353459980354767
      ],
      [
        -0.3014474340186976,
        -0.5578260525603705,
        -0.3071922723710707
      ],
      [
        -0.3808448370402266,
        -0.11476354973860434,
        0.43022282613603285
      ],
      [
        -0.2603963290636747,
        3.699605609881729e-05,
        -0.08058375308652324
      ],
      [
        0.24990908717949742,
        0.23428780066056978,
        0.13613146836535608
      ],
      [
        -0.39701244406459263,
        0.2072268713959083,
        1.2108565138371434
      ],
      [
        -0.03079243947652543,
        -0.10857031303648419,
        -0.2664122309408965
      ],
      [
        -0.36495996716566187,
        -0.4399872200040327,
        -0.31423730364298325
      ]
    ]
  ],
  "biases": [
    [
      [
        0.0,
        0.1267866467858291,
        0.39400143835910684,
        -0.1392975976301421,
        0.33723897775368944,
        0.3623743841692512,
        0.28460756901528295,
        0.0625033608898815,
        0.542211893116299,
        -0.09866533977385664,
        0.03834377089685367,
        -0.019179302798936856,
        0.0,
        0.46139479296517993,
        0.0,
        0.0
      ]
    ],
    [
      [
        -0.15898003708778474,
        -0.018930861744455282,
        0.17791089883224004
      ]
    ]
  ]
}