{
  "layer_sizes": [
    32,
    16,
    4
  ],
  "learning_rate": 0.3,
  "seed": 42,
  "output_activation": "softmax",
  "weights": [
    [
      [
        0.09279097588556014,
        -0.26276840381828304,
        0.16444943060839537,
        0.27076185536436614,
        -0.4073964917146451,
        -0.32632313051934153,
        0.028515522587214483,
        -0.12087042641842421,
        0.033680160673538295,
        -0.21371468164660262,
        0.2667330402386883,
        0.1966922000481674,
        0.027039956437308832,
        0.3634090483637614,
        0.12401143692597318,
        -0.21482311572080956
      ],
      [
        0.10879940196757702,
        -0.24249302746540885,
        0.1964492069835992,
        0.023139198519999266,
        0.034146714562499084,
        -0.17101063990474732,
        0.3021907564639007,
        -0.0804421488497292,
        -0.06920150549116631,
        -0.088487087375265,
        0.17996084291131814,
        0.09360523228194986,
        0.11371543494600193,
        0.18930399737372394,
        0.5425460015805772,
        -0.1016037540961539
      ],
      [
        -0.11144897632093205,
        -0.20621555932012856,
        0.13083148730065497,
        0.3178637494467855,
        0.051875441035095456,
        -0.210817373044394,
        -0.20956488212741675,
        0.12083841862364661,
        0.22369399285047095,
        0.13533486732309113,
        -0.11949388029919257,
        0.060284546957610194,
        0.03970373433218687,
        0.1362708958040066,
        0.22499129585000938,
        0.05589888719367057
      ],
      [
        0.18634009671492596,
        0.014122390114063738,
        0.049116481329277095,
        0.19344273272619755,
        -0.2839266495151026,
        -0.08069605789308731,
        -0.12103774177780574,
        -0.20152924039336417,
        -0.030905112757060458,
        0.3732816280553914,
        -0.16957423240032984,
        0.24431380483880052,
        -0.41018516085694634,
        -0.002122510874690454,
        0.047822367639213215,
        0.14655558283981954
      ],
      [
        0.1906206301528348,
        0.19607020873069236,
        -0.10508084740437373,
        -0.09466075856607957,
        0.2609338019036289,
        -0.04846235470026289,
        -0.321737749223633,
        -0.277916052922559,
        -0.20744937734246982,
        0.1259196302066069,
        0.06215753918210131,
        0.1797874401117454,
        -0.10087042702887515,
        0.09331932420895915,
        0.17691112728338634,
        -0.0773366349300596
      ],
      [
        0.029084013351020285,
        -0.16350624539913824,
        -0.15115751270410996,
        0.12254582097802416,
        -0.47809252692992527,
        0.11686598030682971,
        -0.11735058505068097,
        -0.22838014103871707,
        0.21759117757703222,
        0.11163279400748602,
        0.06729660370337802,
        0.10831381439082428,
        -0.10582457801103844,
        0.5380593115727265,
        -0.4150078697990286,
        -0.3617781181057718
      ],
      [
        -0.33655540830993913,
        -0.24931170690037044,
        0.10789993496945864,
        -0.2891861366081386,
        -0.24218408544262965,
        0.32480707444651635,
        -0.08906599276535648,
        0.48782723915507215,
        -0.29898798237013907,
        -0.03602620090192157,
        -0.327795508123124,
        -0.04389292602654506,
        0.18962564267833884,
        -0.5316912405906756,
        0.2211376578117446,
        0.05943390058306947
      ],
      [
        -0.11531407703029406,
        -0.3670592181134319,
        -0.028294359757970525,
        -0.061131824732825676,
        0.21889366373630445,
        0.003906528773336742,
        0.39355556642101513,
        -0.14345846353331343,
        -0.18011347305624534,
        0.043911509232663806,
        0.14876626403890345,
        0.3442853261919698,
        0.2298423755726543,
        0.2524152580308839,
        0.3800939255308143,
        -0.2971907635807127
      ],
      [
        -0.1433261772404847,
        -0.23441636260954035,
        -0.12061581913216093,
        -0.3085508606225146,
        0.23915004215241525,
        -0.05633392807845534,
        -0.37114615183027133,
        -0.29570454863441403,
        0.1162589119121593,
        0.20907794222038767,
        0.546066269445928,
        0.7307098326927626,
        0.11413464036600393,
        -0.16578578338621275,
        -0.5258774688198654,
        0.06692786558595895
      ],
      [
        -0.18662356788062925,
        -0.10661169230308046,
        -0.17618756810817096,
        0.0004229546624661733,
        0.3468573631457249,
        0.03848388805757416,
        -0.04310328746427893,
        -0.30072321653898154,
        -0.3807902861264785,
        -0.12203067702154033,
        0.03343790881840095,
        0.444226694585901,
        0.04310091241522627,
        0.3272836243775176,
        -0.11768979827182624,
        -0.29623594160425615
      ],
      [
        -0.22466748461114072,
        -0.18407889339209743,
        0.508954064765572,
        -0.16972599353953408,
        0.2899846063829003,
        -0.22651004832551858,
        0.22944867501395416,
        0.054427963193937126,
        -0.0012790243649121054,
        -0.010644331287066119,
        -0.11681337733436659,
        0.11376226656145041,
        -0.10321358803819017,
        -0.22480269432005862,
        -0.31235029221694294,
        0.04314697943052987
      ],
      [
        0.4113845200495611,
        0.037225526135200436,
        -0.052822949870689584,
        0.10707721116719819,
        0.4068627408755202,
        0.05406737153720209,
        -0.10617638591304115,
        0.23476239918244368,
        0.14506955966501373,
        0.3834852982457904,
        0.0926921558284576,
        -0.30387304173919477,
        -0.3315075177644114,
        0.4943307296795656,
        0.43805053155878615,
        -0.04487980332065016
      ],
      [
        -0.07918512433704462,
        0.3625886958023914,
        -0.2999247888540911,
        -0.18806107847239414,
        0.24119400412107528,
        -0.09942953451865938,
        -0.004725044884624683,
        -0.0826705029636568,
        0.12227408724934387,
        0.3514167655752216,
        0.06952977324841747,
        0.1632289145101448,
        -0.502010743210751,
        0.0694191461392238,
        -0.20367346621025587,
        -0.304703265105907
      ],
      [
        -0.22835884956419544,
        -0.08353086017520302,
        0.24091020302190244,
        -0.42582273858707625,
        -0.213807297250569,
        -0.12104235833339462,
        -0.08191827359049021,
        0.7058619768836017,
        0.036153515699476814,
        0.35734930970816464,
        -0.1740614114056931,
        -0.11268763849478246,
        -0.08664179174913991,
        -0.08916750437107773,
        0.21294096000134802,
        -0.27109701805834163
      ],
      [
        0.039234151353920804,
        0.05428470527656716,
        0.606205141040261,
        0.50483182908698,
        -0.13294853219089084,
        -0.072624094191056,
        -0.36930507866385764,
        -0.1894865318234003,
        0.1167817009471956,
        0.3010097054688508,
        -0.13538741291292117,
        -0.16129239382601882,
        -0.5262899753876591,
        0.040932266485526336,
        -0.2584695016019289,
        -0.13235985684151844
      ],
      [
        -0.20260348859494481,
        -0.026338015821298372,
        -0.4625954661823769,
        -0.331140635081185,
        0.6126740834558889,
        -0.32263389912226975,
        -0.2776409728182668,
        0.4174186037477999,
        0.7641472423597123,
        -0.293345356959543,
        -0.045178692674026584,
        0.08763310392605766,
        0.44270669314840294,
        -0.16511552298530607,
        -0.054185360122565626,
        0.194334394015436
      ],
      [
        0.125303224563607,
        -0.09681139506568394,
        -0.05661910947222923,
        -0.30810327582593283,
        0.020818869455147906,
        -0.06737512630600076,
        0.05459789420195713,
        -0.1806415830372827,
        0.15576508068589512,
        0.25272525470174956,
        0.08574087844009759,
        0.09018331829073115,
        0.023821118941471656,
        0.0816198448946068,
        -0.17325540702274994,
        0.079123565418327
      ],
      [
        -0.007709943656420095,
        0.508169420920856,
        0.31607062437645916,
        -0.10107731660650345,
        0.2859889224496975,
        -0.2788811217996165,
        0.2943411600676094,
        -0.01117026243726598,
        0.15473348518768298,
        -0.43660019649675574,
        0.6469616798125724,
        0.04039728437721101,
        -0.26707538905661465,
        0.024033793218890848,
        0.1848182677109611,
        0.013116699589060907
      ],
      [
        0.11616878915273415,
        -0.025872067016490214,
        -0.06299434455172134,
        0.4086766416732829,
        0.4295949578040718,
        -0.6416646102328244,
        -0.08079895566154101,
        0.06852852419341075,
        0.21896866031932932,
        -0.09582187867342822,
        -0.6232076852396129,
        0.0813378426342181,
        0.49784097382797604,
        -0.5245904556836486,
        0.07875346641457018,
        -0.08213130578072347
      ],
      [
        0.17388049914641115,
        -0.26322462767598725,
        -0.08361404308896916,
        0.6955471623224049,
        0.20738577505270908,
        0.433077901352486,
        0.27276658271030346,
        0.13417208858269308,
        0.5809537944395026,
        0.10690505634146893,
        0.022969804579297193,
        -0.0748037666779864,
        0.08263987425173089,
        -0.31548106027968303,
        0.11019244663873638,
        -0.2945759057787164
      ],
      [
        0.2084015708090364,
        -0.04992936444557882,
        0.2749121940245653,
        0.2086444367828771,
        0.5016013710010407,
        0.18205739930480205,
        -0.3958262323024627,
        -0.011332542646239169,
        -0.27058810399077093,
        -0.1279405163984028,
        0.40435821348364026,
        0.16654955431922736,
        -0.1687898725894283,
        -0.19974494017031905,
        0.02870905201061734,
        -0.30414003734528194
      ],
      [
        -0.25289486538747785,
        0.07997760775533554,
        0.228433957963832,
        0.37017066253371617,
        -0.7519549926821902,
        0.0712145423679992,
        0.01800839330814448,
        -0.12803109937746568,
        0.5014569332633566,
        -0.5158095692011857,
        -0.24682552983759498,
        0.2806617662165188,
        -0.3953985998634856,
        0.9269761263127032,
        0.0989148918656436,
        0.211645996460851
      ],
      [
        -0.22784571141878118,
        0.2054161623590772,
        0.20672383793441754,
        0.2761997995118985,
        -0.12053239235799133,
        0.06270866993086573,
        -0.21583631618484542,
        -0.2683858407807272,
        0.05927387973746518,
        0.09584846608837377,
        0.15090638818775506,
        -0.1316988349764221,
        -0.03125225757989441,
        0.9283527512140693,
        -0.17907131851266203,
        -0.20556250432258008
      ],
      [
        0.04469604273645992,
        0.21109629762133003,
        0.010812892178764322,
        0.2694237748411239,
        0.06655504870884951,
        0.21045501672251546,
        0.13852912533102332,
        0.8853616221248221,
        -0.11687398458418086,
        -0.48554738445164247,
        0.31077359598380655,
        -0.07355951479061082,
        0.006518719399748234,
        0.2275265364225431,
        -0.28803313833945127,
        -0.31291180352653486
      ],
      [
        -0.4003194842797134,
        -0.2178831711964555,
        0.02514363228638166,
        -0.23424265675486644,
        0.6900915181996012,
        -0.3531914709730916,
        -0.577525859158161,
        -0.04132073989220184,
        -0.12293050426238677,
        0.11484644292915294,
        0.7523738611012651,
        -0.08364980587863563,
        0.19003327134396344,
        0.15179990217769593,
        0.30760176819972446,
        -0.1761683157174706
      ],
      [
        -0.044902853457864635,
        0.029844925474139767,
        0.12036659963648799,
        -0.4637249105142023,
        0.7513147873004912,
        -0.06645969797884475,
        -0.02938554183203259,
        0.15247062426622085,
        -0.5032515886163418,
        -0.32411808201869025,
        0.20633910518524248,
        -0.7016141938553822,
        -0.16956611003879418,
        0.2818555335808636,
        0.10386457520371402,
        0.04944752048546303
      ],
      [
        0.4615159597813209,
        0.3319215330669229,
        -0.017284483681534887,
        0.7089324860400146,
        0.08475362916430962,
        -0.20934955595686552,
        -0.17018647758380376,
        -0.3457337092909551,
        -0.07706330053585857,
        -0.09234740536171304,
        0.01686901522468284,
        0.42953142949718676,
        -0.2795419585573302,
        -0.04291823738963411,
        -0.3973395217993605,
        0.11867427211580049
      ],
      [
        -0.04600279941994321,
        -0.4577264564618826,
        0.24997609904147,
        -0.2925870169304602,
        -0.4656728151921487,
        -0.2674381028224225,
        -0.16357081917188887,
        0.7897313910099055,
        -0.1948741005613584,
        0.11666517484183857,
        -0.11267202390761606,
        0.4221124355163815,
        -0.13171216900961738,
        -0.5939020074947575,
        0.5200020347248762,
        -0.08287204302431367
      ],
      [
        0.46785969674796696,
        0.0958442782956176,
        -0.03278438255083623,
        0.4577299871592394,
        0.5494751045873566,
        0.5192451322634383,
        -0.004241105750925268,
        0.06444806717956784,
        0.4140302022641512,
        -0.21425849153494259,
        -0.10075964646540381,
        -0.0071267402827734265,
        0.1444804731513181,
        -0.34946730594196534,
        -0.5345954103372188,
        -0.5182458589978229
      ],
      [
        -0.0901344426437791,
        -0.11466882123483325,
        -0.07329789666219046,
        0.8548438042550447,
        0.33822030703260714,
        -0.2405227790854068,
        0.0653407235786193,
        -0.07736914023728225,
        0.07387920338753079,
        0.04348817901073974,
        -0.02923446037611924,
        -0.08547564926531316,
        0.3319663034705194,
        -0.42660966099021497,
        -0.13561877141940967,
        0.6494184316489581
      ],
      [
        0.07238164160327108,
        0.35553124939338404,
        -0.0002833237999169078,
        0.18081495009901163,
        0.06616650685064135,
        -0.0433801490948131,
        -0.19831517738596177,
        0.06576556140685964,
        -0.1750038472468316,
        0.16594260932514968,
        0.31820529763445854,
        0.09387706800023776,
        -0.061029901341918116,
        0.19509014144892728,
        -0.07003416252364138,
        0.23388678136628732
      ],
      [
        -0.44503753584915995,
        -0.08616844209895051,
        -0.5156025781232639,
        -0.3528380179567391,
        0.38740538904281774,
        0.22315997201306234,
        -0.18268622671035015,
        -0.3702201134319131,
        -0.7187185153024795,
        -0.13424443278999276,
        0.6316548582263106,
        0.11588716946071512,
        -0.13395033695711409,
        0.16995445381485727,
        -0.3697260594570584,
        -0.07433084067440886
      ]
    ],
    [
      [
        -0.12305989495091631,
        -0.16241811544991314,
        0.6478230916412838,
        0.043827013161275456
      ],
      [
        0.23590020167554127,
        -0.24095478061605125,
        0.31627971636235963,
        0.5750293005943737
      ],
      [
        -0.3487196814252356,
        -0.2898119388693781,
        0.37709425996312107,
        0.009210665325229211
      ],
      [
        0.5313665811723775,
        -0.7474562160855465,
        1.4022442292447905,
        -0.2853652294724631
      ],
      [
        -0.7824668713300719,
        1.169525202084567,
        0.537399625015276,
        -0.7405910047447781
      ],
      [
        -0.15799417446497008,
        0.15969597427843985,
        -0.5537933390122127,
        0.22522491469712327
      ],
      [
        -0.19125905090941478,
        0.40496809743988305,
        -0.844460232177589,
        -0.27851202795595215
      ],
      [
        -1.0112990949159324,
        -0.5408912716309591,
        -0.33987986790473906,
        1.027894410173251
      ],
      [
        0.21954244478108284,
        -0.4361880481295053,
        0.33921158093120873,
        -0.5530915622787371
      ],
      [
        0.22859131423392012,
        0.2034964766025168,
        0.10656323734027265,
        0.2784416136919703
      ],
      [
        0.10959686320091777,
        1.1722811105701874,
        -0.2637642812886818,
        -0.3331697894902306
      ],
      [
        -0.11725346311609948,
        -0.7796866903697149,
        -0.27832337366329857,
        -0.21033319460446132
      ],
      [
        -0.11275217430053423,
        0.054001352762151365,
        0.20957677658545168,
        -0.310200212240405
      ],
      [
        1.4027878849333653,
        0.34556947388878984,
        -0.7741086760000806,
        -0.681848437824284
      ],
      [
        -0.11895069902340291,
        0.2688182869668857,
        -0.8009189481044969,
        0.3753836576906823
      ],
      [
        0.09264364981575933,
        -0.3180901422618369,
        0.0671197752194088,
        -0.5143574223742244
      ]
    ]
  ],
  "biases": [
    [
      [
        0.2666856422864931,
        -0.03047983368310638,
        -0.23853006499296553,
        0.440576068775539,
        0.45454573226426953,
        -0.009136532932461645,
        -0.05066779668507156,
        0.45514133987605393,
        0.3132531697282709,
        0.04024578940586447,
        0.12527549126876236,
        0.16371077369418305,
        0.09234278650114927,
        0.575405966382368,
        0.34437594735209826,
        0.0
      ]
    ],
    [
      [
        -0.09103374900486522,
        -0.19948946098582265,
        -0.22692518682790722,
        0.5174483968185949
      ]
    ]
  ]
}