{
  "layer_sizes": [
    32,
    16,
    4
  ],
  "learning_rate": 0.3,
  "seed": 42,
  "output_activation": "softmax",
  "weights": [
    [
      [
        0.05451928476419509,
        -0.2599960265601239,
        -0.010033886727859325,
        0.5515756270344984,
        -0.6911568804915905,
        -0.3255448767155795,
        0.03196010079182134,
        -0.2542923395160427,
        -0.022810359600685733,
        -0.2242071440057252,
        0.2857684797709025,
        0.35354668860982164,
        0.0035604312946898287,
        0.5875613945298369,
        0.39703754235777455,
        -0.21482311572080956
      ],
      [
        0.06247077691809307,
        -0.23972065020724972,
        0.022099360843947355,
        0.3223357789759919,
        -0.23498705900423245,
        -0.17023238610098534,
        0.30563533466850756,
        -0.23293552744939902,
        -0.11638699065308358,
        -0.12646518878490096,
        0.2187325278686738,
        0.2386637209613494,
        0.09196791643790739,
        0.4281871400544467,
        0.7978067922904801,
        -0.1016037540961539
      ],
      [
        -0.025868691538396434,
        -0.20344318206196943,
        0.15230194275572354,
        0.04908045303383273,
        -0.21400693188621317,
        -0.210039119240632,
        -0.2061203039228099,
        0.40454555433445577,
        0.0677909711355095,
        0.4844090467902119,
        -0.4167066745874981,
        0.2076576320089467,
        0.007203144301295839,
        -0.13216932603563028,
        0.4431876854112217,
        0.05589888719367057
      ],
      [
        0.21060518705976888,
        0.016894767372222865,
        0.07160268451723588,
        0.06455700840107902,
        -0.4384969819529144,
        -0.07991780408932533,
        -0.11759316357319888,
        -0.0629605191095232,
        -0.11599459147281138,
        0.5131835196941641,
        -0.3165894780294406,
        0.301916509144777,
        -0.4295047660975056,
        -0.15845784758359718,
        0.13082046264592118,
        0.14655558283981954
      ],
      [
        0.14808972584568209,
        0.1983368087999813,
        -0.2846944825449801,
        0.21922930855641323,
        0.02572250219637126,
        -0.04782608122040372,
        -0.31892158083448047,
        -0.4776249604330687,
        -0.23916810661270957,
        0.08585838485059744,
        0.12126166549797808,
        0.31992404338727165,
        -0.11802839804522328,
        0.3601168120716545,
        0.418792490564699,
        -0.0773366349300596
      ],
      [
        0.08447689028682123,
        -0.16548148526666281,
        -0.28827667612413865,
        0.23938278322297277,
        -0.4877313795151772,
        0.12174312019639545,
        -0.11735058505068097,
        -0.19117962725027657,
        0.11088162961417046,
        0.07320099284464246,
        0.2520015087235333,
        0.12268133374297395,
        -0.11703981447212815,
        0.30055233657587616,
        -0.15943871641664265,
        -0.3617781181057718
      ],
      [
        -0.3383202004703663,
        -0.24931170690037044,
        0.17170286943937968,
        -0.14405321161228038,
        -0.03813500913175652,
        0.32480707444651635,
        -0.08906599276535648,
        0.21946146608730344,
        -0.2066975061614749,
        -0.07813474944563016,
        -0.17978884577837048,
        -0.10537542537479323,
        0.27426176657037393,
        -0.3778580304721556,
        0.08271430890977594,
        0.05045848505554175
      ],
      [
        -0.15618278630596433,
        -0.36151446359711364,
        0.08979168968698795,
        -0.050056625038215646,
        0.1145746822167669,
        0.00546303638086072,
        0.40044472283022886,
        -0.024756332897724283,
        -0.22916745931447188,
        0.018043548760356368,
        0.11271583894221608,
        0.31917973741045647,
        0.27296254368466966,
        0.1431898401133091,
        0.33993412082820207,
        -0.30616617910824045
      ],
      [
        -0.16758318056920266,
        -0.23164398535138123,
        -0.025693138030421416,
        -0.26185498466134216,
        0.21519336608169207,
        -0.055555674274693344,
        -0.36770157362566447,
        -0.21881219633135357,
        0.10508537570354322,
        0.1827562819948726,
        0.5568993908722212,
        0.7078484601021798,
        0.167787090525024,
        -0.19341245468203433,
        -0.5589031721595155,
        0.05795245005843124
      ],
      [
        -0.21088057120934722,
        -0.10383931504492133,
        -0.08126488700643147,
        0.04711883062363859,
        0.32290068707500164,
        0.039262141861336156,
        -0.039658709259672076,
        -0.2238308642359211,
        -0.3919638223350951,
        -0.1483523372470554,
        0.0442710302446946,
        0.42136532199531807,
        0.09675336257424642,
        0.299656953081696,
        -0.15071550161147643,
        -0.3052113571317839
      ],
      [
        -0.2489244879398587,
        -0.1813065161339383,
        0.6038767458673119,
        -0.12303011757836171,
        0.26602793031217714,
        -0.2257317945217566,
        0.23289325321856102,
        0.13132031549699755,
        -0.01245256057352823,
        -0.03696599151258119,
        -0.10598025590807278,
        0.09090089397086752,
        -0.04956113787917009,
        -0.2524293656158805,
        -0.34537599555659315,
        0.03417156390300215
      ],
      [
        0.4560880085403016,
        0.03999790339335956,
        -0.030675329260360873,
        -0.0684410371871984,
        0.21518839494320963,
        0.054845625340964085,
        -0.10273180770843429,
        0.4217105919419406,
        0.03637556661619273,
        0.5931112858273455,
        -0.10438893935371821,
        -0.21634687718476509,
        -0.355220784601748,
        0.30062709792708225,
        0.5661147247503286,
        -0.04487980332065016
      ],
      [
        -0.05492003399220176,
        0.36536107306055055,
        -0.27743858566613205,
        -0.3169468027975127,
        0.08662367168326335,
        -0.0986512807148974,
        -0.001280466680017824,
        0.055898218320184066,
        0.037184608533592955,
        0.4913186572139943,
        -0.0774854723806934,
        0.220831618816121,
        -0.52133034845131,
        -0.08691619056968289,
        -0.12067537120354799,
        -0.304703265105907
      ],
      [
        -0.17866129544039253,
        -0.08353086017520302,
        0.22829847043374313,
        -0.42486322749344707,
        -0.0665501538403934,
        -0.12104235833339462,
        -0.08191827359049021,
        0.3474483992774632,
        0.08731983058484107,
        0.47379771874625104,
        -0.13875811891860498,
        -0.11413873242076916,
        -0.06475202741367937,
        -0.014112392269348007,
        0.13427553598309752,
        -0.27109701805834163
      ],
      [
        0.022622445406968554,
        0.057057082534726286,
        0.3273628566077996,
        0.021721686841678634,
        0.4915337469969629,
        -0.07184584038729402,
        -0.3658605004592508,
        -0.18441715009533782,
        0.24626741626867535,
        0.29532880827962754,
        0.3852772587543674,
        -0.313984109526054,
        -0.5503630569560014,
        -0.06293680478013831,
        -0.2853859240371975,
        -0.18860674812959558
      ],
      [
        -0.21921519454189706,
        -0.023565638563139247,
        -0.7414377506148383,
        -0.8142507773264867,
        1.2371563626437423,
        -0.32185564531850774,
        -0.2741963946136599,
        0.42248798547586225,
        0.8936329576811914,
        -0.29902625414876627,
        0.4754859789932619,
        -0.06505861177397759,
        0.4186336115800606,
        -0.26898459425097065,
        -0.08110178255783419,
        0.13808750272735887
      ],
      [
        0.1495683149084498,
        -0.09403901780752481,
        -0.034132906284270445,
        -0.4369890001510515,
        -0.13375146298266408,
        -0.06659687250223878,
        0.05804247240656399,
        -0.0420728617534418,
        0.0706756019701443,
        0.39262714634052226,
        -0.061274367189013246,
        0.14778602259670742,
        0.0045015137009123555,
        -0.07471549181429984,
        -0.09025731201604213,
        0.079123565418327
      ],
      [
        -0.01990657714653379,
        0.5232920772326487,
        0.45182997941171876,
        0.13942602783966093,
        -0.16401141789145052,
        -0.2781028679958545,
        0.29778573827221627,
        0.11961602451026483,
        0.12955268809308745,
        -0.42165218226567786,
        0.25292034109094963,
        0.11236451116576811,
        -0.22742524169332268,
        -0.0932558203030125,
        0.0682785794906106,
        0.005778709278860558
      ],
      [
        -0.07304279645088875,
        -0.025872067016490214,
        0.9390618054044751,
        0.5534997397366298,
        0.23739034574988904,
        -0.6416646102328244,
        -0.05921256612742106,
        0.5713616804699628,
        0.07399849742177488,
        -0.17103123554894353,
        -0.7787071349231438,
        -0.0686297407977339,
        0.859637771543595,
        -0.44813907177719836,
        -0.23679906650451985,
        -0.08213130578072347
      ],
      [
        -0.016248816013643076,
        -0.26322462767598725,
        -0.02503444607861525,
        0.3801429311548855,
        0.18209790176813997,
        0.433077901352486,
        0.2943529722444234,
        0.15107718035199977,
        0.45165937618579893,
        0.10605014130097933,
        0.24112098352410333,
        -0.0831909632282251,
        0.0679652808198324,
        -0.13998041098869182,
        0.23798658226449157,
        -0.3019138960889167
      ],
      [
        0.1879422882226496,
        -0.047662764376289864,
        0.3645710861253505,
        0.2700337994105499,
        0.5115671687897912,
        0.1826936727846612,
        -0.39301006391331017,
        0.018344280745981566,
        -0.2662948843077098,
        -0.15634532057029135,
        0.4355237762684554,
        0.1387662963247713,
        -0.11054787493866157,
        -0.19945726628416804,
        -0.017696078757623208,
        -0.3131154528728097
      ],
      [
        -0.175430366730911,
        0.07800236788781097,
        0.3605873217851947,
        0.23450692028384476,
        -0.5164167477714339,
        0.07609168225756495,
        0.01800839330814448,
        0.13855514531370502,
        0.430759334253796,
        -0.5425849291799079,
        -0.09005918834850163,
        0.12710942429868596,
        -0.3312138676574607,
        0.4229593373393088,
        0.0661975511984762,
        0.20267058093332332
      ],
      [
        -0.15038121276221436,
        0.20344092249155263,
        0.3388772017557802,
        0.14053605726202703,
        0.1150058525527649,
        0.06758580982043147,
        -0.21583631618484542,
        -0.0017995960895564466,
        -0.01142371927209532,
        0.0690731061096511,
        0.3076727296768486,
        -0.28525117689425505,
        0.032932474626130526,
        0.4243359622406749,
        -0.21178865917982945,
        -0.21453791985010776
      ],
      [
        0.04293125057603264,
        0.21109629762133003,
        0.07461582664868542,
        0.41455669983698235,
        0.2706041250197226,
        0.21045501672251546,
        0.13852912533102332,
        0.6169958490570527,
        -0.024583508375516688,
        -0.5276559329953506,
        0.45878025832856023,
        -0.13504201413885908,
        0.09115484329178322,
        0.3813597465410633,
        -0.4264564872414197,
        -0.3218872190540626
      ],
      [
        -0.35944268798791823,
        -0.19853407250635596,
        0.10923198634898823,
        0.03778191264463665,
        -0.005139482156859328,
        -0.3531914709730916,
        -0.577525859158161,
        0.11034733929890779,
        -0.16515303707572432,
        0.2542946348147182,
        0.07535670744918774,
        0.09440727851157715,
        0.18124594815040893,
        -0.0174337465583863,
        0.2226483727700365,
        -0.1761683157174706
      ],
      [
        -0.05254815083963038,
        0.04919402416423931,
        0.2768914316128753,
        -0.016118740828408112,
        0.18669744331111915,
        -0.06645969797884475,
        -0.02938554183203259,
        0.24246233447655005,
        -0.4715581789225448,
        -0.350893441997413,
        -0.3128296814114302,
        -0.6040211863617287,
        -0.10538137783276919,
        0.24133055025786682,
        -0.09711261857233208,
        0.04047210495793531
      ],
      [
        0.32340036954244195,
        0.3319215330669229,
        -0.01813094012561008,
        0.22181516231915407,
        -0.06972836912771989,
        -0.20934955595686552,
        -0.1486000880496838,
        -0.24918544945211393,
        -0.28104474926608874,
        0.08480606783834921,
        0.07573163096198814,
        0.5050011084126291,
        -0.3565295328362032,
        0.004786129456038008,
        -0.1474707393272965,
        0.11867427211580049
      ],
      [
        0.05920112898460754,
        -0.4577264564618826,
        0.2305506262927859,
        -0.36109653633393396,
        -0.30044312031863374,
        -0.2674381028224225,
        -0.16357081917188887,
        0.32468023181418176,
        -0.15353139973291732,
        0.39592393231314205,
        -0.13481585950658106,
        0.46482098500008184,
        -0.1054680149015924,
        -0.5373717819075284,
        0.46960304597475283,
        -0.08287204302431367
      ],
      [
        0.32974410650908803,
        0.0958442782956176,
        -0.03363083899491142,
        -0.029387336561621326,
        0.39499310629532763,
        0.5192451322634383,
        0.017345283783194675,
        0.16099632701840907,
        0.21004875353392088,
        -0.037105018334880294,
        -0.04189703072809847,
        0.06834293863266921,
        0.0674928988724453,
        -0.3017629390962933,
        -0.2847266278651553,
        -0.5182458589978229
      ],
      [
        -0.2968816529885322,
        -0.11466882123483325,
        -0.42607621879584373,
        0.4548620182335274,
        0.5617232324855047,
        -0.2405227790854068,
        0.08692711311273923,
        -0.2670856346871328,
        0.02067024011831395,
        0.033553916977436746,
        0.570418555497123,
        -0.05203919782534782,
        0.2468380571209901,
        -0.052167555835534424,
        0.21577179900754107,
        0.6135167695388474
      ],
      [
        0.04812463827455303,
        0.3583036266515432,
        0.09463935730182262,
        0.227510826060184,
        0.04220983077991801,
        -0.04260189529105111,
        -0.1948705991813549,
        0.1426579137099201,
        -0.18617738345544763,
        0.1396209490996346,
        0.3290384190607525,
        0.07101569540965487,
        -0.007377451182898026,
        0.16746347015310573,
        -0.10305986586329155,
        0.22491136583875965
      ],
      [
        -0.46549681843554663,
        -0.08390184202966156,
        -0.4259436860224788,
        -0.2914486553290662,
        0.39737118683156814,
        0.2237962454929215,
        -0.1798700583211976,
        -0.3405432900396927,
        -0.7144252956194185,
        -0.16264923696188133,
        0.6628204210111251,
        0.08810391146625923,
        -0.07570833930634736,
        0.17024212770100824,
        -0.4161311902252991,
        -0.08330625620193656
      ]
    ],
    [
      [
        -0.06051857707935267,
        -0.09687712127042264,
        0.18076440771865512,
        0.3828033850328503
      ],
      [
        0.236288929723784,
        -0.24337635437311497,
        0.3174256817704341,
        0.5759161808951202
      ],
      [
        -0.609408099487429,
        -0.64832865537843,
        1.0463771120919267,
        -0.04086705223233099
      ],
      [
        0.9635503551237606,
        -0.5047237946646933,
        0.6999559851667827,
        -0.25799318076669125
      ],
      [
        -0.46727709750706825,
        1.368460489167992,
        0.06584032856226629,
        -0.783156769198197
      ],
      [
        -0.15859139664721128,
        0.15992420193033224,
        -0.5535794288215994,
        0.22537999903685876
      ],
      [
        -0.19048442609815874,
        0.4058130579682384,
        -0.8464988487604472,
        -0.2780929967127053
      ],
      [
        -1.2074402539951963,
        -0.2733516594926889,
        0.3680800238870115,
        0.24853606532249417
      ],
      [
        -0.24574477960676597,
        0.33512000480712545,
        -0.11106589584018134,
        -0.4088349140561288
      ],
      [
        -0.08767530776795218,
        0.023059885836224408,
        -0.28639650145587264,
        1.1681045652562807
      ],
      [
        0.7338810782714325,
        1.0350178244032615,
        -0.5843333402191478,
        -0.4996216594633534
      ],
      [
        -0.03844928735222425,
        -0.8409898741591423,
        -0.5462079757366712,
        0.040050415494463684
      ],
      [
        -0.07734869104680431,
        -0.0704327991733647,
        0.6228284664156519,
        -0.6344212333888188
      ],
      [
        0.9633641170261548,
        0.007585353604912403,
        -0.2277029510495064,
        -0.45084627458377025
      ],
      [
        0.49371725951928597,
        -0.34430303691112685,
        -0.9128832397562431,
        0.4878013146777522
      ],
      [
        0.07814731395117792,
        -0.27442452512316223,
        0.049089951250488525,
        -0.5254968796793974
      ]
    ]
  ],
  "biases": [
    [
      [
        0.10621379222048444,
        0.0,
        0.205884320622519,
        0.22145994827060095,
        0.2707931548942503,
        0.0,
        0.0,
        0.51802709889761,
        0.05522885460306323,
        0.4053958718988516,
        0.3168394908673372,
        0.16700238902284825,
        0.40971566544355015,
        0.3010570456728991,
        0.4252859008871114,
        -0.09322416055776916
      ]
    ],
    [
      [
        0.06527303736406481,
        -0.24951613619583404,
        -0.060971639526233266,
        0.2452147383580026
      ]
    ]
  ]
}