{
  "layer_sizes": [
    32,
    16,
    3
  ],
  "learning_rate": 0.3,
  "seed": 42,
  "output_activation": "softmax",
  "weights": [
    [
      [
        0.07486309598839938,
        -0.24777192098352122,
        0.2230092442180653,
        0.22079819561980485,
        -0.4303084334998611,
        -0.3255448767155795,
        0.03196010079182134,
        -0.019439768087388072,
        -0.004200289376072199,
        -0.2144890476717656,
        0.24358362323101473,
        0.19122399276403787,
        0.01650767439030401,
        0.3432976385273977,
        0.1168773355630114,
        -0.2152070015817249
      ],
      [
        0.09087152207041624,
        -0.22749654463064703,
        0.255009020593269,
        -0.02682446122456191,
        0.011234772777282565,
        -0.17023238610098534,
        0.30563533466850756,
        0.02098850948130694,
        -0.1070819555407768,
        -0.08926145340042797,
        0.15681142590364477,
        0.0881370249978205,
        0.1031831528989971,
        0.16919258753736022,
        0.5354119002176153,
        -0.10198763995706923
      ],
      [
        -0.1293768562180928,
        -0.19121907648536673,
        0.18939130091032494,
        0.2679000897022243,
        0.028963499249878934,
        -0.210039119240632,
        -0.2061203039228099,
        0.22226907695468273,
        0.18581354280086057,
        0.13456050129792815,
        -0.14264329730686598,
        0.05481633967348079,
        0.029171452285182056,
        0.11615948596764294,
        0.21785719448704746,
        0.055515001332755234
      ],
      [
        0.16841221681776525,
        0.02911887294882551,
        0.10767629493894702,
        0.14347907298163648,
        -0.3068385913003186,
        -0.07991780408932533,
        -0.11759316357319888,
        -0.100098582062328,
        -0.06878556280667093,
        0.3725072620302284,
        -0.1927236494080032,
        0.238845597554671,
        -0.4207174429039512,
        -0.022233920711054088,
        0.0406882662762514,
        0.1461716969789042
      ],
      [
        0.17649047099800527,
        0.210560914376584,
        -0.051784822795658415,
        -0.12993093164414043,
        0.2719443339778864,
        -0.04782608122040372,
        -0.31892158083448047,
        -0.22370092350236262,
        -0.22986307150040283,
        0.12306212023507043,
        0.05934056353294887,
        0.16939734742374285,
        -0.10681316158413356,
        0.10112225955456827,
        0.15639759849183418,
        -0.07772052079097494
      ],
      [
        0.11287763543914439,
        -0.15325737969006012,
        -0.05536701637481697,
        -0.109777456977581,
        -0.2415095477336621,
        0.12174312019639545,
        -0.11735058505068097,
        0.06274440968042937,
        0.12018666472647724,
        0.11040472822911544,
        0.19008040675850416,
        -0.027845362220555052,
        -0.10582457801103844,
        0.041557784058789876,
        -0.42183360848950746,
        -0.36216200396668713
      ],
      [
        -0.33199107703880903,
        -0.23708760132376774,
        0.13534000194731013,
        -0.24071274731801381,
        -0.03709027484624969,
        0.32480707444651635,
        -0.08906599276535648,
        0.2439997721152791,
        -0.23340442000246925,
        -0.05258745524527809,
        -0.2137713842123377,
        -0.0879822600683397,
        0.21007703436434888,
        -0.3703427690126977,
        0.10860591088646433,
        0.05905001472215414
      ],
      [
        -0.14985366287440707,
        -0.34929035802051106,
        0.05342882219491836,
        -0.14671616074394922,
        0.11561941650227371,
        0.00546303638086072,
        0.40044472283022886,
        -0.0002180268697485654,
        -0.25587437315546624,
        0.043590842960708455,
        0.07873330050824882,
        0.33657290271691,
        0.20877781147864463,
        0.15070510157276695,
        0.36582572280489045,
        -0.29757464944162804
      ],
      [
        -0.1612540571376454,
        -0.21941987977477853,
        -0.06205600552249101,
        -0.3585145203670758,
        0.2162381003671988,
        -0.055555674274693344,
        -0.36770157362566447,
        -0.1942738903033779,
        0.07837846186254882,
        0.2083035761952247,
        0.5229168524382534,
        0.7252416254086331,
        0.1036023583189991,
        -0.18589719322257647,
        -0.5330115701828273,
        0.06654397972504361
      ],
      [
        -0.20455144777778997,
        -0.09161520946831872,
        -0.11762775449850105,
        -0.049540705082094974,
        0.3239454213605089,
        0.039262141861336156,
        -0.039658709259672076,
        -0.19929255820794545,
        -0.41867073617608924,
        -0.1228050430467033,
        0.010288491810727432,
        0.4387584873017716,
        0.03256863036822146,
        0.30717221454115384,
        -0.12482389963478802,
        -0.29661982746517146
      ],
      [
        -0.24259536450830144,
        -0.1690824105573356,
        0.5675138783752424,
        -0.21968965328409515,
        0.2670726645976842,
        -0.2257317945217566,
        0.23289325321856102,
        0.15585862152497326,
        -0.0391594744145226,
        -0.011418697312229088,
        -0.13996279434204,
        0.10829405927732105,
        -0.113745870085195,
        -0.24491410415642248,
        -0.3194843935799048,
        0.04276309356961454
      ],
      [
        0.3934566401524003,
        0.05222200896996221,
        0.005736863738980329,
        0.05711355142263705,
        0.3839507990903042,
        0.054845625340964085,
        -0.10273180770843429,
        0.3361930575134797,
        0.10718910961540337,
        0.3827109322206274,
        0.06954273882078406,
        -0.3093412490233242,
        -0.34203979981141625,
        0.47421931984320187,
        0.43091643019582426,
        -0.045263689181565495
      ],
      [
        -0.09711300423420541,
        0.37758517863715313,
        -0.2413649752444211,
        -0.23802473821695522,
        0.2182820623358588,
        -0.0986512807148974,
        -0.001280466680017824,
        0.01876015536737935,
        0.08439363719973339,
        0.3506423995500586,
        0.04638035624074395,
        0.15776070722601526,
        -0.5125430252577556,
        0.04930773630286013,
        -0.21080756757321778,
        -0.3050871509668223
      ],
      [
        -0.22085426568239616,
        -0.0713067545986004,
        0.26437208085545405,
        -0.3459411629128896,
        0.06510823681220206,
        -0.12104235833339462,
        -0.08191827359049021,
        0.31031033632465854,
        0.13452885925098151,
        0.33312146108231533,
        -0.014892290297167569,
        -0.17720964401087497,
        -0.05596470422012488,
        0.12211153460319513,
        0.04414333961342776,
        -0.27148090391925694
      ],
      [
        0.021306271456760083,
        0.0692811881113289,
        0.6647649546499313,
        0.4548681693424189,
        -0.1558604739761073,
        -0.07184584038729402,
        -0.3658605004592508,
        -0.08805587349236414,
        0.07890125089758512,
        0.3002353394436878,
        -0.15853682992059454,
        -0.16676060111014834,
        -0.5368222574346637,
        0.0208208566491627,
        -0.2656036029648908,
        -0.13274374270243378
      ],
      [
        -0.22053136849210553,
        -0.0113415329865366,
        -0.4040356525727071,
        -0.38110429482574626,
        0.5897621416706723,
        -0.32185564531850774,
        -0.2741963946136599,
        0.5188492620788362,
        0.7262667923101017,
        -0.294119722984706,
        -0.06832810968170011,
        0.0821648966419283,
        0.4321744111013981,
        -0.1852269328216698,
        -0.061319461485527436,
        0.19395050815452067
      ],
      [
        0.10737534466644619,
        -0.0818149122309222,
        0.0019407041374406848,
        -0.35806693557049407,
        -0.0020930723300686166,
        -0.06659687250223878,
        0.05804247240656399,
        -0.07921092470624651,
        0.11788463063628475,
        0.25195088867658655,
        0.06259146143242407,
        0.08471511100660178,
        0.013288836894466841,
        0.06150843505824316,
        -0.18038950838571186,
        0.07873967955741167
      ],
      [
        -0.025637823553580838,
        0.5355161828092512,
        0.4287351708852613,
        0.08211865466112647,
        -0.13331393876009417,
        -0.2781028679958545,
        0.29778573827221627,
        0.12530818628529208,
        0.1200358508479027,
        -0.43737456252191875,
        0.2555937499048528,
        0.11038109346039165,
        -0.2776076711036195,
        -0.05639386507709755,
        0.0659293010891299,
        0.012732813728145572
      ],
      [
        -0.07435897040109721,
        -0.013647961439887564,
        -0.02759789928527036,
        0.023797644547618464,
        0.4253233569118873,
        -0.6416646102328244,
        -0.05921256612742106,
        0.10374898534161925,
        0.07399849742177488,
        -0.09420671110869304,
        -0.41544631610433785,
        0.07877487983532833,
        0.43183755354104625,
        -0.32197801444364493,
        0.21595700342454707,
        -0.08251519164163881
      ],
      [
        -0.016647260407420296,
        -0.25100052209938467,
        -0.048217597822518166,
        0.310668165196741,
        0.20311417416052446,
        0.433077901352486,
        0.2943529722444234,
        0.1693925497309015,
        0.435983631541948,
        0.10852022390620411,
        0.23073117371457233,
        -0.07736672947687617,
        0.016636453964801207,
        -0.11286861903967957,
        0.24739598364871326,
        -0.2949597916396317
      ],
      [
        0.19427141165420686,
        -0.03543865879968722,
        0.32820821863328054,
        0.17337426370481634,
        0.512611903075298,
        0.1826936727846612,
        -0.39301006391331017,
        0.042882586773957294,
        -0.293001798148704,
        -0.13079802636993926,
        0.4015412378344882,
        0.1561594616312248,
        -0.17473260714468658,
        -0.19194200482471013,
        0.008195523219065198,
        -0.30452392320619726
      ],
      [
        -0.16910124329935375,
        0.09022647346441358,
        0.32422445429312474,
        0.13784738457811133,
        -0.5153720134859272,
        0.07609168225756495,
        0.01800839330814448,
        0.16309345134168074,
        0.4040524204128018,
        -0.5170376349795562,
        -0.12404172678246882,
        0.14450258960513945,
        -0.3953985998634856,
        0.4304745987987667,
        0.0920891531751646,
        0.21126211059993566
      ],
      [
        -0.1440520893306571,
        0.21566502806815532,
        0.30251433426371027,
        0.04387652155629343,
        0.11605058683827173,
        0.06758580982043147,
        -0.21583631618484542,
        0.022738709938419255,
        -0.0381306331130897,
        0.0946204003100032,
        0.27369019124288135,
        -0.2678580115878015,
        -0.03125225757989441,
        0.4318512237001328,
        -0.18589705720314104,
        -0.20594639018349542
      ],
      [
        0.049260374007589924,
        0.22332040319793273,
        0.03825295915661582,
        0.3178971641312487,
        0.27164885930522964,
        0.21045501672251546,
        0.13852912533102332,
        0.6415341550850291,
        -0.05129042221651105,
        -0.502108638794999,
        0.42479771989459303,
        -0.11764884883240549,
        0.02697011108575826,
        0.3888750080005212,
        -0.40056488526473133,
        -0.31329568938745017
      ],
      [
        -0.40163565822992187,
        -0.18630996692975327,
        0.1453055967706994,
        0.11670397722519404,
        0.12651890849573616,
        -0.3531914709730916,
        -0.577525859158161,
        0.07320927634610304,
        -0.11794400840958394,
        0.11361837715078237,
        0.19922253607062512,
        0.03133636692147133,
        0.19003327134396344,
        0.11879018031415683,
        0.13251617640036667,
        -0.17655220157838594
      ],
      [
        -0.044902853457864635,
        0.23986090821524367,
        0.8926634856333613,
        -0.5588240453373963,
        0.38285653466042835,
        -0.06645969797884475,
        -0.02938554183203259,
        0.8819059479593812,
        -0.498265092763539,
        -0.32411808201869025,
        -0.6143404997685209,
        -0.686322255692948,
        -0.16956611003879418,
        0.019719944645448108,
        -0.07122101659564369,
        0.04944752048546303
      ],
      [
        0.2644073304764473,
        0.42811088295443905,
        0.16833601656409278,
        0.5745683766884959,
        -0.05210596159640337,
        -0.20934955595686552,
        -0.1486000880496838,
        -0.3764148662004453,
        -0.2220334634334131,
        -0.09687256668883078,
        0.2573966813216787,
        0.5449660247749798,
        -0.34554537884426,
        0.14337791894429885,
        -0.2601359847893836,
        0.11637095695030848
      ],
      [
        -0.041685567523619314,
        -0.33625814968372486,
        0.4264942915276605,
        0.29719317975749415,
        -0.455237962074562,
        -0.2674381028224225,
        -0.16357081917188887,
        -0.10555545350697744,
        -0.04731108523410138,
        0.07384831612985904,
        0.105773252328451,
        0.5354113380821369,
        -0.08569653771609483,
        -0.5009474369156812,
        0.26680560414299576,
        -0.08547194407657617
      ],
      [
        0.2697342062926566,
        0.21731258507377543,
        0.1616356610847032,
        0.5356373314712508,
        0.16599023755040143,
        0.5192451322634383,
        0.017345283783194675,
        -0.17248041535143793,
        0.2690600393665964,
        -0.219732442632598,
        0.09856038200080386,
        0.1987802122116311,
        0.0784770528643884,
        -0.34007518419159966,
        -0.39739187332724224,
        -0.5208457600500854
      ],
      [
        -0.2882599330990896,
        0.006799485543324485,
        0.12112214697334897,
        0.9327511485670559,
        -0.0452645600043489,
        -0.2405227790854068,
        0.08692711311273923,
        -0.314297622768288,
        -0.07109095951002378,
        0.03801422791308428,
        0.1700855680900884,
        0.12043130322909142,
        0.2659628831835896,
        -0.4172175392398493,
        0.0015847655905671105,
        0.6468185305966956
      ],
      [
        0.04685603080463111,
        0.4797719334297009,
        0.2173000881788415,
        0.5936376317921261,
        -0.3359587010793462,
        -0.04260189529105111,
        -0.1948705991813549,
        -0.10495272394131844,
        -0.21288429729644198,
        0.15807912463759607,
        0.28661453995771735,
        0.29687877600940277,
        -0.07156218338892296,
        -0.018241587877074136,
        -0.07716826388660315,
        0.2312868803140248
      ],
      [
        -0.4578515210537809,
        -0.31324819329125625,
        -1.1399288431766021,
        -0.4589589413815905,
        0.7992514242439067,
        0.2237962454929215,
        -0.1798700583211976,
        -0.43383628829497706,
        -0.7411322094604128,
        -0.13587387698315864,
        0.9943466125109766,
        -0.01544139632171368,
        -0.13989307151237237,
        0.8320700090391007,
        -0.3902395882486107,
        -0.07433084067440886
      ]
    ],
    [
      [
        0.03323661192899532,
        -0.026964997864265636,
        0.27804999204945796
      ],
      [
        0.24658761000530272,
        0.3418086856374873,
        -0.4736332320045785
      ],
      [
        1.1020282071650052,
        0.628038478417265,
        -1.1797244749719094
      ],
      [
        -0.7914773523075359,
        1.2495417297216955,
        -0.36729142036523055
      ],
      [
        0.49104449921889803,
        -0.5592118612871486,
        0.9224694705809159
      ],
      [
        0.04648725634649368,
        0.09129767603465035,
        0.5532113618837944
      ],
      [
        -0.1279051789169342,
        -0.3327369079765173,
        -0.15859139664721128
      ],
      [
        0.8562153683119582,
        -0.8941475820448473,
        -0.1303430141215191
      ],
      [
        -0.19048442609815874,
        0.4058130579682384,
        -0.8464988487604472
      ],
      [
        -0.27923411744119186,
        -0.5942067296551802,
        -0.2930249118537667
      ],
      [
        -0.7616174109325063,
        -0.0032490475196346046,
        0.6994808978093434
      ],
      [
        -0.6849736342371301,
        0.4635668947758766,
        -0.11953634663284558
      ],
      [
        0.24990908717949742,
        0.23428780066056978,
        0.13613146836535608
      ],
      [
        0.24492241310792484,
        -0.4422525288356879,
        1.2184010568962218
      ],
      [
        -0.03079243947652543,
        -0.10857031303648419,
        -0.2664122309408965
      ],
      [
        -0.36499474768308476,
        -0.4399247435113684,
        -0.3142649996182246
      ]
    ]
  ],
  "biases": [
    [
      [
        -0.020579162877032025,
        0.23101214423197391,
        0.5067316215142155,
        0.3382690072693154,
        0.1653386551643958,
        0.0,
        0.0,
        0.29674735926699136,
        0.0,
        -0.01920153918317133,
        0.22113040896339434,
        0.18372555052863457,
        0.0,
        0.3962019583733755,
        0.0,
        -0.006002283859755035
      ]
    ],
    [
      [
        0.017900626208514868,
        -0.17078695556121976,
        0.1528863293527049
      ]
    ]
  ]
}