{
  "layer_sizes": [
    32,
    16,
    4
  ],
  "learning_rate": 0.3,
  "seed": 42,
  "output_activation": "softmax",
  "weights": [
    [
      [
        0.07617926993860784,
        -0.12768534222575953,
        0.6779202966885568,
        0.23514117909780347,
        -0.5603183467369066,
        -0.3792776713600723,
        0.03196010079182134,
        0.1564622043531352,
        0.14239501769202495,
        -0.213260981893395,
        0.11630747818149614,
        0.14251008691629255,
        -0.03527675329722207,
        0.2818103017420082,
        0.09046677715482723,
        -0.21482311572080956
      ],
      [
        0.09218769602062471,
        -0.23134473760332364,
        0.2337453516297385,
        -0.014201395413963355,
        -0.02157607828305306,
        -0.15020386855365667,
        0.30563533466850756,
        -0.0451000029913455,
        -0.05435967812451506,
        -0.0880333876220574,
        0.14302883674585562,
        0.09186980935018577,
        0.14973947836340343,
        0.10664789871911665,
        0.531966368966943,
        -0.1016037540961539
      ],
      [
        -0.12806068226788433,
        -0.2145171447701471,
        0.1721168776870854,
        0.28013936697655106,
        0.04357611672943107,
        -0.2344959144205077,
        -0.2061203039228099,
        0.1547373540031545,
        0.2703225301786922,
        0.13578856707629874,
        -0.15055418169543236,
        0.06398485254917283,
        0.10409444731331652,
        0.05467214918225324,
        0.2136428151569361,
        0.05589888719367057
      ],
      [
        0.16972839076797372,
        0.15049551215242038,
        0.06704328502136747,
        0.1578220564596351,
        -0.6270254176926162,
        0.22686922870715598,
        -0.11759316357319888,
        -0.15971946206083548,
        -0.19425935305881106,
        0.37373532780859897,
        -0.23933828532446516,
        0.20871660353867083,
        -0.5333810218659606,
        -0.09182603309998968,
        0.0406882662762514,
        0.14655558283981954
      ],
      [
        0.17780664494821374,
        0.18726284609180363,
        -0.06905924601889786,
        -0.11769165436981364,
        0.28655695145743815,
        -0.07228287640027953,
        -0.31892158083448047,
        -0.2912326464538908,
        -0.14535408412257134,
        0.12429018601344101,
        0.05142967914438258,
        0.17856586029943503,
        -0.03189016655599903,
        0.03963492276917856,
        0.1521832191617228,
        -0.0773366349300596
      ],
      [
        0.11419380938935286,
        -0.23472685631187323,
        -0.3771481154498554,
        -0.09543447349958227,
        -0.543452761711437,
        0.05566197455705182,
        -0.11735058505068097,
        -0.2543630050619959,
        0.5269705030078927,
        0.11163279400748602,
        -0.08861807509541728,
        -0.06252776717923124,
        0.3148198903193661,
        -0.019929552726599763,
        -0.42183360848950746,
        -0.3617781181057718
      ],
      [
        -0.3306749030886006,
        -0.3185570779455809,
        -0.18644109712772824,
        -0.2263697638400152,
        -0.3390334888240245,
        0.25872592880717304,
        -0.08906599276535648,
        -0.07310764262714603,
        0.1733794182789466,
        -0.051359389466907504,
        -0.4924698660662591,
        -0.12266466502701594,
        0.6307215026947538,
        -0.43183010579808717,
        0.10860591088646433,
        0.05943390058306947
      ],
      [
        -0.1485374889241986,
        -0.35313855099318775,
        0.032165153231387654,
        -0.13409309493335073,
        0.08280856544193804,
        0.02549155392818946,
        0.40044472283022886,
        -0.06630653934240097,
        -0.2031520957392047,
        0.04481890873907904,
        0.06495071135045957,
        0.3403056870692751,
        0.25533413694305096,
        0.0881604127545233,
        0.36238019155421813,
        -0.2971907635807127
      ],
      [
        -0.15993788318743693,
        -0.22326807274745514,
        -0.08331967448602169,
        -0.34589145455647735,
        0.18342724930686322,
        -0.03552715672736458,
        -0.36770157362566447,
        -0.26036240277603045,
        0.13110073927881052,
        0.20953164197359528,
        0.5091342632804653,
        0.7289744097609987,
        0.15015868378340544,
        -0.24844188204082007,
        -0.5364571014334996,
        0.06692786558595895
      ],
      [
        -0.2032352738275815,
        -0.23630263833870713,
        -0.24338044606243112,
        -0.048381170746598263,
        1.0351497988713454,
        0.005810899545191325,
        -0.039658709259672076,
        -0.2865252125710552,
        -0.4424512449691408,
        -0.12157697726833272,
        0.4442214147893351,
        0.5690797397249105,
        0.13323398867758787,
        0.2456848777557644,
        -0.12482389963478802,
        -0.29623594160425615
      ],
      [
        -0.24127919055809297,
        -0.3137698394277242,
        0.44176118681131193,
        -0.21853011894859847,
        0.9782770421085205,
        -0.25918303683790145,
        0.23289325321856102,
        0.06862596716186373,
        -0.06293998320757396,
        -0.010190631533858506,
        0.2939701286365676,
        0.2386153117004602,
        -0.013080511775828639,
        -0.30640144094181204,
        -0.3194843935799048,
        0.04314697943052987
      ],
      [
        0.3947728141026087,
        0.06580341873944551,
        -0.0162099693921826,
        0.06973661723323558,
        0.3168632516030462,
        0.1148976930330613,
        -0.10273180770843429,
        0.27010454504082715,
        0.14354202979308128,
        0.383938997998998,
        0.0527751503071329,
        -0.30995970748532314,
        -0.3101816066669193,
        0.4106172789921043,
        0.42747089894515194,
        -0.04487980332065016
      ],
      [
        -0.09579683028399694,
        0.4976717573949153,
        0.21354607722607033,
        -0.2236817547389566,
        0.08827214909881356,
        -0.15238407535939022,
        -0.001280466680017824,
        0.19466212780790262,
        0.2309889442678305,
        0.3518704653284292,
        -0.08089578880877468,
        0.10904680137826991,
        -0.5643274529452819,
        -0.012179600482529487,
        -0.23721812598140193,
        -0.304703265105907
      ],
      [
        -0.2195380917321877,
        0.048779824159161385,
        0.7192831333259458,
        -0.331598179434891,
        -0.06490167642484318,
        -0.17477515297788745,
        -0.08191827359049021,
        0.48621230876518173,
        0.28112416631907866,
        0.3343495268606859,
        -0.14216843534668622,
        -0.2259235498586203,
        -0.10774913190765097,
        0.0606241978178054,
        0.017732781205243592,
        -0.27109701805834163
      ],
      [
        0.022622445406968554,
        0.08286259788081227,
        0.642818121518768,
        0.4674912351530174,
        -0.2229480214633651,
        -0.011793772695196788,
        -0.3658605004592508,
        -0.1541443859650165,
        0.11525417107526319,
        0.3014634052220584,
        -0.17530441843424577,
        -0.167379059572147,
        -0.5049640642901664,
        -0.042781184201934996,
        -0.2690491342155631,
        -0.13235985684151844
      ],
      [
        -0.21921519454189706,
        -0.024925764108085984,
        -0.6111813966046012,
        -0.37708081735214843,
        0.6837367402541362,
        -0.1336209885732955,
        -0.2741963946136599,
        0.2975169923163171,
        0.9497315869274315,
        -0.2928916572063354,
        0.018694522672967635,
        0.11119375371032489,
        0.7238374941794833,
        -0.2541157338370376,
        -0.06821052398687198,
        0.194334394015436
      ],
      [
        0.10869151861665466,
        -0.08566310520359871,
        -0.019322964826090014,
        -0.3454438697598956,
        -0.03490392339040422,
        -0.04656835495491001,
        0.05804247240656399,
        -0.1452994371788989,
        0.17060690805254639,
        0.25317895445495714,
        0.04880887227463483,
        0.08844789535896705,
        0.059845162358873334,
        -0.0010362537600004948,
        -0.18383503963638412,
        0.079123565418327
      ],
      [
        -0.024321649603372367,
        0.6556027615670129,
        0.8836462233557533,
        0.0964616381391252,
        -0.2633238519971395,
        -0.33183566264034725,
        0.29778573827221627,
        0.3012101587258153,
        0.26663115791599984,
        -0.43614649674354816,
        0.12831760485533414,
        0.061667187612646134,
        -0.3293920987911457,
        -0.11788120186248724,
        0.03951874268094573,
        0.013116699589060907
      ],
      [
        -0.07304279645088875,
        0.1064386173178742,
        0.4273131531852209,
        0.03814062802561714,
        0.2953134436748417,
        -0.6953974048773172,
        -0.05921256612742106,
        0.2796509577821424,
        0.22059380448987198,
        -0.09297864533032246,
        -0.5427224611538568,
        0.030060973987582788,
        0.38005312585352,
        -0.3834653512290344,
        0.18954644501636292,
        -0.08213130578072347
      ],
      [
        -0.015331086457211825,
        -0.18453675038660178,
        -0.12209821781681648,
        0.316411560337739,
        0.29720568278503723,
        0.7558385741137842,
        0.2943529722444234,
        0.08889506793781758,
        0.34534139504197103,
        0.10974828968457469,
        0.4318982437291976,
        -0.042119264128022596,
        -0.0018609191255685685,
        -0.18387212412075557,
        0.243950452398041,
        -0.2945759057787164
      ],
      [
        0.19558758560441533,
        -0.003834092571224036,
        0.25569392697424687,
        0.1791176588458143,
        0.6752568045536554,
        0.42540724525642254,
        -0.39301006391331017,
        -0.037614895019126744,
        -0.35090532017151366,
        -0.12956996059156867,
        0.608678306560837,
        0.20010941260880666,
        -0.16383371559523754,
        -0.260830805840078,
        0.004749991968392926,
        -0.30414003734528194
      ],
      [
        -0.16778506934914528,
        0.10380788323389696,
        0.30227762116196216,
        0.15047045038870982,
        -0.5824595609731849,
        0.13614374994966214,
        0.01800839330814448,
        0.09700493886902838,
        0.44040534059048,
        -0.5158095692011857,
        -0.14080931529612004,
        0.1438841311431408,
        -0.36354040671898863,
        0.36687255794766915,
        0.08864362192449232,
        0.211645996460851
      ],
      [
        -0.14273591538044864,
        0.33704166727175006,
        0.2618813243461309,
        0.05821950503429209,
        -0.2041362395540253,
        0.3743728426169126,
        -0.21583631618484542,
        -0.03688217006008823,
        -0.16360442336522982,
        0.09584846608837377,
        0.22707555532641935,
        -0.29798700560380165,
        -0.14391583654190404,
        0.3622591113111973,
        -0.18589705720314104,
        -0.20556250432258008
      ],
      [
        0.050576547957798396,
        0.21947221022525612,
        0.0169892901930851,
        0.33052022994184715,
        0.23883800824489385,
        0.23048353426984414,
        0.13852912533102332,
        0.5754456426123761,
        0.0014318551997506363,
        -0.5008805730166285,
        0.41101513073680357,
        -0.11391606448004023,
        0.07352643655016475,
        0.3263303191822777,
        -0.40401041651540365,
        -0.31291180352653486
      ],
      [
        -0.4003194842797134,
        -0.19015815990242987,
        0.12404192780716869,
        0.12932704303579262,
        0.09370805743540049,
        -0.33316295342576296,
        -0.577525859158161,
        0.007120763873450621,
        -0.06522173099332222,
        0.11484644292915294,
        0.18543994691283597,
        0.03506915127383664,
        0.23658959680836977,
        0.05624549149591307,
        0.1290706451496944,
        -0.1761683157174706
      ],
      [
        -0.044902853457864635,
        0.05756993676816537,
        0.21926489515727507,
        -0.10015521072354316,
        0.1549313265362903,
        -0.046431180431515985,
        -0.02938554183203259,
        0.20091212803187336,
        -0.44554281534727724,
        -0.32411808201869025,
        -0.36059480900318686,
        -0.5828952367029099,
        -0.12300978457438785,
        0.18630112289908107,
        -0.07466654784631596,
        0.04944752048546303
      ],
      [
        0.27230437417769815,
        0.3208475703587451,
        0.0008375383616766115,
        0.3362927661886775,
        0.09509464575167713,
        -0.23380635113674123,
        -0.1486000880496838,
        -0.3780449710942747,
        -0.1375244760555816,
        -0.08950417201860729,
        0.21671949997139162,
        0.4361369795739889,
        -0.2706223838161255,
        0.09820686706497973,
        -0.264350364119495,
        0.11867427211580049
      ],
      [
        -0.03277166267193165,
        -0.46880041917006043,
        0.25019626993533256,
        -0.1533538844058546,
        -0.06141207845023884,
        -0.29189489800229845,
        -0.16357081917188887,
        0.09906176722070861,
        0.037197902143730116,
        0.08216550057062026,
        0.1063037086089522,
        0.3361099356645347,
        -0.010773542687960297,
        -0.36921445421143295,
        0.2625912248128844,
        -0.08287204302431367
      ],
      [
        0.27864811114434423,
        0.10422019089954371,
        -0.018651606247915967,
        0.08547405584417364,
        0.5123926526348367,
        0.5392736498107669,
        0.017345283783194675,
        0.03358001585512387,
        0.3217823167828581,
        -0.2114152581918368,
        0.09321913351208205,
        -0.005956918729297934,
        0.12503337832879488,
        -0.20939955352020548,
        -0.40083740457791456,
        -0.5182458589978229
      ],
      [
        -0.27934602824740196,
        -0.1257427839430111,
        -0.055175874618978944,
        0.4822040844037074,
        0.3485613236199744,
        -0.2649795742652826,
        0.08692711311273923,
        -0.10968040204060198,
        0.013418027867807722,
        0.046331412353845504,
        0.17061602437058954,
        -0.07887009918851091,
        0.3408858782117241,
        -0.285484556535601,
        -0.0026296137395442625,
        0.6494184316489581
      ],
      [
        0.05576993565631878,
        0.384109141997629,
        0.03632965667859009,
        0.14347435616504906,
        -0.02383298242183293,
        0.017450172401046113,
        -0.1948705991813549,
        0.10110770726524342,
        -0.17653137711876415,
        0.16639630907835729,
        0.27828829211313405,
        0.08779040225410961,
        -0.03970399024442592,
        0.11137669076146595,
        -0.08061379513727543,
        0.23388678136628732
      ],
      [
        -0.4578515210537809,
        0.2501000199208319,
        -0.5107944104088208,
        -0.37376520755680126,
        -0.3158755993682709,
        0.9907638274841247,
        -0.1798700583211976,
        -0.37562586401022424,
        -1.0548166850907628,
        -0.13587387698315864,
        0.5479024870589648,
        0.0253386050929133,
        -0.4215520189173965,
        0.09600811336621162,
        -0.3902395882486107,
        -0.07433084067440886
      ]
    ],
    [
      [
        0.03517059787236524,
        -0.030441177383622633,
        0.2795921856254451,
        0.12185048828754223
      ],
      [
        -0.06695239621858746,
        -0.4656604935093544,
        0.7215607816626733,
        0.6973065460814916
      ],
      [
        -0.8672685519893305,
        -0.2139575366350625,
        1.2733938693767612,
        -0.44439447575863117
      ],
      [
        0.4963237984851086,
        -0.15645440107177622,
        0.5144342743510183,
        0.04648569309480782
      ],
      [
        -0.4592090713185727,
        1.6925447473928537,
        -0.5144675497109047,
        -0.5350011753383821
      ],
      [
        -0.08070615543412059,
        -0.288149416944766,
        -1.125538402147539,
        1.1675273500248062
      ],
      [
        -0.19048442609815874,
        0.4058130579682384,
        -0.8464988487604472,
        -0.2780929967127053
      ],
      [
        -0.6551161254370446,
        -0.3728249310889957,
        0.3727658582064564,
        -0.20900062595879532
      ],
      [
        0.7145570263674885,
        -0.25911077940587346,
        0.23213928394176653,
        -1.1181111155993328
      ],
      [
        0.24990908717949742,
        0.23428780066056978,
        0.13613146836535608,
        0.1967642856632567
      ],
      [
        -0.46130153098535326,
        0.8874903434165643,
        -0.27336454225425183,
        0.5321196328152334
      ],
      [
        -0.4702448248161566,
        0.0436257652813683,
        -0.4664283261265861,
        -0.49254933609219964
      ],
      [
        0.8252467839563041,
        0.10177200827038432,
        -0.3460422031610317,
        -0.7403508462589931
      ],
      [
        0.3173800712629867,
        0.25967153879154914,
        -0.05707364354178997,
        -0.22757772151495545
      ],
      [
        0.19113047786135498,
        0.06361430429482973,
        -0.5033907698499926,
        -0.02702171477652372
      ],
      [
        0.09264364981575933,
        -0.3180901422618369,
        0.0671197752194088,
        -0.5143574223742244
      ]
    ]
  ],
  "biases": [
    [
      [
        0.0,
        0.38794286310227766,
        0.4547395306802639,
        -0.02568326315406492,
        0.0074813324674204715,
        0.7451374497089404,
        0.0,
        0.05085305217497144,
        0.5681292682062609,
        0.0,
        0.13195036385827735,
        -0.052992053128041054,
        0.41588729833686156,
        -0.02772856995603788,
        -0.061563652292885865,
        0.0
      ]
    ],
    [
      [
        0.38465410600181354,
        -0.3825481650474208,
        -0.08783017327852591,
        0.0857242323241331
      ]
    ]
  ]
}