{
  "layer_sizes": [
    32,
    16,
    4
  ],
  "learning_rate": 0.3,
  "seed": 42,
  "output_activation": "softmax",
  "weights": [
    [
      [
        0.07617926993860784,
        -0.2599960265601239,
        0.27119937444612646,
        0.2629738236023102,
        -0.44389522824936106,
        -0.3255448767155795,
        0.030945407235816784,
        -0.038156861277971486,
        -0.004200289376072199,
        -0.2388579811820309,
        0.21441921762654564,
        0.14493943271895549,
        0.050339840426589864,
        0.2818103017420082,
        0.13802346847839386,
        -0.21482311572080956
      ],
      [
        0.09218769602062471,
        -0.23972065020724972,
        0.1460340223466126,
        -0.012481477746563224,
        -0.2327578672638734,
        -0.17023238610098534,
        0.30563533466850756,
        -0.03157687400402276,
        -0.13430121288442778,
        0.1546736075043365,
        0.045991498198231236,
        0.4939358699626564,
        0.07530484768477648,
        0.10770525075197068,
        0.488389130192189,
        -0.1016037540961539
      ],
      [
        -0.12806068226788433,
        -0.20344318206196943,
        0.21465308988187248,
        0.304998083803957,
        -0.012094622335049291,
        -0.210039119240632,
        -0.20694988239290388,
        0.1968260930576428,
        0.18297271526974473,
        0.14019225862837986,
        -0.17990602978428458,
        0.05957989801303532,
        0.05392185364643565,
        0.05467214918225324,
        0.23023785732943078,
        0.05589888719367057
      ],
      [
        0.16972839076797372,
        0.016894767372222865,
        0.15586642516700827,
        0.1856547009641419,
        -0.3204253860498186,
        -0.07991780408932533,
        -0.11860785712920344,
        -0.11881567525291142,
        -0.06878556280667093,
        0.3481383285199633,
        -0.2218880550124723,
        0.1925610375095886,
        -0.3868852768676652,
        -0.08372125749644371,
        0.061834399191633825,
        0.14655558283981954
      ],
      [
        0.17780664494821374,
        0.1983368087999813,
        -0.003594692567597196,
        -0.08775530366163505,
        0.2583575392283865,
        -0.04782608122040372,
        -0.319936274390485,
        -0.24241801669294608,
        -0.22986307150040283,
        0.09869318672480532,
        0.030176157928479823,
        0.12311278737866051,
        -0.07298099554784761,
        0.03963492276917856,
        0.17754373140721663,
        -0.0773366349300596
      ],
      [
        0.11419380938935286,
        -0.16548148526666281,
        -0.14962630402543234,
        -0.09543447349958227,
        -0.44819373249930633,
        0.12174312019639545,
        -0.11735058505068097,
        0.008767926892464082,
        0.09841125885155647,
        0.30579839010860105,
        0.0966776386911118,
        0.2974385119699537,
        -0.1281272221824149,
        -0.019929552726599763,
        -0.45945182450984856,
        -0.3617781181057718
      ],
      [
        -0.3306749030886006,
        -0.24931170690037044,
        -0.016398573691513024,
        0.15928327002979667,
        -0.16977924548880405,
        0.32480707444651635,
        -0.0941394605453793,
        -0.029000224461289487,
        -0.23340442000246925,
        -0.12307778081791465,
        -0.2429357898168068,
        0.04129938371762935,
        0.4750966719308371,
        -0.43183010579808717,
        0.5355974351409372,
        0.05943390058306947
      ],
      [
        -0.1485374889241986,
        -0.36151446359711364,
        -0.2951945747867736,
        0.42822160744234977,
        -0.12842752085431303,
        0.00546303638086072,
        0.39408586869581513,
        -0.4582222123347775,
        -0.25587437315546624,
        -0.02743916436713509,
        0.05499917099294129,
        0.6148552783065881,
        0.5709776600105202,
        0.08921776478737733,
        1.00166095339685,
        -0.2971907635807127
      ],
      [
        -0.15993788318743693,
        -0.23164398535138123,
        -0.1710310037691475,
        -0.3441715368890772,
        -0.027754539673957117,
        -0.055555674274693344,
        -0.36770157362566447,
        -0.24683927378870757,
        0.05115920451889784,
        0.4522386370999891,
        0.41209692473284076,
        1.131040470373469,
        0.07572405310477848,
        -0.24738453000796604,
        -0.5800343402082536,
        0.06692786558595895
      ],
      [
        -0.2032352738275815,
        -0.10383931504492133,
        -0.0923659655269535,
        -0.012442710980362134,
        0.28288729977558014,
        0.039262141861336156,
        -0.04048828772976605,
        -0.2247355421049853,
        -0.4215115637072051,
        -0.11717328571625175,
        -0.02697424066669112,
        0.443522045641326,
        0.057319031729475056,
        0.2456848777557644,
        -0.11244323679240478,
        -0.29623594160425615
      ],
      [
        -0.24127919055809297,
        -0.1813065161339383,
        0.5079029769447967,
        -0.47178242482996646,
        0.8956836193811354,
        -0.2257317945217566,
        0.2308638661065519,
        0.23019359353893096,
        -0.0391594744145226,
        -0.025445138124164646,
        -0.17455747603567057,
        -0.17593194873788756,
        -0.14132974257848355,
        -0.30640144094181204,
        -0.24909376144181763,
        0.04314697943052987
      ],
      [
        0.3947728141026087,
        0.03999790339335956,
        -0.3295052516361356,
        -0.43317699298250556,
        1.2639065507199414,
        0.054845625340964085,
        -0.10273180770843429,
        0.3582725326918102,
        0.10718910961540337,
        0.44024515709936607,
        0.04580860930547653,
        -0.6013338033561189,
        -0.4912645179085678,
        0.4127319830578124,
        0.4749379507096455,
        -0.04487980332065016
      ],
      [
        -0.09579683028399694,
        0.36536107306055055,
        -0.36505568408711864,
        -0.2236817547389566,
        -0.06301903298080873,
        -0.0986512807148974,
        -0.001280466680017824,
        -0.032394128815314824,
        0.05173052838735222,
        0.6431188594801016,
        -0.08185673110269072,
        0.6440745229651786,
        -0.5459969915148204,
        -0.012179600482529487,
        -0.26723489160372943,
        -0.304703265105907
      ],
      [
        -0.2195380917321877,
        -0.08353086017520302,
        1.365866348125586,
        -0.2131385724122113,
        -0.46826864106962723,
        -0.12104235833339462,
        -0.08191827359049021,
        0.8237071515420915,
        0.13452885925098151,
        0.18989085799455813,
        -0.07265672714638458,
        -0.4640863413043192,
        -0.056921331528529705,
        0.0606241978178054,
        -0.5031953976347405,
        -0.27109701805834163
      ],
      [
        0.022622445406968554,
        0.057057082534726286,
        0.712955084877992,
        0.4970437973249242,
        -0.16944726872560686,
        -0.07184584038729402,
        -0.3668751940152553,
        -0.1067729666829475,
        0.07890125089758512,
        0.2758664059334227,
        -0.18770123552506363,
        -0.21304516115523073,
        -0.5029900913983785,
        -0.04066648013622692,
        -0.24445747004950832,
        -0.13235985684151844
      ],
      [
        -0.21921519454189706,
        -0.023565638563139247,
        -0.35584552234464567,
        -0.33892866684324097,
        0.5761753469211724,
        -0.32185564531850774,
        -0.27521108816966444,
        0.5001321688882526,
        0.7262667923101017,
        -0.3184886564949711,
        -0.09749251528616912,
        0.03588033659684585,
        0.46600657713768406,
        -0.24671426960705936,
        -0.040173328570145,
        0.194334394015436
      ],
      [
        0.10869151861665466,
        -0.09403901780752481,
        0.05013083436550193,
        -0.3158913075879888,
        -0.015679867079568234,
        -0.06659687250223878,
        0.05702777885055944,
        -0.09792801789682992,
        0.11788463063628475,
        0.2275819551663213,
        0.03342705582795502,
        0.03843055096151933,
        0.0471210029307527,
        2.1098272853545107e-05,
        -0.1592433754703294,
        0.079123565418327
      ],
      [
        -0.024321649603372367,
        0.5232920772326487,
        0.4539969598568089,
        0.11921664876285938,
        -0.1743720603450224,
        -0.2781028679958545,
        0.2969561598021223,
        0.09986520238825211,
        0.11719502331678688,
        -0.43174280519146735,
        0.2183310174274342,
        0.11514465179994608,
        -0.25285726974236583,
        -0.11788120186248724,
        0.07830996393151313,
        0.013116699589060907
      ],
      [
        -0.07304279645088875,
        -0.025872067016490214,
        -0.37072408207711216,
        0.10169261786254555,
        0.8909685668881854,
        -0.6416646102328244,
        -0.06428603390744386,
        -0.11710273283833243,
        0.07399849742177488,
        -0.12875754469436432,
        -0.44461072170880717,
        0.01962362678945271,
        0.6016089865416745,
        -0.3834653512290344,
        0.6710468939863422,
        -0.08213130578072347
      ],
      [
        -0.015331086457211825,
        -0.26322462767598725,
        -0.050009644061178055,
        0.4422988905205727,
        0.15975183543776114,
        0.433077901352486,
        0.29232358513241424,
        0.08710473069382182,
        0.435983631541948,
        0.0726209423803461,
        0.20156676811010324,
        -0.07975973856419574,
        0.1082654878836377,
        -0.17435595582506921,
        0.37000346439886833,
        -0.2945759057787164
      ],
      [
        0.19558758560441533,
        -0.047662764376289864,
        0.376398348861342,
        0.21554989168732178,
        0.49902510832579844,
        0.1826936727846612,
        -0.3940247574693147,
        0.024165493583373845,
        -0.293001798148704,
        -0.1551669598802045,
        0.3723768322300189,
        0.10987490158614249,
        -0.14090044110840075,
        -0.2534293416100997,
        0.02934165613444765,
        -0.30414003734528194
      ],
      [
        -0.16778506934914528,
        0.07800236788781097,
        0.3724145845211862,
        0.18002301256061679,
        -0.5289588082354271,
        0.07609168225756495,
        0.016993699752139917,
        0.14437635815109726,
        0.4040524204128018,
        -0.5414065684898216,
        -0.1532061323869379,
        0.09821802956005718,
        -0.3615664338271996,
        0.3689872620133772,
        0.11323528609054702,
        0.211645996460851
      ],
      [
        -0.14273591538044864,
        0.20344092249155263,
        0.35070446449177173,
        0.08605214953879885,
        0.10246379208877208,
        0.06758580982043147,
        -0.21685100974085,
        0.004021616747835818,
        -0.0381306331130897,
        0.0702514667997381,
        0.24452578563841215,
        -0.3141425716328838,
        0.0025799084563914595,
        0.3703638869147433,
        -0.16475092428775856,
        -0.20556250432258008
      ],
      [
        0.050576547957798396,
        0.21109629762133003,
        0.08644308938467705,
        0.360072792113754,
        0.2580620645557298,
        0.21045501672251546,
        0.13751443177501874,
        0.6228170618944454,
        -0.05129042221651105,
        -0.5264775723052644,
        0.3956333142901237,
        -0.16393340887748797,
        0.06080227712204411,
        0.32738767121513174,
        -0.37941875234934896,
        -0.31291180352653486
      ],
      [
        -0.4003194842797134,
        -0.19853407250635596,
        0.1934957269987606,
        0.1588796052076996,
        0.11293211374623653,
        -0.3531914709730916,
        -0.5785405527141656,
        0.054492183155519645,
        -0.11794400840958394,
        0.08924944364051726,
        0.17005813046615603,
        -0.014948193123611037,
        0.22386543738024928,
        0.057302843528767106,
        0.15366230931574915,
        -0.1761683157174706
      ],
      [
        -0.044902853457864635,
        0.04919402416423931,
        0.2887186943488668,
        -0.07060264855163628,
        0.1741553828471263,
        -0.06645969797884475,
        -0.030400235388037152,
        0.24828354731394228,
        -0.498265092763539,
        -0.3497150813073259,
        -0.3759766254498667,
        -0.6329125811003576,
        -0.13573394400250835,
        0.1873584749319351,
        -0.05007488368026127,
        0.04944752048546303
      ],
      [
        0.27230437417769815,
        0.3319215330669229,
        0.06630209181297733,
        0.366229116896856,
        0.06689523352262539,
        -0.20934955595686552,
        -0.1496147816056884,
        -0.32923034133332996,
        -0.2220334634334131,
        -0.11510117130724298,
        0.1954659787554889,
        0.3806839066532145,
        -0.31171321280797404,
        0.09820686706497973,
        -0.23898985187400112,
        0.11867427211580049
      ],
      [
        -0.03277166267193165,
        -0.4577264564618826,
        0.31566082338663326,
        -0.12341753369767594,
        -0.08961149067929053,
        -0.2674381028224225,
        -0.16458551272789346,
        0.1478763969816533,
        -0.04731108523410138,
        0.05656850128198454,
        0.08505018739304944,
        0.2806568627437603,
        -0.05186437167980895,
        -0.36921445421143295,
        0.2879517370583781,
        -0.08287204302431367
      ],
      [
        0.27864811114434423,
        0.0958442782956176,
        0.05080219294367599,
        0.11502661801608052,
        0.5316167089456728,
        0.5192451322634383,
        0.016330590227190113,
        0.08095143513719291,
        0.2690600393665964,
        -0.23701225748047267,
        0.0778373170654023,
        -0.055974263126745624,
        0.11230921890067434,
        -0.20834220148735144,
        -0.3762457404118599,
        -0.5182458589978229
      ],
      [
        -0.27934602824740196,
        -0.11466882123483325,
        0.010288678832321735,
        0.5121404351118862,
        0.32036191139092257,
        -0.2405227790854068,
        0.08591241955673468,
        -0.06086577227965719,
        -0.07109095951002378,
        0.02073441306520977,
        0.14936250315468683,
        -0.1343231721092854,
        0.2997950492198756,
        -0.285484556535601,
        0.02273089850594955,
        0.6494184316489581
      ],
      [
        0.05576993565631878,
        0.3583036266515432,
        0.10646662003781426,
        0.17302691833695602,
        0.02966777031592519,
        -0.04260189529105111,
        -0.1958852927373595,
        0.14847912654731232,
        -0.21288429729644198,
        0.14079930978972144,
        0.26589147502231597,
        0.042124300671025953,
        -0.0377300173526371,
        0.11349139482717402,
        -0.056022130971220725,
        0.23388678136628732
      ],
      [
        -0.4578515210537809,
        -0.08390184202966156,
        -0.4141164232864873,
        -0.3459325630522946,
        0.3848291263675754,
        0.2237962454929215,
        -0.18088475187720218,
        -0.33472207720230013,
        -0.7411322094604128,
        -0.16147087627179452,
        0.5996734769726891,
        0.059212516727630345,
        -0.10606090547608645,
        0.11627005237507657,
        -0.36909345533322835,
        -0.07433084067440886
      ]
    ],
    [
      [
        0.03517059787236524,
        -0.030441177383622633,
        0.2795921856254451,
        0.12185048828754223
      ],
      [
        0.236288929723784,
        -0.24337635437311497,
        0.3174256817704341,
        0.5759161808951202
      ],
      [
        -0.5836992480917369,
        -0.48297413159427344,
        1.439323001048695,
        -0.6248763163689477
      ],
      [
        0.9048917146414328,
        -0.4065432968030396,
        0.47700819381798126,
        -0.07456724679721584
      ],
      [
        0.020610715247889596,
        1.637163105903992,
        -0.450545703962374,
        -1.0233611661645152
      ],
      [
        -0.15859139664721128,
        0.15992420193033224,
        -0.5535794288215994,
        0.22537999903685876
      ],
      [
        -0.1842697918438934,
        0.4032428810862431,
        -0.8483420813241459,
        -0.27989422152127685
      ],
      [
        -0.9785386649451686,
        -0.12189824346205667,
        0.5625429207703009,
        -0.3262818366414552
      ],
      [
        -0.09187584800012318,
        -0.05900745144302431,
        0.06998290651269788,
        -0.3496251917655011
      ],
      [
        -0.2372009059252916,
        0.18821995896716773,
        0.0005448905038543373,
        0.8655286983229499
      ],
      [
        0.06566639368660346,
        0.6784549088331832,
        -0.05220492538243371,
        -0.006972474145160476
      ],
      [
        -0.13966110292664932,
        -1.1154423189777947,
        -0.9427723806705864,
        0.8122790808214558
      ],
      [
        0.74965076762598,
        -0.3038095105014167,
        -0.10659392681246677,
        -0.49862158750543273
      ],
      [
        0.31826330476898596,
        0.26142185733963325,
        -0.056444200391531425,
        -0.2308407167192974
      ],
      [
        1.068807725181822,
        0.0880024638452106,
        -0.9810437056783029,
        -0.4514341858190615
      ],
      [
        0.09264364981575933,
        -0.3180901422618369,
        0.0671197752194088,
        -0.5143574223742244
      ]
    ]
  ],
  "biases": [
    [
      [
        0.0,
        0.0,
        0.25734104181583345,
        0.23220001571659207,
        0.33505485212623526,
        0.0,
        -0.010988605742962438,
        0.21443559372447166,
        -0.05519994404137943,
        0.2790247906021932,
        -0.22081620639224164,
        0.39394760611787155,
        0.3048190742269368,
        0.0,
        0.370047269675555,
        0.0
      ]
    ],
    [
      [
        -0.13363115397952888,
        -0.2993390550229637,
        -0.007405733669739708,
        0.440375942672232
      ]
    ]
  ]
}