{
  "layer_sizes": [
    32,
    16,
    4
  ],
  "learning_rate": 0.3,
  "seed": 42,
  "output_activation": "softmax",
  "weights": [
    [
      [
        0.07289375993407606,
        -0.2650733075876032,
        0.21104897686940796,
        0.33771890791174625,
        -0.44364909193448765,
        -0.3255448767155795,
        0.03196010079182134,
        -0.09901045496959136,
        0.004539945850687111,
        -0.2289176654128927,
        0.24287268884477967,
        0.18503525728286307,
        0.018402672357968154,
        0.2982704087083439,
        0.13478714493394914,
        -0.21482311572080956
      ],
      [
        0.08950157630801892,
        -0.24387166013737938,
        0.24232906990614056,
        0.04590901976039135,
        -0.05390110096411115,
        -0.17023238610098534,
        0.3028779856842392,
        0.002181881257379574,
        -0.10528746085630794,
        -0.07030412921829318,
        0.12038764354146154,
        0.11586480800116812,
        0.09676302736152376,
        0.10406251833162002,
        0.5932778458298807,
        -0.1016037540961539
      ],
      [
        -0.13074680198049016,
        -0.20759419199209908,
        0.17671135022319634,
        0.3406335706871775,
        -0.03617237449151479,
        -0.210039119240632,
        -0.20887765290707822,
        0.2034624487307553,
        0.18760803748532948,
        0.15351782548006296,
        -0.1790670796690491,
        0.08254412267682847,
        0.022751326747708737,
        0.0510294167619026,
        0.2757231400993127,
        0.05589888719367057
      ],
      [
        0.1670422710553679,
        0.012743757442093212,
        0.09499634425181848,
        0.21621255396658973,
        -0.3719744650417125,
        -0.07991780408932533,
        -0.12035051255746716,
        -0.11890521028625543,
        -0.06699106812220207,
        0.3914645862123632,
        -0.22914743177018632,
        0.2665733805580187,
        -0.4271375684414245,
        -0.08736398991679438,
        0.09855421188851661,
        0.14655558283981954
      ],
      [
        0.17512052523560792,
        0.19418579886985166,
        -0.06446477348278697,
        -0.05719745065918723,
        0.20680846023649244,
        -0.04782608122040372,
        -0.32167892981874885,
        -0.24250755172628996,
        -0.22806857681593393,
        0.14201944441720524,
        0.022916781170765756,
        0.19712513042709062,
        -0.11323328712160691,
        0.03599219034882792,
        0.21426354410409934,
        -0.0773366349300596
      ],
      [
        0.11150768967674707,
        -0.16963249519679247,
        -0.0680469670619455,
        -0.037043975992627695,
        -0.3066454214750558,
        0.12174312019639545,
        -0.12010793403494925,
        0.043937781456501984,
        0.1219811594109461,
        0.12936205241125023,
        0.15365662439632105,
        -0.00011757921720737323,
        -0.11224470354851178,
        -0.02357228514695043,
        -0.36396766287724225,
        -0.3617781181057718
      ],
      [
        -0.33336102280120644,
        -0.25346271683050003,
        0.12266005126018158,
        -0.16797926633306057,
        -0.10222614858764345,
        0.32480707444651635,
        -0.09182334174962477,
        0.22519314389135167,
        -0.23160992531800034,
        -0.03363013106314332,
        -0.25019516657452084,
        -0.06025447706499207,
        0.20365690882687545,
        -0.43547283821843813,
        0.1664718564987295,
        0.05943390058306947
      ],
      [
        -0.1485374889241986,
        -0.36151446359711364,
        0.04528880307604087,
        -0.32763183717729355,
        -0.2771671418718611,
        0.00546303638086072,
        0.379309193617845,
        0.3780298929846074,
        -0.2968923487661514,
        0.2788334438330902,
        -0.18655022214500747,
        0.5866098714722615,
        0.14769098120533322,
        -0.04185612588943617,
        0.697140914881006,
        -0.2971907635807127
      ],
      [
        -0.16262400290004275,
        -0.23579499528151088,
        -0.07473595620961955,
        -0.2857810393821226,
        0.15110222662580505,
        -0.055555674274693344,
        -0.37045892260993285,
        -0.21308051852730525,
        0.08017295654701768,
        0.2272609003773595,
        0.48649307007607095,
        0.7529694084119807,
        0.09718223278152575,
        -0.2510272624283168,
        -0.47514562457056214,
        0.06692786558595895
      ],
      [
        -0.20592139354018732,
        -0.107990324975051,
        -0.1303077051856296,
        0.02319277590285828,
        0.258809547619115,
        0.039262141861336156,
        -0.04241605824394036,
        -0.2180991864318727,
        -0.4168762414916204,
        -0.1038477188645685,
        -0.026135290551455675,
        0.4664862703051191,
        0.026148504830748143,
        0.2420421453354138,
        -0.06695795402252279,
        -0.29623594160425615
      ],
      [
        -0.2439653102706988,
        -0.18545752606406796,
        0.5548339276881135,
        -0.1469561722991419,
        0.2019367908562902,
        -0.2257317945217566,
        0.2301359042342927,
        0.13705199330104592,
        -0.03736497973005375,
        0.0075386268699056715,
        -0.17638657670422314,
        0.13602184228066866,
        -0.12016599562266835,
        -0.310044173362163,
        -0.2616184479676396,
        0.04314697943052987
      ],
      [
        0.37418326886272485,
        0.008179735965259406,
        -0.14664618576558525,
        -0.13185194949307438,
        0.5899548949652885,
        0.054845625340964085,
        -0.10273180770843429,
        0.2536821433847595,
        0.13532105226499033,
        0.3784507696822977,
        0.3939651253370393,
        -0.3821197982653665,
        -0.34203979981141625,
        0.5947415740203,
        0.34563828471153585,
        -0.04487980332065016
      ],
      [
        -0.11638637552388087,
        0.33354290563245037,
        -0.3937480247489867,
        -0.42699023913266665,
        0.42428615821084326,
        -0.0986512807148974,
        -0.001280466680017824,
        -0.06375075876134105,
        0.11252557984932045,
        0.3463822370117289,
        0.3708027427569992,
        0.08498215798397299,
        -0.5125430252577556,
        0.16982999047995792,
        -0.29608571305750625,
        -0.304703265105907
      ],
      [
        -0.2195380917321877,
        -0.08353086017520302,
        0.25623206173657675,
        -0.5268568393462342,
        -0.3276783215619326,
        -0.12104235833339462,
        -0.10305380280287399,
        0.6885582561790147,
        0.09351088364029639,
        0.5683640619546971,
        -0.2801758129504239,
        0.07282732474447658,
        -0.11705153449343633,
        -0.07044969285900811,
        0.3754585316895432,
        -0.27109701805834163
      ],
      [
        0.022622445406968554,
        0.057057082534726286,
        1.1409927127583548,
        0.7945884643150097,
        -0.3959981163900256,
        -0.07184584038729402,
        -0.3658605004592508,
        0.12458385183833982,
        0.07890125089758512,
        0.24743566409483247,
        -0.26397543396245654,
        -0.30288439923015603,
        -0.5368222574346637,
        -0.11952431792516274,
        -0.46545077601290324,
        -0.13235985684151844
      ],
      [
        -0.22190131425450288,
        -0.0277166484932689,
        -0.4131597197899879,
        -0.3338443310717064,
        0.48087818352684336,
        -0.32185564531850774,
        -0.27971109258219656,
        0.5571671599732163,
        0.7227100666749676,
        -0.24463277571334133,
        -0.13626451550964908,
        0.14209199230134223,
        0.41778487501764927,
        -0.26745695044554774,
        0.039769987033325044,
        0.194334394015436
      ],
      [
        0.08810197337677073,
        -0.12585718523562497,
        -0.1504423453671249,
        -0.5470324364862055,
        0.20391102354491594,
        -0.06659687250223878,
        0.05804247240656399,
        -0.16172183883496688,
        0.14601657328587164,
        0.2476907261382567,
        0.3870138479486793,
        0.011936561764559464,
        0.013288836894466841,
        0.18203068923534096,
        -0.2656676538700003,
        0.079123565418327
      ],
      [
        -0.02700776931597818,
        0.5191410673025191,
        0.41605522019813307,
        0.15485213564607983,
        -0.1984498125014879,
        -0.2781028679958545,
        0.2950283892879479,
        0.10650155806136478,
        0.12183034553237157,
        -0.41841723833978395,
        0.21916996754266965,
        0.1381088764637393,
        -0.2840277966410928,
        -0.1215239342828379,
        0.12379524670139512,
        0.013116699589060907
      ],
      [
        -0.07841503587610037,
        -0.03417408687674952,
        -0.15041306494559412,
        0.45215062129264416,
        0.49835268928300047,
        -0.6416646102328244,
        -0.061969915111689367,
        -0.12674092363288597,
        0.09684115241621273,
        -0.10819330851572614,
        -0.4968009742236699,
        0.18040379473957935,
        0.4331638530475837,
        -0.3736508676515979,
        0.4958253820187211,
        -0.08213130578072347
      ],
      [
        -0.015331086457211825,
        -0.26322462767598725,
        -0.33138243628120245,
        0.8457736582935929,
        0.3413221374919784,
        0.433077901352486,
        0.2943529722444234,
        -0.2646198117034433,
        0.4626247586320267,
        0.07114737828303093,
        0.0848261392675327,
        0.08222017083538104,
        0.0285119759783978,
        -0.17435595582506921,
        0.644758011176569,
        -0.2945759057787164
      ],
      [
        0.19558758560441533,
        -0.047662764376289864,
        0.04504338017459661,
        0.7084797568016681,
        0.6508198664067522,
        0.1826936727846612,
        -0.39301006391331017,
        -0.39112977466038756,
        -0.2663606710586253,
        -0.1681708719931124,
        0.2556362033874484,
        0.315746361943482,
        -0.16285708513109,
        -0.2534293416100997,
        0.4055575507469212,
        -0.30414003734528194
      ],
      [
        -0.1883746145890292,
        0.04618420045971081,
        0.17184140478855942,
        -0.05111811633760015,
        -0.30936791761094273,
        0.07609168225756495,
        0.01800839330814448,
        0.08058253721296035,
        0.4321843630623887,
        -0.5212977975178866,
        0.20038065973378644,
        0.07172404036309721,
        -0.3953985998634856,
        0.5509968529758649,
        0.006811007690876218,
        0.211645996460851
      ],
      [
        -0.16332546062033257,
        0.17162275506345245,
        0.15013128475914486,
        -0.14508897935941797,
        0.3220546827132562,
        0.06758580982043147,
        -0.21583631618484542,
        -0.05977220419030114,
        -0.009998690463502713,
        0.09036023777167339,
        0.5981125777591365,
        -0.3406365608298438,
        -0.03125225757989441,
        0.5523734778772309,
        -0.2711752026874295,
        -0.20556250432258008
      ],
      [
        0.050576547957798396,
        0.21109629762133003,
        0.5144807172650395,
        0.6576174591038394,
        0.03151121689131124,
        0.21045501672251546,
        0.13852912533102332,
        0.8541738804157331,
        -0.05129042221651105,
        -0.5549083141438544,
        0.31935911585273086,
        -0.25377264695241336,
        0.02697011108575826,
        0.24852983342619592,
        -0.6004120583127432,
        -0.31291180352653486
      ],
      [
        -0.4003194842797134,
        -0.19853407250635596,
        0.621533354879123,
        0.45642427219778464,
        -0.11361873391818199,
        -0.3531914709730916,
        -0.577525859158161,
        0.28584900167680705,
        -0.11794400840958394,
        0.060818701801926986,
        0.09378393202876315,
        -0.10478743119853645,
        0.19003327134396344,
        -0.021554994260168714,
        -0.06733099664764566,
        -0.1761683157174706
      ],
      [
        -0.06549239869774855,
        0.01737585673613915,
        0.08814551461623996,
        -0.30174377744985315,
        0.3937462734716104,
        -0.06645969797884475,
        -0.02938554183203259,
        0.18448972637580538,
        -0.47013315011395207,
        -0.32960631033539056,
        -0.022389833329142485,
        -0.6594065702973178,
        -0.16956611003879418,
        0.3693680658944224,
        -0.15649916207993206,
        0.04944752048546303
      ],
      [
        0.2517148289378143,
        0.30010336563882273,
        -0.13427108791964953,
        0.13508798799863922,
        0.2864861241471095,
        -0.20934955595686552,
        -0.1486000880496838,
        -0.39302416227146675,
        -0.19390152078382622,
        -0.09499240033530768,
        0.5490527708762133,
        0.3541899174562545,
        -0.34554537884426,
        0.2802164580274671,
        -0.345414130273672,
        0.11867427211580049
      ],
      [
        -0.05336120791181556,
        -0.48954462388998277,
        0.11508764365400634,
        -0.35455866259589286,
        0.1299793999451936,
        -0.2674381028224225,
        -0.16357081917188887,
        0.08408257604351639,
        -0.019179142584514388,
        0.07667727225391988,
        0.4386369795137737,
        0.2541628735468003,
        -0.08569653771609483,
        -0.1872048632489456,
        0.18152745865870729,
        -0.08287204302431367
      ],
      [
        0.25805856590446036,
        0.06402611086751746,
        -0.14977098678895084,
        -0.11611451088213633,
        0.7512075995701575,
        0.5192451322634383,
        0.017345283783194675,
        0.017157614199055947,
        0.2971919820161833,
        -0.2169034865085372,
        0.4314241091861266,
        -0.08246825232370553,
        0.0784770528643884,
        -0.026332610524864023,
        -0.48267001881153065,
        -0.5182458589978229
      ],
      [
        -0.28263153825193377,
        -0.1197461022623126,
        -0.04986171874439684,
        0.5868855194213215,
        0.320608047705796,
        -0.2405227790854068,
        0.08692711311273923,
        -0.1217193659712771,
        -0.06235072428326452,
        0.030674728834347742,
        0.17781597437292085,
        -0.09422734754537793,
        0.26785788115125375,
        -0.2690244495692653,
        0.019494574961504786,
        0.6494184316489581
      ],
      [
        0.05308381594371297,
        0.35415261672141357,
        0.045596539122624506,
        0.2035847713394038,
        -0.021881308675968898,
        -0.04260189529105111,
        -0.19762794816562324,
        0.14838959151396844,
        -0.21108980261197308,
        0.1841255674821215,
        0.2586320982646018,
        0.11613664371945602,
        -0.07798230892639631,
        0.10984866240682335,
        -0.019302318274337968,
        0.23388678136628732
      ],
      [
        -0.4611370310583127,
        -0.0889791230571409,
        -0.4742668208632058,
        -0.27118747874285853,
        0.3850752626824488,
        0.2237962454929215,
        -0.1798700583211976,
        -0.39557567089392043,
        -0.7323919742336538,
        -0.15153056050265634,
        0.6281269481909227,
        0.09930834129153776,
        -0.13799807354470836,
        0.13273015934141214,
        -0.3723297788776731,
        -0.07433084067440886
      ]
    ],
    [
      [
        0.026754837783689867,
        -0.006899030490983614,
        0.2713683506449926,
        0.11494793646403116
      ],
      [
        0.23099660378548062,
        -0.22789047820235733,
        0.31189647959080097,
        0.5712518328422991
      ],
      [
        -0.790308629279733,
        -0.5053896310419509,
        1.0852740923177124,
        -0.04180252700229164
      ],
      [
        1.2098431064817536,
        -0.7907739658743799,
        1.1292618369126917,
        -0.6475416126609064
      ],
      [
        0.53351488372633,
        0.9302767328123196,
        -0.5122599278067407,
        -0.7676647377069161
      ],
      [
        -0.15859139664721128,
        0.15992420193033224,
        -0.5535794288215994,
        0.22537999903685876
      ],
      [
        -0.21141650384960886,
        0.386779189323163,
        -0.864464775084631,
        -0.2201611239919957
      ],
      [
        -1.1935604470780696,
        -0.4763194701753413,
        0.3188820660101247,
        0.4868220269649064
      ],
      [
        -0.047257913196770474,
        0.0047517305733964,
        0.018955198186931883,
        -0.40697460025950855
      ],
      [
        0.028808147976559277,
        0.1240780320707567,
        -0.04601987756073764,
        0.7102263393821018
      ],
      [
        -0.042746505850047176,
        1.289627293587638,
        -0.059867665274993064,
        -0.5020692194704051
      ],
      [
        -0.07520373485468447,
        -0.658377576501355,
        -0.808114433016655,
        0.15609902261911968
      ],
      [
        -0.0002171977135772034,
        0.09497213380080814,
        0.0003657052237017834,
        -0.25449489850426915
      ],
      [
        -0.012128068050985822,
        0.8241616314466621,
        -0.12955751744515773,
        -0.3900758009527283
      ],
      [
        0.6394271681535029,
        -0.4686772683540971,
        -1.1049238349836463,
        0.6585062327139092
      ],
      [
        0.09264364981575933,
        -0.3180901422618369,
        0.0671197752194088,
        -0.5143574223742244
      ]
    ]
  ],
  "biases": [
    [
      [
        -0.06295388719057678,
        -0.09728613718963296,
        0.19818817302865205,
        0.5652657906036902,
        0.29853990494781013,
        0.0,
        -0.031860143830682634,
        0.4514537795133384,
        0.06950001764376336,
        0.17145039483245023,
        0.3430691533063827,
        0.15063993712552617,
        -0.0718835125482576,
        0.21461702010759137,
        0.5488844287337465,
        0.0
      ]
    ],
    [
      [
        -0.2522134825365453,
        0.04103032447081895,
        -0.194583284166554,
        0.40576644223228037
      ]
    ]
  ]
}