{
  "layer_sizes": [
    32,
    16,
    4
  ],
  "learning_rate": 0.3,
  "seed": 42,
  "output_activation": "softmax",
  "weights": [
    [
      [
        0.07017859874732246,
        -0.34533807451478904,
        0.23076458369185424,
        0.27904898786625754,
        -0.43001025813210025,
        -0.28770347471178503,
        0.03196010079182134,
        -0.08699940783624825,
        0.012582155671902236,
        -0.19538484191661484,
        0.2968556347505474,
        0.21878556257429782,
        0.01650767439030401,
        0.2818103017420082,
        0.15086426150015603,
        -0.12342803643617649
      ],
      [
        0.08618702482933932,
        -0.3250626981619149,
        0.26276436006705794,
        0.03142633102189069,
        0.011532948145043881,
        -0.13239098409719094,
        0.30563533466850756,
        -0.04657113026755325,
        -0.0902995104928023,
        -0.07015724764527738,
        0.2100834374231773,
        0.11569859480808035,
        0.1031831528989971,
        0.10770525075197068,
        0.5693988261547598,
        -0.01020867481152091
      ],
      [
        -0.13296662416230706,
        -0.12434990191590169,
        0.1708026534363377,
        0.2848355555077009,
        -0.03456354617576229,
        -0.17910129353478113,
        -0.2061203039228099,
        0.15615774067095603,
        0.19740150208443222,
        0.14319413269501802,
        -0.13456389614085934,
        0.05992830518935621,
        0.01258701145804913,
        0.05467214918225324,
        0.2605507510582373,
        0.07804994269613452
      ],
      [
        0.16372771957668836,
        -0.06844728058244236,
        0.11543163441273595,
        0.201729865228089,
        -0.30654041593255776,
        -0.0420764020855309,
        -0.11759316357319888,
        -0.1676582218111882,
        -0.05200311775869648,
        0.39161146778537903,
        -0.13945163788847068,
        0.26640716736493103,
        -0.4207174429039512,
        -0.08372125749644371,
        0.07467519221339604,
        0.2379506621244526
      ],
      [
        0.17180597375692838,
        0.11299476084531608,
        -0.04402948332186953,
        -0.07168013939768783,
        0.27224250934564725,
        -0.009984679216609322,
        -0.31892158083448047,
        -0.2912605632512229,
        -0.21308062645242837,
        0.14216632599022114,
        0.11261257505248144,
        0.1969589172340028,
        -0.10681316158413356,
        0.03963492276917856,
        0.1903845244289788,
        0.014058444354573395
      ],
      [
        0.10819313819806747,
        -0.25082353322132805,
        -0.04761167690102806,
        -0.051526664731128304,
        -0.24121137236590104,
        0.15958452220018987,
        -0.11735058505068097,
        -0.004815230068430856,
        0.1369691097744517,
        0.12950893398426605,
        0.2433524182780367,
        -0.00028379241029514887,
        -0.10582457801103844,
        -0.019929552726599763,
        -0.38784668255236276,
        -0.27038303882113895
      ],
      [
        -0.33667557427988604,
        -0.33465375485503557,
        0.14309534142109906,
        -0.18246195507156127,
        -0.036792099478488424,
        0.36264847645031084,
        -0.08906599276535648,
        0.17644013236641892,
        -0.21662197495449478,
        -0.033483249490127466,
        -0.16049937269280518,
        -0.06042069025807984,
        0.21007703436434888,
        -0.43183010579808717,
        0.14259283682360893,
        0.15082897986770255
      ],
      [
        -0.15453816011548396,
        -0.44685651155177886,
        0.06118416166870724,
        -0.0884653684974966,
        0.11591759187003507,
        0.04330443838465514,
        0.40044472283022886,
        -0.06777766661860878,
        -0.23909192810749175,
        0.06269504871585908,
        0.13200531202778137,
        0.36413447252717,
        0.20877781147864463,
        0.08921776478737733,
        0.39981264874203515,
        -0.2057956842960797
      ],
      [
        -0.1659385543787223,
        -0.31698603330604636,
        -0.05430066604870211,
        -0.3002637281206233,
        0.21653627573496004,
        -0.01771427227089896,
        -0.36770157362566447,
        -0.26183353005223814,
        0.09516090691052333,
        0.22740778195037545,
        0.5761888639577863,
        0.7528031952188932,
        0.1036023583189991,
        -0.24738453000796604,
        -0.4990246442456828,
        0.158322944870592
      ],
      [
        -0.20923594501886686,
        -0.18918136299958663,
        -0.10987241502471212,
        0.008710087164357613,
        0.32424359672826975,
        0.07710354386513055,
        -0.039658709259672076,
        -0.26685219795680565,
        -0.4018882911281148,
        -0.1037008372915527,
        0.06356050333026002,
        0.4663200571120316,
        0.03256863036822146,
        0.2456848777557644,
        -0.0908369736976434,
        -0.20484086231962312
      ],
      [
        -0.24727986174937833,
        -0.26664856408860355,
        0.5752692178490313,
        -0.1614388610376426,
        0.2673708399654451,
        -0.1878903925179622,
        0.23289325321856102,
        0.08829898177611308,
        -0.022377029366548194,
        0.007685508442921544,
        -0.08669078282250746,
        0.13585562908758092,
        -0.113745870085195,
        -0.30640144094181204,
        -0.2854974676427601,
        0.1345420587151629
      ],
      [
        0.3887721429113233,
        -0.045344144561305706,
        0.01349220321276925,
        0.11536434366908968,
        0.38424897445806505,
        0.09268702734475848,
        -0.10273180770843429,
        0.26863341776461946,
        0.12397155466337788,
        0.40181513797577806,
        0.12281475034031665,
        -0.2817796792130642,
        -0.34203979981141625,
        0.4127319830578124,
        0.46490335613296896,
        0.04651527596398282
      ],
      [
        -0.10179750147528233,
        0.2800190251058854,
        -0.23360963577063204,
        -0.17977394597050267,
        0.21858023770362006,
        -0.06080987871110297,
        -0.001280466680017824,
        -0.04879948438148086,
        0.1011760822477079,
        0.36974660530520925,
        0.0996523677602765,
        0.1853222770362752,
        -0.5125430252577556,
        -0.012179600482529487,
        -0.17682064163607317,
        -0.21330818582127403
      ],
      [
        -0.22553876292347305,
        -0.1688729081298683,
        0.2721274203292432,
        -0.2876903706664371,
        0.06540641217996342,
        -0.08320095632960023,
        -0.08191827359049021,
        0.2427506965757983,
        0.15131130429895598,
        0.352225666837466,
        0.03837972122236501,
        -0.14964807420061502,
        -0.05596470422012488,
        0.0606241978178054,
        0.0781302655505724,
        -0.1797019387737086
      ],
      [
        0.016621774215683168,
        -0.028284965419938954,
        0.6725202941237203,
        0.5131189615888712,
        -0.15556229860834608,
        -0.0340044383834996,
        -0.3658605004592508,
        -0.15561551324122433,
        0.09568369594555963,
        0.31933954519883845,
        -0.105264818401062,
        -0.1391990312998884,
        -0.5368222574346637,
        -0.04066648013622692,
        -0.2316166770277462,
        -0.04096477755688545
      ],
      [
        -0.22521586573318242,
        -0.10890768651780451,
        -0.3962803130989179,
        -0.32285350257929374,
        0.5900603170384338,
        -0.28401424331471326,
        -0.2741963946136599,
        0.45128962232997577,
        0.7430492373580759,
        -0.27501551722955536,
        -0.015056098162167533,
        0.10972646645218816,
        0.4321744111013981,
        -0.24671426960705936,
        -0.027332535548382796,
        0.285729473300069
      ],
      [
        0.10269084742536927,
        -0.17938106576219012,
        0.009696043611229598,
        -0.29981614332404155,
        -0.0017948969623072712,
        -0.028755470498444367,
        0.05804247240656399,
        -0.14677056445510672,
        0.1346670756842592,
        0.2710550944317372,
        0.11586347295195666,
        0.11227668081686164,
        0.013288836894466841,
        2.1098272853545107e-05,
        -0.14640258244856724,
        0.17051864470296008
      ],
      [
        -0.030322320794657753,
        0.43795002927798354,
        0.4364905103590505,
        0.1403694469075791,
        -0.13301576339233295,
        -0.24026146599206,
        0.29778573827221627,
        0.05774854653643191,
        0.13681829589587718,
        -0.4182703567667681,
        0.3088657614243855,
        0.1379426632706515,
        -0.2776076711036195,
        -0.11788120186248724,
        0.0999162270262745,
        0.10451177887369388
      ],
      [
        -0.07304279645088875,
        1.1152100498225188,
        -0.2045822735915289,
        -0.21714784105243298,
        -0.04060274511060193,
        -0.6416646102328244,
        -0.05921256612742106,
        0.04412810534311174,
        0.05765032058160654,
        -0.14823948883940738,
        -0.6779045516569085,
        -0.056047577613730123,
        0.30471511253964556,
        -0.3834653512290344,
        0.33022172220946666,
        -0.4850920674221808
      ],
      [
        -0.02133175764849721,
        -0.34856667563065247,
        -0.04046225834872931,
        0.36891895744319353,
        0.20341234952828569,
        0.4709193033562805,
        0.2943529722444234,
        0.10183290998204135,
        0.45276607658992246,
        0.12762442966135476,
        0.28400318523410495,
        -0.04980515966661635,
        0.016636453964801207,
        -0.17435595582506921,
        0.281382909585858,
        -0.20318082649408337
      ],
      [
        0.18958691441312997,
        -0.1330048123309552,
        0.33596355810706974,
        0.23162505595126887,
        0.5129100784430596,
        0.2205350747884556,
        -0.39301006391331017,
        -0.024677052974902924,
        -0.27621935310072954,
        -0.11169382061478858,
        0.4548132493540207,
        0.18372103144148474,
        -0.17473260714468658,
        -0.2534293416100997,
        0.042182449156209806,
        -0.21274495806064897
      ],
      [
        -0.17378574054043064,
        -0.007339680066854284,
        0.33197979376691394,
        0.19609817682456387,
        -0.5150738381181658,
        0.11393308426135934,
        0.01800839330814448,
        0.09553381159282055,
        0.42083486546077625,
        -0.49793342922440553,
        -0.07076971526293623,
        0.1720641594153994,
        -0.3953985998634856,
        0.3689872620133772,
        0.1260760791123092,
        0.3030410757454839
      ],
      [
        -0.148736586571734,
        0.11809887453688742,
        0.3102696737374995,
        0.10212731380274605,
        0.11634876220603305,
        0.10542721182422587,
        -0.21583631618484542,
        -0.044820929810440946,
        -0.0213481880651153,
        0.11372460606515379,
        0.32696220276241394,
        -0.24029644177754148,
        -0.03125225757989441,
        0.3703638869147433,
        -0.15191013126599642,
        -0.11416742503794709
      ],
      [
        0.04457587676651302,
        0.12575424966666474,
        0.046008298630404704,
        0.3761479563777012,
        0.2719470346729905,
        0.24829641872630986,
        0.13852912533102332,
        0.5739745153361686,
        -0.034507977168536624,
        -0.4830044330398484,
        0.4780697314141255,
        -0.09008727902214564,
        0.02697011108575826,
        0.32738767121513174,
        -0.36657795932758663,
        -0.22151672424190189
      ],
      [
        -0.40632015547099887,
        -0.2838761204610212,
        0.1530609362444883,
        0.17495476947164668,
        0.12681708386349747,
        -0.3153500689692972,
        -0.577525859158161,
        0.005649636597242853,
        -0.10116156336160943,
        0.132722582905933,
        0.25249454759015766,
        0.05889793673173122,
        0.19003327134396344,
        0.057302843528767106,
        0.16650310233751128,
        -0.08477323643283764
      ],
      [
        -0.05090352464915001,
        -0.03614802379042595,
        0.24828390359459462,
        -0.054527484287689054,
        0.1880403529643871,
        -0.02861829597505034,
        -0.02938554183203259,
        0.19944100075566554,
        -0.48148264771556454,
        -0.3062419420419102,
        -0.2935402083258649,
        -0.5590664512450154,
        -0.16956611003879418,
        0.1873584749319351,
        -0.03723409065849906,
        0.14084259977009606
      ],
      [
        0.2624924903888527,
        0.49010809335905836,
        0.016331111903392655,
        0.34358143704730565,
        0.010878301084440259,
        -0.14747390454516396,
        -0.1486000880496838,
        -0.38311504071169256,
        -0.19885754486626972,
        -0.07469304078116859,
        0.264523316207279,
        0.43396840663684855,
        -0.37871426049852586,
        0.09820686706497973,
        -0.174748871647004,
        0.16297638312072843
      ],
      [
        -0.03277166267193165,
        -0.5847284741096888,
        0.06092879094188685,
        -0.14780816610946976,
        -0.3872518604285237,
        -0.4203282444369133,
        -0.16357081917188887,
        0.06359297138109356,
        -0.06364621635391961,
        0.32558781425823907,
        0.15156578847745095,
        1.0340403952407269,
        -0.08569653771609483,
        -0.36921445421143295,
        1.1010002170661062,
        -0.07609377289017516
      ],
      [
        0.24104326721076255,
        -0.354773150974317,
        -0.3979178170981037,
        -0.3357845967752606,
        1.2833527842284576,
        1.0870785472368651,
        0.017345283783194675,
        0.03367688222190451,
        0.3905669432323569,
        -0.22412461591307004,
        0.7299815348252959,
        -0.1924841334465453,
        0.0784770528643884,
        -0.20834220148735144,
        -0.46496322592892547,
        -0.5182458589978229
      ],
      [
        -0.27934602824740196,
        -0.07186861236635847,
        0.7334034324067716,
        1.1790046173063267,
        0.09657248170935716,
        -0.41832257778650406,
        0.08692711311273923,
        -0.10176955908758127,
        -0.07109095951002378,
        -0.07235583306570414,
        -0.07042648541367494,
        -0.45015310077659015,
        0.2659628831835896,
        -0.285484556535601,
        -0.5520501464433163,
        1.215392372598684
      ],
      [
        0.0459580518674733,
        0.665356183352665,
        0.03802402636358271,
        0.11707421007603606,
        -0.07963905853054098,
        0.01927375612065052,
        -0.1948705991813549,
        0.0945944271689498,
        -0.19184116794654066,
        0.1739980901647571,
        0.3038047770119364,
        0.07739920974993776,
        -0.12131550587032174,
        0.11349139482717402,
        0.023125866871152423,
        0.22561848187205302
      ],
      [
        -0.4627574629482036,
        -0.004808561883593775,
        -0.4808952009885356,
        -0.37117272522932326,
        0.3348888756914339,
        0.2547340711987722,
        -0.1798700583211976,
        -0.3821163202954435,
        -0.7295442501768409,
        -0.12846831136443937,
        0.636917283743165,
        0.11060904228858813,
        -0.1564775123395053,
        0.11627005237507657,
        -0.3475460316774209,
        -0.052179785171944916
      ]
    ],
    [
      [
        0.02942692617816299,
        -0.014561619846311125,
        0.27443137651055505,
        0.11687541155932298
      ],
      [
        -0.412016882260521,
        -0.4236456785177835,
        0.08032149927435778,
        1.6415954995201691
      ],
      [
        -0.038136164736335146,
        -0.569310192360185,
        0.8813914017892563,
        -0.5261717396990001
      ],
      [
        0.1171552515523253,
        -0.40513654500746504,
        1.2915166974524501,
        -0.10274603913815185
      ],
      [
        -0.45448274102428293,
        1.2156000138974892,
        -0.09142978066991021,
        -0.4858205411783017
      ],
      [
        -0.4668485122472416,
        0.8769214293343753,
        -0.7762523772016595,
        0.039312835612905266
      ],
      [
        -0.19048442609815874,
        0.4058130579682384,
        -0.8464988487604472,
        -0.2780929967127053
      ],
      [
        -0.5886088219845128,
        -0.29206818694935366,
        0.08345008072743126,
        -0.06694889607194465
      ],
      [
        -0.17555283783228087,
        0.14101049962730883,
        0.010256137208787246,
        -0.406239383699766
      ],
      [
        0.5382863353700296,
        0.08835274285170472,
        0.10983429513819878,
        0.0806192685087468
      ],
      [
        0.4365473650227996,
        1.00498308312873,
        0.07404252620155805,
        -0.8306290713608948
      ],
      [
        0.6159926813320882,
        -0.6820107533476297,
        -0.8324022401703405,
        -0.48717640956769154
      ],
      [
        -0.05220586546282361,
        0.09341404807156878,
        -0.004669430343869602,
        -0.19591300945821188
      ],
      [
        0.31826330476898596,
        0.26142185733963325,
        -0.056444200391531425,
        -0.2308407167192974
      ],
      [
        0.9136591936986136,
        -0.3993088669893311,
        -0.972200661328698,
        0.1821826321490837
      ],
      [
        -0.2224193363779247,
        -0.5765799210424982,
        0.8073981793843747,
        -0.6810830615648451
      ]
    ]
  ],
  "biases": [
    [
      [
        -0.05018964295435553,
        0.5646683565564866,
        0.20228646536753453,
        0.08121964380159766,
        0.025352393753879585,
        0.316505669935873,
        0.0,
        -0.0663998250644462,
        0.12205193647056237,
        0.08760181159499145,
        0.37661298602700133,
        0.048892233565677706,
        -0.14242812281773812,
        0.0,
        0.4122891301098803,
        0.3129512056426739
      ]
    ],
    [
      [
        -0.010950514829068413,
        -0.29115211324840945,
        -0.0637098720347706,
        0.3658125001122488
      ]
    ]
  ]
}