{
  "layer_sizes": [
    32,
    16,
    4
  ],
  "learning_rate": 0.3,
  "seed": 42,
  "output_activation": "softmax",
  "weights": [
    [
      [
        0.07617926993860784,
        -0.3224024600797908,
        0.18956364917196075,
        0.231745430292037,
        -0.4174678020379364,
        -0.3255448767155795,
        0.027245724568924535,
        -0.0750389170236083,
        -0.003853231514891734,
        -0.2383114822949357,
        0.19825029271865036,
        0.22946251681122326,
        0.06822429110495207,
        0.3596216980810427,
        0.17832883537552205,
        -0.21482311572080956
      ],
      [
        0.09218769602062471,
        -0.23460562296296542,
        -0.12941493424485467,
        -0.012481477746563224,
        -0.39145203813595336,
        -0.17023238610098534,
        0.2760914092550162,
        -0.5392147760986473,
        -0.1070819555407768,
        -0.10175251852536685,
        0.053670751836778316,
        0.2185912403578022,
        -0.06467495976873523,
        0.8822548424938793,
        1.4045368083784602,
        -0.1016037540961539
      ],
      [
        -0.12806068226788433,
        -0.21211154614149388,
        0.1544085842923841,
        0.27886616457197255,
        0.018051715694554025,
        -0.210039119240632,
        -0.20997461539576123,
        0.16984575883490094,
        0.184605001100229,
        0.13489549697032485,
        -0.1847499697844112,
        0.07660297599843266,
        0.07145317519422328,
        0.10857920329189732,
        0.2686463770679329,
        0.05589888719367057
      ],
      [
        0.16972839076797372,
        0.0082264032926984,
        0.07269357832100626,
        0.15444514785138472,
        -0.317750374855644,
        -0.07991780408932533,
        -0.12144747504615024,
        -0.15252190018210982,
        -0.06999410450730252,
        0.37284225770262497,
        -0.23483032188554842,
        0.26063223387962303,
        -0.3784357199949099,
        -0.029814203386799604,
        0.09147744885713664,
        0.14655558283981954
      ],
      [
        0.17780664494821374,
        0.18966844472045688,
        -0.08676753941359917,
        -0.11896485677439216,
        0.2610325504225611,
        -0.04782608122040372,
        -0.32277589230743176,
        -0.27612424162214444,
        -0.2310716132010344,
        0.12339711590746716,
        0.017233891055403648,
        0.1911839837486947,
        -0.06453143867509238,
        0.09354197687882265,
        0.20718678107271934,
        -0.0773366349300596
      ],
      [
        0.11419380938935286,
        -0.17414984934618724,
        -0.09034973299275773,
        -0.09881138210783263,
        -0.2524213312889873,
        0.12174312019639545,
        -0.12120489652363232,
        0.010321091560647573,
        0.11897812302584565,
        0.11073972390151214,
        0.14797373428095895,
        -0.00605872589560318,
        -0.06354285510199724,
        0.03397750138304434,
        -0.3710444259086221,
        -0.3617781181057718
      ],
      [
        -0.3306749030886006,
        -0.33133199035051225,
        0.5164217147365809,
        -0.22974667244826558,
        -0.20309470408136995,
        0.32480707444651635,
        -0.09292030423830784,
        0.4250490923439334,
        -0.2346129617031008,
        -0.13214080992955388,
        -0.2850754760461604,
        0.06934796352702641,
        0.2573442792508276,
        -0.4330103113565678,
        -0.04620845964451793,
        0.05943390058306947
      ],
      [
        -0.1485374889241986,
        -0.4239208971167806,
        0.019983227148813867,
        -0.13576892607171706,
        0.12846004796419885,
        0.00546303638086072,
        0.3957303466073321,
        -0.05581717580596884,
        -0.2555273152942858,
        0.019768408337538387,
        0.0333999699958846,
        0.3748114267640953,
        0.2604944281932926,
        0.16702916112641178,
        0.42727722261740136,
        -0.2971907635807127
      ],
      [
        -0.15993788318743693,
        -0.294050418871048,
        -0.09550160056859552,
        -0.3475672856948437,
        0.229078731829124,
        -0.055555674274693344,
        -0.37241594984856125,
        -0.24987303923959805,
        0.07872551972372928,
        0.18448114157205459,
        0.4775835219258899,
        0.7634801494558188,
        0.15531897503364722,
        -0.1695731336689315,
        -0.4715600703703162,
        0.06692786558595895
      ],
      [
        -0.2032352738275815,
        -0.1662457485645883,
        -0.15107334954460558,
        -0.03859347040986278,
        0.3367860528224336,
        0.039262141861336156,
        -0.04437308548256887,
        -0.2548917071441656,
        -0.4183236783149088,
        -0.1466274776698734,
        -0.03504483870163683,
        0.4769970113489569,
        0.08428524708286948,
        0.32349627409479886,
        -0.06337239982227727,
        -0.29623594160425615
      ],
      [
        -0.24127919055809297,
        0.46797853749922563,
        0.5140089573056307,
        -0.2145550055969934,
        0.042078484352912005,
        -0.2257317945217566,
        0.23289325321856102,
        0.15617215958170794,
        -0.06203667813110582,
        0.29008990958295117,
        -0.17463941693604093,
        -0.042766805794247784,
        -0.113745870085195,
        -0.4552414438995555,
        -0.3110748688484735,
        0.04314697943052987
      ],
      [
        0.3947728141026087,
        0.3646404302099417,
        -0.03871381942905085,
        0.06685236700518729,
        0.24272852713611898,
        0.054845625340964085,
        -0.10273180770843429,
        0.3065393865425934,
        0.09575050775711177,
        0.5340792685574027,
        0.04033736276612987,
        -0.38325968601250904,
        -0.34203979981141625,
        0.33831198157894077,
        0.43512119256153986,
        -0.04487980332065016
      ],
      [
        -0.09579683028399694,
        0.6900035998771327,
        -0.2858156584124522,
        -0.22828592263440503,
        0.07705979038167404,
        -0.0986512807148974,
        -0.001280466680017824,
        -0.010893515603507086,
        0.07295503534144179,
        0.502010735886834,
        0.017174980186089723,
        0.08384227023683043,
        -0.5125430252577556,
        -0.08659960196140118,
        -0.20660280520750213,
        -0.304703265105907
      ],
      [
        -0.2195380917321877,
        -0.19424192145509134,
        0.23257926000772028,
        -0.3405275823552242,
        0.16913144195873225,
        -0.12104235833339462,
        -0.09348120800934426,
        0.2644630755416728,
        0.133887802635494,
        0.29249560571703104,
        -0.09231648699147277,
        -0.09816965763332332,
        0.07088046450699874,
        0.24176308216590336,
        0.19541377763891557,
        -0.27109701805834163
      ],
      [
        0.022622445406968554,
        0.4628602410554538,
        0.618050712006505,
        0.463455942951107,
        -0.31802572300293885,
        -0.07184584038729402,
        -0.3658605004592508,
        -0.11021774220634535,
        0.06460299857472061,
        0.4891387434200644,
        -0.18911001761008547,
        -0.2599646451199291,
        -0.5368222574346637,
        -0.13369148198481653,
        -0.26034765000774596,
        -0.13235985684151844
      ],
      [
        -0.21921519454189706,
        -0.032234002642663705,
        -0.43901836919064763,
        -0.370138219955998,
        0.5788503581153474,
        -0.32185564531850774,
        -0.2780507060866112,
        0.46642594395905423,
        0.7250582506094702,
        -0.2937847273123094,
        -0.11043478215924529,
        0.10395153296688008,
        0.4744561340104394,
        -0.19280721549741528,
        -0.010530278904642223,
        0.194334394015436
      ],
      [
        0.10869151861665466,
        0.23060350900905716,
        -0.042509979030590485,
        -0.3483281199879439,
        -0.1433153442842535,
        -0.06659687250223878,
        0.05804247240656399,
        -0.10886459567713291,
        0.10644602877799314,
        0.403319225013362,
        0.033386085377769846,
        0.01079667401741693,
        0.013288836894466841,
        -0.07439890320601815,
        -0.1761847460199962,
        0.079123565418327
      ],
      [
        -0.024321649603372367,
        0.8479346040492309,
        0.3842844877172304,
        0.09185747024367677,
        -0.2745362107142789,
        -0.2781028679958545,
        0.29778573827221627,
        0.0956545153144057,
        0.1085972489896111,
        -0.2860062261851433,
        0.22638837385019853,
        0.03646265647120676,
        -0.2776076711036195,
        -0.19230120334135897,
        0.07013406345484557,
        0.013116699589060907
      ],
      [
        -0.07304279645088875,
        -0.2815104408066772,
        -0.4990417095154127,
        0.01686024124756062,
        1.4508097472308124,
        -0.6416646102328244,
        -0.05921256612742106,
        0.12251233336479457,
        0.07617343024005156,
        -0.08315600748017764,
        -0.43918044561964564,
        -0.08554414524043889,
        0.9142382516029272,
        -0.5648253836539002,
        0.12593087560351238,
        -0.08213130578072347
      ],
      [
        -0.015331086457211825,
        -0.3256310611956542,
        -0.0816631928686227,
        0.32161539986897314,
        0.21595480562244967,
        0.433077901352486,
        0.28963859602152664,
        0.1137934007946813,
        0.43633068940312847,
        0.08469778928303402,
        0.18539784320220795,
        -0.03912820542969092,
        0.06835307067944926,
        -0.09654455948603459,
        0.30884748346122415,
        -0.2945759057787164
      ],
      [
        0.19558758560441533,
        -0.11006919789595666,
        0.2947626235871763,
        0.1843214983770485,
        0.5254525345372223,
        0.1826936727846612,
        -0.39772444013620695,
        -0.01271656216226297,
        -0.29265474028752353,
        -0.15462046099310936,
        0.35620790732212365,
        0.19439798567841018,
        -0.12301599043003854,
        -0.1756179452710652,
        0.06964702303157592,
        -0.30414003734528194
      ],
      [
        -0.16778506934914528,
        0.015595934368144125,
        0.2907788592470205,
        0.14879461925034349,
        -0.5025313820240029,
        0.07609168225756495,
        0.013294017085247675,
        0.10749430240546051,
        0.40439947827398226,
        -0.5408600696027263,
        -0.16937505729483318,
        0.18274111365232484,
        -0.3436819831488377,
        0.4467986583524117,
        0.15354065298767527,
        0.211645996460851
      ],
      [
        -0.14273591538044864,
        0.14103448897188572,
        0.26906873921760605,
        0.05482375622852562,
        0.12889121830019684,
        0.06758580982043147,
        -0.22055069240774228,
        -0.03286043899780101,
        -0.037783575251909236,
        0.0707979656868331,
        0.22835686073051686,
        -0.22961948754061606,
        0.020464359134753616,
        0.4481752832537778,
        -0.12444555739063042,
        -0.20556250432258008
      ],
      [
        0.050576547957798396,
        0.14868986410166313,
        0.004807364110511318,
        0.3288443988034808,
        0.2844894907671545,
        0.21045501672251546,
        0.13381474910812646,
        0.5859350061488082,
        -0.05094336435533058,
        -0.525931073418169,
        0.3794643893822285,
        -0.07941032478522025,
        0.0786867278004063,
        0.40519906755416624,
        -0.3391133854522204,
        -0.31291180352653486
      ],
      [
        -0.4003194842797134,
        0.12610845431022605,
        0.10085491360266824,
        0.12644279280774431,
        -0.014703363458448682,
        -0.3531914709730916,
        -0.577525859158161,
        0.043555605375216605,
        -0.12938261026787554,
        0.26498671348755787,
        0.17001716001597086,
        -0.04258207006771348,
        0.19003327134396344,
        -0.0171171579501046,
        0.13672093876608232,
        -0.1761683157174706
      ],
      [
        -0.044902853457864635,
        -0.013212409355427522,
        0.20708296907470114,
        -0.10183104186190949,
        0.20058280905855108,
        -0.06645969797884475,
        -0.03409991805492939,
        0.21140149156830548,
        -0.49791803490235853,
        -0.3491685824202309,
        -0.39214555035776194,
        -0.5483894970080898,
        -0.11784949332414614,
        0.2651698712709697,
        -0.009769516783132969,
        0.04944752048546303
      ],
      [
        0.27230437417769815,
        0.3490755222429252,
        0.6077470848245959,
        0.33658148296593776,
        -0.244309645897655,
        -0.20934955595686552,
        -0.1486000880496838,
        -0.005584437773932207,
        -0.22654262597856156,
        -0.15101538185872249,
        0.15462724872582187,
        0.6045651943929069,
        -0.3380131244928988,
        -0.014357168366394614,
        -0.5691095596953454,
        0.11867427211580049
      ],
      [
        -0.03277166267193165,
        -0.5982900597169761,
        1.0293746578276695,
        -0.15125017820218276,
        -0.43067765909142247,
        -0.2674381028224225,
        -0.16357081917188887,
        0.5543740631870437,
        -0.04731108523410138,
        -0.0709238048025865,
        0.034529719375133404,
        0.5899063339333127,
        -0.0761428281571763,
        -0.47477765935780564,
        -0.1271905791256715,
        -0.08287204302431367
      ],
      [
        0.27864811114434423,
        0.03343784477595076,
        -0.03083353233048973,
        0.08379822470580732,
        0.5580441351570969,
        0.5192451322634383,
        0.012630907560297869,
        0.04406937939155605,
        0.26940709722777684,
        -0.23646575859337748,
        0.06166839215750705,
        0.028548820965522095,
        0.13019366957903647,
        -0.13053080514831691,
        -0.3359403735147313,
        -0.5182458589978229
      ],
      [
        -0.27934602824740196,
        -0.17707525475450017,
        -0.07134704644184398,
        0.48091204180161273,
        0.34678933760234726,
        -0.2405227790854068,
        0.08221273688984243,
        -0.09774782802529403,
        -0.07074390164884332,
        0.02128091195230486,
        0.13319357824679154,
        -0.04980008801701766,
        0.3176794998982375,
        -0.20767316019656656,
        0.06303626540307786,
        0.6494184316489581
      ],
      [
        0.05576993565631878,
        0.6017855217639799,
        0.016089366117116893,
        0.14174114791086287,
        -0.07702472981611322,
        -0.04260189529105111,
        -0.1948705991813549,
        0.13005074651010412,
        -0.22146324869016068,
        0.2790015119971611,
        0.2672183162069675,
        0.03377603074751955,
        -0.07156218338892296,
        0.05767639371802025,
        -0.07401469211231639,
        0.23388678136628732
      ],
      [
        -0.4578515210537809,
        -0.1463082755493285,
        -0.4957521485606532,
        -0.37716095636256775,
        0.4112565525790001,
        0.2237962454929215,
        -0.18458443454409446,
        -0.3716041329479369,
        -0.7407851515992323,
        -0.16092437738469934,
        0.5835045520647941,
        0.14373560081989806,
        -0.08817645479772436,
        0.19408144871411107,
        -0.3287880884360998,
        -0.07433084067440886
      ]
    ],
    [
      [
        0.03517059787236524,
        -0.030441177383622633,
        0.2795921856254451,
        0.12185048828754223
      ],
      [
        -0.021353281072145205,
        -0.3878682985596899,
        -0.3253890411621564,
        1.6208650588102147
      ],
      [
        -0.5629219543133667,
        -0.9116714812969776,
        1.0689137510678617,
        0.15345298953621955
      ],
      [
        0.4960358497054331,
        -0.15669804333073592,
        0.513987723072296,
        0.047463835412165395
      ],
      [
        -0.2213437370624578,
        1.561507045368779,
        -0.5244995260383739,
        -0.631796831242954
      ],
      [
        -0.15859139664721128,
        0.15992420193033224,
        -0.5535794288215994,
        0.22537999903685876
      ],
      [
        -0.159833259808671,
        0.3921214533660736,
        -0.8548613536201178,
        -0.2866900535403576
      ],
      [
        -0.9779642794190141,
        -0.17870041429239253,
        0.40318626004884717,
        -0.11069739061582029
      ],
      [
        -0.0906145862855725,
        -0.05714018835078947,
        0.07030615484681878,
        -0.35307696490640755
      ],
      [
        0.07326549083065965,
        0.12632563586139375,
        -0.2913358948633189,
        0.9088374100399451
      ],
      [
        0.20276400156389143,
        0.6516912718948247,
        -0.016468069216776855,
        -0.15304330124974688
      ],
      [
        -0.25949605918058133,
        -0.6007304581372626,
        0.25337137708332375,
        -0.7787415815190538
      ],
      [
        -0.1490015047216726,
        0.7318138615346431,
        -0.1495346932784013,
        -0.5926519207279055
      ],
      [
        1.1787262531210911,
        -0.16830376483810344,
        -0.26452777357295043,
        -0.45349446971224683
      ],
      [
        1.1253721340159706,
        -0.190832166290814,
        -0.8842755306436723,
        -0.3259321395518166
      ],
      [
        0.09264364981575933,
        -0.3180901422618369,
        0.0671197752194088,
        -0.5143574223742244
      ]
    ]
  ],
  "biases": [
    [
      [
        0.0,
        0.5531997309138746,
        0.27028870192933624,
        -0.042347616861932814,
        0.16555379182553157,
        0.0,
        -0.037210331146322856,
        0.2931071918835179,
        -0.03588107155279985,
        0.25438809948996194,
        -0.20898634701686747,
        0.1089065017895171,
        0.41161717269482634,
        0.32510040707878884,
        0.35816610388257386,
        0.0
      ]
    ],
    [
      [
        0.07363807661456502,
        -0.13439514258040464,
        0.1587453897776858,
        -0.0979883238118462
      ]
    ]
  ]
}