{
  "layer_sizes": [
    32,
    16,
    4
  ],
  "learning_rate": 0.3,
  "seed": 42,
  "output_activation": "softmax",
  "weights": [
    [
      [
        0.07373325926608633,
        -0.250449518358689,
        0.19671481205384725,
        0.27512206408471596,
        -0.4231938610485438,
        -0.37240777341580367,
        0.03196010079182134,
        -0.0504495242799605,
        0.01880442829657325,
        -0.1763556900381083,
        0.21550525748429922,
        0.1990448527130381,
        0.049838905579629195,
        0.2756754495277218,
        0.1765552417645297,
        -0.21482311572080956
      ],
      [
        0.0897416853481032,
        -0.2301741420058149,
        0.22871458842905107,
        0.02749940724034913,
        0.01834934522860001,
        -0.21709528280120927,
        0.30563533466850756,
        -0.010021246711265476,
        -0.08407723786813139,
        -0.051128095766770625,
        0.12873306015692926,
        0.0959578849468206,
        0.13651438408832228,
        0.10157039853768432,
        0.5950898064191339,
        -0.1016037540961539
      ],
      [
        -0.14029073563049183,
        -0.18672730037313515,
        0.021523703478699314,
        0.6156599620243568,
        -0.046692378012673695,
        -0.33975330781392216,
        -0.2061203039228099,
        0.06184495232132431,
        0.1744574396606537,
        0.37942339040548284,
        -0.1707216630535815,
        0.21003766103792096,
        0.02555992387666202,
        0.04853729696796692,
        0.5021472221977875,
        0.05589888719367057
      ],
      [
        0.15439979723769848,
        0.028126976341060955,
        -0.1495218711414896,
        0.6175462597108468,
        -0.49396485889957803,
        -0.209720362889206,
        -0.11759316357319888,
        -0.36247207809512344,
        -0.12261842845233449,
        0.6976170870203178,
        -0.2164577789233108,
        0.47300089493721753,
        -0.4785954145869494,
        -0.08372125749644371,
        0.3925865583877911,
        0.14655558283981954
      ],
      [
        0.1624780514179385,
        0.20956901776881942,
        -0.30898298887609515,
        0.3441362550850695,
        0.08481806637862711,
        -0.1776286400202844,
        -0.31892158083448047,
        -0.4860744195351581,
        -0.2836959371460664,
        0.44817194522515985,
        0.03560643401764131,
        0.4035526448062894,
        -0.1646911332671319,
        0.03963492276917856,
        0.5082958906033738,
        -0.0773366349300596
      ],
      [
        0.11174779871683135,
        -0.155934977065228,
        -0.08166144853903494,
        -0.05545358851266993,
        -0.2343949752823446,
        0.0748802234961716,
        -0.11735058505068097,
        0.03173465348785692,
        0.14319138239912269,
        0.1485380858627727,
        0.16200204101178864,
        -0.02002450227155487,
        -0.0724933468217133,
        -0.026064404940886087,
        -0.3621557022879894,
        -0.3617781181057718
      ],
      [
        -0.33312091376112213,
        -0.23976519869893562,
        0.10904556978309216,
        -0.1863888788531029,
        -0.029975702394932257,
        0.2779441777462922,
        -0.08906599276535648,
        0.21299001592270667,
        -0.2103997023298238,
        -0.014454097611620684,
        -0.24184974995905323,
        -0.0801614001193396,
        0.24340826555367406,
        -0.43796495801237356,
        0.16828381708798262,
        0.05943390058306947
      ],
      [
        -0.15098349959672008,
        -0.35196795539567877,
        0.027134390030700364,
        -0.09239229227903821,
        0.12273398895359115,
        -0.04139986031936315,
        0.40044472283022886,
        -0.031227783062321015,
        -0.2328696554828208,
        0.08172420059436587,
        0.050654934761533404,
        0.34439376266591015,
        0.24210904266796981,
        0.08308291257309097,
        0.42550362900640853,
        -0.2971907635807127
      ],
      [
        -0.1623838938599584,
        -0.2220974771499464,
        -0.08835043768670899,
        -0.30419065190216465,
        0.22335267281851626,
        -0.10241857097491722,
        -0.36770157362566447,
        -0.22528364649595034,
        0.10138317953519425,
        0.246436933828882,
        0.4948384866915389,
        0.7330624853576337,
        0.13693358950832427,
        -0.25351938222225234,
        -0.47333366398130916,
        0.06692786558595895
      ],
      [
        -0.20568128450010298,
        -0.09429280684348657,
        -0.14392218666271908,
        0.004783163382816027,
        0.3310599938118262,
        -0.007600754838887706,
        -0.039658709259672076,
        -0.23030231440051788,
        -0.3956660185034437,
        -0.08467168541304593,
        -0.017789873935988017,
        0.44657934725077175,
        0.06589986155754662,
        0.23955002554147806,
        -0.06514599343326981,
        -0.29623594160425615
      ],
      [
        -0.24372520123061445,
        -0.17176000793250348,
        0.5412194462110244,
        -0.16536578481918424,
        0.27418723704900144,
        -0.2725946912219806,
        0.23289325321856102,
        0.12484886533240083,
        -0.016154756741877167,
        0.026714660321428316,
        -0.16804116008875553,
        0.11611491922632115,
        -0.08041463889586986,
        -0.31253629315609843,
        -0.25980648737838674,
        0.04314697943052987
      ],
      [
        0.3923268034300872,
        0.04954441159479433,
        -0.020557568425237663,
        0.11143741988754811,
        0.3910653715416215,
        0.007982728640740221,
        -0.10273180770843429,
        0.3051833013209072,
        0.1301938272880488,
        0.42084428985428485,
        0.041464373074068646,
        -0.30152038907432405,
        -0.308708568622091,
        0.406597130843526,
        0.49059433639734235,
        -0.04487980332065016
      ],
      [
        -0.09824284095651845,
        0.3749075812619854,
        -0.26765940740863897,
        -0.1837008697520443,
        0.22539663478717628,
        -0.14551417741512127,
        -0.001280466680017824,
        -0.012249600825193083,
        0.10739835487237882,
        0.38877575718371604,
        0.018301990494028492,
        0.1655815671750155,
        -0.47921179406843056,
        -0.018314452696815805,
        -0.15112966137169948,
        -0.304703265105907
      ],
      [
        -0.22198410240470917,
        -0.07398435197376826,
        0.2380776486912362,
        -0.29161729444797846,
        0.0722228092635195,
        -0.16790525503361853,
        -0.08191827359049021,
        0.27930058013208603,
        0.15753357692362696,
        0.37125481871597277,
        -0.042970656043883004,
        -0.16938878406187474,
        -0.022633473030799697,
        0.05448934560351908,
        0.10382124581494598,
        -0.27109701805834163
      ],
      [
        0.020176434734447052,
        0.06660359073616104,
        0.6384705224857133,
        0.50919203780733,
        -0.14874590152478986,
        -0.11870873708751788,
        -0.3658605004592508,
        -0.1190656296849366,
        0.10190596857023056,
        0.33836869707734524,
        -0.18661519566731005,
        -0.15893974116114812,
        -0.5034910262453384,
        -0.04680133235051323,
        -0.2059256967633725,
        -0.13235985684151844
      ],
      [
        -0.22166120521441854,
        -0.014019130361704485,
        -0.4303300847369248,
        -0.3267804263608351,
        0.5968767141219895,
        -0.3687185420187319,
        -0.2741963946136599,
        0.48783950588626346,
        0.749271509982747,
        -0.2559863653510486,
        -0.09640647542841556,
        0.0899857565909284,
        0.4655056422907233,
        -0.25284912182134567,
        -0.0016415552840092298,
        0.194334394015436
      ],
      [
        0.10869151861665466,
        0.11622853738460617,
        -0.0680500050490349,
        -0.39243180228167535,
        -0.24130635275939,
        0.5370565526476418,
        0.05804247240656399,
        -0.14176317621478574,
        0.11788463063628475,
        0.21405651734435813,
        -0.020473676704706047,
        0.16276499588520835,
        0.010324501281775238,
        -0.06175024090433803,
        -0.3017832060422611,
        0.03773389183074709
      ],
      [
        -0.024321649603372367,
        0.6722641510422952,
        0.8511940732675858,
        0.33716036758133444,
        -0.2825008941868699,
        -0.4831326574632756,
        0.29778573827221627,
        0.3583543812392606,
        0.16579190961365708,
        -0.44985826825583397,
        0.20463527826429181,
        0.002376905549404431,
        -0.2736093334322804,
        -0.1563269278020896,
        -0.0735785264694925,
        0.013116699589060907
      ],
      [
        -0.07304279645088875,
        -0.12625055038324048,
        -0.24200772184109848,
        -0.4117311759136108,
        0.9938992844353916,
        -0.600511395600903,
        -0.05921256612742106,
        0.13351306330500484,
        0.2262406468507451,
        -0.1718715481335136,
        -0.43918044561964564,
        -0.008896722933274707,
        0.6945964457278586,
        -0.3834653512290344,
        0.3775544274681888,
        -0.08213130578072347
      ],
      [
        -0.015331086457211825,
        -0.36360311104273757,
        -0.26262742037834635,
        -0.12486065526448845,
        0.771690101684029,
        0.4742311159844074,
        0.2943529722444234,
        0.19915662769428719,
        0.588225780970918,
        0.03085538688138363,
        0.20699704419926473,
        -0.16503833224547912,
        0.27939534615161354,
        -0.17435595582506921,
        0.408993407692355,
        -0.2945759057787164
      ],
      [
        0.19358781160414093,
        -0.012426285105251657,
        0.29574008498103815,
        0.21404979620678372,
        0.4842347477479673,
        0.2231330338845478,
        -0.39301006391331017,
        0.006270747423154548,
        -0.2741939340611827,
        -0.10450139393444757,
        0.36651506514073945,
        0.17290350809559038,
        -0.1478688699338571,
        -0.2665036971149636,
        0.04114905510472139,
        -0.30953974952088437
      ],
      [
        -0.16778506934914528,
        0.2882699230799419,
        0.2542337451066496,
        0.10348251786693012,
        -0.7545852939152484,
        0.6797451074074456,
        0.01800839330814448,
        0.10054119983314148,
        0.4040524204128018,
        -0.5549320063117846,
        -0.20710686491959893,
        0.22255247448374615,
        -0.3983629354761772,
        0.3072159228361856,
        -0.02930454448138469,
        0.17025632287327105
      ],
      [
        -0.14273591538044864,
        0.3524129963011991,
        0.7249732366460346,
        0.2989182344765013,
        -0.03313636858850398,
        -0.1374439796469897,
        -0.21583631618484542,
        0.2557849048923878,
        0.007625425652664719,
        0.08213669457608805,
        0.22273171960232027,
        -0.3758621994987888,
        -0.027253919908555357,
        0.33191816097514093,
        -0.3254048847617634,
        -0.20556250432258008
      ],
      [
        0.050576547957798396,
        0.36006837143097653,
        0.4607118615389403,
        0.5729388770514566,
        0.12246190387845375,
        0.005425227255094218,
        0.13852912533102332,
        0.8745803500389974,
        -0.005534363450756627,
        -0.514592344528914,
        0.37383924825403203,
        -0.2256530367433927,
        0.03096844875709731,
        0.28894194527552935,
        -0.540072712823354,
        -0.31291180352653486
      ],
      [
        -0.40276549495223496,
        -0.18898756430492114,
        0.1190111646064814,
        0.17102784569010504,
        0.13363348094705357,
        -0.40005436767331576,
        -0.577525859158161,
        0.042199520153530644,
        -0.0949392907369385,
        0.15175173478443962,
        0.1711441703239096,
        0.039157226870471525,
        0.22336450253328863,
        0.05116799131448079,
        0.19219408260188497,
        -0.1761683157174706
      ],
      [
        -0.04890240145841352,
        0.147098565985238,
        0.20647556157411892,
        -0.05212463921896773,
        0.16472537303358545,
        0.09317187407679316,
        -0.02938554183203259,
        0.25301541398642124,
        -0.46064936458849703,
        -0.27908487636791063,
        -0.40087078111963836,
        -0.5466021053492265,
        -0.11622536394120758,
        0.153151052090316,
        -0.02115101966880548,
        0.03324838395865572
      ],
      [
        0.2703046001774237,
        0.39458959561688334,
        -0.018869352575979118,
        0.35837457720555577,
        0.028392015372817544,
        -0.09015734500111429,
        -0.1486000880496838,
        -0.347507515308556,
        -0.20322559934589213,
        -0.06953953302494889,
        0.18186386626415818,
        0.4534743270331791,
        -0.31906836995750254,
        0.07707379972822452,
        -0.24301951974820152,
        0.10787484776459562
      ],
      [
        -0.03477143667220609,
        -0.4200084673916168,
        0.1325595919627796,
        -0.3723882875422608,
        0.1748589226447917,
        -0.04801758740080965,
        -0.16357081917188887,
        0.1758615743343402,
        0.05094304809466133,
        0.05585662239597458,
        0.06370772949966749,
        0.3157760053709758,
        0.07751223317599387,
        -0.39840623338007947,
        0.3524132419725267,
        -0.09907117955112098
      ],
      [
        0.2762021004718227,
        0.10539078649705236,
        -0.023682369448603257,
        0.12717485849848612,
        0.5523180761464899,
        0.47238223556321424,
        0.017345283783194675,
        0.06865877213520385,
        0.29206475703924195,
        -0.17450996633655008,
        0.07892335692315586,
        -0.0018688431326630624,
        0.11180828405371354,
        -0.21447705370163778,
        -0.33771396712572416,
        -0.5182458589978229
      ],
      [
        -0.2817920389199235,
        -0.1051223130333985,
        -0.06419588355995745,
        0.5242886755942917,
        0.34106327859173985,
        -0.2873856757856309,
        0.08692711311273923,
        -0.07315843528164623,
        -0.04808624183737833,
        0.08323670420913232,
        0.1504485430124404,
        -0.08021775211520282,
        0.2992941143729148,
        -0.2916194087498874,
        0.061262671792085346,
        0.6494184316489581
      ],
      [
        0.05332392498379728,
        0.3678501348529781,
        0.03198205764553503,
        0.18517515881936147,
        0.05036913751674228,
        -0.08946479199127497,
        -0.1948705991813549,
        0.13618646354532335,
        -0.18987957962379653,
        0.203301600933644,
        0.26697751488006977,
        0.0962297206651085,
        -0.03823095219959777,
        0.10735654261288766,
        -0.01749035768508494,
        0.23388678136628732
      ],
      [
        -0.4578515210537809,
        0.12636571316246945,
        -0.5322972627010241,
        -0.42247305774598115,
        0.1592026406877537,
        0.8274496706428024,
        -0.1798700583211976,
        -0.37855723552025594,
        -0.7411322094604128,
        -0.17499631409375765,
        0.5457727444400281,
        0.1835469616513193,
        -0.14285740712506398,
        0.05449871319788499,
        -0.5116332859051601,
        -0.11572051426198879
      ]
    ],
    [
      [
        0.04397509339148478,
        -0.033457461015515735,
        0.27668170633045447,
        0.11897275569530637
      ],
      [
        0.1387749941514,
        -0.6142852525030522,
        0.7124795194434062,
        0.6492851769244697
      ],
      [
        -0.49532994200557223,
        -0.5052331147580764,
        1.115561573614446,
        -0.36722521185706114
      ],
      [
        1.0321772643044749,
        -0.4931932364214002,
        0.7955163956531496,
        -0.4337110586770665
      ],
      [
        -0.20972361088648284,
        1.3694539888332078,
        -0.20633640823148966,
        -0.7695270186902419
      ],
      [
        -0.5634078464413923,
        -0.133240804733753,
        -0.8094167192111223,
        1.1791987458846485
      ],
      [
        -0.19048442609815874,
        0.4058130579682384,
        -0.8464988487604472,
        -0.2780929967127053
      ],
      [
        -1.0268860690148742,
        -0.07898173570634819,
        0.5873787569601283,
        -0.3456867765172863
      ],
      [
        -0.3156660492163137,
        0.3152660611645149,
        0.03258183891586068,
        -0.46270743556001265
      ],
      [
        1.0161231048931127,
        0.10450524041687852,
        -0.1606992867046482,
        -0.14283641673666272
      ],
      [
        0.00318808505722452,
        0.6158192840440877,
        0.23681774042091738,
        -0.17088120653003702
      ],
      [
        0.1352747049347903,
        -0.5440813152921018,
        -0.8406228951187739,
        -0.13616721627748807
      ],
      [
        -0.3181212103286964,
        0.6104487332766968,
        -0.0709634316389956,
        -0.3807383485023414
      ],
      [
        0.28928028823375174,
        0.22926123897600872,
        -0.006420636940548695,
        -0.21972064527142138
      ],
      [
        0.6447953524089848,
        0.43814425626279935,
        -0.9240914984506813,
        -0.43451581269143447
      ],
      [
        0.08943963554125597,
        -0.32161638890471334,
        0.06441135996955386,
        -0.5049187462069897
      ]
    ]
  ],
  "biases": [
    [
      [
        -0.02737169882235572,
        0.5155996713263077,
        0.09689241762584871,
        0.40910070071975646,
        0.34196497332653397,
        0.5632138015482914,
        0.0,
        0.3405670935563266,
        0.25348976209443647,
        0.3440350780367292,
        -0.1607561704442688,
        0.18271795664382035,
        0.352797979313528,
        -0.18647463028229472,
        0.42018492916371913,
        -0.07622285579394324
      ]
    ],
    [
      [
        -0.059315808509474224,
        -0.2373060844042789,
        -0.19005431763392375,
        0.48667621054767674
      ]
    ]
  ]
}