{
  "layer_sizes": [
    32,
    16,
    3
  ],
  "learning_rate": 0.3,
  "seed": 42,
  "output_activation": "softmax",
  "weights": [
    [
      [
        0.07617926993860784,
        -0.2366613676750595,
        0.2177099996691891,
        0.26383551466098276,
        -0.47451218079486696,
        -0.3255448767155795,
        0.03196010079182134,
        -0.03463999904465773,
        -0.013880213976663652,
        -0.20453326085252813,
        0.23596054127788785,
        0.20624118289749932,
        0.027652720618545415,
        0.2727038636425593,
        0.1168773355630114,
        -0.21482311572080956
      ],
      [
        0.09218769602062471,
        -0.2163859913221853,
        0.24970977604439293,
        0.016212857816616175,
        -0.0329689745177231,
        -0.17023238610098534,
        0.30563533466850756,
        0.005788278524037262,
        -0.11676188014136825,
        -0.07930566658119062,
        0.1491883439505179,
        0.10315421513128178,
        0.11432819912723849,
        0.09859881265252178,
        0.5354119002176153,
        -0.1016037540961539
      ],
      [
        -0.12806068226788433,
        -0.180108523176905,
        0.1840920563614487,
        0.31093740874340214,
        -0.015240248045126697,
        -0.210039119240632,
        -0.2061203039228099,
        0.207068845997413,
        0.17613361820026913,
        0.14451628811716563,
        -0.15026637925999287,
        0.06983352980694216,
        0.04031649851342345,
        0.04556571108280433,
        0.21785719448704746,
        0.05589888719367057
      ],
      [
        0.16972839076797372,
        0.040229426257287315,
        0.10237705039007079,
        0.18651639202281448,
        -0.35104233859532447,
        -0.07991780408932533,
        -0.11759316357319888,
        -0.11529881301959777,
        -0.07846548740726238,
        0.3824630488494654,
        -0.2003467313611301,
        0.25386278768813236,
        -0.4095723966757097,
        -0.09282769559589261,
        0.0406882662762514,
        0.14655558283981954
      ],
      [
        0.17780664494821374,
        0.22167146768504573,
        -0.057084067344534625,
        -0.08689361260296234,
        0.2277405866828806,
        -0.04782608122040372,
        -0.31892158083448047,
        -0.2389011544596324,
        -0.23954299610099428,
        0.13301790705430788,
        0.05171748157982205,
        0.1844145375572043,
        -0.09566811535589217,
        0.03052848466972966,
        0.15639759849183418,
        -0.0773366349300596
      ],
      [
        0.11419380938935286,
        -0.1421468263815984,
        -0.060666260923693184,
        -0.06674013793640282,
        -0.28571329502866777,
        0.12174312019639545,
        -0.11735058505068097,
        0.047544178723159664,
        0.1105067401258858,
        0.1203605150483528,
        0.18245732480537727,
        -0.01282817208709366,
        -0.09467953178279705,
        -0.029035990826048668,
        -0.42183360848950746,
        -0.3617781181057718
      ],
      [
        -0.3306749030886006,
        -0.22597704801530602,
        0.13004075739843393,
        -0.19767542827683582,
        -0.08129402214125535,
        0.32480707444651635,
        -0.08906599276535648,
        0.22879954115800935,
        -0.2430843446030607,
        -0.04263166842604067,
        -0.2213944661654646,
        -0.07296506993487842,
        0.2212220805925903,
        -0.4409365438975361,
        0.10860591088646433,
        0.05943390058306947
      ],
      [
        -0.1485374889241986,
        -0.3381798047120491,
        0.04812957764604216,
        -0.10367884170277118,
        0.07141566920726802,
        0.00546303638086072,
        0.40044472283022886,
        -0.015418257827018255,
        -0.2655542977560577,
        0.05354662977994587,
        0.07111021855512202,
        0.3515900928503714,
        0.21992285770688605,
        0.08011132668792843,
        0.36582572280489045,
        -0.2971907635807127
      ],
      [
        -0.15993788318743693,
        -0.2083093264663168,
        -0.06735525007136724,
        -0.31547720132589796,
        0.17203435307219322,
        -0.055555674274693344,
        -0.36770157362566447,
        -0.20947412126064768,
        0.06869853726195738,
        0.21825936301446217,
        0.515293770485127,
        0.7402588155420946,
        0.11474740454724049,
        -0.25649096810741495,
        -0.5330115701828273,
        0.06692786558595895
      ],
      [
        -0.2032352738275815,
        -0.08050465615985686,
        -0.12292699904737725,
        -0.006503386040916932,
        0.27974167406550304,
        0.039262141861336156,
        -0.039658709259672076,
        -0.21449278916521525,
        -0.4283506607766807,
        -0.11284925622746594,
        0.0026654098576006126,
        0.453775677435233,
        0.043713676596462865,
        0.23657843965631548,
        -0.12482389963478802,
        -0.29623594160425615
      ],
      [
        -0.24127919055809297,
        -0.1579718572488739,
        0.5622146338263654,
        -0.17665233424291715,
        0.22286891730267838,
        -0.2257317945217566,
        0.23289325321856102,
        0.14065839056770352,
        -0.048839399015114054,
        -0.0014629104929916978,
        -0.1475858762951669,
        0.12331124941078234,
        -0.10260082385695361,
        -0.315507879041261,
        -0.3194843935799048,
        0.04314697943052987
      ],
      [
        0.3947728141026087,
        0.06333256227842403,
        0.0004376191901041398,
        0.10015087046381517,
        0.33974705179529835,
        0.054845625340964085,
        -0.10273180770843429,
        0.3209928265562101,
        0.09750918501481193,
        0.39266671903986444,
        0.06191965686765727,
        -0.2943240588898628,
        -0.33089475358317477,
        0.40362554495836345,
        0.43091643019582426,
        -0.04487980332065016
      ],
      [
        -0.09579683028399694,
        0.3886957319456151,
        -0.24666421979329722,
        -0.19498741917577722,
        0.17407831504085325,
        -0.0986512807148974,
        -0.001280466680017824,
        0.0035599244101096558,
        0.07471371259914195,
        0.36059818636929564,
        0.03875727428761712,
        0.1727778973594767,
        -0.5013979790295144,
        -0.021286038581978396,
        -0.21080756757321778,
        -0.304703265105907
      ],
      [
        -0.2195380917321877,
        -0.06019620129013858,
        0.2590728363065782,
        -0.30290384387171176,
        0.020904489517196433,
        -0.12104235833339462,
        -0.08191827359049021,
        0.2951101053673889,
        0.12484893465039007,
        0.34307724790155236,
        -0.022515372250294388,
        -0.16219245387741352,
        -0.044819657991883484,
        0.051517759718356496,
        0.04414333961342776,
        -0.27109701805834163
      ],
      [
        0.022622445406968554,
        0.08039174141979073,
        0.6594657101010544,
        0.4979054883835968,
        -0.20006422127111287,
        -0.07184584038729402,
        -0.3658605004592508,
        -0.10325610444963383,
        0.06922132629699368,
        0.31019112626292483,
        -0.16615991187372142,
        -0.1517434109766869,
        -0.5256772112064225,
        -0.049772918235675825,
        -0.2656036029648908,
        -0.13235985684151844
      ],
      [
        -0.21921519454189706,
        -0.0002309796780747969,
        -0.409334897121583,
        -0.3380669757845684,
        0.5455583943756663,
        -0.32185564531850774,
        -0.2741963946136599,
        0.5036490311215663,
        0.7165868677095102,
        -0.284163936165469,
        -0.07595119163482687,
        0.09718208677538959,
        0.44331945732963957,
        -0.2558207077065083,
        -0.061319461485527436,
        0.194334394015436
      ],
      [
        0.10869151861665466,
        -0.07070435892246034,
        -0.003358540411435509,
        -0.3150296165293162,
        -0.04629681962507426,
        -0.06659687250223878,
        0.05804247240656399,
        -0.09441115566351624,
        0.10820470603569331,
        0.2619066754958236,
        0.054968379479297245,
        0.09973230114006307,
        0.024433883122708243,
        -0.009085339826595363,
        -0.18038950838571186,
        0.079123565418327
      ],
      [
        -0.024321649603372367,
        0.546626736117713,
        0.42343592633638544,
        0.12515597370230466,
        -0.17751768605509974,
        -0.2781028679958545,
        0.29778573827221627,
        0.11010795532802238,
        0.11035592624731126,
        -0.4274187757026817,
        0.2479706679517259,
        0.125398283593853,
        -0.26646262487537803,
        -0.12698763996193613,
        0.0659293010891299,
        0.013116699589060907
      ],
      [
        -0.07304279645088875,
        -0.12465111197224822,
        -0.3984222159373087,
        0.20567499150869964,
        0.8877565088170469,
        -0.6416646102328244,
        -0.05921256612742106,
        0.20820031808935482,
        0.00844034923967778,
        -0.10904963649399291,
        -0.5997793686143515,
        -0.13970526268766253,
        0.5073183679352747,
        -0.3834653512290344,
        0.21595700342454707,
        -0.08213130578072347
      ],
      [
        -0.015331086457211825,
        -0.23988996879092295,
        -0.053516842371394396,
        0.35370548423791887,
        0.1589104268655189,
        0.433077901352486,
        0.2943529722444234,
        0.15419231877363174,
        0.42630370694135655,
        0.11847601072544146,
        0.22310809176144544,
        -0.06234953934341488,
        0.02778150019304261,
        -0.18346239392451813,
        0.24739598364871326,
        -0.2945759057787164
      ],
      [
        0.19558758560441533,
        -0.024328105491225417,
        0.32290897408440467,
        0.21641158274599434,
        0.46840815578029255,
        0.1826936727846612,
        -0.39301006391331017,
        0.0276823558166876,
        -0.30268172274929545,
        -0.12084223955070189,
        0.3939181558813611,
        0.17117665176468624,
        -0.16358756091644516,
        -0.26253577970954867,
        0.008195523219065198,
        -0.30414003734528194
      ],
      [
        -0.16778506934914528,
        0.10133702677287544,
        0.31892520974424887,
        0.18088470361928932,
        -0.5595757607809332,
        0.07609168225756495,
        0.01800839330814448,
        0.14789322038441097,
        0.39437249581221034,
        -0.5070818481603184,
        -0.1316648087355957,
        0.1595197797386009,
        -0.3842535536352441,
        0.3598808239139283,
        0.0920891531751646,
        0.211645996460851
      ],
      [
        -0.14273591538044864,
        0.22677558137661705,
        0.2972150897148344,
        0.08691384059747154,
        0.07184683954326603,
        0.06758580982043147,
        -0.21583631618484542,
        0.007538478981149576,
        -0.04781055771368115,
        0.10457618712924055,
        0.2660671092897543,
        -0.25284082145434006,
        -0.02010721135165302,
        0.36125744881529437,
        -0.18589705720314104,
        -0.20556250432258008
      ],
      [
        0.050576547957798396,
        0.23443095650639445,
        0.032953714607739604,
        0.36093448317242655,
        0.22744511201022385,
        0.21045501672251546,
        0.13852912533102332,
        0.6263339241277589,
        -0.0609703468171025,
        -0.49215285197576203,
        0.4171746379414659,
        -0.10263165869894421,
        0.038115157313999656,
        0.3182812331156828,
        -0.40056488526473133,
        -0.31291180352653486
      ],
      [
        -0.4003194842797134,
        -0.02352028288374638,
        0.4585042593902241,
        0.17557014460984977,
        -0.17174995250115757,
        -0.3531914709730916,
        -0.577525859158161,
        0.13878794964202631,
        -0.12762393301017538,
        0.1679768344047524,
        0.3508959553989774,
        0.2244683859947679,
        0.20117831757220486,
        0.011770653031522565,
        0.13251617640036667,
        -0.1761683157174706
      ],
      [
        -0.044902853457864635,
        0.23653158178149578,
        0.7060565164865014,
        -0.5371500099650245,
        0.060950499394415616,
        -0.06645969797884475,
        -0.02938554183203259,
        0.6699917110903005,
        -0.498265092763539,
        -0.1451798072693521,
        -0.3342251857277915,
        -0.7340837097232622,
        -0.16956611003879418,
        0.15044592208695956,
        -0.07122101659564369,
        0.04944752048546303
      ],
      [
        0.27230437417769815,
        0.40139906800772435,
        0.02105495222273944,
        0.8039117592455005,
        -0.3377966517958539,
        -0.20934955595686552,
        -0.1486000880496838,
        -0.6959755047405207,
        -0.2220334634334131,
        -0.1932621905120455,
        0.4342875132295367,
        0.882446757988081,
        -0.34554537884426,
        0.07344525993785297,
        -0.2601359847893836,
        0.11867427211580049
      ],
      [
        -0.03277166267193165,
        -0.41105713869175375,
        0.29226864932727065,
        -0.09386150707582394,
        -0.1069818268562045,
        -0.2674381028224225,
        -0.16357081917188887,
        0.1958139082562048,
        -0.06667093443528428,
        0.09962094265235391,
        0.12270255860657239,
        0.3537518119625662,
        -0.06340644525961203,
        -0.3874273304103308,
        0.26680560414299576,
        -0.08287204302431367
      ],
      [
        0.27864811114434423,
        -0.002934766660140424,
        -0.3682122539364236,
        0.25472833699465636,
        1.0076366556003324,
        0.5192451322634383,
        0.017345283783194675,
        0.20411986107551192,
        0.2035018911844993,
        -0.22748624935550732,
        -0.07733132984014243,
        -0.22816984560465403,
        0.15395786725861713,
        -0.20834220148735144,
        -0.39739187332724224,
        -0.5182458589978229
      ],
      [
        -0.27934602824740196,
        -0.21344786619059125,
        -0.40872576804777777,
        0.6518421540904616,
        0.7963818580455823,
        -0.2405227790854068,
        0.08692711311273923,
        0.062302653658661854,
        -0.13664910769212088,
        0.030260421190175038,
        -0.0058061437508578695,
        -0.3065187545871937,
        0.34144369757781834,
        -0.285484556535601,
        0.0015847655905671105,
        0.6494184316489581
      ],
      [
        0.05576993565631878,
        0.5456411842687995,
        0.5238044421754491,
        -0.2935204430764321,
        -0.08353711313678545,
        -0.04260189529105111,
        -0.1948705991813549,
        0.570187290323671,
        -0.21288429729644198,
        0.34533458382769544,
        0.3076429147443912,
        -0.05904682795187841,
        -0.07156218338892296,
        0.07657884198219844,
        -0.07716826388660315,
        0.23388678136628732
      ],
      [
        -0.4578515210537809,
        -0.014424307088860115,
        -0.45936356287672503,
        0.09175007929635012,
        -0.019862758950903982,
        0.2237962454929215,
        -0.1798700583211976,
        -0.7014672406094908,
        -0.7411322094604128,
        -0.23963189547659683,
        0.8384950114467373,
        0.5609753680624967,
        -0.13989307151237237,
        0.0915084452479498,
        -0.3902395882486107,
        -0.07433084067440886
      ]
    ],
    [
      [
        0.03517059787236524,
        -0.030441177383622633,
        0.2795921856254451
      ],
      [
        0.36513348166270027,
        0.21452216715971556,
        -0.4648925851842048
      ],
      [
        1.132968131897197,
        0.29719648879063626,
        -0.8798224100774715
      ],
      [
        -0.9454305845487844,
        0.6829921489659002,
        0.3532113926318136
      ],
      [
        -0.10444586169638709,
        -0.5518526883782702,
        1.5106006585873217
      ],
      [
        0.04648725634649368,
        0.09129767603465035,
        0.5532113618837944
      ],
      [
        -0.1279051789169342,
        -0.3327369079765173,
        -0.15859139664721128
      ],
      [
        0.7836180981305566,
        -1.2661324504769296,
        0.31423912449196467
      ],
      [
        -0.19955339702295513,
        0.397467189837078,
        -0.8290840097044904
      ],
      [
        -0.07993318769499612,
        -0.6883381465330592,
        -0.39819442472208355
      ],
      [
        -0.07982543104477288,
        0.6524727202387631,
        -0.6380328498367882
      ],
      [
        -0.5933544809177002,
        0.8771982477304189,
        -0.624786852906818
      ],
      [
        0.012698305252512148,
        0.11466345969748537,
        0.4929665912554258
      ],
      [
        0.21263368248778552,
        0.10573038185681924,
        0.702706876823854
      ],
      [
        -0.03079243947652543,
        -0.10857031303648419,
        -0.2664122309408965
      ],
      [
        -0.36495996716566187,
        -0.4399872200040327,
        -0.31423730364298325
      ]
    ]
  ],
  "biases": [
    [
      [
        0.0,
        0.2669281216533125,
        0.3172646781351321,
        0.3657780201900897,
        0.22634384057574058,
        0.0,
        0.0,
        0.553870941950958,
        -0.12456820905369556,
        0.10254903151575522,
        0.17229421409283896,
        0.11259030363591543,
        0.14342244446695873,
        -0.10917700851920183,
        0.0,
        0.0
      ]
    ],
    [
      [
        -0.11335268979033668,
        0.07369181241361111,
        0.039660877376725655
      ]
    ]
  ]
}