{
  "layer_sizes": [
    32,
    16,
    4
  ],
  "learning_rate": 0.3,
  "seed": 42,
  "output_activation": "softmax",
  "weights": [
    [
      [
        0.07947093957811935,
        -0.26246004805031825,
        0.1975199356150544,
        0.2521536513622652,
        -0.4379966430783805,
        -0.37481037250969235,
        0.03196010079182134,
        -0.09329268735812576,
        0.02781464487383358,
        -0.16502789817955163,
        0.27287485191818744,
        0.20972786208235053,
        0.05396152826077214,
        0.3393341175444001,
        0.11509770133930289,
        -0.21482311572080956
      ],
      [
        0.09547936566013622,
        -0.2421846716974441,
        0.22951971199025822,
        0.004530994517898563,
        0.0035465631987636114,
        -0.21949788189509808,
        0.30563533466850756,
        -0.0528644097894307,
        -0.07506702129087098,
        -0.03980030390821404,
        0.18610265459081735,
        0.10664089431613298,
        0.14063700676946525,
        0.1652290665543627,
        0.5336322659939065,
        -0.1016037540961539
      ],
      [
        -0.12476901262837281,
        -0.2059072035521638,
        0.163901992307314,
        0.2992555454446845,
        0.021275289671359988,
        -0.2593046150347448,
        -0.2061203039228099,
        0.14841615768394514,
        0.21782847705076638,
        0.18402165079014213,
        -0.11335206861969345,
        0.07332020899179335,
        0.06662530615565018,
        0.11219596498464525,
        0.21607756026333902,
        0.05589888719367057
      ],
      [
        0.17302006040748527,
        0.014430745882028494,
        0.0821869863359362,
        0.17483452872409688,
        -0.314526800878838,
        -0.12918329988343805,
        -0.11759316357319888,
        -0.1739515013330656,
        -0.03677062855676516,
        0.4219684115224422,
        -0.16343242072083064,
        0.25734946687298366,
        -0.383263589033483,
        -0.026197441694051686,
        0.0389086320525429,
        0.14655558283981954
      ],
      [
        0.1810983145877253,
        0.19587278730978694,
        -0.07727413139866923,
        -0.09857547590168003,
        0.2642561243993673,
        -0.09709157701451643,
        -0.31892158083448047,
        -0.2975538427731003,
        -0.19784813725049702,
        0.17252326972728438,
        0.08863179222012144,
        0.1879012167420555,
        -0.06935930771366547,
        0.09715873857157058,
        0.15461796426812574,
        -0.0773366349300596
      ],
      [
        0.11748547902886437,
        -0.16794550675685718,
        -0.08085632497782778,
        -0.07842200123512051,
        -0.2491977573121813,
        0.07247762440228274,
        -0.11735058505068097,
        -0.011108509590308315,
        0.15220159897638305,
        0.15986587772132935,
        0.21937163544567673,
        -0.009341492902242529,
        -0.06837072414057034,
        0.03759426307579226,
        -0.42361324271321593,
        -0.3617781181057718
      ],
      [
        -0.32738323344908904,
        -0.25177572839056483,
        0.10985069334429931,
        -0.2093572915755534,
        -0.04477848442476867,
        0.27554157865240353,
        -0.08906599276535648,
        0.17014685284454148,
        -0.20138948575256344,
        -0.0031263057530641764,
        -0.18448015552516514,
        -0.06947839075002722,
        0.24753088823481706,
        -0.37430628999569526,
        0.10682627666275582,
        0.05943390058306947
      ],
      [
        -0.14524581928468705,
        -0.363978485087308,
        0.027939513591907484,
        -0.11536070500148887,
        0.10793120692375474,
        -0.043802459413252004,
        0.40044472283022886,
        -0.07407094614048626,
        -0.22385943890556048,
        0.09305199245292241,
        0.10802452919542142,
        0.35507677203522264,
        0.24623166534911284,
        0.14674158058976944,
        0.364046088581182,
        -0.2971907635807127
      ],
      [
        -0.1798831341316026,
        -0.24986832459180444,
        -0.2060908163922172,
        -0.45727058883470867,
        0.6563820764990779,
        -0.055555674274693344,
        -0.36770157362566447,
        -0.4079723933054248,
        0.08121347536152226,
        -0.00752069197811315,
        1.0913354641875994,
        0.9691361937269158,
        0.336915082561832,
        -0.24738453000796604,
        -0.5226031350359894,
        0.06692786558595895
      ],
      [
        -0.12755743694498736,
        -0.10383931504492133,
        -0.18095224005843386,
        -0.13894776203311202,
        0.00803135165464097,
        0.5939658907937285,
        -0.0723590763665441,
        -0.029504184891261935,
        -0.5540667188096046,
        -0.14988591058132442,
        -0.21572382568905007,
        0.3945681216856363,
        -0.03674324003990464,
        0.018033631683791226,
        0.044228351083726865,
        -0.29623594160425615
      ],
      [
        -0.22871507625715462,
        -0.18332101515782384,
        0.5365736639983177,
        -0.20497312775836532,
        0.21658685157275456,
        -0.1936427085362121,
        0.22862715119096177,
        0.11453093318271056,
        -0.030648978016998625,
        0.025549880942390496,
        -0.1467345064945983,
        0.11782465746618472,
        -0.09216734270703912,
        -0.2890714183023539,
        -0.2988847418061494,
        0.04314697943052987
      ],
      [
        0.47045065098520294,
        0.03999790339335956,
        -0.05758762182095249,
        -0.03229350552838005,
        0.06803672938443633,
        0.6095493742733564,
        -0.1354321748153063,
        0.5059814308301632,
        -0.028206873018111735,
        0.3556300646860062,
        -0.15646957867899347,
        -0.3535316146394595,
        -0.4113516702195423,
        0.18508073698583927,
        0.5999686809143386,
        -0.04487980332065016
      ],
      [
        -0.09579683028399694,
        0.36814394906560816,
        -0.47693925153794614,
        -0.2236817547389566,
        0.11000077798501967,
        -0.26527429164609023,
        -0.001280466680017824,
        -0.26486660001168594,
        0.08439363719973339,
        0.8909882570393046,
        -0.09916512890796945,
        0.10709336583848318,
        -0.5125430252577556,
        0.3952254621757713,
        -0.21267054790314935,
        -0.304703265105907
      ],
      [
        -0.2195380917321877,
        -0.08074798417014538,
        0.0287978045619291,
        -0.331598179434891,
        -0.04317304753863695,
        -0.2876653692645874,
        -0.08191827359049021,
        0.026683580945593255,
        0.13452885925098151,
        0.8734673185715615,
        -0.16043777544588098,
        -0.2278769853984071,
        -0.05596470422012488,
        0.4680292604761061,
        0.04228035928349619,
        -0.27109701805834163
      ],
      [
        0.029205784685991616,
        0.05212903955433754,
        0.6491827827103603,
        0.503236097349341,
        -0.11378652946954745,
        -0.17037683197551945,
        -0.3658605004592508,
        -0.17614083203533204,
        0.14293111939739675,
        0.39792957264974516,
        -0.07622024303094177,
        -0.13297685356672234,
        -0.46191454969372747,
        0.07438115146855713,
        -0.26916287141230766,
        -0.13235985684151844
      ],
      [
        -0.17864179732394345,
        -0.023565638563139247,
        -0.0685301251045647,
        -0.14704895831696999,
        0.3973964803033028,
        -0.46396831104606046,
        -0.2741963946136599,
        0.748122921658273,
        0.9240621029255375,
        -0.3126913304098364,
        -0.2301057441141136,
        -0.005634829391914899,
        0.43357648535570303,
        -0.29363063912473736,
        -0.08101747992541815,
        0.194334394015436
      ],
      [
        0.1492649158346083,
        -0.09403901780752481,
        0.3374462316055825,
        -0.12401159906171773,
        -0.19445873369743813,
        -0.2087095382297915,
        0.05804247240656399,
        0.15006273487319033,
        0.3156799412517205,
        0.23337928125145624,
        -0.09918617299998946,
        -0.0030846150272414176,
        0.014690911148771729,
        -0.04689527124482448,
        -0.20008752682560257,
        0.079123565418327
      ],
      [
        -0.04426690054753802,
        0.5050677379922255,
        0.28470036001553545,
        -0.016637413806506265,
        0.3068300373717848,
        -0.2781028679958545,
        0.29778573827221627,
        -0.08839031671675486,
        0.12287086434687618,
        -0.6531988306952564,
        0.8240123616541979,
        0.3542756617786739,
        -0.04429494686078678,
        -0.11788120186248724,
        0.07633773623596793,
        0.013116699589060907
      ],
      [
        -0.0929880473950544,
        -0.04409640625691343,
        -0.17163271015499657,
        -0.07495842392001431,
        0.865467333043766,
        -0.6416646102328244,
        -0.05921256612742106,
        -0.10994951766042772,
        0.07683351092074832,
        -0.3100309792820309,
        0.15297229564500708,
        0.32266944815361054,
        0.6651502777838791,
        -0.3834653512290344,
        0.22636543857138502,
        -0.08213130578072347
      ],
      [
        0.07926620964603084,
        -0.26322462767598725,
        -0.11852409345582152,
        0.19532359813846994,
        -0.17741582205591053,
        1.1264575875179768,
        0.2534775133608334,
        0.3965332363763829,
        0.26673865325005436,
        0.07436212304333513,
        -0.045850690781322756,
        -0.13341068427034516,
        -0.07000338404535646,
        -0.45892001341503563,
        0.4587112970468571,
        -0.2945759057787164
      ],
      [
        0.23616098282236894,
        -0.047662764376289864,
        0.6637137461014229,
        0.40742960021359276,
        0.3202462417079287,
        0.04058100705710851,
        -0.39301006391331017,
        0.27215624635339397,
        -0.09520648753326806,
        -0.14936963379506957,
        0.23976360340207445,
        0.06835973559738169,
        -0.1733305328903818,
        -0.3003457111277777,
        -0.0115024952208255,
        -0.30414003734528194
      ],
      [
        -0.1272116721311917,
        0.07800236788781097,
        0.6597299817612671,
        0.3719027210868877,
        -0.7077376748532973,
        -0.06602098346998772,
        0.01800839330814448,
        0.3923671109211174,
        0.601847731028238,
        -0.5356092424046868,
        -0.2858193612148823,
        0.056702863571296315,
        -0.39399652560918064,
        0.32207089249569926,
        0.0723911347352739,
        0.211645996460851
      ],
      [
        -0.13944424574093708,
        0.20097690100135826,
        0.2770250256606997,
        0.07523197729875385,
        0.10836237725975273,
        0.018320314026318753,
        -0.21583631618484542,
        -0.0511142093323184,
        -0.0061156988631839125,
        0.14408154980221713,
        0.302981419930054,
        -0.24935414226948882,
        0.006201596290573714,
        0.4278877027171353,
        -0.18767669142684948,
        -0.20556250432258008
      ],
      [
        0.09114994517575206,
        0.21109629762133003,
        0.37375848662475764,
        0.5519525006400253,
        0.07928319793785986,
        0.06834235099496276,
        0.13852912533102332,
        0.8708078146644657,
        0.14650488839892487,
        -0.5206802462201295,
        0.26302008546217936,
        -0.20544857486624876,
        0.02837218534006315,
        0.28047130169745377,
        -0.420262903704622,
        -0.31291180352653486
      ],
      [
        -0.39702781464020187,
        -0.20099809399655033,
        0.11981628816768855,
        0.14805943296765453,
        0.1188306989172172,
        -0.40245696676720444,
        -0.577525859158161,
        -0.0006436429246346048,
        -0.08592907415967813,
        0.16307952664299627,
        0.2285137647577977,
        0.04984023623978387,
        0.22748712521443165,
        0.11482665933115911,
        0.13073654217665823,
        -0.1761683157174706
      ],
      [
        -0.041611183818353076,
        0.046730002674044945,
        0.2150392555177948,
        -0.08142282079168127,
        0.180053968018107,
        -0.11572519377295747,
        -0.02938554183203259,
        0.19314772123378812,
        -0.4662501585136332,
        -0.27588499830484703,
        -0.3175209911582248,
        -0.5681241517369631,
        -0.132112256168326,
        0.24488229073432716,
        -0.0730006508193522,
        0.04944752048546303
      ],
      [
        0.2755960438172097,
        0.32945751157672853,
        -0.0073773470180947785,
        0.35540894465681094,
        0.07279381869360603,
        -0.2586150517509783,
        -0.1486000880496838,
        -0.3843661674134842,
        -0.19001852918350728,
        -0.04127108830476395,
        0.25392161304713073,
        0.44547233601660946,
        -0.30809152497379183,
        0.1557306828673718,
        -0.26191561901309207,
        0.11867427211580049
      ],
      [
        -0.02947999303242012,
        -0.46019047795207696,
        0.24198138455556117,
        -0.13423770593772097,
        -0.0837129055083099,
        -0.3167035986165353,
        -0.16357081917188887,
        0.09274057090149909,
        -0.015296150984195601,
        0.13039858428446363,
        0.1435058216846911,
        0.34544529210715524,
        -0.0482426838456267,
        -0.311690638409041,
        0.2650259699192873,
        -0.08287204302431367
      ],
      [
        0.2819397807838558,
        0.09338025680542324,
        -0.02287724588739614,
        0.10420644577603554,
        0.5375152941166539,
        0.46997963646932545,
        0.017345283783194675,
        0.025815609057038672,
        0.30107497361650215,
        -0.1631821744779934,
        0.13629295135704392,
        0.008814166236649285,
        0.1159309067348565,
        -0.15081838568495942,
        -0.3991715075509507,
        -0.5182458589978229
      ],
      [
        -0.2760543586078904,
        -0.11713284272502762,
        -0.0633907599987503,
        0.5013202628718411,
        0.32626049656190315,
        -0.28978827487951964,
        0.08692711311273923,
        -0.11600159835981148,
        -0.03907602526011801,
        0.09456449606768888,
        0.2078181374463285,
        -0.06953474274589044,
        0.3034167370540578,
        -0.22796074073320893,
        -0.00019486863314138923,
        0.6494184316489581
      ],
      [
        0.059061605295830336,
        0.3558396051613488,
        0.03278718120674215,
        0.16220674609691096,
        0.03556635548690588,
        -0.09186739108516381,
        -0.1948705991813549,
        0.0933433004671581,
        -0.18086936304653617,
        0.21462939279220067,
        0.3243471093139579,
        0.10691273003442088,
        -0.03410832951845483,
        0.17101521062956604,
        -0.07894789811031167,
        0.23388678136628732
      ],
      [
        -0.44293520209293297,
        -0.08170779062281025,
        -0.6610301969685851,
        -0.39421463844686444,
        0.2499459370857155,
        0.20176245158573947,
        -0.1863153945780946,
        -0.5070174465356098,
        -0.7678191464313008,
        0.28359301033048673,
        0.4691966694400022,
        0.05688701647625287,
        -0.1535546402010297,
        0.3926021689721819,
        -0.3583876992836813,
        -0.07433084067440886
      ]
    ],
    [
      [
        -0.05683732901015539,
        -0.1076990638315999,
        0.2929456054654342,
        0.2777628817780511
      ],
      [
        0.2369517735509993,
        -0.24106689036388146,
        0.31582705156503393,
        0.5745425032640716
      ],
      [
        -0.6958660818809463,
        -0.10108878652322932,
        0.9685801380364446,
        -0.42385196463853203
      ],
      [
        0.35885233056696475,
        -0.3225906248241801,
        0.8048154933615101,
        0.05971216575486433
      ],
      [
        0.01204733714693804,
        0.9468657608953851,
        -0.36829191668964206,
        -0.40675423032768726
      ],
      [
        -0.6073665014186616,
        -0.1941280890358027,
        -0.8119094062793699,
        1.2865373722322144
      ],
      [
        -0.19691149333779565,
        0.39720495903471603,
        -0.8504232030717405,
        -0.2591334762282528
      ],
      [
        -1.0143043063014974,
        -0.7257305999538862,
        0.7462540978457863,
        0.1296049841312176
      ],
      [
        -0.30089498116620267,
        -0.07581566479222687,
        0.5282227631081111,
        -0.5820377018456319
      ],
      [
        1.3852630515473752,
        -0.43263314774046385,
        -0.2944887135403079,
        0.15895145160207652
      ],
      [
        0.10767686605854952,
        1.2729244198193805,
        -0.24114940837693608,
        -0.4545079745088012
      ],
      [
        -0.4865099965238595,
        0.3442514386172673,
        -0.6503726028780499,
        -0.5929655609689323
      ],
      [
        -0.2351892384439872,
        0.5070549101736659,
        -0.06453737192253058,
        -0.3667025570004843
      ],
      [
        0.791340987011598,
        0.005118323136991604,
        -0.13287588802903957,
        -0.37118317712176
      ],
      [
        -0.046912202922528685,
        -0.08190071023382373,
        -0.6505011752357183,
        0.5036463859217393
      ],
      [
        0.09264364981575933,
        -0.3180901422618369,
        0.0671197752194088,
        -0.5143574223742244
      ]
    ]
  ],
  "biases": [
    [
      [
        0.20188061798769272,
        -0.029284943056562214,
        0.2596273169897536,
        0.1067654675682464,
        0.035407525462462064,
        0.42545225093789685,
        -0.06220267793887021,
        0.4287471951076673,
        0.212751449923012,
        0.44853244704229756,
        0.18656013928223997,
        0.05215482477830948,
        0.30957483162027927,
        0.17949868251700885,
        0.2915052297508087,
        0.0
      ]
    ],
    [
      [
        0.32006869799209897,
        -0.19391741624143108,
        -0.16779528972165134,
        0.041644007970983325
      ]
    ]
  ]
}