{
  "layer_sizes": [
    32,
    16,
    4
  ],
  "learning_rate": 0.3,
  "seed": 42,
  "output_activation": "softmax",
  "weights": [
    [
      [
        0.07003512003867228,
        -0.2599960265601239,
        0.14887437805385406,
        0.1496673438794718,
        -0.5972533739471151,
        -0.3255448767155795,
        0.006108750674198868,
        0.16772207201576197,
        -0.004200289376072199,
        -0.2379316482050246,
        0.1710684223130459,
        0.25610156714752974,
        -0.002456248234159586,
        0.2818103017420082,
        0.1168773355630114,
        -0.21482311572080956
      ],
      [
        0.12253756891571038,
        -0.24408503349267993,
        0.265269780870701,
        0.04697828369175923,
        -0.02311315773313805,
        -0.18102495526381077,
        0.3317239262182531,
        0.013398366149012346,
        -0.09205859026150331,
        -0.07824486784151084,
        0.1606994441410994,
        0.09294422405026587,
        0.09988443238840654,
        0.10770525075197068,
        0.5338833739150504,
        -0.1016037540961539
      ],
      [
        -0.08963118718894067,
        -0.2087814493330069,
        0.21808224959506423,
        0.37315651088852025,
        0.02306705105503976,
        -0.22323998061425457,
        -0.16871001743509043,
        0.17378318580653127,
        0.20418927516124177,
        0.1530103208338059,
        -0.12221279959613195,
        0.04685926017940033,
        0.029171452285182056,
        0.05467214918225324,
        0.21598758739705107,
        0.05589888719367057
      ],
      [
        0.20815788584691738,
        0.011556500101185379,
        0.13636724362368632,
        0.24873549416793236,
        -0.31273503949515813,
        -0.09311866546294788,
        -0.08018287708547953,
        -0.1485844732104795,
        -0.0504098304462897,
        0.3909570815661061,
        -0.1722931516972692,
        0.23088851806059058,
        -0.4207174429039512,
        -0.08372125749644371,
        0.038818659186255,
        0.14655558283981954
      ],
      [
        0.2162361400271574,
        0.19299854152894383,
        -0.023093874110919135,
        -0.024674510457844537,
        0.26604788578304706,
        -0.061026942594026266,
        -0.2815112943467609,
        -0.27218681465051403,
        -0.21148733914002163,
        0.14151193977094817,
        0.07977106124368294,
        0.16144026792966243,
        -0.10681316158413356,
        0.03963492276917856,
        0.1545279914018378,
        -0.0773366349300596
      ],
      [
        0.1080496594894173,
        -0.16548148526666281,
        -0.12950188253902822,
        -0.18090830871791394,
        -0.40845448818091623,
        0.12174312019639545,
        -0.14320193516830343,
        0.24990624978357937,
        0.12018666472647724,
        0.0869621276958564,
        0.11756520584053533,
        0.037032212162936805,
        -0.12478850063550204,
        -0.019929552726599763,
        -0.42183360848950746,
        -0.3617781181057718
      ],
      [
        -0.33681905298853626,
        -0.24931170690037044,
        0.061205135783098864,
        -0.3118435990583468,
        -0.20403521529350382,
        0.32480707444651635,
        -0.11491734288297897,
        0.4311616122184292,
        -0.23340442000246925,
        -0.07603005577853714,
        -0.28628658513030647,
        -0.023104685684847935,
        0.19111311173988527,
        -0.43183010579808717,
        0.10860591088646433,
        0.05943390058306947
      ],
      [
        -0.16745888566131176,
        -0.36151446359711364,
        -0.2703168432226828,
        0.23770997055019977,
        0.02535454944507066,
        0.00546303638086072,
        0.35152075296185215,
        -0.4353872279231907,
        -0.3096421428101003,
        0.3884752370138121,
        0.024556780286604657,
        0.7541616854758618,
        0.20877781147864463,
        0.08921776478737733,
        0.36582572280489045,
        -0.2971907635807127
      ],
      [
        -0.1788592799245501,
        -0.23164398535138123,
        -0.38580167094009216,
        0.025911610927073177,
        0.12597323330999582,
        -0.055555674274693344,
        -0.4166255434940412,
        -0.6294430913568202,
        0.02461069220791474,
        0.5531879702483283,
        0.46874033221661005,
        1.1428304081675844,
        0.1036023583189991,
        -0.24738453000796604,
        -0.5330115701828273,
        0.06692786558595895
      ],
      [
        -0.21347552366080744,
        -0.10383931504492133,
        -0.21758823459455248,
        -0.17765411363464906,
        0.08400409639081705,
        0.039262141861336156,
        -0.08274429278904287,
        0.1523910952963096,
        -0.41867073617608924,
        -0.1626947544543821,
        -0.09474742337568211,
        0.5447384505454584,
        0.0009620926607821299,
        0.2456848777557644,
        -0.12482389963478802,
        -0.29623594160425615
      ],
      [
        -0.2109293176630072,
        -0.1856708994193685,
        0.5777746386526736,
        -0.1458869083677741,
        0.2327247340872633,
        -0.23652436368458202,
        0.25898184476830655,
        0.14826847819267863,
        -0.024136109135249082,
        -0.0004021117533119919,
        -0.13607477610458538,
        0.11310125832976642,
        -0.11704459059578556,
        -0.30640144094181204,
        -0.3210129198824699,
        0.04314697943052987
      ],
      [
        0.42512268699769423,
        0.03563352010792935,
        0.015997624016412228,
        0.13091629633895807,
        0.3496028685798834,
        0.044053056178138636,
        -0.07664321615868898,
        0.3286029141811849,
        0.12221247489467686,
        0.39372751777954434,
        0.07343075705823876,
        -0.30453404997087874,
        -0.3453385203220068,
        0.4127319830578124,
        0.42938790389325926,
        -0.04487980332065016
      ],
      [
        -0.06544695738891126,
        0.36099668977512034,
        -0.231104214966989,
        -0.16422199330063417,
        0.18393413182543816,
        -0.10944384987772285,
        0.02480812486972751,
        0.01117001203508475,
        0.09941700247900688,
        0.36165898510897554,
        0.05026837447819867,
        0.16256790627846088,
        -0.5158417457683463,
        -0.012179600482529487,
        -0.21233609387578262,
        -0.304703265105907
      ],
      [
        -0.22773029159876845,
        -0.08353086017520302,
        0.1773244077253229,
        -0.44556329305933323,
        -0.13833489589627074,
        -0.12104235833339462,
        -0.11638674041398692,
        0.579733083128361,
        0.13452885925098151,
        0.3014553051118464,
        -0.10366784834935672,
        -0.09178087519728549,
        -0.08124993438607635,
        0.0606241978178054,
        0.04414333961342776,
        -0.27109701805834163
      ],
      [
        0.003701048669855383,
        0.057057082534726286,
        0.34101928923232994,
        0.839294300636568,
        -0.24612534103331027,
        -0.07184584038729402,
        -0.4147844703276275,
        -0.523225074545806,
        0.02513348124295104,
        0.6451197334967912,
        -0.21271335014223874,
        0.2508281816488036,
        -0.5368222574346637,
        -0.04066648013622692,
        -0.2656036029648908,
        -0.13235985684151844
      ],
      [
        -0.19100283651611522,
        -0.027930021848569457,
        -0.4072517690041563,
        -0.3370374119393435,
        0.5173216695076359,
        -0.3326482144813332,
        -0.25710134100942933,
        0.5971134260625304,
        0.7412901575893749,
        -0.29168592217804545,
        -0.08141074925076473,
        0.10842102730820899,
        0.4222782495696264,
        -0.24671426960705936,
        -0.0628479877880923,
        0.194334394015436
      ],
      [
        0.028558469142389038,
        -0.12749272676839038,
        -0.2359434027138081,
        -0.7144056207188635,
        0.23670123105028804,
        -0.06659687250223878,
        0.6665691223564411,
        -0.19090524063696168,
        0.2725837578200232,
        0.19131009412931999,
        0.4597608119838124,
        -0.06974654026444735,
        0.013288836894466841,
        2.1098272853545107e-05,
        -0.08398314898868384,
        0.079123565418327
      ],
      [
        -0.10445469907763807,
        0.4898383682717831,
        0.19085106403401286,
        -0.2742200304872425,
        0.10548036462026253,
        -0.2781028679958545,
        0.9063123882220935,
        0.013613870354576967,
        0.27473497803164115,
        -0.49801535706918515,
        0.6527631004562415,
        -0.04408055781065747,
        -0.2776076711036195,
        -0.11788120186248724,
        0.16233566048615788,
        0.013116699589060907
      ],
      [
        -0.08328304628411469,
        -0.025872067016490214,
        -0.1275583793813218,
        -0.10431576400493561,
        0.18538203194219538,
        -0.6416646102328244,
        -0.10229814965679186,
        0.45543263884587426,
        0.07399849742177488,
        -0.13409642251637188,
        -0.5204822312907478,
        0.1847548430790153,
        0.40023101583360693,
        -0.3834653512290344,
        0.21595700342454707,
        -0.08213130578072347
      ],
      [
        0.010380016231778031,
        -0.2952542313022122,
        -0.08468450663437602,
        0.2702367166648226,
        0.4378607749771686,
        0.4066761786052409,
        0.7575882232792198,
        0.09880384781542459,
        0.5714775452352978,
        0.10470170507747571,
        0.5639835377675563,
        -0.19715358248445541,
        0.016636453964801207,
        -0.17435595582506921,
        0.3051916998635613,
        -0.2945759057787164
      ],
      [
        0.5354709522520205,
        -0.047662764376289864,
        1.1852698022745223,
        0.7580496406722971,
        0.5148080589469284,
        0.09996687174532835,
        -0.7181709723936044,
        0.4806639107445761,
        -0.27877661309288104,
        -0.3034326078549128,
        0.26411571042800996,
        -0.16736492734173855,
        -0.17473260714468658,
        -0.2534293416100997,
        -0.09992723932608646,
        -0.30414003734528194
      ],
      [
        -0.1293555742702016,
        0.07266410061677347,
        0.35291540297786433,
        0.24310380576440718,
        -0.5212684616807662,
        0.06289082088394242,
        0.05541867979586386,
        0.11460756019352929,
        0.4224281527731831,
        -0.49858781544367836,
        -0.10361122907173477,
        0.13654551011105903,
        -0.3953985998634856,
        0.3689872620133772,
        0.09021954608516822,
        0.211645996460851
      ],
      [
        -0.10430642030150494,
        0.19810265522051515,
        0.33120528294844986,
        0.14913294274258931,
        0.11015413864343251,
        0.05438494844680893,
        -0.17842602969712595,
        -0.025747181209732243,
        -0.01975490075270849,
        0.11307021984588098,
        0.2941206889536152,
        -0.27581509108188196,
        -0.03125225757989441,
        0.3703638869147433,
        -0.18776666429313743,
        -0.20556250432258008
      ],
      [
        0.08900604303674206,
        0.20575803035029255,
        0.0669439078413551,
        0.42315358531754466,
        0.26575241111039033,
        0.1972541553488929,
        0.17593941181874279,
        0.5930482639368772,
        -0.032914689856129824,
        -0.48365881925912135,
        0.4452282176053269,
        -0.125605928326486,
        0.02697011108575826,
        0.32738767121513174,
        -0.4024344923547275,
        -0.31291180352653486
      ],
      [
        -0.3618899892007696,
        -0.20387233977739344,
        0.1739965454554387,
        0.22196039841148998,
        0.12062246030089699,
        -0.36639233234671414,
        -0.5401155726704422,
        0.024723385197951545,
        -0.09956827604920274,
        0.13206819668666006,
        0.21965303378135914,
        0.023379287427390854,
        0.19003327134396344,
        0.057302843528767106,
        0.13064656931037028,
        -0.1761683157174706
      ],
      [
        -0.019896767736038833,
        0.0448296408788091,
        0.2170971326260341,
        -0.11331518669261641,
        0.05816289295466614,
        -0.0772522671416702,
        -0.025780795146073954,
        0.4740462654622033,
        -0.48324172748426536,
        -0.3357865241187849,
        -0.38535084612424125,
        -0.5281984929682421,
        -0.18935843310233752,
        0.1873584749319351,
        -0.07274954289820855,
        0.04944752048546303
      ],
      [
        0.2661602242777625,
        0.3319215330669229,
        -0.05602290457929516,
        0.25292263717401764,
        -0.08646291217512903,
        -0.20934955595686552,
        -0.17445143816730624,
        -0.12335140803959652,
        -0.2220334634334131,
        -0.11417483833023691,
        0.15211518344198915,
        0.4918460410817888,
        -0.3645093014687236,
        0.09820686706497973,
        -0.2601359847893836,
        0.11867427211580049
      ],
      [
        0.00565783240701202,
        -0.46306472373292007,
        0.29616164184331145,
        -0.06033674049388551,
        -0.08192114412463009,
        -0.280638964196045,
        -0.1261605326841694,
        0.11810759902408531,
        -0.028935352873720163,
        0.09938725432812746,
        0.13464509070825248,
        0.3189843432947621,
        -0.08569653771609483,
        -0.36921445421143295,
        0.2649359970529996,
        -0.08287204302431367
      ],
      [
        0.31707760622328807,
        0.09050601102458011,
        0.03130301140035399,
        0.1781074112198711,
        0.5393070555003336,
        0.5060442708898157,
        0.05475557027091406,
        0.051182637179624776,
        0.28743577172697765,
        -0.19419350443432964,
        0.12743222038060534,
        -0.017646782575743727,
        0.0784770528643884,
        -0.20834220148735144,
        -0.3992614804172384,
        -0.5182458589978229
      ],
      [
        -0.24091653316845812,
        -0.12000708850587075,
        -0.009210502711000212,
        0.5752212283156762,
        0.328052257945583,
        -0.25372364045902934,
        0.12433739960045859,
        -0.09063457023722525,
        -0.05271522714964254,
        0.06355316611135271,
        0.19895740646988994,
        -0.09599569155828343,
        0.2659628831835896,
        -0.285484556535601,
        -0.0002848414994292649,
        0.6494184316489581
      ],
      [
        0.09419943073526246,
        0.3529653593805057,
        0.08696743849449229,
        0.23610771154074642,
        0.037358116870585656,
        -0.05580275666467365,
        -0.15746031269363545,
        0.1187103285897443,
        -0.19450856493606078,
        0.18361806283586443,
        0.31548637833751914,
        0.08045178122202788,
        -0.07156218338892296,
        0.11349139482717402,
        -0.07903787097659953,
        0.23388678136628732
      ],
      [
        -0.4194220259748371,
        -0.08924010930069905,
        -0.43361560482980915,
        -0.2828517698485039,
        0.39251947292223577,
        0.21059538411929893,
        -0.14245977183347813,
        -0.3644908751598681,
        -0.7227564771000318,
        -0.1186521232256514,
        0.6492683802878922,
        0.09753999727863226,
        -0.13989307151237237,
        0.11627005237507657,
        -0.3921091953386069,
        -0.07433084067440886
      ]
    ],
    [
      [
        -0.1053346814806603,
        -0.0772831451394889,
        0.5820167876346812,
        0.006773133387197756
      ],
      [
        0.23366911403839472,
        -0.23571339305733255,
        0.3146963108295656,
        0.5736024062055955
      ],
      [
        -0.4575085099847801,
        -0.5055497497384165,
        1.076345812816405,
        -0.3655142480994717
      ],
      [
        0.9301895090568318,
        -0.5735802732617776,
        1.0126859260717451,
        -0.4685057970076411
      ],
      [
        -0.03676498290907252,
        0.5090090426195176,
        0.39931546731388917,
        -0.6876925759993415
      ],
      [
        -0.1628590005513936,
        0.15325755118845932,
        -0.5394951281365651,
        0.2222299529978797
      ],
      [
        -0.42494699572103,
        1.1494803334752857,
        -1.2681000184668638,
        -0.3656965328904646
      ],
      [
        -1.3569206011104136,
        -0.5243287356441826,
        0.18003334355809208,
        0.8370401689181249
      ],
      [
        -0.2163701251510929,
        0.36234343781084855,
        -0.06666911639215961,
        -0.5098297809635467
      ],
      [
        1.036230217639337,
        0.007654119561638213,
        -0.16515990757333987,
        -0.0616317877589556
      ],
      [
        0.2170245291914275,
        1.0050457996204234,
        0.2284229254158038,
        -0.7655493512354624
      ],
      [
        0.5647637452225831,
        -0.8556538881010836,
        -0.9667958200987052,
        -0.12791075877636834
      ],
      [
        -0.028770975370459913,
        0.11406840887084628,
        0.014143356177680226,
        -0.2588150468714029
      ],
      [
        0.31826330476898596,
        0.26142185733963325,
        -0.056444200391531425,
        -0.2308407167192974
      ],
      [
        0.1524427748468048,
        0.16326082355800484,
        -0.5365328883740338,
        -0.054838412501107936
      ],
      [
        0.09264364981575933,
        -0.3180901422618369,
        0.0671197752194088,
        -0.5143574223742244
      ]
    ]
  ],
  "biases": [
    [
      [
        0.2140431161251273,
        -0.06099548354744709,
        0.04844124065938084,
        0.41218360308439983,
        0.15996284270146238,
        -0.10164056651306691,
        0.5258132427159545,
        0.6961028529113452,
        0.19881018951160356,
        0.22906034519187282,
        0.39607719112752515,
        0.3080184835099505,
        -0.06788966824795824,
        0.0,
        0.04293301423836178,
        0.0
      ]
    ],
    [
      [
        0.059090682679893855,
        -0.47559414428428426,
        -0.3870958556620971,
        0.8035993172664871
      ]
    ]
  ]
}