{
  "layer_sizes": [
    32,
    16,
    4
  ],
  "learning_rate": 0.3,
  "seed": 42,
  "output_activation": "softmax",
  "weights": [
    [
      [
        0.20353163022303045,
        -0.026782452557934384,
        0.2553778532429354,
        0.05334857316903599,
        -0.8963059149065336,
        -0.3255448767155795,
        0.03196010079182134,
        0.2271430067649116,
        -0.004200289376072199,
        -0.213260981893395,
        -0.2127902766425136,
        0.4526461010407626,
        0.01650767439030401,
        -0.050086905164170296,
        0.6479866110778936,
        -0.4181971755402379
      ],
      [
        0.13814829784864402,
        -0.206895212841171,
        0.30960782243619206,
        0.04013165676921272,
        0.038234956403052835,
        -0.20471878192892862,
        0.30563533466850756,
        0.027775463528633394,
        -0.1070819555407768,
        -0.0880333876220574,
        0.1407761961882208,
        0.06500415085093572,
        0.1031831528989971,
        0.13122305303776144,
        0.5052257783823281,
        -0.07320284452487698
      ],
      [
        -0.08210008043986519,
        -0.1706177446958907,
        0.24399010275324792,
        0.33485620769599894,
        0.05596368287564922,
        -0.24452551506857528,
        -0.2061203039228099,
        0.2290560310020092,
        0.18581354280086057,
        0.13578856707629874,
        -0.15867852702228996,
        0.031683465526596115,
        0.029171452285182056,
        0.07818995146804392,
        0.18767107265176025,
        0.08429979676494748
      ],
      [
        0.16592201945264232,
        0.12678048859922528,
        -0.028340712140072527,
        0.11004626359064147,
        -0.3937156556985337,
        -0.07991780408932533,
        -0.11759316357319888,
        -0.20085659141953424,
        -0.06878556280667093,
        0.37373532780859897,
        -0.3667060109109948,
        0.48882584384203076,
        -0.4207174429039512,
        -0.17094511420907735,
        0.18931710349658615,
        0.24221962065774388
      ],
      [
        0.13052795881906834,
        0.2599750547256085,
        -0.23739404351890636,
        -0.11558794816614179,
        0.31335230430320976,
        -0.04782608122040372,
        -0.31892158083448047,
        -0.4375669208768666,
        -0.22986307150040283,
        0.12429018601344101,
        -0.01075114007800472,
        0.39953432060968946,
        -0.10681316158413356,
        0.03963492276917856,
        0.16787800727792537,
        0.11179242016679881
      ],
      [
        0.17392219454035257,
        -0.09807770011392289,
        -0.0053989113274196575,
        -0.08404209631849574,
        -0.3009816667963422,
        0.0935482318769588,
        -0.11735058505068097,
        0.11067954199371202,
        0.12018666472647724,
        0.11163279400748602,
        0.0973841723153724,
        -0.0012570059243278053,
        -0.10582457801103844,
        -0.05843478538422687,
        -0.35412779014477586,
        -0.37393485397354276
      ],
      [
        -0.2847143012605813,
        -0.2164862695342917,
        0.18993880379023315,
        -0.17375662932423935,
        -0.010090091220479417,
        0.290320678618573,
        -0.08906599276535648,
        0.25078672616260556,
        -0.23340442000246925,
        -0.051359389466907504,
        -0.2298066139277617,
        -0.11111513421522448,
        0.21007703436434888,
        -0.40831230351229636,
        0.07841978905117704,
        0.0878348101543464
      ],
      [
        -0.10257688709617949,
        -0.3286890262310349,
        0.10802762403784132,
        -0.07976004275017473,
        0.14261960012804398,
        -0.029023359447082557,
        0.40044472283022886,
        0.006568927177577871,
        -0.25587437315546624,
        0.04481890873907904,
        0.06269807079282484,
        0.31344002857002534,
        0.20877781147864463,
        0.11273556707316802,
        0.3356396009696033,
        -0.26878985400943606
      ],
      [
        -0.2072165693165823,
        -0.17000573942575417,
        -0.247665226245739,
        -0.3441715368890772,
        0.25764607069252227,
        -0.055555674274693344,
        -0.36770157362566447,
        -0.40813988767788184,
        0.07837846186254882,
        0.20953164197359528,
        0.45282514882730057,
        0.9553785985945793,
        0.1036023583189991,
        -0.24738453000796604,
        -0.5215311613967359,
        0.2560569206828174
      ],
      [
        -0.25051395995672693,
        -0.04220106911929415,
        -0.3032369752217492,
        -0.035197721604096316,
        0.36535339168583214,
        0.039262141861336156,
        -0.039658709259672076,
        -0.41315855558244935,
        -0.41867073617608924,
        -0.12157697726833272,
        -0.05980321180022617,
        0.6688954604877176,
        0.03256863036822146,
        0.2456848777557644,
        -0.11334349084869674,
        -0.10710688650739776
      ],
      [
        -0.28855787668723826,
        -0.11966827020831118,
        0.3819046576519939,
        -0.20534666980609653,
        0.30848063492300754,
        -0.2257317945217566,
        0.23289325321856102,
        -0.058007375849530605,
        -0.0391594744145226,
        -0.010190631533858506,
        -0.2100544979529937,
        0.33843103246326756,
        -0.113745870085195,
        -0.30640144094181204,
        -0.30800398479381363,
        0.23227603452738835
      ],
      [
        0.44073341593062804,
        0.0728233407594382,
        0.06033566558190335,
        0.12406966941641162,
        0.4109509827160743,
        0.02035922951302082,
        -0.10273180770843429,
        0.3429800115608061,
        0.10718910961540337,
        0.383938997998998,
        0.053507509105360083,
        -0.33247412317020886,
        -0.34203979981141625,
        0.4362497853436032,
        0.40073030836053714,
        -0.016478893749373287
      ],
      [
        -0.04983622845597771,
        0.3981865104266293,
        -0.18676617340149798,
        -0.17106862022318076,
        0.24528224596162906,
        -0.1331376765428407,
        -0.001280466680017824,
        0.025547109414705782,
        0.08439363719973339,
        0.3518704653284292,
        0.030345126525319926,
        0.13462783307913065,
        -0.5125430252577556,
        0.01133820180326124,
        -0.240993689408505,
        -0.27630235553463034
      ],
      [
        -0.17357748990416844,
        -0.05070542280912434,
        0.31897088269837715,
        -0.27898504491911497,
        0.09210842043797236,
        -0.15552875416133793,
        -0.08191827359049021,
        0.3170972903719849,
        0.13452885925098151,
        0.3343495268606859,
        -0.03092752001259156,
        -0.20034251815775958,
        -0.05596470422012488,
        0.08414200010359608,
        0.013957217778140563,
        -0.24269610848706474
      ],
      [
        0.06858304723498776,
        0.08988251990080492,
        0.7193637564928538,
        0.521824287336194,
        -0.12886029035033703,
        -0.10633223621523728,
        -0.3658605004592508,
        -0.08126891944503765,
        0.07890125089758512,
        0.3014634052220584,
        -0.17457205963601852,
        -0.18989347525703296,
        -0.5368222574346637,
        -0.017148677850436174,
        -0.2957897248001779,
        -0.10395894727024156
      ],
      [
        -0.26649388067104246,
        0.03807260736248788,
        -0.5896448732959548,
        -0.36676131134774764,
        0.6311701119959959,
        -0.32185564531850774,
        -0.2741963946136599,
        0.30498326470433207,
        0.7262667923101017,
        -0.2928916572063354,
        -0.13841981329265374,
        0.3123018698278747,
        0.4321744111013981,
        -0.24671426960705936,
        -0.04983905269943619,
        0.3834634491122946
      ],
      [
        0.061412832487509304,
        -0.03240077188189764,
        -0.1836685165858073,
        -0.34372395209249546,
        0.039314897995254915,
        -0.06659687250223878,
        0.05804247240656399,
        -0.2930769220807505,
        0.11788463063628475,
        0.25317895445495714,
        -0.007500242178529522,
        0.31485208419254823,
        0.013288836894466841,
        2.1098272853545107e-05,
        -0.16890909959962067,
        0.2682526205151855
      ],
      [
        -0.07160033573251776,
        0.5849303231582761,
        0.24312595016201344,
        0.0964616381391252,
        -0.09190596843477068,
        -0.2781028679958545,
        0.29778573827221627,
        -0.08855781108921178,
        0.1200358508479027,
        -0.43614649674354816,
        0.1855020462938991,
        0.34051806664633816,
        -0.2776076711036195,
        -0.11788120186248724,
        0.07740970987522117,
        0.20224575468591932
      ],
      [
        -0.12032148258003411,
        0.035766178909136914,
        -0.21320712000851832,
        0.03814062802561714,
        0.4667313272372105,
        -0.6416646102328244,
        -0.05921256612742106,
        -0.11011701203288467,
        0.07399849742177488,
        -0.09297864533032246,
        -0.4855380197152917,
        0.3089118530212748,
        0.43183755354104625,
        -0.3834653512290344,
        0.22743741221063826,
        0.10699774931613495
      ],
      [
        -0.12008548707730984,
        -0.4217958827359069,
        -0.21909331725651754,
        0.16225976398069383,
        0.4419377691456131,
        0.6453581542355695,
        0.2943529722444234,
        0.10732800886058204,
        0.435983631541948,
        0.10974828968457469,
        0.718428545595545,
        -0.18600052098367087,
        0.016636453964801207,
        -0.025967953216567412,
        0.4342687517734951,
        -0.30572290887601217
      ],
      [
        0.09083318498431726,
        -0.20623401943620948,
        0.15733249919928155,
        0.024965862488769096,
        0.7514354980603865,
        0.394973925667745,
        -0.39301006391331017,
        -0.01918195409636221,
        -0.293001798148704,
        -0.12956996059156867,
        0.8892386097154605,
        0.04752567012443019,
        -0.17473260714468658,
        -0.10504133900159789,
        0.1950682913438471,
        -0.3152870404425777
      ],
      [
        -0.2725394699692434,
        -0.08056888717210862,
        0.15334873485912576,
        -0.01056101663793592,
        -0.2765484185008388,
        0.2883719351406487,
        0.01800839330814448,
        0.10102891047136127,
        0.4040524204128018,
        -0.5158095692011857,
        0.36365564509850357,
        0.03586879809834483,
        -0.3953985998634856,
        0.517375264621879,
        0.27896192129994646,
        0.2004989933635552
      ],
      [
        -0.1376727221430199,
        0.18809564852588048,
        0.28178373377854604,
        -0.015318541956152523,
        0.21118651013611983,
        0.15016756376731263,
        -0.21583631618484542,
        0.06939863863506587,
        -0.0381306331130897,
        0.09584846608837377,
        0.44788013064044546,
        -0.2996416866015599,
        -0.03125225757989441,
        0.409293669800596,
        -0.02067327615239668,
        -0.223536208832888
      ],
      [
        0.05563974119522705,
        0.19575102365565789,
        0.01752235867145118,
        0.25870210061880267,
        0.36678478260307723,
        0.2930367706693966,
        0.13852912533102332,
        0.6881940837816757,
        -0.05129042221651105,
        -0.5008805730166285,
        0.5989876592921576,
        -0.14943252384616415,
        0.02697011108575826,
        0.36631745410098443,
        -0.23534110421398702,
        -0.3308855080368428
      ],
      [
        -0.34059109912871366,
        -0.131130287353616,
        0.19527370181809664,
        0.14243933788427926,
        0.06704678943305631,
        -0.38138635929252845,
        -0.577525859158161,
        0.12114440865938572,
        -0.11794400840958394,
        0.11484644292915294,
        0.1065263016274934,
        0.057924723217698586,
        0.19003327134396344,
        0.018797610871140007,
        0.20022199474509825,
        -0.1883250515852418
      ],
      [
        -0.02693583639414883,
        0.09285108988830205,
        0.21498771739435701,
        -0.12895865509056148,
        0.4035103366985291,
        -0.012072832351400213,
        -0.02938554183203259,
        0.2874618239164529,
        -0.498265092763539,
        -0.32411808201869025,
        -0.1905192306667354,
        -0.521547553045851,
        -0.16956611003879418,
        0.2455156021965585,
        0.07531458546331088,
        0.1533888073753699
      ],
      [
        0.22502568804855289,
        0.39355977899255007,
        -0.16749725913833197,
        0.3383964723923493,
        0.12188999859744849,
        -0.20934955595686552,
        -0.1486000880496838,
        -0.5243792455172506,
        -0.2220334634334131,
        -0.08950417201860729,
        0.15453868074900431,
        0.6571054398842427,
        -0.34554537884426,
        0.09820686706497973,
        -0.2486555760032923,
        0.30780332721265913
      ],
      [
        -0.13752606329202965,
        -0.6162977115218021,
        0.09659497372457265,
        -0.3140015628962286,
        0.16279889905529765,
        -0.0551578499393388,
        -0.16357081917188887,
        0.10452894930191729,
        -0.04731108523410138,
        0.08216550057062026,
        0.6019119648784911,
        0.21830763128204794,
        -0.08569653771609483,
        -0.22082645160293124,
        0.4536783722677776,
        -0.09401904612160941
      ],
      [
        0.7187058544263727,
        0.39848685055272026,
        0.8168874477398773,
        0.579659926668499,
        0.6218532531845564,
        0.0908464666893013,
        0.017345283783194675,
        0.6128992449777046,
        0.2690600393665964,
        -0.2114152581918368,
        -0.3335590770966655,
        -0.2866934017471751,
        0.0784770528643884,
        -0.2093494767694906,
        -0.7849146221727679,
        -0.5182458589978229
      ],
      [
        -0.2196176430964021,
        -0.04726503608209331,
        0.012066653651657818,
        0.49570016778846565,
        0.27447658707774225,
        -0.26871766740484365,
        0.08692711311273923,
        0.005786453224208864,
        -0.07109095951002378,
        0.046331412353845504,
        0.08583067431602419,
        -0.06145025576797571,
        0.2659628831835896,
        -0.32398978919322824,
        0.06929058393529867,
        0.6372616957811865
      ],
      [
        0.10173053748433793,
        0.39112906401762193,
        0.11287529165267599,
        0.19780740834822502,
        0.07025474869119512,
        -0.07708829111899436,
        -0.1948705991813549,
        0.17398317378522224,
        -0.21288429729644198,
        0.16639630907835729,
        0.2790206509113609,
        0.06527598656922362,
        -0.07156218338892296,
        0.13700919711296475,
        -0.10735438572189045,
        0.262287690937564
      ],
      [
        -0.4118909192257616,
        -0.051076404663582875,
        -0.40770775167162554,
        -0.3211520730410252,
        0.4254161047428454,
        0.1893098496649782,
        -0.1798700583211976,
        -0.30921802996439035,
        -0.7411322094604128,
        -0.13587387698315864,
        0.6128026528617342,
        0.08236420262582798,
        -0.13989307151237237,
        0.13978785466086727,
        -0.42042571008389784,
        -0.04592993110313197
      ]
    ],
    [
      [
        -0.20073233689417133,
        -0.32132823817988637,
        0.6179885037806344,
        0.3102441656951534
      ],
      [
        0.48097287792924,
        -0.6274305922908591,
        0.5481689366401429,
        0.48454321573769954
      ],
      [
        -0.876927671230447,
        -0.28358058397491354,
        0.7702352824797554,
        0.13804627771934205
      ],
      [
        0.29462824008629607,
        -0.3067396873258777,
        0.6732848300461909,
        0.23961598205254925
      ],
      [
        0.5667578277727591,
        0.5967229882892064,
        0.4162443981881916,
        -1.3958582632251637
      ],
      [
        -0.279576592597712,
        0.4342180227943578,
        -0.5665765996537377,
        0.08506854495547252
      ],
      [
        -0.19048442609815874,
        0.4058130579682384,
        -0.8464988487604472,
        -0.2780929967127053
      ],
      [
        -1.268688926179622,
        -0.1506108757624162,
        0.41934801864728755,
        0.13577595901637168
      ],
      [
        -0.08958249860185169,
        -0.05628035100757468,
        0.07190860207798161,
        -0.35657133716450595
      ],
      [
        0.24990908717949742,
        0.23428780066056978,
        0.13613146836535608,
        0.1967642856632567
      ],
      [
        -0.19441878147076513,
        1.4995766787471962,
        -0.3355457004806559,
        -0.28466829380358255
      ],
      [
        0.6356616424842693,
        -0.8789458203054575,
        -1.147864171419044,
        0.0055516274866576265
      ],
      [
        -0.02498928858151643,
        0.11819117613918109,
        0.018081448203036535,
        -0.2706575929540375
      ],
      [
        0.209587583689361,
        0.4055250337828337,
        -0.19202310217124616,
        -0.130689270303158
      ],
      [
        -0.1595482740448541,
        0.384963954636952,
        -1.0957062795323391,
        0.5946228964699096
      ],
      [
        0.5771150101197682,
        -0.48034410294978386,
        -0.10757663808861544,
        -0.6618784086822624
      ]
    ]
  ],
  "biases": [
    [
      [
        0.2591975290877076,
        0.43944568384541477,
        0.27005426013049727,
        -0.009905305466655492,
        0.7353328326671816,
        0.0015881565217984429,
        0.0,
        0.5146851198438823,
        0.0,
        0.0,
        0.09929859475795066,
        0.4254436016345389,
        0.0,
        -0.015936478190369724,
        0.6203353667432024,
        0.36079576442869904
      ]
    ],
    [
      [
        -0.13328685847063013,
        -0.3563240481002141,
        -0.28033560094516974,
        0.7699465075160138
      ]
    ]
  ]
}