{
  "layer_sizes": [
    32,
    16,
    3
  ],
  "learning_rate": 0.3,
  "seed": 42,
  "output_activation": "softmax",
  "weights": [
    [
      [
        0.07617926993860784,
        -0.24350308303745818,
        0.23590893752570613,
        0.30974345785688273,
        -0.48764223557791314,
        -0.3255448767155795,
        0.03196010079182134,
        -0.11154013334063449,
        0.07437817064379511,
        -0.18140991551127336,
        0.22422924034690378,
        0.21158261021739538,
        0.01650767439030401,
        0.2698722577394216,
        0.1168773355630114,
        -0.1758792201352895
      ],
      [
        0.09218769602062471,
        -0.22322770668458408,
        0.2679087139009099,
        0.06212080101251607,
        -0.04609902930076922,
        -0.17023238610098534,
        0.30563533466850756,
        -0.07111185577193949,
        -0.028503495520909458,
        -0.05618232123993573,
        0.13745704301953382,
        0.10849564245117793,
        0.1031831528989971,
        0.09576720674938405,
        0.5354119002176153,
        -0.0626598585106338
      ],
      [
        -0.12806068226788433,
        -0.1869502385393038,
        0.20229099421796573,
        0.3568453519393021,
        -0.028370302828172846,
        -0.210039119240632,
        -0.2061203039228099,
        0.13016871170143637,
        0.26439200282072794,
        0.1676396334584204,
        -0.16199768019097693,
        0.07517495712683829,
        0.029171452285182056,
        0.042734105179666595,
        0.21785719448704746,
        0.09484278277919064
      ],
      [
        0.16972839076797372,
        0.033387710894888505,
        0.12057598824658779,
        0.23242433521871422,
        -0.36417239337837065,
        -0.07991780408932533,
        -0.11759316357319888,
        -0.19219894731557438,
        0.009792897213196382,
        0.4055863941907206,
        -0.21207803229211417,
        0.2592042150080285,
        -0.4207174429039512,
        -0.09565930149903035,
        0.0406882662762514,
        0.1854994784253396
      ],
      [
        0.17780664494821374,
        0.1983368087999813,
        0.06005125189554262,
        -0.4884024167137832,
        0.3774135185161734,
        -0.04782608122040372,
        -0.31892158083448047,
        -0.28332180350087016,
        -0.11345825669040148,
        0.48185406480770476,
        0.2669512508665191,
        0.6109754154913083,
        -0.10681316158413356,
        0.031851583093197036,
        0.15639759849183418,
        -0.23491442544870897
      ],
      [
        0.11419380938935286,
        -0.16548148526666281,
        0.05646905831638408,
        -0.46824894204722367,
        -0.13604036319537502,
        0.12174312019639545,
        -0.11735058505068097,
        0.0031235296819218574,
        0.2365914795364786,
        0.4691966728017498,
        0.39769109409207415,
        0.41373270584701033,
        -0.10582457801103844,
        -0.027712892402581284,
        -0.42183360848950746,
        -0.519355908624421
      ],
      [
        -0.3306749030886006,
        -0.2328187633777048,
        0.14823969525495095,
        -0.1517674850809361,
        -0.09442407692430145,
        0.32480707444651635,
        -0.08906599276535648,
        0.15189940686203274,
        -0.15482595998260204,
        -0.01950832308478584,
        -0.23312576709644867,
        -0.06762364261498227,
        0.21007703436434888,
        -0.4437681498006738,
        0.10860591088646433,
        0.09837779616858955
      ],
      [
        -0.1485374889241986,
        -0.345021520074448,
        0.06632851550255907,
        -0.05777089850687135,
        0.0582856144242219,
        0.00546303638086072,
        0.40044472283022886,
        -0.09231839212299502,
        -0.17729591313559903,
        0.07666997512120072,
        0.059378917624138,
        0.35693152017026747,
        0.20877781147864463,
        0.0772797207847907,
        0.36582572280489045,
        -0.25824686799519264
      ],
      [
        -0.15993788318743693,
        -0.21515104182871558,
        -0.049156312214850284,
        -0.269569258129998,
        0.15890429828914698,
        -0.055555674274693344,
        -0.36770157362566447,
        -0.2863742555566244,
        0.15695692188241603,
        0.24138270835571693,
        0.5035624695541433,
        0.7456002428619908,
        0.1036023583189991,
        -0.25932257401055264,
        -0.5330115701828273,
        0.10587176117147903
      ],
      [
        -0.2032352738275815,
        -0.08734637152225569,
        -0.10472806119086024,
        0.039404557154982964,
        0.26661161928245686,
        0.039262141861336156,
        -0.039658709259672076,
        -0.2913929234611919,
        -0.34009227615622184,
        -0.08972591088621103,
        -0.009065891073383419,
        0.45911710475512907,
        0.03256863036822146,
        0.23374683375317776,
        -0.12482389963478802,
        -0.25729204601873606
      ],
      [
        -0.24127919055809297,
        -0.16481357261127266,
        0.5804135716828825,
        -0.13074439104701743,
        0.20973886251963214,
        -0.2257317945217566,
        0.23289325321856102,
        0.06375825627172685,
        0.03941898560534473,
        0.02166043484826316,
        -0.15931717722615096,
        0.12865267673067846,
        -0.113745870085195,
        -0.3183394849443987,
        -0.3194843935799048,
        0.08209087501604997
      ],
      [
        0.3947728141026087,
        0.0564908469160252,
        0.01863655704662106,
        0.1460588136597149,
        0.32661699701225216,
        0.054845625340964085,
        -0.10273180770843429,
        0.24409269226023322,
        0.18576756963527058,
        0.41579006438111965,
        0.05018835593667324,
        -0.28898263156996673,
        -0.34203979981141625,
        0.40079393905522576,
        0.43091643019582426,
        -0.005935907735130074
      ],
      [
        -0.09579683028399694,
        0.3818540165832162,
        -0.22846528193678015,
        -0.1490794759798775,
        0.160948260257807,
        -0.0986512807148974,
        -0.001280466680017824,
        -0.07334020988586709,
        0.1629720972196006,
        0.38372153171055084,
        0.027025973356633093,
        0.17811932467937278,
        -0.5125430252577556,
        -0.024117644485116132,
        -0.21080756757321778,
        -0.2657593695203869
      ],
      [
        -0.2195380917321877,
        -0.06703791665253739,
        0.277271774163095,
        -0.2569959006758118,
        0.0077744347341502755,
        -0.12104235833339462,
        -0.08191827359049021,
        0.21820997107141213,
        0.21310731927084872,
        0.36620059324280757,
        -0.03424667318127841,
        -0.15685102655751745,
        -0.05596470422012488,
        0.04868615381521875,
        0.04414333961342776,
        -0.23215312247282166
      ],
      [
        0.022622445406968554,
        0.07355002605739193,
        0.6776646479575715,
        0.5438134315794969,
        -0.2131942760541591,
        -0.07184584038729402,
        -0.3658605004592508,
        -0.18015623874561051,
        0.15747971091745233,
        0.33331447160418004,
        -0.1778912128047055,
        -0.14640198365679083,
        -0.5368222574346637,
        -0.05260452413881356,
        -0.2656036029648908,
        -0.09341596125599835
      ],
      [
        -0.21921519454189706,
        -0.007072695040473604,
        -0.391135959265066,
        -0.2921590325886685,
        0.532428339592621,
        -0.32185564531850774,
        -0.2741963946136599,
        0.42674889682558953,
        0.8048452523299691,
        -0.26104059082421377,
        -0.08768249256581091,
        0.10252351409528573,
        0.4321744111013981,
        -0.25865231360964597,
        -0.061319461485527436,
        0.23327828960095603
      ],
      [
        0.10869151861665466,
        -0.07754607428485918,
        0.014840397445081413,
        -0.2691216733334163,
        -0.05942687440812038,
        -0.06659687250223878,
        0.05804247240656399,
        -0.1713112899594929,
        0.19646309065615195,
        0.2850300208370788,
        0.04323707854831322,
        0.10507372845995921,
        0.013288836894466841,
        -0.011916945729733097,
        -0.18038950838571186,
        0.1180674610038471
      ],
      [
        -0.024321649603372367,
        0.5397850207553139,
        0.44163486419290243,
        0.17106391689820435,
        -0.19064774083814598,
        -0.2781028679958545,
        0.29778573827221627,
        0.03320782103204569,
        0.1986143108677699,
        -0.4042954303614265,
        0.23623936702074183,
        0.13073971091374909,
        -0.2776076711036195,
        -0.12981924586507387,
        0.0659293010891299,
        0.052060595174581
      ],
      [
        -0.07304279645088875,
        -0.009379123493824575,
        -0.014698205977629638,
        0.1127429067846964,
        0.3679895548338352,
        -0.6416646102328244,
        -0.05921256612742106,
        0.011648620088372806,
        0.1525769574416421,
        -0.061127578948200756,
        -0.43480069898844903,
        0.09913349728868576,
        0.43183755354104625,
        -0.39540339523162105,
        0.21595700342454707,
        -0.04318741019520339
      ],
      [
        -0.015331086457211825,
        -0.2467316841533216,
        -0.03531790451487749,
        0.3996134274338188,
        0.14578037208247266,
        0.433077901352486,
        0.2943529722444234,
        0.07729218447765511,
        0.5145620915618153,
        0.14159935606669635,
        0.21137679083046138,
        -0.05700811202351874,
        0.016636453964801207,
        -0.18629399982765585,
        0.24739598364871326,
        -0.2556320101931963
      ],
      [
        0.19558758560441533,
        -0.03116982085362423,
        0.34110791194092166,
        0.26231952594189417,
        0.45527810099724636,
        0.1826936727846612,
        -0.39301006391331017,
        -0.04921777847928915,
        -0.21442333812883674,
        -0.09771889420944699,
        0.382186854950377,
        0.1765180790845823,
        -0.17473260714468658,
        -0.26536738561268636,
        0.008195523219065198,
        -0.26519614175976186
      ],
      [
        -0.16778506934914528,
        0.0944953114104766,
        0.33712414760076587,
        0.22679264681518904,
        -0.5727058155639785,
        0.07609168225756495,
        0.01800839330814448,
        0.07099308608843433,
        0.4826308804326692,
        -0.4839585028190641,
        -0.14339610966657976,
        0.16486120705849697,
        -0.3953985998634856,
        0.3570492180107906,
        0.0920891531751646,
        0.25058989204637094
      ],
      [
        -0.14273591538044864,
        0.21993386601421827,
        0.3154140275713514,
        0.13282178379337134,
        0.0587167847602199,
        0.06758580982043147,
        -0.21583631618484542,
        -0.06936165531482717,
        0.04044782690677763,
        0.12769953247049554,
        0.2543358083587702,
        -0.247499394134444,
        -0.03125225757989441,
        0.3584258429121567,
        -0.18589705720314104,
        -0.16661860873706003
      ],
      [
        0.050576547957798396,
        0.40957115886859863,
        0.49759903528766125,
        0.956465039717105,
        -0.3202198171000945,
        0.21045501672251546,
        0.13852912533102332,
        0.36194307954612315,
        0.6171608857033807,
        -0.6946372715778306,
        0.23697314347883586,
        -0.03922533033585044,
        0.02697011108575826,
        0.25431954871359264,
        -0.40056488526473133,
        -0.32546063081427556
      ],
      [
        -0.4003194842797134,
        -0.18204112898369032,
        0.15820529007834022,
        0.20564923946227184,
        0.06918510641768441,
        -0.3531914709730916,
        -0.577525859158161,
        -0.018891088907143364,
        -0.0393655483897166,
        0.14669750931127462,
        0.17986815318651417,
        0.051694984374828834,
        0.19003327134396344,
        0.04536479952618046,
        0.13251617640036667,
        -0.13722442013195058
      ],
      [
        -0.044902853457864635,
        0.06568696768690496,
        0.2534282574284465,
        -0.023833014297063745,
        0.13040837551857407,
        -0.06645969797884475,
        -0.02938554183203259,
        0.17490027525127935,
        -0.4196866327436716,
        -0.2922670156365686,
        -0.3661666027295086,
        -0.5662694036019178,
        -0.16956611003879418,
        0.17542043092934848,
        -0.07122101659564369,
        0.08839141607098314
      ],
      [
        0.27230437417769815,
        0.3484144765895886,
        0.031011654892556823,
        0.4129987511514285,
        0.023148226194073217,
        -0.20934955595686552,
        -0.1486000880496838,
        -0.40261361339599305,
        -0.1434550034135459,
        -0.05765310563648562,
        0.20527600147584704,
        0.4473270841516543,
        -0.34554537884426,
        0.08626882306239309,
        -0.2601359847893836,
        0.15761816770132053
      ],
      [
        -0.03277166267193165,
        -0.4412335129392169,
        0.2803703864662128,
        -0.07664789944310352,
        -0.13335849800784275,
        -0.2674381028224225,
        -0.16357081917188887,
        0.07449312491899036,
        0.03126737478576594,
        0.11401656695274195,
        0.09486021011340764,
        0.34730004024220007,
        -0.08569653771609483,
        -0.3811524982140196,
        0.26680560414299576,
        -0.043928147438793586
      ],
      [
        0.27864811114434423,
        0.11233722181828323,
        0.015511756023255467,
        0.16179625227065292,
        0.48786970161712084,
        0.5192451322634383,
        0.017345283783194675,
        0.007568163074529897,
        0.3476384993864638,
        -0.17956419180971514,
        0.0876473397857605,
        0.010668914371694243,
        0.0784770528643884,
        -0.22028024548993808,
        -0.39739187332724224,
        -0.4793019634123026
      ],
      [
        -0.27934602824740196,
        -0.201443759183959,
        -0.38818305458271557,
        0.7381479188242911,
        0.6487865306963809,
        -0.2405227790854068,
        0.08692711311273923,
        -0.10176955908758127,
        -0.32376749009839434,
        0.09823840509165187,
        0.1172006319361302,
        -0.48232244810212516,
        0.2659628831835896,
        -0.285484556535601,
        0.0015847655905671105,
        1.0832960374979248
      ],
      [
        0.05576993565631878,
        0.27152868870241753,
        -0.29200511337722307,
        0.3990344020493609,
        0.358092389621383,
        -0.04260189529105111,
        -0.1948705991813549,
        0.1075753397393883,
        -0.4655608278848125,
        0.21830330181616367,
        0.23372960380375934,
        -0.3058749753218139,
        -0.07156218338892296,
        0.11349139482717402,
        -0.07716826388660315,
        0.6677643872152543
      ],
      [
        -0.4578515210537809,
        -0.1498964190033252,
        -0.625207151274491,
        -0.4642482599958644,
        0.7480048362239552,
        0.2237962454929215,
        -0.1798700583211976,
        -0.37562586401022424,
        -0.8447703617750971,
        0.17553927511427356,
        0.7524576523107722,
        0.1397856937023015,
        -0.13989307151237237,
        0.11035062193238493,
        -0.3902395882486107,
        0.1358022906372618
      ]
    ],
    [
      [
        0.03517059787236524,
        -0.030441177383622633,
        0.2795921856254451
      ],
      [
        0.03955132152192445,
        0.3578975864645955,
        -0.2826858443483087
      ],
      [
        0.2292130026190907,
        1.0138223187309683,
        -0.6926931107396977
      ],
      [
        -1.2526725785108364,
        0.8681521461157381,
        0.47529338944402816
      ],
      [
        0.5584885640017491,
        -0.6404723548754476,
        0.9362858993863632
      ],
      [
        0.04648725634649368,
        0.09129767603465035,
        0.5532113618837944
      ],
      [
        -0.1279051789169342,
        -0.3327369079765173,
        -0.15859139664721128
      ],
      [
        0.09368449276482733,
        -0.43717771911706915,
        0.17521799849783343
      ],
      [
        -0.20699115158229323,
        0.8223270981761575,
        -1.246506163484232
      ],
      [
        0.2863840262014658,
        -1.1430692451429807,
        -0.3097805400086232
      ],
      [
        0.3720665762937737,
        -0.4180713737268479,
        -0.01938076320972373
      ],
      [
        0.5906997899030958,
        -0.09294128865947318,
        -0.8387015873377219
      ],
      [
        0.24990908717949742,
        0.23428780066056978,
        0.13613146836535608
      ],
      [
        0.17919309751539841,
        0.13747096724800065,
        0.7044068764050597
      ],
      [
        -0.03079243947652543,
        -0.10857031303648419,
        -0.2664122309408965
      ],
      [
        -0.9924426518873869,
        -0.72543670152494,
        0.5986948625996489
      ]
    ]
  ],
  "biases": [
    [
      [
        0.0,
        0.09454432078622411,
        0.321958121365894,
        0.5703661042438863,
        0.28023116559050726,
        0.0,
        0.0,
        -0.2753447438191147,
        0.5950493163291859,
        0.4836575113559091,
        0.1382191579670894,
        0.1665701533207958,
        0.0,
        -0.10526566795597513,
        0.0,
        0.4743053556082172
      ]
    ],
    [
      [
        0.33763331603954566,
        -0.3524188265352846,
        0.014785510495738952
      ]
    ]
  ]
}