{
  "layer_sizes": [
    32,
    16,
    3
  ],
  "learning_rate": 0.3,
  "seed": 42,
  "output_activation": "softmax",
  "weights": [
    [
      [
        0.07617926993860784,
        -0.23213722030651635,
        0.23033425822529027,
        0.2879419186124209,
        -0.4811152989299078,
        -0.3255448767155795,
        0.03196010079182134,
        -0.08030176688081457,
        -0.015406157612121881,
        -0.20338873682640424,
        0.22114416924742464,
        0.19687183049839768,
        0.019088112098840756,
        0.27651632809126364,
        0.1168773355630114,
        -0.20062374475987463
      ],
      [
        0.09218769602062471,
        -0.21186184395364221,
        0.262334034600494,
        0.040319261768054115,
        -0.03957209265276374,
        -0.17023238610098534,
        0.30563533466850756,
        -0.039873489312119564,
        -0.11828782377682649,
        -0.07816114255506662,
        0.13437197192005468,
        0.09378486273218013,
        0.10576359060753382,
        0.10241127710122608,
        0.5354119002176153,
        -0.08740438313521891
      ],
      [
        -0.12806068226788433,
        -0.17558437580836192,
        0.19671631491754987,
        0.3350438126948403,
        -0.02184336618016737,
        -0.210039119240632,
        -0.2061203039228099,
        0.16140707816125627,
        0.17460767456481088,
        0.14566081214328952,
        -0.16508275129045608,
        0.06046417740784047,
        0.03175188999371881,
        0.049378175531508646,
        0.21785719448704746,
        0.07009825815460553
      ],
      [
        0.16972839076797372,
        0.04475357362583043,
        0.1150013089461719,
        0.21062279597425246,
        -0.3576454567303653,
        -0.07991780408932533,
        -0.11759316357319888,
        -0.1609605808557545,
        -0.07999143104272062,
        0.3836075728755898,
        -0.2151631033915933,
        0.2444934352890308,
        -0.41813700519541436,
        -0.08901523114718832,
        0.0406882662762514,
        0.16075495380075447
      ],
      [
        0.17780664494821374,
        0.22619561505358882,
        -0.04445980878843346,
        -0.06278720865152448,
        0.22113746854783986,
        -0.04782608122040372,
        -0.31892158083448047,
        -0.2845629222957892,
        -0.24106893973645252,
        0.13416243108043177,
        0.03690110954935878,
        0.17504518515810266,
        -0.10423272387559684,
        0.034340949118433974,
        0.15639759849183418,
        -0.06313726396912461
      ],
      [
        0.11419380938935286,
        -0.1376226790130553,
        -0.04804200236759201,
        -0.04263373398496494,
        -0.2923164131637086,
        0.12174312019639545,
        -0.11735058505068097,
        0.0018824108870028433,
        0.10898079649042755,
        0.1215050390744768,
        0.16764095277491406,
        -0.022197524486195358,
        -0.10324414030250172,
        -0.025223526377344336,
        -0.42183360848950746,
        -0.3475787471448368
      ],
      [
        -0.3306749030886006,
        -0.22145290064676293,
        0.14266501595453512,
        -0.17356902432539784,
        -0.08789714027629608,
        0.32480707444651635,
        -0.08906599276535648,
        0.18313777332185263,
        -0.24461028823851894,
        -0.04148714439991676,
        -0.2362108381959278,
        -0.08233442233398007,
        0.21265747207288566,
        -0.43712407944883175,
        0.10860591088646433,
        0.07363327154400444
      ],
      [
        -0.1485374889241986,
        -0.33365565734350594,
        0.06075383620214331,
        -0.0795724377513333,
        0.06481255107222736,
        0.00546303638086072,
        0.40044472283022886,
        -0.06108002566317507,
        -0.2670802413915159,
        0.05469115380606978,
        0.05629384652465876,
        0.3422207404512696,
        0.2113582491871814,
        0.08392379113663273,
        0.36582572280489045,
        -0.2829913926197777
      ],
      [
        -0.15993788318743693,
        -0.20378517909777372,
        -0.054730991515266086,
        -0.2913707973744598,
        0.16543123493715248,
        -0.055555674274693344,
        -0.36770157362566447,
        -0.25513588909680446,
        0.06717259362649913,
        0.21940388704058605,
        0.5004773984546639,
        0.7308894631429932,
        0.10618279602753582,
        -0.2526785036587106,
        -0.5330115701828273,
        0.08112723654689394
      ],
      [
        -0.2032352738275815,
        -0.0759805087913138,
        -0.11030274049127615,
        0.017603017910521036,
        0.2731385559304622,
        0.039262141861336156,
        -0.039658709259672076,
        -0.26015455700137197,
        -0.42987660441213893,
        -0.11170473220134194,
        -0.012150962172862665,
        0.4444063250361312,
        0.03514906807675823,
        0.24039090410501987,
        -0.12482389963478802,
        -0.2820365706433211
      ],
      [
        -0.24127919055809297,
        -0.1534477098803308,
        0.5748388923824671,
        -0.15254593029147917,
        0.21626579916763763,
        -0.2257317945217566,
        0.23289325321856102,
        0.09499662273154677,
        -0.050365342650572284,
        -0.0003183864668677452,
        -0.1624022483256301,
        0.11394189701168068,
        -0.11116543237665828,
        -0.3116954145925566,
        -0.3194843935799048,
        0.057346350391464844
      ],
      [
        0.3947728141026087,
        0.0678567096469671,
        0.013061877746205272,
        0.12425727441525303,
        0.3331439336602575,
        0.054845625340964085,
        -0.10273180770843429,
        0.27533105872005315,
        0.09598324137935368,
        0.3938112430659888,
        0.047103284837194004,
        -0.3036934112889646,
        -0.3394593621028794,
        0.4074380094070678,
        0.43091643019582426,
        -0.030680432359715185
      ],
      [
        -0.09579683028399694,
        0.39321987931415825,
        -0.23403996123719611,
        -0.17088101522433924,
        0.1674751969058125,
        -0.0986512807148974,
        -0.001280466680017824,
        -0.04210184342604717,
        0.0731877689636837,
        0.36174271039542,
        0.02394090225715384,
        0.16340854496037507,
        -0.5099625875492186,
        -0.01747357413327406,
        -0.21080756757321778,
        -0.29050389414497196
      ],
      [
        -0.2195380917321877,
        -0.05567205392159547,
        0.2716970948626791,
        -0.2787974399202736,
        0.014301371382155757,
        -0.12104235833339462,
        -0.08191827359049021,
        0.24944833753123202,
        0.12332299101493183,
        0.3442217719276767,
        -0.037331744280757646,
        -0.17156180627651516,
        -0.053384266511588105,
        0.055330224167060814,
        0.04414333961342776,
        -0.2568976470974066
      ],
      [
        0.022622445406968554,
        0.08491588878833382,
        0.6720899686571561,
        0.5220118923350344,
        -0.20666733940615362,
        -0.07184584038729402,
        -0.3658605004592508,
        -0.14891787228579062,
        0.06769538266153544,
        0.3113356502890492,
        -0.18097628390418463,
        -0.16111276337578853,
        -0.5342418197261267,
        -0.04596045378697151,
        -0.2656036029648908,
        -0.11816048588058348
      ],
      [
        -0.21921519454189706,
        -0.11484250639705883,
        -0.6697527470716086,
        -0.34574651501877623,
        0.8482910988623419,
        -0.32185564531850774,
        -0.2741963946136599,
        0.7646260789116668,
        0.6503740554717266,
        -0.17524117338364276,
        -0.23190002642800833,
        -0.10005535923806477,
        0.4496506544246763,
        -0.24671426960705936,
        -0.061319461485527436,
        0.31429922204223143
      ],
      [
        0.10869151861665466,
        -0.18531588564144436,
        -0.26377639036146094,
        -0.32270915576352405,
        0.2564358848616012,
        -0.06659687250223878,
        0.05804247240656399,
        0.16656589212658487,
        0.041991893797909685,
        0.37082943827764997,
        -0.10098045531388418,
        -0.09750514487339129,
        0.030765080217745072,
        2.1098272853545107e-05,
        -0.18038950838571186,
        0.19908839344512236
      ],
      [
        -0.024321649603372367,
        0.5511508834862558,
        0.4360601848924864,
        0.14926237765374256,
        -0.18412080419014049,
        -0.2781028679958545,
        0.29778573827221627,
        0.06444618749186555,
        0.10882998261185302,
        -0.42627425167655736,
        0.2331542959212627,
        0.11602893119475129,
        -0.27502723339508267,
        -0.12317517551323179,
        0.0659293010891299,
        0.027316070549995873
      ],
      [
        -0.07304279645088875,
        0.14849031893793438,
        -0.008642944409728773,
        -0.23572528401199366,
        0.5721410071615207,
        -0.6416646102328244,
        -0.05921256612742106,
        0.03972512247991775,
        0.07399849742177488,
        -0.09297864533032246,
        -0.18574289485691403,
        0.35112453037643876,
        0.43183755354104625,
        -0.3875786916354181,
        0.21595700342454707,
        -0.10592963417459164
      ],
      [
        -0.015331086457211825,
        -0.08886224172156257,
        -0.02926264294697658,
        0.05114523663712878,
        0.34993182441015835,
        0.433077901352486,
        0.2943529722444234,
        0.10536868686920006,
        0.435983631541948,
        0.10974828968457469,
        0.46043459496199635,
        0.19498292106423445,
        0.016636453964801207,
        -0.17846929623145288,
        0.24739598364871326,
        -0.3183742341725845
      ],
      [
        0.19558758560441533,
        0.12669962157813475,
        0.34716317350882253,
        -0.08614866485479583,
        0.659429553324932,
        0.1826936727846612,
        -0.39301006391331017,
        -0.021141276087744194,
        -0.293001798148704,
        -0.12956996059156867,
        0.631244659081912,
        0.42850911217233545,
        -0.17473260714468658,
        -0.2575426820164834,
        0.008195523219065198,
        -0.32793836573915003
      ],
      [
        -0.16778506934914528,
        0.25236475384223567,
        0.34317940916866674,
        -0.12167554398150085,
        -0.3685543632362935,
        0.07609168225756495,
        0.01800839330814448,
        0.09906958847997928,
        0.4040524204128018,
        -0.5158095692011857,
        0.10566169446495517,
        0.4168522401462501,
        -0.3953985998634856,
        0.36487392160699356,
        0.0920891531751646,
        0.1878476680669829
      ],
      [
        -0.14273591538044864,
        0.29366330832057563,
        0.5846554585934296,
        0.4715611447613611,
        -0.21544874231401087,
        0.06758580982043147,
        -0.21583631618484542,
        -0.22086009087315833,
        -0.04933650134913938,
        0.07572342042839601,
        0.18933558904873074,
        -0.3019383775327647,
        -0.028671819871357643,
        0.3463234237674466,
        -0.18589705720314104,
        -0.19136313336164515
      ],
      [
        0.050576547957798396,
        0.31668701654907067,
        0.4681606362551466,
        0.9426889562805044,
        -0.2610551579140972,
        0.21045501672251546,
        0.13852912533102332,
        0.2725129739649479,
        -0.05129042221651105,
        -0.551670401235432,
        0.296232131752624,
        -0.18169055378756305,
        0.02697011108575826,
        0.2956471053786481,
        -0.40056488526473133,
        -0.31291180352653486
      ],
      [
        -0.4003194842797134,
        -0.09294335357861554,
        0.5752132738692302,
        0.7414957693744499,
        -0.4061851087235904,
        -0.3531914709730916,
        -0.577525859158161,
        -0.2958119047739777,
        -0.11794400840958394,
        0.06405661471034918,
        0.07065694792865618,
        -0.032705338033686165,
        0.19003327134396344,
        0.025562277692283468,
        0.13251617640036667,
        -0.1761683157174706
      ],
      [
        -0.044902853457864635,
        0.10491163667145444,
        0.29057503740170665,
        0.007166185973091691,
        0.14357881040013087,
        -0.06645969797884475,
        -0.02938554183203259,
        0.2048975229161802,
        -0.5206768292356384,
        -0.3043735918847087,
        -0.3679569982972702,
        -0.5785563366797553,
        -0.16440523462172074,
        0.1767705276304459,
        -0.07122101659564369,
        0.07784626240733299
      ],
      [
        0.27230437417769815,
        0.5062839190213477,
        0.03706691646045769,
        0.06453056035473845,
        0.22729967852175878,
        -0.20934955595686552,
        -0.1486000880496838,
        -0.37453711100444814,
        -0.2220334634334131,
        -0.08950417201860729,
        0.454333805607382,
        0.6993181172394072,
        -0.34554537884426,
        0.09409352665859606,
        -0.2601359847893836,
        0.09487594372193234
      ],
      [
        -0.03277166267193165,
        -0.5490033242958023,
        0.0017535986596703954,
        -0.1302353818732114,
        0.18250426126187888,
        -0.2674381028224225,
        -0.16357081917188887,
        0.4123703070050682,
        -0.12320382207247646,
        0.19981598439331286,
        -0.04935732374878978,
        0.14472116690884956,
        -0.06822029439281661,
        -0.36921445421143295,
        0.26680560414299576,
        0.03709278500248175
      ],
      [
        0.27864811114434423,
        0.004567410461698026,
        -0.26310503178328687,
        0.10820876984054524,
        0.8037324608868422,
        0.5192451322634383,
        0.017345283783194675,
        0.3454453451606078,
        0.1931673025282213,
        -0.09376477436914415,
        -0.05657019407643692,
        -0.19190995896165627,
        0.09595329618766661,
        -0.20834220148735144,
        -0.39739187332724224,
        -0.3982810309710276
      ],
      [
        -0.27934602824740196,
        -0.20594568906875277,
        -0.30361854589464116,
        0.5053225869363508,
        0.5924776633320921,
        -0.2405227790854068,
        0.08692711311273923,
        0.20362813774375765,
        -0.14698369634839886,
        0.16398189617653816,
        0.014954992012847645,
        -0.2702588679441959,
        0.2834391265068678,
        -0.285484556535601,
        0.0015847655905671105,
        0.7693832596757536
      ],
      [
        0.05576993565631878,
        0.5326660126059678,
        0.0772314446852946,
        -0.1286716382051616,
        0.19007221531505863,
        -0.04260189529105111,
        -0.1948705991813549,
        0.10317235687619432,
        -0.21288429729644198,
        0.16639630907835729,
        0.524759301874209,
        0.3607585112572188,
        -0.07156218338892296,
        0.10937805442079035,
        -0.07716826388660315,
        0.2100884529724192
      ],
      [
        -0.4578515210537809,
        0.09046054392476312,
        -0.44335159863900675,
        -0.6476311195944121,
        0.5452335713667088,
        0.2237962454929215,
        -0.1798700583211976,
        -0.3800288468734183,
        -0.7411322094604128,
        -0.13587387698315864,
        0.8585413038245819,
        0.3778467273138232,
        -0.13989307151237237,
        0.1121567119686929,
        -0.3902395882486107,
        -0.09812916906827701
      ]
    ],
    [
      [
        0.03517059787236524,
        -0.030441177383622633,
        0.2795921856254451
      ],
      [
        0.5681757341017281,
        0.2301027723893504,
        -0.6835154428528672
      ],
      [
        0.26938773374053115,
        1.1517286944571452,
        -0.8707742175873157
      ],
      [
        -0.7999382123009655,
        1.1439594949078145,
        -0.25324832555791965
      ],
      [
        0.5193122648501398,
        -0.9355276351288826,
        1.2705174787914078
      ],
      [
        0.04648725634649368,
        0.09129767603465035,
        0.5532113618837944
      ],
      [
        -0.1279051789169342,
        -0.3327369079765173,
        -0.15859139664721128
      ],
      [
        -0.30308219311574447,
        -0.5867076151403813,
        0.7215145804017176
      ],
      [
        -0.21453167361368353,
        0.38744076041629205,
        -0.8040793036929762
      ],
      [
        -0.4835255730212971,
        -0.6454980390160308,
        -0.03744214691281109
      ],
      [
        0.7226791519133451,
        -0.16154922199599375,
        -0.6265154905601497
      ],
      [
        0.7652858735708306,
        -0.398442067985264,
        -0.707786891679665
      ],
      [
        0.10635927323867952,
        0.18483035877328194,
        0.32913872419346196
      ],
      [
        0.026254353055999543,
        0.3662906162388972,
        0.628525971873562
      ],
      [
        -0.03079243947652543,
        -0.10857031303648419,
        -0.2664122309408965
      ],
      [
        -0.5833327451918412,
        -0.4942514894720068,
        -0.04160025614882963
      ]
    ]
  ],
  "biases": [
    [
      [
        0.0,
        0.4452365670099038,
        0.4137376707553037,
        0.3551817577221857,
        0.4754643202203912,
        0.0,
        0.0,
        0.16724209585454577,
        -0.17730070125493616,
        0.1871625189431348,
        0.18442452951844301,
        0.18558165963317033,
        0.040828020250711895,
        -0.06603574991617463,
        0.0,
        0.21527102552546146
      ]
    ],
    [
      [
        -0.22756796359129783,
        -0.1363727464893182,
        0.36394071008061607
      ]
    ]
  ]
}