{
  "layer_sizes": [
    32,
    16,
    3
  ],
  "learning_rate": 0.3,
  "seed": 42,
  "output_activation": "softmax",
  "weights": [
    [
      [
        0.07617926993860784,
        -0.2254201402368011,
        0.2357746174346772,
        0.27546450942321044,
        -0.45809930981020536,
        -0.3255448767155795,
        0.03196010079182134,
        -0.0570127812172327,
        -0.004200289376072199,
        -0.20787803249276948,
        0.2250598865345013,
        0.19396888116428365,
        0.01650767439030401,
        0.3261104802337997,
        0.15223822208745333,
        -0.21482311572080956
      ],
      [
        0.09218769602062471,
        -0.20514476388392688,
        0.26777439380988094,
        0.02784185257884354,
        -0.016556103533061323,
        -0.17023238610098534,
        0.30563533466850756,
        -0.016584503648537686,
        -0.1070819555407768,
        -0.08265043822143203,
        0.13828768920713133,
        0.09088191339806617,
        0.1031831528989971,
        0.15200542924376204,
        0.5707727867420573,
        -0.1016037540961539
      ],
      [
        -0.12806068226788433,
        -0.1688672957386466,
        0.2021566741269368,
        0.3225664035056298,
        0.0011726229395350627,
        -0.210039119240632,
        -0.2061203039228099,
        0.1846960638248381,
        0.18581354280086057,
        0.14117151647692427,
        -0.16116703400337942,
        0.05756122807372657,
        0.029171452285182056,
        0.09897232767404453,
        0.25321808101148946,
        0.05589888719367057
      ],
      [
        0.16972839076797372,
        0.05147065369554569,
        0.12044166815555893,
        0.19814538678504187,
        -0.33462946761066287,
        -0.07991780408932533,
        -0.11759316357319888,
        -0.13767159519217265,
        -0.06878556280667093,
        0.3791182772092243,
        -0.21124738610451665,
        0.24159048595491678,
        -0.4207174429039512,
        -0.03942107900465238,
        0.07604915280069335,
        0.14655558283981954
      ],
      [
        0.17780664494821374,
        0.23291269512330415,
        -0.03901944957904656,
        -0.07526461784073502,
        0.24415345766754235,
        -0.04782608122040372,
        -0.31892158083448047,
        -0.2612739366322071,
        -0.22986307150040283,
        0.12967313541406647,
        0.0408168268364354,
        0.17214223582398863,
        -0.10681316158413356,
        0.08393510126096984,
        0.1917584850162761,
        -0.0773366349300596
      ],
      [
        0.11419380938935286,
        -0.13090559894333997,
        -0.042601643158205096,
        -0.05511114317417552,
        -0.26930042404400617,
        0.12174312019639545,
        -0.11735058505068097,
        0.025171396550584726,
        0.12018666472647724,
        0.11701574340811138,
        0.1715566700619907,
        -0.02510047382030927,
        -0.10582457801103844,
        0.02437062576519156,
        -0.38647272196506555,
        -0.3617781181057718
      ],
      [
        -0.3306749030886006,
        -0.2147358205770476,
        0.14810537516392203,
        -0.18604643351460842,
        -0.06488115115659358,
        0.32480707444651635,
        -0.08906599276535648,
        0.20642675898543447,
        -0.23340442000246925,
        -0.04597644006628214,
        -0.23229512090885115,
        -0.08523737166809403,
        0.21007703436434888,
        -0.3875299273062957,
        0.1439667974109062,
        0.05943390058306947
      ],
      [
        -0.1485374889241986,
        -0.326938577273791,
        0.06619419541153025,
        -0.09204984694054381,
        0.08782854019192983,
        0.00546303638086072,
        0.40044472283022886,
        -0.03779103999959322,
        -0.25587437315546624,
        0.0502018581397044,
        0.06020956381173538,
        0.3393177911171557,
        0.20877781147864463,
        0.1335179432791687,
        0.40118660932933237,
        -0.2971907635807127
      ],
      [
        -0.15993788318743693,
        -0.19706809902805839,
        -0.04929063230587913,
        -0.3038482065636703,
        0.18844722405685496,
        -0.055555674274693344,
        -0.36770157362566447,
        -0.2318469034332225,
        0.07837846186254882,
        0.2149145913742208,
        0.5043931157417408,
        0.7279865138088791,
        0.1036023583189991,
        -0.20308435151617468,
        -0.49765068365838533,
        0.06692786558595895
      ],
      [
        -0.2032352738275815,
        -0.06926342872159855,
        -0.10486238128188913,
        0.005125608721310465,
        0.29615454505016464,
        0.039262141861336156,
        -0.039658709259672076,
        -0.2368655713377899,
        -0.41867073617608924,
        -0.11619402786770733,
        -0.008235244885786006,
        0.4415033757020173,
        0.03256863036822146,
        0.28998505624755594,
        -0.08946301311034609,
        -0.29623594160425615
      ],
      [
        -0.24127919055809297,
        -0.14673062981061546,
        0.5802792515918542,
        -0.16502333948068976,
        0.23928178828734012,
        -0.2257317945217566,
        0.23289325321856102,
        0.1182856083951286,
        -0.0391594744145226,
        -0.004807682133233123,
        -0.15848653103855345,
        0.11103894767756672,
        -0.113745870085195,
        -0.2621012624500206,
        -0.2841235070554629,
        0.04314697943052987
      ],
      [
        0.3947728141026087,
        0.07457378971668241,
        0.018502236955592225,
        0.1117798652260425,
        0.35615992277995995,
        0.054845625340964085,
        -0.10273180770843429,
        0.29862004438363526,
        0.10718910961540337,
        0.38932194739962334,
        0.05101900212427062,
        -0.3065963606230785,
        -0.34203979981141625,
        0.45703216154960385,
        0.4662773167202662,
        -0.04487980332065016
      ],
      [
        -0.09579683028399694,
        0.3999369593838732,
        -0.22859960202780913,
        -0.18335842441354983,
        0.19049118602551499,
        -0.0986512807148974,
        -0.001280466680017824,
        -0.01881285776246529,
        0.08439363719973339,
        0.35725341472905453,
        0.02785661954423051,
        0.16050559562626104,
        -0.5125430252577556,
        0.032120578009261845,
        -0.17544668104877584,
        -0.304703265105907
      ],
      [
        -0.2195380917321877,
        -0.048954973851880246,
        0.27713745407206614,
        -0.2912748491094841,
        0.037317360501858195,
        -0.12104235833339462,
        -0.08191827359049021,
        0.2727373231948141,
        0.13452885925098151,
        0.33973247626131126,
        -0.03341602699368103,
        -0.17446475561062919,
        -0.05596470422012488,
        0.1049243763095967,
        0.0795042261378697,
        -0.27109701805834163
      ],
      [
        0.022622445406968554,
        0.09163296885804907,
        0.6775303278665432,
        0.5095344831458244,
        -0.1836513502864511,
        -0.07184584038729402,
        -0.3658605004592508,
        -0.12562888662220878,
        0.07890125089758512,
        0.3068463546226837,
        -0.17706056661710798,
        -0.16401571270990256,
        -0.5368222574346637,
        0.003633698355564414,
        -0.23024271644044889,
        -0.13235985684151844
      ],
      [
        -0.21921519454189706,
        0.011010247760183563,
        -0.391270279356095,
        -0.3264379810223408,
        0.5619712653603285,
        -0.32185564531850774,
        -0.2741963946136599,
        0.48127624894899157,
        0.7262667923101017,
        -0.2875087078057101,
        -0.0868518463782135,
        0.08490978504217397,
        0.4321744111013981,
        -0.202414091115268,
        -0.02595857496108549,
        0.194334394015436
      ],
      [
        0.10869151861665466,
        -0.05946313148420205,
        0.014706077354052579,
        -0.3034006217670886,
        -0.02988394864041249,
        -0.06659687250223878,
        0.05804247240656399,
        -0.11678393783609115,
        0.11788463063628475,
        0.2585619038555825,
        0.0440677247359106,
        0.08745999940684746,
        0.013288836894466841,
        0.04432127676464487,
        -0.14502862186126994,
        0.079123565418327
      ],
      [
        -0.024321649603372367,
        0.5578679635559718,
        0.44150054410187345,
        0.136784968464532,
        -0.16110481507043797,
        -0.2781028679958545,
        0.29778573827221627,
        0.08773517315544745,
        0.1200358508479027,
        -0.4307635473429228,
        0.23707001320833934,
        0.11312598186063733,
        -0.2776076711036195,
        -0.07358102337069594,
        0.10129018761357182,
        0.013116699589060907
      ],
      [
        -0.07304279645088875,
        0.008703819306832603,
        -0.014832526068658475,
        0.07846395835102393,
        0.397532480601543,
        -0.6416646102328244,
        -0.05921256612742106,
        0.06617597221177454,
        0.07399849742177488,
        -0.0875956959296971,
        -0.43397005280085166,
        0.081519768235574,
        0.43183755354104625,
        -0.33916517273724295,
        0.25131788994898896,
        -0.08213130578072347
      ],
      [
        -0.015331086457211825,
        -0.22864874135266453,
        -0.03545222460590633,
        0.3653344790001465,
        0.17532329785018066,
        0.433077901352486,
        0.2943529722444234,
        0.13181953660105686,
        0.435983631541948,
        0.11513123908520005,
        0.2122074370180589,
        -0.0746218410766305,
        0.016636453964801207,
        -0.13005577733327786,
        0.2827568701731552,
        -0.2945759057787164
      ],
      [
        0.19558758560441533,
        -0.013086878052967056,
        0.3409735918498927,
        0.22804057750822174,
        0.48482102676495414,
        0.1826936727846612,
        -0.39301006391331017,
        0.005309573644112657,
        -0.293001798148704,
        -0.12418701119094318,
        0.3830175011379744,
        0.15890435003147058,
        -0.17473260714468658,
        -0.20912916311830837,
        0.04355640974350716,
        -0.30414003734528194
      ],
      [
        -0.16778506934914528,
        0.11257825421113375,
        0.3369898275097369,
        0.19251369838151672,
        -0.543162889796271,
        0.07609168225756495,
        0.01800839330814448,
        0.12552043821183603,
        0.4040524204128018,
        -0.5104266198005606,
        -0.14256546347898225,
        0.14724747800538524,
        -0.3953985998634856,
        0.4132874405051687,
        0.1274500396996065,
        0.211645996460851
      ],
      [
        -0.14273591538044864,
        0.23801680881487547,
        0.3152797074803224,
        0.09854283535969886,
        0.08825971052792782,
        0.06758580982043147,
        -0.21583631618484542,
        -0.01483430319142538,
        -0.0381306331130897,
        0.10123141548899914,
        0.25516645454636766,
        -0.26511312318755575,
        -0.03125225757989441,
        0.41466406540653483,
        -0.1505361706786991,
        -0.20556250432258008
      ],
      [
        0.050576547957798396,
        0.24567218394465287,
        0.051018332373227684,
        0.37256347793465416,
        0.24385798299488562,
        0.21045501672251546,
        0.13852912533102332,
        0.6039611419551842,
        -0.05129042221651105,
        -0.4954976236160033,
        0.4062739831980792,
        -0.11490396043215982,
        0.02697011108575826,
        0.3716878497069232,
        -0.3652039987402894,
        -0.31291180352653486
      ],
      [
        -0.4003194842797134,
        -0.16395818618303312,
        0.15807096998731127,
        0.17137029102859952,
        0.09872803218539228,
        -0.3531914709730916,
        -0.577525859158161,
        0.03563626321625843,
        -0.11794400840958394,
        0.1202293923297783,
        0.18069879937411168,
        0.034081255321717116,
        0.19003327134396344,
        0.10160302202055839,
        0.1678770629248086,
        -0.1761683157174706
      ],
      [
        -0.044902853457864635,
        0.08376991048756212,
        0.25329393733741756,
        -0.058111962730736294,
        0.15995130128628207,
        -0.06645969797884475,
        -0.02938554183203259,
        0.2294276273746811,
        -0.498265092763539,
        -0.3187351326180649,
        -0.3653359565419112,
        -0.5838831326550294,
        -0.16956611003879418,
        0.23165865342372646,
        -0.03586013007120172,
        0.04944752048546303
      ],
      [
        0.27230437417769815,
        0.36649741939024555,
        0.03087733480152798,
        0.3787198027177562,
        0.05269115196178112,
        -0.20934955595686552,
        -0.1486000880496838,
        -0.348086261272591,
        -0.2220334634334131,
        -0.08412122261798193,
        0.20610664766344455,
        0.4297133550985425,
        -0.34554537884426,
        0.1425070455567711,
        -0.22477509826494166,
        0.11867427211580049
      ],
      [
        -0.03277166267193165,
        -0.4577264564618826,
        0.7180777321444989,
        -0.7501991969074621,
        0.16230952881915245,
        -0.2674381028224225,
        -0.16357081917188887,
        0.7933045467548286,
        -0.04731108523410138,
        0.3545246142708241,
        -0.012813990259958795,
        0.5973492664207387,
        -0.08569653771609483,
        -0.6577943146556658,
        0.7245983306913047,
        -0.08287204302431367
      ],
      [
        0.27864811114434423,
        0.13042016461894032,
        0.015377435932226633,
        0.12751730383698054,
        0.5174126273848288,
        0.5192451322634383,
        0.017345283783194675,
        0.062095515197931675,
        0.2690600393665964,
        -0.20603230879121126,
        0.08847798597335792,
        -0.006944814681417469,
        0.0784770528643884,
        -0.1640420229955601,
        -0.3620309868028003,
        -0.5182458589978229
      ],
      [
        -0.27934602824740196,
        -0.08009293491151047,
        -0.025136078179127594,
        0.524631120932786,
        0.3061578298300783,
        -0.2405227790854068,
        0.08692711311273923,
        -0.07972169221891846,
        -0.07109095951002378,
        0.051714361754470875,
        0.16000317206264247,
        -0.08529372366395725,
        0.2659628831835896,
        -0.24118437804380963,
        0.03694565211500908,
        0.6494184316489581
      ],
      [
        0.05576993565631878,
        0.8712427277554824,
        0.43357646715215414,
        1.1264126636560803,
        -0.714335078729977,
        -0.04260189529105111,
        -0.1948705991813549,
        -0.42711444319579417,
        -0.21288429729644198,
        -0.06950630221878373,
        0.19924531251500974,
        0.1873040580452482,
        -0.07156218338892296,
        -0.058352761275220814,
        -0.24055265379603238,
        0.23388678136628732
      ],
      [
        -0.4578515210537809,
        -0.3626726853588197,
        -1.0682227169412788,
        -0.48294124647015363,
        0.946191758728801,
        0.2237962454929215,
        -0.1798700583211976,
        -0.37794688315199104,
        -0.7411322094604128,
        -0.13587387698315864,
        0.8157624930434921,
        -0.25737875640381713,
        -0.13989307151237237,
        0.8767209581684196,
        -0.4451631836036549,
        -0.07433084067440886
      ]
    ],
    [
      [
        0.03517059787236524,
        -0.030441177383622633,
        0.2795921856254451
      ],
      [
        -0.28170138081781304,
        0.8321593970271212,
        -0.43569495257109725
      ],
      [
        0.9320629148191782,
        0.6975514442914754,
        -1.079272148500292
      ],
      [
        -0.868927581298266,
        1.2556545203893572,
        -0.29595398204216217
      ],
      [
        0.37959237481191305,
        -0.7019976962869064,
        1.176707429987658
      ],
      [
        0.04648725634649368,
        0.09129767603465035,
        0.5532113618837944
      ],
      [
        -0.1279051789169342,
        -0.3327369079765173,
        -0.15859139664721128
      ],
      [
        0.7022888816071726,
        -0.8570996433158532,
        -0.01346446614572788
      ],
      [
        -0.19048442609815874,
        0.4058130579682384,
        -0.8464988487604472
      ],
      [
        -0.11208648381990124,
        -0.6757272853845616,
        -0.37865198974567543
      ],
      [
        -0.3151569334307756,
        -0.16855708265012895,
        0.4183284554381068
      ],
      [
        0.3076861150336824,
        -0.04584446448770511,
        -0.6027847366400765
      ],
      [
        0.24990908717949742,
        0.23428780066056978,
        0.13613146836535608
      ],
      [
        -0.3745486970245074,
        0.11588939413189799,
        1.2797302440610685
      ],
      [
        0.5255123540948367,
        -0.39505782423742747,
        -0.5362295133113153
      ],
      [
        -0.36495996716566187,
        -0.4399872200040327,
        -0.31423730364298325
      ]
    ]
  ],
  "biases": [
    [
      [
        0.0,
        0.29917225554107296,
        0.4167262621065024,
        0.34890274602280547,
        0.25663248793363497,
        0.0,
        0.0,
        0.19077197325576076,
        0.0,
        0.04657665456755809,
        0.04508358678869699,
        -0.00414549700754821,
        0.0,
        0.38331293076126877,
        0.3059645696577062,
        0.0
      ]
    ],
    [
      [
        -0.06035106575855971,
        -0.14865352767441534,
        0.20900459343297503
      ]
    ]
  ]
}