{
  "layer_sizes": [
    32,
    16,
    3
  ],
  "learning_rate": 0.3,
  "seed": 42,
  "output_activation": "softmax",
  "weights": [
    [
      [
        0.07617926993860784,
        -0.2599960265601239,
        0.21157930761658483,
        0.2684796834931024,
        -0.4704578979303621,
        -0.3255448767155795,
        0.03196010079182134,
        -0.058916039080171796,
        0.04392251113275146,
        -0.19068263704677704,
        0.22957853685679228,
        0.1874754513321986,
        0.024098926020032434,
        0.3189105020791894,
        0.1168773355630114,
        -0.21482311572080956
      ],
      [
        0.09218769602062471,
        -0.23972065020724972,
        0.24357908399178865,
        0.02085702664873573,
        -0.028914691653218163,
        -0.17023238610098534,
        0.30563533466850756,
        -0.018487761511476766,
        -0.05895915503195317,
        -0.0654550427754394,
        0.14280633952942232,
        0.08438848356598101,
        0.11077440452872558,
        0.14480545108915183,
        0.5354119002176153,
        -0.1016037540961539
      ],
      [
        -0.12806068226788433,
        -0.20344318206196943,
        0.2738273989687262,
        0.44893559515671755,
        0.05801763175176624,
        -0.210039119240632,
        -0.2061203039228099,
        0.26337124198479417,
        0.4264275453449789,
        0.24868029130938848,
        -0.11773221111674781,
        0.023177668141487168,
        0.06712771043382422,
        0.24017315086815888,
        0.21785719448704746,
        0.05589888719367057
      ],
      [
        0.16972839076797372,
        0.016894767372222865,
        0.0962463583374665,
        0.19116056085493405,
        -0.3469880557308196,
        -0.07991780408932533,
        -0.11759316357319888,
        -0.13957485305511153,
        -0.020662762297847255,
        0.39631367265521683,
        -0.20672873578222567,
        0.23509705612283172,
        -0.41312619127422295,
        -0.046621057159262555,
        0.0406882662762514,
        0.14655558283981954
      ],
      [
        0.17780664494821374,
        0.1983368087999813,
        -0.06321475939713894,
        -0.0822494437708428,
        0.2317948695473855,
        -0.04782608122040372,
        -0.31892158083448047,
        -0.26317719449514626,
        -0.18174027099157916,
        0.146868530860059,
        0.045335477158726475,
        0.16564880599190357,
        -0.09922190995440508,
        0.07673512310635972,
        0.15639759849183418,
        -0.0773366349300596
      ],
      [
        0.11419380938935286,
        -0.16548148526666281,
        -0.06679695297629748,
        -0.062095969104283284,
        -0.2816590121641629,
        0.12174312019639545,
        -0.11735058505068097,
        0.023268138687645636,
        0.1683094652353009,
        0.13421113885410396,
        0.1760753203842817,
        -0.03159390365239445,
        -0.09823332638130995,
        0.017170647610581385,
        -0.42183360848950746,
        -0.3617781181057718
      ],
      [
        -0.3306749030886006,
        -0.24931170690037044,
        0.1239100653458296,
        -0.19303125944471625,
        -0.0772397392767504,
        0.32480707444651635,
        -0.08906599276535648,
        0.2045235011224956,
        -0.18528161949364558,
        -0.02878104462028955,
        -0.22777647058656017,
        -0.09173080150017919,
        0.21766828599407737,
        -0.39472990546090597,
        0.10860591088646433,
        0.05943390058306947
      ],
      [
        -0.1485374889241986,
        -0.36151446359711364,
        0.04199888559343783,
        -0.0990346728706516,
        0.07546995207177301,
        0.00546303638086072,
        0.40044472283022886,
        -0.03969429786253228,
        -0.20775157264664257,
        0.06739725358569701,
        0.06472821413402646,
        0.33282436128507037,
        0.21636906310837312,
        0.12631796512455853,
        0.36582572280489045,
        -0.2971907635807127
      ],
      [
        -0.15993788318743693,
        -0.23164398535138123,
        -0.07348594212397153,
        -0.3108330324937783,
        0.17608863593669813,
        -0.055555674274693344,
        -0.36770157362566447,
        -0.23375016129616136,
        0.1265012623713725,
        0.23210998682021325,
        0.5089117660640318,
        0.7214930839767941,
        0.11119360994872758,
        -0.21028432967078486,
        -0.5330115701828273,
        0.06692786558595895
      ],
      [
        -0.2032352738275815,
        -0.10383931504492133,
        -0.1290576910999815,
        -0.0018592172087973575,
        0.2837959569300079,
        0.039262141861336156,
        -0.039658709259672076,
        -0.23876882920072895,
        -0.37054793566726535,
        -0.09899863242171472,
        -0.0037165945634949587,
        0.43500994586993197,
        0.04015988199794988,
        0.2827850780929456,
        -0.12482389963478802,
        -0.29623594160425615
      ],
      [
        -0.24127919055809297,
        -0.1813065161339383,
        0.5560839417737615,
        -0.17200816541079758,
        0.2269232001671833,
        -0.2257317945217566,
        0.23289325321856102,
        0.11638235053218952,
        0.00896332609430108,
        0.012387713312759441,
        -0.15396788071626247,
        0.10454551784548156,
        -0.10615461845546652,
        -0.26930124060463084,
        -0.3194843935799048,
        0.04314697943052987
      ],
      [
        0.3947728141026087,
        0.03999790339335956,
        -0.005693072862500187,
        0.10479503929593471,
        0.3438013346598032,
        0.054845625340964085,
        -0.10273180770843429,
        0.2967167865206961,
        0.15531191012422704,
        0.40651734284561586,
        0.0555376524465617,
        -0.31308979045516383,
        -0.334448548181688,
        0.4498321833949936,
        0.43091643019582426,
        -0.04487980332065016
      ],
      [
        -0.09579683028399694,
        0.36536107306055055,
        -0.008928809468723906,
        -0.5567169548637164,
        0.3092483353513219,
        -0.0986512807148974,
        -0.001280466680017824,
        0.43062774077149657,
        0.23038400004079787,
        0.8084145537733439,
        -0.08744716696630879,
        0.20853860359801454,
        -0.5125430252577556,
        -0.22764559293563633,
        -0.21080756757321778,
        -0.304703265105907
      ],
      [
        -0.2195380917321877,
        -0.08353086017520302,
        0.4968082466311514,
        -0.664633379559651,
        0.1560745098276652,
        -0.12104235833339462,
        -0.08191827359049021,
        0.7221779217287758,
        0.28051922209204594,
        0.7908936153056007,
        -0.14871981350422034,
        -0.12643174763887569,
        -0.05596470422012488,
        -0.15484179463530148,
        0.04414333961342776,
        -0.27109701805834163
      ],
      [
        0.022622445406968554,
        0.057057082534726286,
        0.6533350180484505,
        0.5025496572157163,
        -0.19600993840660796,
        -0.07184584038729402,
        -0.3658605004592508,
        -0.12753214448514766,
        0.12702405140640882,
        0.32404175006867625,
        -0.172541916294817,
        -0.17050914254198762,
        -0.5292310058049351,
        -0.0035662797990457756,
        -0.2656036029648908,
        -0.13235985684151844
      ],
      [
        -0.21921519454189706,
        -0.023565638563139247,
        -0.4154655891741874,
        -0.33342280695244875,
        0.5496126772401715,
        -0.32185564531850774,
        -0.2741963946136599,
        0.4793729910860524,
        0.7743895928189256,
        -0.27031331235971756,
        -0.08233319605592246,
        0.07841635521008881,
        0.43976566273112633,
        -0.2096140692698782,
        -0.061319461485527436,
        0.194334394015436
      ],
      [
        0.10869151861665466,
        -0.09403901780752481,
        -0.009489232464039835,
        -0.31038544769719656,
        -0.04224253676056933,
        -0.06659687250223878,
        0.05804247240656399,
        -0.11868719569903018,
        0.1660074311451084,
        0.275757299301575,
        0.04858637505820168,
        0.0809665695747623,
        0.02088008852419527,
        0.03712129861003469,
        -0.18038950838571186,
        0.079123565418327
      ],
      [
        -0.024321649603372367,
        0.5232920772326487,
        0.417305234283781,
        0.12980014253442415,
        -0.17346340319059483,
        -0.2781028679958545,
        0.29778573827221627,
        0.08583191529250836,
        0.16815865135672636,
        -0.4135681518969303,
        0.24158866353063033,
        0.10663255202855217,
        -0.27001641947389127,
        -0.08078100152530607,
        0.0659293010891299,
        0.013116699589060907
      ],
      [
        -0.07304279645088875,
        -0.025872067016490214,
        -0.0390278358867509,
        0.07147913242091612,
        0.3851738924813863,
        -0.6416646102328244,
        -0.05921256612742106,
        0.06427271434883554,
        0.12212129793059849,
        -0.07040030048370446,
        -0.42945140247856034,
        0.07502633840348884,
        0.4394288051707745,
        -0.3463651508918532,
        0.21595700342454707,
        -0.08213130578072347
      ],
      [
        -0.015331086457211825,
        -0.26322462767598725,
        -0.059647534423998685,
        0.3583496530700385,
        0.1629647097300238,
        0.433077901352486,
        0.2943529722444234,
        0.12991627873811784,
        0.4841064320507719,
        0.13232663453119264,
        0.21672608734034987,
        -0.08111527090871566,
        0.02422770559452963,
        -0.13725575548788804,
        0.24739598364871326,
        -0.2945759057787164
      ],
      [
        0.19558758560441533,
        -0.047662764376289864,
        0.31677828203180025,
        0.2210557515781139,
        0.4724624386447974,
        0.1826936727846612,
        -0.39301006391331017,
        0.003406315781173564,
        -0.24487899763987997,
        -0.1069916157449507,
        0.3875361514602657,
        0.1524109201993855,
        -0.1671413555149581,
        -0.21632914127291858,
        0.008195523219065198,
        -0.30414003734528194
      ],
      [
        -0.16778506934914528,
        0.07800236788781097,
        0.31279451769164446,
        0.1855288724514089,
        -0.555521477916428,
        0.07609168225756495,
        0.01800839330814448,
        0.123617180348897,
        0.4521752209216257,
        -0.4932312243545678,
        -0.13804681315669126,
        0.14075404817330017,
        -0.38780734823375734,
        0.4060874623505584,
        0.0920891531751646,
        0.211645996460851
      ],
      [
        -0.14273591538044864,
        0.20344092249155263,
        0.29108439766223,
        0.09155800942959108,
        0.07590112240777101,
        0.06758580982043147,
        -0.21583631618484542,
        -0.01673756105436446,
        0.009992167395733973,
        0.11842681093499177,
        0.259685104868659,
        -0.2716065530196411,
        -0.023661005950165986,
        0.4074640872519245,
        -0.18589705720314104,
        -0.20556250432258008
      ],
      [
        0.050576547957798396,
        0.21109629762133003,
        0.02682302255513528,
        0.3655786520045462,
        0.23149939487472876,
        0.21045501672251546,
        0.13852912533102332,
        0.6020578840922445,
        -0.003167621707687371,
        -0.4783022281700106,
        0.41079263352037054,
        -0.12139739026424498,
        0.03456136271548667,
        0.36448787155231294,
        -0.40056488526473133,
        -0.31291180352653486
      ],
      [
        -0.4003194842797134,
        -0.19853407250635596,
        0.1338756601692188,
        0.1643854650984917,
        0.08636944406523546,
        -0.3531914709730916,
        -0.577525859158161,
        0.03373300535331935,
        -0.06982120790076032,
        0.13742478777577094,
        0.18521744969640266,
        0.02758782548963193,
        0.19762452297369193,
        0.09440304386594828,
        0.13251617640036667,
        -0.1761683157174706
      ],
      [
        -0.044902853457864635,
        0.04919402416423931,
        0.22909862751932522,
        -0.06509678866084403,
        0.1475927131661252,
        -0.06645969797884475,
        -0.02938554183203259,
        0.2275243695117422,
        -0.4501422922547151,
        -0.3015397371720724,
        -0.3608173062196199,
        -0.5903765624871145,
        -0.1619748584090657,
        0.22445867526911628,
        -0.07122101659564369,
        0.04944752048546303
      ],
      [
        0.27230437417769815,
        0.3319215330669229,
        0.006682024983435563,
        0.3717349767876482,
        0.04033256384162429,
        -0.20934955595686552,
        -0.1486000880496838,
        -0.34998951913553017,
        -0.17391066292458943,
        -0.0669258271719893,
        0.21062529798573554,
        0.4232199252664572,
        -0.3379541272145318,
        0.13530706740216086,
        -0.2601359847893836,
        0.11867427211580049
      ],
      [
        -0.03277166267193165,
        -0.4577264564618826,
        0.2560407565570917,
        -0.11791167380688376,
        -0.11617416036029159,
        -0.2674381028224225,
        -0.16357081917188887,
        0.12711721917945307,
        0.0008117152747222878,
        0.10474384541723825,
        0.1002095066232961,
        0.32319288135700297,
        -0.07810528608636634,
        -0.33211425387425175,
        0.26680560414299576,
        -0.08287204302431367
      ],
      [
        0.27864811114434423,
        0.0958442782956176,
        0.20122060774278372,
        0.6516828677090485,
        0.19019702938778096,
        0.5192451322634383,
        0.017345283783194675,
        -0.30085416521754,
        0.6985834608206477,
        -0.4514308148048741,
        0.029570104427462857,
        0.08195069781853952,
        0.12988947803957152,
        -0.3564712212308243,
        -0.39739187332724224,
        -0.5182458589978229
      ],
      [
        -0.27934602824740196,
        -0.11466882123483325,
        0.16070709363142952,
        1.0487966848048542,
        -0.021057768166969394,
        -0.2405227790854068,
        0.08692711311273923,
        -0.44267137263439016,
        0.3584324619440274,
        -0.19368414425919178,
        0.10109529051674741,
        0.003601788835999742,
        0.31737530835877265,
        -0.43361357627907393,
        0.0015847655905671105,
        0.6494184316489581
      ],
      [
        0.05576993565631878,
        0.3583036266515432,
        -0.3166422504966252,
        0.13952855864367752,
        0.25211555039724004,
        -0.04260189529105111,
        -0.1948705991813549,
        0.11341983964966722,
        -0.4624821455829034,
        0.10278162092152517,
        0.5010034413858211,
        -0.09155955842102242,
        -0.07156218338892296,
        0.7283508054201834,
        -0.07716826388660315,
        0.23388678136628732
      ],
      [
        -0.4578515210537809,
        -0.08390184202966156,
        -0.8372252938209265,
        -0.37943092274557283,
        0.6072769064488902,
        0.2237962454929215,
        -0.1798700583211976,
        -0.36978136409994516,
        -0.9907300577468745,
        -0.19948856513999072,
        0.8347854433361945,
        -0.07447134236441806,
        -0.13989307151237237,
        0.7311294629680859,
        -0.3902395882486107,
        -0.07433084067440886
      ]
    ],
    [
      [
        0.03517059787236524,
        -0.030441177383622633,
        0.2795921856254451
      ],
      [
        0.12185048828754223,
        0.236288929723784,
        -0.24337635437311497
      ],
      [
        0.673570534115299,
        0.6647941580547325,
        -0.7880224815596706
      ],
      [
        -1.0524087603502756,
        1.1890832813198393,
        -0.04590156392063396
      ],
      [
        0.34355003375738186,
        -0.23862326297628364,
        0.7493753377315661
      ],
      [
        0.04648725634649368,
        0.09129767603465035,
        0.5532113618837944
      ],
      [
        -0.1279051789169342,
        -0.3327369079765173,
        -0.15859139664721128
      ],
      [
        0.750114668497553,
        -0.9203879541648099,
        0.001998057812848171
      ],
      [
        0.16353110330439818,
        0.6707505917980472,
        -1.465451911992813
      ],
      [
        0.5031103792995185,
        -1.164430609167536,
        -0.5051455290821211
      ],
      [
        -0.42034172188523955,
        -0.23347089758204054,
        0.5884270588244823
      ],
      [
        -0.042670270985888284,
        0.020444528722883125,
        -0.3187173438310937
      ],
      [
        0.15954950517440455,
        0.36917213943196253,
        0.09160671159905613
      ],
      [
        -0.06770259786145842,
        -0.33176109166522544,
        1.4205346306951434
      ],
      [
        -0.03079243947652543,
        -0.10857031303648419,
        -0.2664122309408965
      ],
      [
        -0.36495996716566187,
        -0.4399872200040327,
        -0.31423730364298325
      ]
    ]
  ],
  "biases": [
    [
      [
        0.0,
        0.0,
        0.28532822186953494,
        0.3969045434141064,
        0.20597221247075848,
        0.0,
        0.0,
        0.2398274003197315,
        0.5729158674093399,
        0.26880172985974715,
        0.11582707430370087,
        -0.08301001765036185,
        0.09037604765688939,
        0.4416886222849623,
        0.0,
        0.0
      ]
    ],
    [
      [
        -0.040857863588355324,
        -0.2708067296551882,
        0.3116645932435436
      ]
    ]
  ]
}