{
  "layer_sizes": [
    32,
    16,
    4
  ],
  "learning_rate": 0.3,
  "seed": 42,
  "output_activation": "softmax",
  "weights": [
    [
      [
        0.06993157275868947,
        -0.27653036573754786,
        0.23298295596653718,
        0.266306297251698,
        -0.43587508196258473,
        -0.3609606670549618,
        0.028014171358425717,
        -0.06379455484274284,
        0.022032743949065393,
        -0.2160880173531334,
        0.2858298548334752,
        0.20875949359219817,
        0.01650767439030401,
        0.343374348146644,
        0.122808453322789,
        -0.21482311572080956
      ],
      [
        0.08593999884070634,
        -0.25625498938467367,
        0.26498273234174097,
        0.01868364040733135,
        0.005668124314559295,
        -0.20564817644036767,
        0.30168940523511195,
        -0.023366277274047893,
        -0.08084892221563916,
        -0.09086042308179587,
        0.19905765750610543,
        0.10567252582598076,
        0.1031831528989971,
        0.1692692971566063,
        0.5413430179773933,
        -0.1016037540961539
      ],
      [
        -0.1343083794478027,
        -0.21997752123939338,
        0.19936501265879678,
        0.31340819133411746,
        0.023396850787155667,
        -0.24545490958001434,
        -0.2100662333562055,
        0.177914290199328,
        0.21204657612599812,
        0.13296153161656035,
        -0.10039706570440539,
        0.07235184050164112,
        0.029171452285182056,
        0.1162361955868889,
        0.223788312246825,
        0.05589888719367057
      ],
      [
        0.16348069358805536,
        0.0003604281947988865,
        0.11765000668741898,
        0.18898717461352965,
        -0.31240523976304224,
        -0.11533359442870766,
        -0.1215390930065945,
        -0.14445336881768275,
        -0.04255252948153336,
        0.3709082923488607,
        -0.15047741780554258,
        0.25638109838283124,
        -0.4207174429039512,
        -0.022157211091808054,
        0.046619384036028964,
        0.14655558283981954
      ],
      [
        0.1386537452298771,
        0.23457558998732583,
        -0.28170274034374726,
        0.3310003479258828,
        0.08519946785316879,
        -0.08900590555789606,
        -0.31892158083448047,
        -0.540539564269903,
        -0.3299099962212125,
        0.3117423480672496,
        -0.02233961821376529,
        0.253952348935065,
        -0.10681316158413356,
        0.426494189959652,
        0.18193242562127507,
        -0.0773366349300596
      ],
      [
        0.07504090967101623,
        -0.1292427040793183,
        -0.2852849339229058,
        0.3511538225924423,
        -0.42825441385837953,
        0.08056329585890315,
        -0.11735058505068097,
        -0.25409423108711093,
        0.020139740005667654,
        0.29908495606129454,
        0.10840022501178996,
        0.056709639290767076,
        -0.10582457801103844,
        0.3669297144638736,
        -0.3962987813600666,
        -0.3617781181057718
      ],
      [
        -0.3306749030886006,
        -0.1924125229687519,
        0.8310271508102168,
        -0.11039827271980729,
        -0.21652094172353423,
        0.14106290218475429,
        -0.11379423662102149,
        0.4132553491957839,
        -0.23340442000246925,
        -0.16862234449803387,
        -0.3044930294383427,
        -0.09839132826893797,
        0.21007703436434888,
        -0.5704677294523638,
        -0.02065609301267753,
        0.05943390058306947
      ],
      [
        -0.15478518610411696,
        -0.3780488027745376,
        0.06340253394339031,
        -0.101208059112056,
        0.11005276803955047,
        -0.02995275395852164,
        0.39649879339683325,
        -0.04457281362510343,
        -0.22964133983032867,
        0.041991873279340584,
        0.12097953211070937,
        0.3541084035450701,
        0.20877781147864463,
        0.15078181119201298,
        0.3717568405646679,
        -0.2971907635807127
      ],
      [
        -0.16618558036735528,
        -0.24817832452880517,
        -0.052082293774019066,
        -0.31300641873518265,
        0.21067145190447537,
        -0.09097146461407568,
        -0.3716475030590601,
        -0.23862867705873264,
        0.10461149518768646,
        0.2067046065138569,
        0.5651630840407149,
        0.7427771262367936,
        0.1036023583189991,
        -0.1858204836033304,
        -0.5270804524230495,
        0.06692786558595895
      ],
      [
        -0.20948297100749985,
        -0.12037365422234528,
        -0.10765404275002913,
        -0.004032603450201741,
        0.31837877289778527,
        0.0038463515219538027,
        -0.0436046386930677,
        -0.24364734496330023,
        -0.3924377028509516,
        -0.1244040127280712,
        0.05253472341318805,
        0.4562939881299317,
        0.03256863036822146,
        0.3072489241604002,
        -0.1188927818750104,
        -0.29623594160425615
      ],
      [
        -0.03662787256842107,
        0.14730552628538054,
        0.4342308073510586,
        -0.3678086275841975,
        0.03723149013804377,
        0.3358113004184236,
        0.22439692612391277,
        0.3685447541253899,
        -0.15239702451691228,
        0.15825128085892273,
        -0.34232959304045907,
        0.096543725713453,
        -0.113745870085195,
        -0.5644753720193295,
        -0.21874021748000153,
        0.04314697943052987
      ],
      [
        0.6335326850905593,
        0.42337861954923156,
        -0.14386064491149186,
        -0.11808241584048206,
        0.1253778228313233,
        0.7099792361045077,
        -0.11264418931885728,
        0.5942636922137174,
        -0.024921365504051236,
        0.5804545624572427,
        -0.16259617140815363,
        -0.32358730336337,
        -0.34203979981141625,
        0.11164573013404203,
        0.5484513023123778,
        -0.04487980332065016
      ],
      [
        -0.08310547418433618,
        0.38042373336561036,
        -0.24818189460730147,
        -0.21233212674565813,
        0.1882565894434571,
        -0.07876659624631323,
        -0.005245478540331899,
        -0.004696177147074996,
        0.09599218566414004,
        0.36420917486330134,
        0.06105317244577866,
        0.17138292465855176,
        -0.5125430252577556,
        0.015707427575157532,
        -0.19719640843367486,
        -0.304703265105907
      ],
      [
        -0.25040668758525575,
        -0.21008362354930454,
        -0.12325438708292161,
        -0.2690509508800911,
        0.3601753863305669,
        -0.15115852982130085,
        -0.08191827359049021,
        0.145667277714122,
        0.26414091956603003,
        0.41283318263859886,
        0.34018279668791795,
        -0.09252694549424892,
        -0.05596470422012488,
        0.47410307331106233,
        0.17535942979756516,
        -0.27109701805834163
      ],
      [
        -0.016530454311368077,
        0.09329586372207077,
        0.4348470371018421,
        0.9157994489124428,
        -0.3426053401008246,
        -0.11302566472478634,
        -0.3658605004592508,
        -0.40489451425990436,
        -0.021145673823224468,
        0.48891556727586716,
        -0.2402170116673088,
        -0.0822055995988261,
        -0.5368222574346637,
        0.34619278705424644,
        -0.2400687758354498,
        -0.13235985684151844
      ],
      [
        -0.21921519454189706,
        -0.22032055326849453,
        -0.6916697467402427,
        -0.7340163789728038,
        1.1087300469092585,
        -0.31887436579914735,
        -0.2741963946136599,
        0.5832388260355216,
        0.9907101808013142,
        -0.38079725359102057,
        0.44635527136111325,
        0.10737791876352085,
        0.4321744111013981,
        -0.10912801213240382,
        0.0795766836542525,
        0.194334394015436
      ],
      [
        0.10869151861665466,
        -0.03713983387590624,
        0.6976278530003474,
        -0.22775246097228768,
        -0.18152373920735312,
        -0.25034104476400093,
        0.03331422855089898,
        0.09004465237425817,
        0.11788463063628475,
        0.13591599942383076,
        -0.02813018379358092,
        0.07430604280600354,
        0.013288836894466841,
        -0.13861652538142333,
        -0.30965151228485377,
        0.079123565418327
      ],
      [
        -0.024321649603372367,
        0.5801912611642673,
        1.124422319748168,
        0.21243312925933305,
        -0.3127446056373786,
        -0.4618470402576166,
        0.27305749441655125,
        0.2945637633657967,
        0.1200358508479027,
        -0.5534094517746746,
        0.1648721046788477,
        0.09997202525979339,
        -0.2776076711036195,
        -0.25651882551676414,
        -0.06333270281001196,
        0.013116699589060907
      ],
      [
        -0.060351440351227977,
        -0.010809406711430287,
        -0.03441481864815062,
        0.04949025601891557,
        0.3952978840194852,
        -0.62177992576424,
        -0.06317757798773514,
        0.08029265282716488,
        0.08559704588618153,
        -0.08063993579545028,
        -0.4007734998993032,
        0.09239709726786484,
        0.43183755354104625,
        -0.3555783231713473,
        0.22956816256409,
        -0.08213130578072347
      ],
      [
        -0.021578783637130193,
        -0.27975896685341123,
        -0.038243886074046225,
        0.3561762668286342,
        0.19754752569780104,
        0.3976621110131037,
        0.2904070428110278,
        0.12503776297554678,
        0.4622166648670857,
        0.10692125422483621,
        0.2729774053170329,
        -0.05983122864871593,
        0.016636453964801207,
        -0.1127919094204335,
        0.2533271014084907,
        -0.2945759057787164
      ],
      [
        0.18933988842449698,
        -0.06419710355371384,
        0.33818193038175265,
        0.21888236533670952,
        0.5070452546125749,
        0.14727788244527887,
        -0.3969559933467058,
        -0.0014721999813975518,
        -0.2667687648235663,
        -0.13239699605130703,
        0.44378746943694836,
        0.1736949624593851,
        -0.17473260714468658,
        -0.1918652952054641,
        0.014126640978842767,
        -0.30414003734528194
      ],
      [
        -0.19865366520221334,
        -0.04855039548629048,
        -0.06340201364525082,
        0.21473759661090977,
        -0.2203048639675626,
        0.04597551076965876,
        0.01800839330814448,
        -0.0015496072688557245,
        0.5336644807278502,
        -0.4373259134232729,
        0.23103336020261664,
        0.2291852881217655,
        -0.3953985998634856,
        0.7824661375066344,
        0.223305243359302,
        0.211645996460851
      ],
      [
        -0.148983612560367,
        0.18690658331412868,
        0.3124880460121824,
        0.0893846231881867,
        0.11048393837554846,
        0.03217001948104913,
        -0.21978224561824103,
        -0.021616076816935573,
        -0.01189759978795212,
        0.0930214306286353,
        0.3159364228453416,
        -0.25032251075964135,
        -0.03125225757989441,
        0.4319279333193791,
        -0.1799659394433635,
        -0.20556250432258008
      ],
      [
        0.044328850777880034,
        0.19456195844390609,
        0.04822667090508775,
        0.36340526576314186,
        0.2660822108425061,
        0.17503922638313313,
        0.1345831958976277,
        0.5971793683296737,
        -0.025057388891373454,
        -0.5037076084763666,
        0.4670439514970532,
        -0.10011334800424523,
        0.02697011108575826,
        0.38895171761976755,
        -0.3946337675049539,
        -0.31291180352653486
      ],
      [
        -0.4065671814596318,
        -0.2150684116837799,
        0.15527930851917132,
        0.1622120788570873,
        0.1209522600330129,
        -0.3886072613124739,
        -0.5814717885915567,
        0.028854489590748225,
        -0.0917109750844463,
        0.11201940746941447,
        0.24146876767308578,
        0.0488718677496316,
        0.19003327134396344,
        0.11886688993340276,
        0.1384472941601442,
        -0.1761683157174706
      ],
      [
        -0.051150550637782996,
        0.032659684986815325,
        0.2505022758692776,
        -0.06727017490224842,
        0.18217552913390245,
        -0.10187548831822707,
        -0.033331471265428216,
        0.22264585374917098,
        -0.4720320594384013,
        -0.3269451174784285,
        -0.30456598824293724,
        -0.569092520227115,
        -0.16956611003879418,
        0.24892252133657075,
        -0.06528989883586608,
        0.04944752048546303
      ],
      [
        0.2660566769977798,
        0.31538719388949893,
        0.028085673333388024,
        0.3695615905462439,
        0.07491537980940174,
        -0.24476534629624785,
        -0.15254601748307942,
        -0.35486803489810165,
        -0.19580043010827555,
        -0.09233120747834576,
        0.2668766159624186,
        0.44450396752645693,
        -0.34554537884426,
        0.15977091346961533,
        -0.25420486702960615,
        0.11867427211580049
      ],
      [
        -0.03901935985185001,
        -0.47426079563930656,
        0.2774444049070439,
        -0.12008506004828813,
        -0.08159134439251417,
        -0.3028538931618048,
        -0.16751674860528448,
        0.12223870341688202,
        -0.02107805190896379,
        0.07933846511088179,
        0.15646082459997906,
        0.3444769236170027,
        -0.08569653771609483,
        -0.30765040780679714,
        0.2727367219027732,
        -0.08287204302431367
      ],
      [
        0.38097377013918027,
        0.260150299505277,
        -0.0817276954297025,
        0.005962994622523308,
        0.40155773463355365,
        0.800016679733528,
        0.013097120235870542,
        0.1762011546287309,
        0.21244126431540153,
        -0.12719430199544624,
        -0.006048741436992006,
        -0.013952874316997656,
        0.0784770528643884,
        -0.33737916702611015,
        -0.3470197852772907,
        -0.5182458589978229
      ],
      [
        -0.2855937254273203,
        -0.1312031604122572,
        -0.027927739647267517,
        0.5154729087612737,
        0.3283820576776989,
        -0.27593856942478917,
        0.08298118367934361,
        -0.08650346584442856,
        -0.0448579261848862,
        0.04350437689410705,
        0.22077314036161655,
        -0.07050311123604266,
        0.2659628831835896,
        -0.2239205101309654,
        0.007515883350344678,
        0.6494184316489581
      ],
      [
        0.049522238476400415,
        0.3417692874741192,
        0.06825020155822499,
        0.17635939198634373,
        0.03768791660270156,
        -0.07801768563043346,
        -0.19881652861475052,
        0.12284143298254102,
        -0.18665126397130444,
        0.1635692736186189,
        0.33730211222924544,
        0.10594436154426866,
        -0.07156218338892296,
        0.17505544123180963,
        -0.07123714612682555,
        0.23388678136628732
      ],
      [
        -0.46409921823369926,
        -0.1004361812070855,
        -0.45233284176607663,
        -0.3426000894029067,
        0.3928492726543517,
        0.18838045515353916,
        -0.1838159877545932,
        -0.3603597707670718,
        -0.7148991761352754,
        -0.13870091244289703,
        0.6710841141796189,
        0.12303257760087302,
        -0.13989307151237237,
        0.1778340987797122,
        -0.38430847048883326,
        -0.07433084067440886
      ]
    ],
    [
      [
        -0.07452697643932467,
        -0.20327613839364897,
        0.0673062613556601,
        0.6166689478790431
      ],
      [
        0.20161857354422058,
        -0.5108805444307747,
        0.40156789797465775,
        0.7939485109281196
      ],
      [
        -0.38087274153773093,
        -0.9255544697516838,
        1.3655195381865965,
        -0.31131902190344574
      ],
      [
        1.2345527624545694,
        -0.5001811258078173,
        0.3944403981601677,
        -0.22802266994776088
      ],
      [
        -0.34219235806348114,
        1.0423530686183675,
        -0.5404099668062425,
        0.02411620727634952
      ],
      [
        -0.2392971453941352,
        -0.11695154563302179,
        -0.8936550114833449,
        0.9230370780088821
      ],
      [
        -0.19231147495928316,
        0.4032726025420244,
        -0.8472908422377672,
        -0.2729334989480469
      ],
      [
        -1.3029434005279696,
        -0.04091509083371998,
        0.15486403847658345,
        0.32481862860672733
      ],
      [
        -0.3564544509086174,
        0.5444460647237108,
        -0.12462194804046581,
        -0.4938952504705781
      ],
      [
        0.6853742242728931,
        -0.16209396253805758,
        -0.28904456353432123,
        0.582856943668166
      ],
      [
        0.20598744163616495,
        1.0532463987851008,
        0.04123490137121694,
        -0.6155248388002905
      ],
      [
        -0.17667497496255502,
        -0.22624081840671936,
        -0.30968623572680826,
        -0.6729946926574918
      ],
      [
        -0.02498928858151643,
        0.11819117613918109,
        0.018081448203036535,
        -0.2706575929540375
      ],
      [
        1.0271985907223444,
        0.4295737677969263,
        -0.5755497274149569,
        -0.5888223861065238
      ],
      [
        0.07054573280064505,
        0.21609303963800003,
        -0.6364465142712452,
        0.07414003936226879
      ],
      [
        0.09264364981575933,
        -0.3180901422618369,
        0.0671197752194088,
        -0.5143574223742244
      ]
    ]
  ],
  "biases": [
    [
      [
        0.24644935151596378,
        0.39230772702098515,
        0.36711565620645265,
        0.3178592426268897,
        0.16468013081397878,
        0.4819574101665755,
        -0.05998077139440495,
        0.5143810530160292,
        0.03615233861850076,
        0.31636106237813294,
        0.34974710188104746,
        0.16361182401537266,
        0.0,
        0.39210817792577024,
        0.21030208875128556,
        0.0
      ]
    ],
    [
      [
        0.1357624692457407,
        -0.19717557342581388,
        0.0126626384423043,
        0.04875046573776877
      ]
    ]
  ]
}