{
  "layer_sizes": [
    32,
    16,
    3
  ],
  "learning_rate": 0.3,
  "seed": 42,
  "output_activation": "softmax",
  "weights": [
    [
      [
        0.07531981149883826,
        -0.26619413060194724,
        0.22434926962164115,
        0.25331186658869465,
        -0.4779763106645353,
        -0.3255448767155795,
        0.03196010079182134,
        -0.0592634083110008,
        0.040185603688162264,
        -0.19912049414029023,
        0.23236445007317336,
        0.20486124452709983,
        0.01650767439030401,
        0.3178506577286841,
        0.13521226209397336,
        -0.21482311572080956
      ],
      [
        0.09132823758085513,
        -0.24591875424907303,
        0.2563490459968449,
        0.0056892097443280035,
        -0.03643310438739129,
        -0.17023238610098534,
        0.30563533466850756,
        -0.018835130742305806,
        -0.0626960624765423,
        -0.07389289986895259,
        0.1455922527458034,
        0.10177427676088227,
        0.1031831528989971,
        0.14374560673864645,
        0.5537468267485776,
        -0.1016037540961539
      ],
      [
        -0.1289201407076539,
        -0.20964128610379273,
        0.19073132631390075,
        0.30041376067111414,
        -0.018704377914794932,
        -0.210039119240632,
        -0.2061203039228099,
        0.18244543673106997,
        0.230199435865095,
        0.14992905482940352,
        -0.15386247046470736,
        0.06845359143654263,
        0.029171452285182056,
        0.090712505168929,
        0.23619212101800943,
        0.05589888719367057
      ],
      [
        0.16886893232820416,
        0.010696663330399547,
        0.10901632034252291,
        0.17599274395052625,
        -0.3545064684649928,
        -0.07991780408932533,
        -0.11759316357319888,
        -0.13992222228594078,
        -0.024399669742436486,
        0.38787581556170375,
        -0.2039428225658446,
        0.25248284931773296,
        -0.4207174429039512,
        -0.047680901509767955,
        0.05902319280721339,
        0.14655558283981954
      ],
      [
        0.17694718650844418,
        0.192138704758158,
        -0.05044479739208256,
        -0.09741726067525054,
        0.2242764568132123,
        -0.04782608122040372,
        -0.31892158083448047,
        -0.26352456372597566,
        -0.1854771784361684,
        0.1384306737665458,
        0.04812139037510745,
        0.18303459918680481,
        -0.10681316158413356,
        0.07567527875585431,
        0.17473252502279615,
        -0.0773366349300596
      ],
      [
        0.11333435094958329,
        -0.17167958930848612,
        -0.0540269909712411,
        -0.07726378600869102,
        -0.2891774248983361,
        0.12174312019639545,
        -0.11735058505068097,
        0.022920769456816585,
        0.16457255779071167,
        0.12577328176059083,
        0.17886123360066278,
        -0.014208110457493216,
        -0.10582457801103844,
        0.01611080326007598,
        -0.4034986819585456,
        -0.3617781181057718
      ],
      [
        -0.3315343615283702,
        -0.2555098109421938,
        0.13668002735088602,
        -0.20819907634912405,
        -0.0847581520109236,
        0.32480707444651635,
        -0.08906599276535648,
        0.20417613189166633,
        -0.18901852693823484,
        -0.03721890171380271,
        -0.2249905573701791,
        -0.07434500830527793,
        0.21007703436434888,
        -0.3957897498114113,
        0.12694083741742637,
        0.05943390058306947
      ],
      [
        -0.14939694736396816,
        -0.367712567638937,
        0.05476884759849422,
        -0.1142024897750593,
        0.06795153933759983,
        0.00546303638086072,
        0.40044472283022886,
        -0.0400416670933613,
        -0.21148848009123183,
        0.05895939649218383,
        0.06751412735040745,
        0.35021015447997167,
        0.20877781147864463,
        0.12525812077405313,
        0.3841606493358523,
        -0.2971907635807127
      ],
      [
        -0.1607973416272065,
        -0.23784208939320453,
        -0.06071598011891513,
        -0.32600084939818597,
        0.1685702232025249,
        -0.055555674274693344,
        -0.36770157362566447,
        -0.2340975305269907,
        0.12276435492678332,
        0.22367212972670006,
        0.5116976792804124,
        0.7388788771716949,
        0.1036023583189991,
        -0.2113441740212903,
        -0.514676643651865,
        0.06692786558595895
      ],
      [
        -0.20409473226735106,
        -0.11003741908674464,
        -0.11628772909492521,
        -0.017027034113205084,
        0.2762775441958347,
        0.039262141861336156,
        -0.039658709259672076,
        -0.23911619843155824,
        -0.37428484311185484,
        -0.10743648951522791,
        -0.0009306813471139694,
        0.45239573906483327,
        0.03256863036822146,
        0.2817252337424403,
        -0.10648897310382589,
        -0.29623594160425615
      ],
      [
        -0.24213864899786253,
        -0.1875046201757616,
        0.568853903778818,
        -0.18717598231520538,
        0.21940478743301006,
        -0.2257317945217566,
        0.23289325321856102,
        0.11603498130136052,
        0.0052264186497118555,
        0.003949856219246269,
        -0.1511819674998814,
        0.12193131104038282,
        -0.113745870085195,
        -0.27036108495513617,
        -0.30114946704894296,
        0.04314697943052987
      ],
      [
        0.39391335566283914,
        0.00900738318424296,
        0.055920680401106884,
        -0.08730339635426214,
        0.581126800748098,
        0.054845625340964085,
        -0.10273180770843429,
        0.5299446673821621,
        0.04184438867832862,
        0.5331103318026363,
        0.10155598598249044,
        -0.3800153316435005,
        -0.34203979981141625,
        0.6419513843861284,
        0.5723685968801395,
        -0.04487980332065016
      ],
      [
        -0.09665628872376651,
        0.3591629690187272,
        -0.24002494984084516,
        -0.20551106724806545,
        0.17061418517118493,
        -0.0986512807148974,
        -0.001280466680017824,
        -0.021063484856233404,
        0.12877953026396785,
        0.366010953081534,
        0.03516118308290254,
        0.17139795898907723,
        -0.5125430252577556,
        0.023860755504146253,
        -0.1924726410422558,
        -0.304703265105907
      ],
      [
        -0.22039755017195725,
        -0.08972896421702632,
        0.26571210625903,
        -0.31342749194399977,
        0.0174403596475282,
        -0.12104235833339462,
        -0.08191827359049021,
        0.27048669610104553,
        0.17891475231521592,
        0.3484900146137907,
        -0.026111463455008956,
        -0.163572392247813,
        -0.05596470422012488,
        0.09666455380448116,
        0.06247826614438974,
        -0.27109701805834163
      ],
      [
        0.021762986967198986,
        0.05085897849290296,
        0.6661049800535069,
        0.4873818403113088,
        -0.2035283511407812,
        -0.07184584038729402,
        -0.3658605004592508,
        -0.12787951371597692,
        0.12328714396181963,
        0.31560389297516317,
        -0.1697560030784359,
        -0.15312334934708638,
        -0.5368222574346637,
        -0.004626124149551175,
        -0.24726867643392875,
        -0.13235985684151844
      ],
      [
        -0.22007465298166662,
        -0.029763742604962565,
        -0.4026956271691311,
        -0.34859062385685635,
        0.5420942645059988,
        -0.32185564531850774,
        -0.2741963946136599,
        0.479025621855223,
        0.770652685374336,
        -0.27875116945323064,
        -0.07954728283954145,
        0.09580214840499007,
        0.4321744111013981,
        -0.21067391362038362,
        -0.04298453495456544,
        0.194334394015436
      ],
      [
        0.10783206017688508,
        -0.10023712184934812,
        0.0032807295410165536,
        -0.32555326460160416,
        -0.049760949494742454,
        -0.06659687250223878,
        0.05804247240656399,
        -0.11903456492985938,
        0.16227052370051914,
        0.2673194422080619,
        0.05137228827458265,
        0.09835236276966355,
        0.013288836894466841,
        0.03606145425952929,
        -0.16205458185474989,
        0.079123565418327
      ],
      [
        -0.025181108043141935,
        0.5170939731908254,
        0.43007519628883734,
        0.11463232563001645,
        -0.18098181592476806,
        -0.2781028679958545,
        0.29778573827221627,
        0.08548454606167935,
        0.1644217439121371,
        -0.4220060089904434,
        0.2443745767470114,
        0.12401834522345342,
        -0.2776076711036195,
        -0.08184084587581147,
        0.08426422762009202,
        0.013116699589060907
      ],
      [
        -0.07390225489065833,
        -0.032070171058313536,
        -0.026257873881694514,
        0.05631131551650835,
        0.3776554797472131,
        -0.6416646102328244,
        -0.05921256612742106,
        0.0639253451180065,
        0.11838439048600938,
        -0.07883815757721765,
        -0.42666548926217956,
        0.0924121315983901,
        0.43183755354104625,
        -0.34742499524235854,
        0.23429192995550904,
        -0.08213130578072347
      ],
      [
        -0.016190544896981393,
        -0.2694227317178106,
        -0.04687757241894232,
        0.3431818361656309,
        0.15544629699585058,
        0.433077901352486,
        0.2943529722444234,
        0.12956890950728883,
        0.48036952460618243,
        0.1238887774376795,
        0.21951200055673095,
        -0.0637294777138144,
        0.016636453964801207,
        -0.13831559983839348,
        0.26573091017967515,
        -0.2945759057787164
      ],
      [
        0.19472812716464577,
        -0.05386086841811318,
        0.32954824403685656,
        0.2058879346737061,
        0.4649440259106242,
        0.1826936727846612,
        -0.39301006391331017,
        0.0030589465503445324,
        -0.2486159050844695,
        -0.11542947283846387,
        0.3903220646766465,
        0.16979671339428676,
        -0.17473260714468658,
        -0.21738898562342396,
        0.026530449750027225,
        -0.30414003734528194
      ],
      [
        -0.16864452778891484,
        0.07180426384598766,
        0.32556447969670077,
        0.1703610555470011,
        -0.5630398906506007,
        0.07609168225756495,
        0.01800839330814448,
        0.12326981111806799,
        0.4484383134770362,
        -0.5016690814480812,
        -0.13526089994031018,
        0.15813984136820142,
        -0.3953985998634856,
        0.4050276180000531,
        0.11042407970612672,
        0.211645996460851
      ],
      [
        -0.1435953738202182,
        0.19724281844972932,
        0.3038543596672863,
        0.07639019252518335,
        0.06838270967359782,
        0.06758580982043147,
        -0.21583631618484542,
        -0.017084930285193492,
        0.0062552599511447576,
        0.10998895384147858,
        0.26247101808503975,
        -0.2542207598247398,
        -0.03125225757989441,
        0.4064042429014192,
        -0.16756213067217907,
        -0.20556250432258008
      ],
      [
        0.04971708951802883,
        0.20489819357950673,
        0.03959298456019167,
        0.3504108351001386,
        0.22398098214055553,
        0.21045501672251546,
        0.13852912533102332,
        0.6017105148614159,
        -0.006904529152276571,
        -0.4867400852635237,
        0.4135785467367513,
        -0.10401159706934372,
        0.02697011108575826,
        0.3634280272018076,
        -0.38222995873376947,
        -0.31291180352653486
      ],
      [
        -0.4003194842797134,
        -0.19853407250635596,
        0.5971097808611536,
        -0.18355726569882228,
        0.2752713650269745,
        -0.3531914709730916,
        -0.577525859158161,
        0.47944014444209654,
        -0.15705404910027787,
        0.19881376345776972,
        -0.033347032815505544,
        0.03456035801467048,
        0.19003327134396344,
        -0.11813787538148708,
        0.4766307868234491,
        -0.1761683157174706
      ],
      [
        -0.044902853457864635,
        0.04919402416423931,
        0.69233274821126,
        -0.4130395194581581,
        0.3364946341278642,
        -0.06645969797884475,
        -0.02938554183203259,
        0.6732315086005191,
        -0.537375133454233,
        -0.24015076149007358,
        -0.5793817887315285,
        -0.5834040299620762,
        -0.16956611003879418,
        0.011917756021681016,
        0.27289359382743883,
        0.04944752048546303
      ],
      [
        0.270585457298159,
        0.3195253249832763,
        0.056188457658518785,
        0.3747378473741316,
        0.042596637606374985,
        -0.20934955595686552,
        -0.1486000880496838,
        -0.3305396485914647,
        -0.1332616773049441,
        -0.061223196512397715,
        0.22592616755958278,
        0.45101897913122146,
        -0.34554537884426,
        0.17028757903833122,
        -0.22346613172745936,
        0.11867427211580049
      ],
      [
        -0.038592421208348826,
        -0.4577264564618826,
        0.39817552738956363,
        0.2713819932581301,
        -0.4817790249609367,
        -0.2674381028224225,
        -0.16357081917188887,
        -0.15442610313769556,
        0.4390863932767023,
        -0.0506938878248176,
        0.10204026519528446,
        0.5434416437567232,
        -0.08569653771609483,
        -0.452208501674026,
        0.18252491274571253,
        -0.08287204302431367
      ],
      [
        0.27282735260792706,
        0.0958442782956176,
        0.13331689694660642,
        0.5098261449718867,
        0.13944917466402681,
        0.5192451322634383,
        0.017345283783194675,
        -0.221351064982156,
        0.7554575178773999,
        -0.3442746465872745,
        0.09482739486763732,
        0.2068105178862171,
        0.0784770528643884,
        -0.2913362489499444,
        -0.48167256472452546,
        -0.5182458589978229
      ],
      [
        -0.2836433204462498,
        -0.12086692527665656,
        0.06154066542939304,
        0.7520918468076243,
        0.08056689614897573,
        -0.2405227790854068,
        0.08692711311273923,
        -0.23635861030540284,
        0.2605691198124577,
        -0.017996994931164207,
        0.17413514071163136,
        0.0515630167615475,
        0.2659628831835896,
        -0.29846182194386234,
        -0.029857841907975965,
        0.6494184316489581
      ],
      [
        0.05576993565631878,
        0.31632641711862175,
        -0.3816208573563296,
        0.16022892195030478,
        0.19415810431261368,
        -0.04260189529105111,
        -0.1948705991813549,
        0.03720086778724122,
        -0.3595643363231764,
        0.3110560848288254,
        0.5533560410551254,
        -0.051118646290918626,
        -0.07156218338892296,
        0.6160126697008885,
        -0.212827266265714,
        0.23388678136628732
      ],
      [
        -0.4578515210537809,
        -0.12587905156258297,
        -0.9022039006806309,
        -0.3587305594389456,
        0.5493194603642636,
        0.2237962454929215,
        -0.1798700583211976,
        -0.4460003359623711,
        -0.8878122484871472,
        0.008785898767309565,
        0.8871380430054984,
        -0.03403043023431428,
        -0.13989307151237237,
        0.618791327248791,
        -0.5258985906277215,
        -0.07433084067440886
      ]
    ],
    [
      [
        0.03503130390060685,
        -0.03020397247229703,
        0.27949427468587784
      ],
      [
        0.1115971861018028,
        0.2292168454635305,
        -0.22605096792712204
      ],
      [
        0.9933889404738192,
        0.6241116274552979,
        -1.067158357318756
      ],
      [
        -0.6436639612643766,
        0.8714438688994266,
        -0.1370069505861203
      ],
      [
        0.5685854579952935,
        -0.46270276980149244,
        0.7484194203188639
      ],
      [
        0.04648725634649368,
        0.09129767603465035,
        0.5532113618837944
      ],
      [
        -0.1279051789169342,
        -0.3327369079765173,
        -0.15859139664721128
      ],
      [
        0.8022359959942515,
        -0.8807830917201813,
        -0.08972813212847836
      ],
      [
        -0.4604551801713465,
        0.9503035749188254,
        -1.1210186116378469
      ],
      [
        -0.2992989405131119,
        -0.8295234219824003,
        -0.03764339645462668
      ],
      [
        -0.6694843142277873,
        -0.09239752827744468,
        0.6964962818624345
      ],
      [
        -0.45836024551120147,
        0.42191361548373724,
        -0.3044964560666351
      ],
      [
        0.24990908717949742,
        0.23428780066056978,
        0.13613146836535608
      ],
      [
        0.168037714951813,
        -0.424017912824906,
        1.2770511390415522
      ],
      [
        0.5163991290323767,
        -0.33192280881842456,
        -0.5902513036678584
      ],
      [
        -0.36495996716566187,
        -0.4399872200040327,
        -0.31423730364298325
      ]
    ]
  ],
  "biases": [
    [
      [
        -0.010339821410071713,
        -0.07456705979951675,
        0.4419626690340689,
        0.21860471066455847,
        0.11768941773662678,
        0.0,
        0.0,
        0.23817314975656356,
        0.5339899943664213,
        0.1701188926105727,
        0.1505627354427237,
        0.1252780246730393,
        0.0,
        0.4335879749549594,
        0.22058060881659583,
        0.0
      ]
    ],
    [
      [
        -0.05480925388374004,
        -0.12816783965438058,
        0.1829770935381206
      ]
    ]
  ]
}