{
  "layer_sizes": [
    32,
    16,
    4
  ],
  "learning_rate": 0.3,
  "seed": 42,
  "output_activation": "softmax",
  "weights": [
    [
      [
        0.10064319101720678,
        -0.23474143605449585,
        0.21421524337578096,
        0.29253556503675676,
        -0.39674321347416086,
        -0.36764523936570803,
        0.03196010079182134,
        -0.07030037162484744,
        0.0019117548897035364,
        -0.20217658630685745,
        0.2526433573750177,
        0.14956449737969923,
        0.01650767439030401,
        0.3225934845372268,
        0.15693054465269532,
        -0.22354346767328234
      ],
      [
        0.11665161709922366,
        -0.2144660597016217,
        0.24621501975098475,
        0.04491290819239031,
        0.04479999280298309,
        -0.2123327487511141,
        0.30563533466850756,
        -0.029872094056152414,
        -0.10096991127500105,
        -0.07694899203551982,
        0.1658711600476476,
        0.04647752961348175,
        0.1031831528989971,
        0.14848843354718927,
        0.5754651093072994,
        -0.11032410604862662
      ],
      [
        -0.10359676118928536,
        -0.1781885915563414,
        0.18059730006804053,
        0.33963745911917614,
        0.06252871927557946,
        -0.2521394818907607,
        -0.2061203039228099,
        0.17140847341722348,
        0.1919255870666364,
        0.1468729626628363,
        -0.13358356316286316,
        0.013156844289142081,
        0.029171452285182056,
        0.09545533197747183,
        0.2579104035767315,
        0.04717853524119782
      ],
      [
        0.19419231184657268,
        0.04214935787785088,
        0.09888229409666259,
        0.21521644239858873,
        -0.27327337127461837,
        -0.12201816673945409,
        -0.11759316357319888,
        -0.15095918559978727,
        -0.06267351854089517,
        0.3848197233951365,
        -0.1836639152640004,
        0.19718610217033236,
        -0.4207174429039512,
        -0.042938074701225126,
        0.08074147536593526,
        0.13783523088734675
      ],
      [
        0.20227056602681273,
        0.22359139930560934,
        -0.06057882363794283,
        -0.058193562227188245,
        0.3055095540035867,
        -0.08992644387053245,
        -0.31892158083448047,
        -0.27456152703982223,
        -0.223751027234627,
        0.13537458159997856,
        0.0684002976769517,
        0.12773785203940421,
        -0.10681316158413356,
        0.08041810556439713,
        0.19645080758151812,
        -0.08605698688253233
      ],
      [
        0.1386577304679518,
        -0.14022689476103478,
        -0.0641610172171014,
        -0.03804008756062874,
        -0.2079443277079617,
        0.0796427575462667,
        -0.11735058505068097,
        0.01188380614296998,
        0.12629870899225304,
        0.1227171895940236,
        0.19914014090250698,
        -0.06950485760489376,
        -0.10582457801103844,
        0.02085363006861883,
        -0.38178039939982344,
        -0.37049847005824454
      ],
      [
        -0.30621098201000135,
        -0.2240571163947424,
        0.12654600110502567,
        -0.16897537790106157,
        -0.0035250548205491847,
        0.28270671179638784,
        -0.08906599276535648,
        0.19313916857781985,
        -0.22729237573669342,
        -0.04027499388036994,
        -0.2047116500683349,
        -0.12964175545267848,
        0.21007703436434888,
        -0.3910469230028686,
        0.14865911997614825,
        0.050713548630596725
      ],
      [
        -0.1240735678455996,
        -0.3362598730914857,
        0.04463482135263401,
        -0.07497879132699699,
        0.14918463652797423,
        -0.036637326269268,
        0.40044472283022886,
        -0.05107863040720796,
        -0.2497623288896906,
        0.055903304325616604,
        0.08779303465225169,
        0.29491340733257115,
        0.20877781147864463,
        0.1300009475825959,
        0.40587893189457447,
        -0.30591111553318545
      ],
      [
        -0.15993788318743693,
        -0.2170727095916259,
        -0.09745245078894199,
        -0.3441715368890772,
        -0.18786418668587837,
        0.5106474507142509,
        -0.36770157362566447,
        -0.2538947703018854,
        0.07837846186254882,
        0.181820054378675,
        0.36351652310957505,
        1.0526425035323137,
        0.1036023583189991,
        -0.33608223143400306,
        -0.5330115701828273,
        0.06692786558595895
      ],
      [
        -0.1787713527489825,
        -0.07858472453929333,
        -0.12642175534078537,
        0.022196664334857247,
        0.35751064138620914,
        -0.0028382207887925706,
        -0.039658709259672076,
        -0.250153161745405,
        -0.41255869191031364,
        -0.11049258168179514,
        0.01934822595473031,
        0.39709899191743275,
        0.03256863036822146,
        0.286468060550983,
        -0.08477069054510414,
        -0.3049562935567289
      ],
      [
        -0.216815269479494,
        -0.15605192562831027,
        0.5587198775329577,
        -0.1479522838671429,
        0.3006378846233845,
        -0.26783215717188513,
        0.23289325321856102,
        0.1049980179875139,
        -0.03304743014874683,
        0.0008937640526790582,
        -0.13090306019803719,
        0.06663456389298228,
        -0.113745870085195,
        -0.26561825814659346,
        -0.2794311844902208,
        0.03442662747805712
      ],
      [
        0.5697495992350478,
        0.1522608095503086,
        -0.46161219937384684,
        0.3740762272166243,
        0.26575877678838594,
        -0.0020930101802884775,
        -0.10273180770843429,
        -0.15852831325106417,
        0.14549190332011983,
        0.6501285033818954,
        -0.415768834809964,
        -0.3825364946214275,
        -0.34203979981141625,
        1.103081422387072,
        1.187443491579247,
        -0.04487980332065016
      ],
      [
        -0.07133290920539799,
        0.3906156635661785,
        -0.25015897608670556,
        -0.16628736880000297,
        0.25184728236155934,
        -0.14075164336502619,
        -0.001280466680017824,
        -0.03210044817008003,
        0.09050568146550915,
        0.3629548609149667,
        0.055440090384746815,
        0.11610121184167657,
        -0.5125430252577556,
        0.028603582312689103,
        -0.17075435848353385,
        -0.31342361705837973
      ],
      [
        -0.1950741706535887,
        -0.058276269669575005,
        0.25557808001316984,
        -0.27420379349593776,
        0.0986734568379026,
        -0.16314272098352336,
        -0.08191827359049021,
        0.2594497327871989,
        0.14064090351675734,
        0.34543392244722343,
        -0.005832556153164689,
        -0.2188691393952136,
        -0.05596470422012488,
        0.10140738061302398,
        0.08419654870311162,
        -0.27981737001081436
      ],
      [
        0.04708636648556757,
        0.08231167304035429,
        0.6559709538076467,
        0.5266055387593714,
        -0.12229525395040676,
        -0.11394620303742278,
        -0.3658605004592508,
        -0.1389164770298234,
        0.08501329516336088,
        0.3125478008085959,
        -0.1494770957765917,
        -0.20842009649448698,
        -0.5368222574346637,
        0.00011670265899168149,
        -0.2255503938752068,
        -0.14108020879399122
      ],
      [
        -0.1947512734632981,
        0.0016889519424887552,
        -0.4128296534149914,
        -0.3093669254087944,
        0.6233273616963728,
        -0.36395600796863625,
        -0.2741963946136599,
        0.46798865854137645,
        0.7323788365758775,
        -0.2818072616197979,
        -0.059268375537697246,
        0.04050540125758955,
        0.4321744111013981,
        -0.20593108681184075,
        -0.02126625239584354,
        0.18561404206296322
      ],
      [
        0.13315543969525356,
        -0.06878442730189681,
        -0.006853296704843688,
        -0.2863295661535422,
        0.03147214769563192,
        -0.10869723515236754,
        0.05804247240656399,
        -0.1300715282437058,
        0.12399667490206051,
        0.26426335004149465,
        0.07165119557642692,
        0.04305561562226303,
        0.013288836894466841,
        0.04080428106807214,
        -0.14033629929602792,
        0.07040321346585428
      ],
      [
        0.0001422714752266322,
        0.5485466677382769,
        0.41994117004297704,
        0.15385602407807883,
        -0.09974871873439364,
        -0.320203230645983,
        0.29778573827221627,
        0.07444758274783274,
        0.12614789511367852,
        -0.42506210115701065,
        0.2646534840488556,
        0.06872159807605288,
        -0.2776076711036195,
        -0.07709801906726865,
        0.10598251017881377,
        0.004396347636588157
      ],
      [
        -0.04857887537228973,
        -0.0006174765108622059,
        -0.03639190012755471,
        0.09553501396457074,
        0.4588885769375875,
        -0.6837649728829529,
        -0.05921256612742106,
        0.052888381804159855,
        0.08011054168755063,
        -0.08189424974378488,
        -0.4063865819603352,
        0.03711538445098958,
        0.43183755354104625,
        -0.3426821684338158,
        0.25601021251423106,
        -0.0908516577331962
      ],
      [
        0.009132834621387169,
        -0.23797003717035925,
        -0.057011598664802585,
        0.38240553461369287,
        0.236679394186225,
        0.3909775387023575,
        0.2943529722444234,
        0.11853194619344216,
        0.44209567580772363,
        0.12083268527111227,
        0.23979090785857515,
        -0.11902622486121495,
        0.016636453964801207,
        -0.1335727730298506,
        0.28744919273839725,
        -0.3032962577311891
      ],
      [
        0.2200515066830143,
        -0.02240817387066187,
        0.31941421779099627,
        0.2451116331217686,
        0.5461771231009989,
        0.14059331013453244,
        -0.39301006391331017,
        -0.007978016763502079,
        -0.28688975388292837,
        -0.11848556500503107,
        0.4106009719784908,
        0.1144999662468861,
        -0.17473260714468658,
        -0.21264615881488114,
        0.04824873230874909,
        -0.31286038929775467
      ],
      [
        -0.1433211482705463,
        0.10325695839343897,
        0.3154304534508405,
        0.20958475399506357,
        -0.4818067934602267,
        0.033991319607436225,
        0.01800839330814448,
        0.11223284780422138,
        0.4101644646785774,
        -0.5047251736146482,
        -0.11498199263846604,
        0.10284309422080073,
        -0.3953985998634856,
        0.4097704448085958,
        0.1321423622648485,
        0.20292564450837822
      ],
      [
        -0.11827199430184963,
        0.22869551299718066,
        0.293720333421426,
        0.11561389097324569,
        0.14961580686397222,
        0.02548544717030276,
        -0.21583631618484542,
        -0.028121893599040115,
        -0.032018588847313935,
        0.10693286167491135,
        0.28274992538688404,
        -0.3095175069721403,
        -0.03125225757989441,
        0.4111470697099619,
        -0.1458438481134571,
        -0.21428285627505286
      ],
      [
        0.07504046903639734,
        0.23635088812695806,
        0.029458958314331415,
        0.38963453354820055,
        0.30521407933093,
        0.16835465407238667,
        0.13852912533102332,
        0.5906735515475697,
        -0.04517837795073528,
        -0.48979617743009085,
        0.43385745403859566,
        -0.1593083442167442,
        0.02697011108575826,
        0.3681708540103503,
        -0.3605116761750473,
        -0.3216321554790076
      ],
      [
        -0.3758555632011142,
        -0.17327948200072793,
        0.13651159592841497,
        0.18844134664214637,
        0.1600841285214367,
        -0.3952918336232201,
        -0.577525859158161,
        0.022348672808643683,
        -0.11183196414380818,
        0.12593083851569042,
        0.20828227021462795,
        -0.010323128462867388,
        0.19003327134396344,
        0.09808602632398569,
        0.1725693854900506,
        -0.18488866766994339
      ],
      [
        -0.020438932379265643,
        0.0744486146698673,
        0.23173456327852132,
        -0.041040907117189496,
        0.2213073976223264,
        -0.10856006062897351,
        -0.02938554183203259,
        0.21614003696706646,
        -0.49215304849776337,
        -0.31303368643215274,
        -0.33775248570139477,
        -0.6282875164396142,
        -0.16956611003879418,
        0.22814165772715372,
        -0.031167807505959766,
        0.040727168532990285
      ],
      [
        0.34569613741349514,
        0.40768530458380686,
        0.06252284959096484,
        0.5105796302092098,
        0.296078415676422,
        -0.33565064390725147,
        -0.1486000880496838,
        -0.34385329875810977,
        -0.20369733063608592,
        -0.05625098525899461,
        0.29927784582258177,
        0.29554199835888223,
        -0.34554537884426,
        0.22055641545063553,
        -0.1399763575203319,
        0.09251321625838227
      ],
      [
        -0.00830774159333264,
        -0.43247186595625464,
        0.2586766923162876,
        -0.09385579226322914,
        -0.04245947590409042,
        -0.309538465472551,
        -0.16357081917188887,
        0.11573288663477742,
        -0.04119904096832561,
        0.09324989615715784,
        0.1232743271415213,
        0.28528192740450375,
        -0.08569653771609483,
        -0.32843127141621437,
        0.3068588132326798,
        -0.0915923949767864
      ],
      [
        0.3031120322229435,
        0.12109886880124561,
        -0.006181938126669634,
        0.14458835945052737,
        0.5787687237208732,
        0.47714476961330976,
        0.017345283783194675,
        0.04880792479031694,
        0.275172083632372,
        -0.20033086260529923,
        0.11606145681387416,
        -0.05134919846600196,
        0.0784770528643884,
        -0.16755901869213283,
        -0.3573386642375582,
        -0.5269662109502956
      ],
      [
        -0.36737809603569144,
        -0.450927487983323,
        -0.46808166823659375,
        0.10421483357006713,
        1.3607622951647487,
        -0.2420550613232118,
        0.08692711311273923,
        -0.12497607322545704,
        -0.07109095951002378,
        0.003404662058019153,
        1.0923630219253246,
        -0.2558929960087339,
        0.2659628831835896,
        -0.4778726535436966,
        -0.01917165457630324,
        0.5947699658748489
      ],
      [
        0.12213505730154905,
        0.7405641720141395,
        1.0163279132191676,
        0.5823451241266254,
        -0.46734409429731016,
        -0.24796439158482297,
        -0.1948705991813549,
        0.6207810082479926,
        -0.21288429729644198,
        0.012596944475866097,
        0.0008406504165865045,
        0.057855844353400375,
        -0.07156218338892296,
        -0.12889100053282293,
        -0.561934537617718,
        0.23388678136628732
      ],
      [
        -0.4578515210537809,
        -0.06447347434998783,
        -0.49770299878099944,
        -0.37376520755680126,
        -0.12123700706582859,
        0.9787337454781802,
        -0.1798700583211976,
        -0.37562586401022424,
        -0.7411322094604128,
        -0.17282266044305244,
        0.42421548664402176,
        0.5409569172398863,
        -0.13989307151237237,
        -0.0019935495263061565,
        -0.3902395882486107,
        -0.07433084067440886
      ]
    ],
    [
      [
        0.4723654623738894,
        -0.313864746488137,
        0.24303422525083557,
        0.0046371532651418145
      ],
      [
        0.23982938747152882,
        -0.5587593404226675,
        0.8650459017361415,
        0.3401384892312208
      ],
      [
        -0.5391667615035818,
        -0.40680027101786104,
        1.1856608099711627,
        -0.4919204724559835
      ],
      [
        0.5169320838464642,
        0.18144178559020338,
        0.787714254428191,
        -0.5852987590056994
      ],
      [
        0.11132606047610029,
        1.381487222205853,
        -0.6142912144153934,
        -0.6946551172415675
      ],
      [
        -0.31946958498077976,
        -0.36506311194001023,
        -0.7934119868735228,
        1.151078059292693
      ],
      [
        -0.19048442609815874,
        0.4058130579682384,
        -0.8464988487604472,
        -0.2780929967127053
      ],
      [
        -0.6571169108631376,
        -0.4132230172348884,
        0.38321384270686293,
        -0.17704973888721617
      ],
      [
        0.016041677295693856,
        -0.1082037576453782,
        0.036196712877669006,
        -0.37456021722393545
      ],
      [
        0.6252053681679254,
        0.04015791851113101,
        0.01802041519605693,
        0.13370893999356645
      ],
      [
        -0.5507747731734528,
        1.0693431230070203,
        -0.1850456760976225,
        0.3514212292562473
      ],
      [
        -0.7258058735013145,
        -0.7189684051635136,
        -0.34512297091641086,
        0.40430052782766523
      ],
      [
        -0.02498928858151643,
        0.11819117613918109,
        0.018081448203036535,
        -0.2706575929540375
      ],
      [
        1.1235671060602206,
        -0.23649456857292928,
        -0.13475016149269545,
        -0.4599221309968054
      ],
      [
        1.0014592778822884,
        -0.0945405227644643,
        -0.9272897915635419,
        -0.25529666602461354
      ],
      [
        0.08306678111661643,
        -0.2920043265897331,
        0.05711267495046111,
        -0.5208592690782378
      ]
    ]
  ],
  "biases": [
    [
      [
        0.21083364755144485,
        0.2419332118390119,
        0.22926375431443397,
        0.4946332069011857,
        0.20663239760664284,
        0.5808447961887913,
        0.0,
        0.07549734296100015,
        0.05267449083118072,
        0.049340961957543415,
        0.05651197721094959,
        0.15348236499307794,
        0.0,
        0.20364592790477296,
        0.34518441019277357,
        -0.07515326771065124
      ]
    ],
    [
      [
        -0.1715351635568365,
        -0.10552425056994671,
        0.02309381668905955,
        0.25396559743772373
      ]
    ]
  ]
}