{
  "layer_sizes": [
    32,
    16,
    4
  ],
  "learning_rate": 0.3,
  "seed": 42,
  "output_activation": "softmax",
  "weights": [
    [
      [
        0.1064857550994626,
        -0.23314538404810267,
        0.21403329270712093,
        0.3140555173599432,
        -0.401164626773115,
        -0.34155316467053237,
        0.03196010079182134,
        -0.08119951790329058,
        0.05184692553968326,
        -0.17053317774134708,
        0.252433313583835,
        0.13383912556295285,
        0.05462295843018755,
        0.36179191091857554,
        0.1168773355630114,
        -0.21482311572080956
      ],
      [
        0.12249418118147948,
        -0.2128700076952284,
        0.24603306908232475,
        0.06643286051557652,
        0.040378579504028955,
        -0.18624067405593825,
        0.30563533466850756,
        -0.04077124033459561,
        -0.0510347406250213,
        -0.04530558347000953,
        0.16566111625646493,
        0.03075215779673534,
        0.14129843693888058,
        0.1876868599285377,
        0.5354119002176153,
        -0.1016037540961539
      ],
      [
        -0.09775419710702957,
        -0.1765925395499481,
        0.18041534939938053,
        0.3611574114423626,
        0.05810730597662531,
        -0.22604740719558492,
        -0.2061203039228099,
        0.16050932713878024,
        0.24186075771661594,
        0.17851637122834668,
        -0.13379360695404582,
        -0.0025685275276043115,
        0.0672867363250656,
        0.13465375835882035,
        0.21785719448704746,
        0.05589888719367057
      ],
      [
        0.20003487592882846,
        0.043745409884244045,
        0.0987003434280026,
        0.23673639472177474,
        -0.2776947845735725,
        -0.0959260920442782,
        -0.11759316357319888,
        -0.1618583318782305,
        -0.012738347890915451,
        0.4164631319606469,
        -0.18387395905518303,
        0.18146073035358598,
        -0.38260215886406757,
        -0.003739648319876597,
        0.0406882662762514,
        0.14655558283981954
      ],
      [
        0.20258418240756734,
        0.22028896844892146,
        -0.0664486694865136,
        -0.07104267010057802,
        0.25615467319048224,
        -0.06091390557082663,
        -0.31892158083448047,
        -0.2548871082432604,
        -0.1857539000234824,
        0.15067469479647563,
        0.039502702309446365,
        0.18173706949297816,
        -0.09078903633609273,
        0.08621196171153825,
        0.15639759849183418,
        -0.0773366349300596
      ],
      [
        0.1445002945502076,
        -0.1386308427546415,
        -0.06434296788576138,
        -0.016520135237442547,
        -0.21236574100691574,
        0.10573483224144259,
        -0.11735058505068097,
        0.0009846598645267893,
        0.1762338796422326,
        0.15436059815953398,
        0.19893009711132434,
        -0.08523022942164016,
        -0.06770929397115491,
        0.06005205644996733,
        -0.42183360848950746,
        -0.3617781181057718
      ],
      [
        -0.3306749030886006,
        -0.24931170690037044,
        0.09578575059757698,
        -0.3220519055663698,
        -0.23412184466329403,
        0.32480707444651635,
        -0.08906599276535648,
        0.3289791317850716,
        -0.24161141042208953,
        -0.09231182003190411,
        -0.34646168238718567,
        0.19630142923015906,
        0.13755684661583223,
        -0.5219588514943608,
        0.10860591088646433,
        0.05943390058306947
      ],
      [
        -0.1485374889241986,
        -0.36151446359711364,
        0.010548325978559382,
        -0.3046010323733888,
        -0.19307711823752782,
        0.00546303638086072,
        0.40044472283022886,
        0.20044152453468422,
        -0.27064695591078275,
        -0.028895466277914814,
        -0.1411219325942314,
        0.8457043505796488,
        0.07824147353131465,
        -0.0730139774659154,
        0.36582572280489045,
        -0.2971907635807127
      ],
      [
        -0.15993788318743693,
        -0.23164398535138123,
        -0.1024418180888807,
        -0.4589901069607027,
        -0.008709710680534739,
        -0.055555674274693344,
        -0.36770157362566447,
        -0.08037448269992521,
        0.0685300733590045,
        0.1603887252955994,
        0.36843532053149824,
        1.0657372543481918,
        0.016578133020779137,
        -0.35553902484349453,
        -0.5330115701828273,
        0.06692786558595895
      ],
      [
        -0.17292878866672676,
        -0.07698867253290013,
        -0.1266037060094454,
        0.04371661665804339,
        0.353089228087255,
        0.02325385390638329,
        -0.039658709259672076,
        -0.2610523080238481,
        -0.36262352126033365,
        -0.07884917311628484,
        0.01913818216354766,
        0.38137362010068654,
        0.070683914408105,
        0.32566648693233174,
        -0.12482389963478802,
        -0.29623594160425615
      ],
      [
        -0.21097270539723822,
        -0.15445587362191698,
        0.5585379268642975,
        -0.1264323315439569,
        0.2962164713244304,
        -0.2417400824767095,
        0.23289325321856102,
        0.09409887170907076,
        0.01688774050123288,
        0.03253717261818937,
        -0.13111310398921985,
        0.0509091920762359,
        -0.07563058604531148,
        -0.2264198317652449,
        -0.3194843935799048,
        0.04314697943052987
      ],
      [
        0.42507929926346344,
        0.06684854590538074,
        -0.00323908777196401,
        0.1503708731627754,
        0.4130946058170503,
        0.038837337386011216,
        -0.10273180770843429,
        0.274433307697577,
        0.16323632453115877,
        0.4266668021510459,
        0.07839242917360438,
        -0.36672611622440926,
        -0.3039245157715327,
        0.4927135922343797,
        0.43091643019582426,
        -0.04487980332065016
      ],
      [
        -0.26239770845434074,
        0.7331017029963988,
        -0.7710788287194698,
        0.18925306853146276,
        0.10151985757998312,
        -0.0986512807148974,
        -0.001280466680017824,
        -0.5213753189734026,
        -0.0957645587110893,
        0.9197183849478847,
        -0.13847133200995607,
        0.2545254776996438,
        -0.5125430252577556,
        0.686001939223114,
        -0.21080756757321778,
        -0.304703265105907
      ],
      [
        -0.18923160657133295,
        -0.056680217663181834,
        0.2553961293445099,
        -0.25268384117275133,
        0.09425204353894842,
        -0.1370506462883475,
        -0.08191827359049021,
        0.248550586508756,
        0.19057607416673691,
        0.37707733101273383,
        -0.006042599944347326,
        -0.23459451121195998,
        -0.017849420180241358,
        0.14060580699437245,
        0.04414333961342776,
        -0.27109701805834163
      ],
      [
        0.052928930567823294,
        0.0839077250467475,
        0.6557890031389865,
        0.5481254910825575,
        -0.12671666724936087,
        -0.08785412834224689,
        -0.3658605004592508,
        -0.14981562330826664,
        0.1349484658133406,
        0.3441912093741063,
        -0.14968713956777438,
        -0.22414546831123336,
        -0.49870697339478043,
        0.03931512904034018,
        -0.2656036029648908,
        -0.13235985684151844
      ],
      [
        -0.3036701201377969,
        -0.33228074088483983,
        -0.7675165381024105,
        -0.8659969451913484,
        1.3411474181630207,
        -0.32185564531850774,
        -0.2741963946136599,
        0.567236392296831,
        1.0574595128160267,
        -0.394377058204814,
        0.5583098539246804,
        -0.04576668986250352,
        0.6710342422958699,
        -0.1585114787915313,
        -0.061319461485527436,
        0.194334394015436
      ],
      [
        0.1389980037775094,
        -0.06718837529550362,
        -0.007035247373503653,
        -0.2648096138303558,
        0.027050734396677767,
        -0.08260516045719164,
        0.05804247240656399,
        -0.14097067452214906,
        0.17393184555204014,
        0.29590675860700505,
        0.07144115178524434,
        0.027330243805516612,
        0.051404120934350386,
        0.08000270744942065,
        -0.18038950838571186,
        0.079123565418327
      ],
      [
        0.005984835557482375,
        0.5501427197446697,
        0.4197592193743173,
        0.17537597640126487,
        -0.10417013203334782,
        -0.29411115595080733,
        0.29778573827221627,
        0.0635484364693896,
        0.1760830657636581,
        -0.39341869259150025,
        0.264443440257673,
        0.0529962262593065,
        -0.23949238706373588,
        -0.03789959268592014,
        0.0659293010891299,
        0.013116699589060907
      ],
      [
        -0.042736311290034,
        0.000978575495530977,
        -0.03657385079621469,
        0.11705496628775688,
        0.4544671636386334,
        -0.6576728981877773,
        -0.05921256612742106,
        0.04198923552571667,
        0.1300457123375304,
        -0.050250841178274615,
        -0.40659662575151784,
        0.02139001263424314,
        0.46995283758092987,
        -0.3034837420524671,
        0.21595700342454707,
        -0.08213130578072347
      ],
      [
        0.014975398703642917,
        -0.23637398516396604,
        -0.05719354933346256,
        0.4039254869368793,
        0.2322579808872709,
        0.4170696133975332,
        0.2943529722444234,
        0.10763279991499902,
        0.4920308464577036,
        0.15247609383662264,
        0.2395808640673925,
        -0.13475159667796135,
        0.05475173800468475,
        -0.0943743466485022,
        0.24739598364871326,
        -0.2945759057787164
      ],
      [
        0.22589407076527007,
        -0.02081212186426868,
        0.3192322671223366,
        0.2666315854449547,
        0.5417557098020442,
        0.1666853848297083,
        -0.39301006391331017,
        -0.018877163041945286,
        -0.2369545832329485,
        -0.0868421564395208,
        0.4103909281873082,
        0.09877459443013978,
        -0.13661732310480304,
        -0.17344773243353276,
        0.008195523219065198,
        -0.30414003734528194
      ],
      [
        -0.13747858418829054,
        0.10485301039983216,
        0.3152485027821808,
        0.2311047063182496,
        -0.48622820675918094,
        0.06008339430261209,
        0.01800839330814448,
        0.10133370152577824,
        0.4600996353285574,
        -0.4730817650491378,
        -0.11519203642964859,
        0.08711772240405442,
        -0.35728331582360195,
        0.44896887118994455,
        0.0920891531751646,
        0.211645996460851
      ],
      [
        -0.08212294505873916,
        0.2571422075155951,
        0.3199588765082728,
        0.21604818155857153,
        0.23178856395536218,
        0.035569233910525744,
        -0.21583631618484542,
        -0.04115990969487838,
        0.07396379671842127,
        0.18130407439246954,
        0.3151237014638291,
        -0.3858517370831708,
        0.04497831049987266,
        0.5303271052678777,
        -0.18589705720314104,
        -0.20556250432258008
      ],
      [
        0.050576547957798396,
        0.21109629762133003,
        -0.0021328534097738334,
        0.2174215775376218,
        0.046701048257495874,
        0.21045501672251546,
        0.13852912533102332,
        0.7554335626884817,
        -0.061138810720055364,
        -0.5500234896946243,
        0.27031618798783685,
        0.2228467801071532,
        -0.0600541142124617,
        0.2192331763796033,
        -0.40056488526473133,
        -0.31291180352653486
      ],
      [
        -0.4003194842797134,
        -0.19853407250635596,
        0.10575134542096622,
        0.03536481897683818,
        -0.07051266132130811,
        -0.3531914709730916,
        -0.577525859158161,
        0.15818863601589583,
        -0.1261509988292042,
        0.07389401236415633,
        0.06653223789577711,
        0.31562005621997025,
        0.11751308359544677,
        -0.03282590216750664,
        0.13251617640036667,
        -0.1761683157174706
      ],
      [
        -0.02012531599851093,
        0.0711461838131795,
        0.22543077429030847,
        -0.06387619716375877,
        0.15738466404745072,
        -0.07954752232926766,
        -0.02938554183203259,
        0.2509061365052952,
        -0.4550124708991708,
        -0.30200770866655086,
        -0.37802165082574796,
        -0.5449545769645993,
        -0.16111079327500558,
        0.22452893018663836,
        -0.07122101659564369,
        0.04944752048546303
      ],
      [
        0.27230437417769815,
        0.3319215330669229,
        -0.021442289764817102,
        0.24271433066599482,
        -0.11654954154491923,
        -0.20934955595686552,
        -0.1486000880496838,
        -0.22553388847295383,
        -0.23024045385303338,
        -0.1304566025836039,
        0.09194008618511,
        0.7112521559967957,
        -0.41806556659277655,
        0.008078121368706016,
        -0.2601359847893836,
        0.11867427211580049
      ],
      [
        -0.03277166267193165,
        -0.4577264564618826,
        0.22874800302549533,
        -0.2277958915832664,
        -0.2451400245161459,
        -0.2674381028224225,
        -0.16357081917188887,
        0.22265280190836934,
        -0.053876677569797596,
        0.049403556118622974,
        0.0033155285545785926,
        0.5550131724462813,
        -0.14371268791490813,
        -0.4413174507684519,
        0.26680560414299576,
        -0.08287204302431367
      ],
      [
        0.7196277764786846,
        0.20508563100101337,
        0.9551887016465916,
        0.6680330248701113,
        0.28089534603347305,
        0.4189248262509891,
        0.017345283783194675,
        0.39915042092905734,
        0.4692606854103681,
        -0.4100123293248938,
        -0.20179154011054218,
        -0.34867286776519746,
        0.0784770528643884,
        -0.49349994672094266,
        -0.39739187332724224,
        -0.5182458589978229
      ],
      [
        -0.2545684907880482,
        -0.09271666158589306,
        -0.05213135494695256,
        0.538839250846123,
        0.33272689811478945,
        -0.25361060343582975,
        0.08692711311273923,
        -0.08842654457163812,
        -0.026125238420551283,
        0.07699005656777529,
        0.17006061729250135,
        -0.10503261201640857,
        0.2895558169158827,
        -0.22950093390558485,
        0.0015847655905671105,
        0.6494184316489581
      ],
      [
        0.08054747311567247,
        0.3802557863004835,
        0.044046586258539924,
        0.19972573407119262,
        0.04203275703979189,
        -0.05568971964147402,
        -0.1948705991813549,
        0.12091835425533146,
        -0.1679185762069694,
        0.197054953292287,
        0.2865895891601303,
        0.07141486076390276,
        -0.04796924965662978,
        0.16947501745719032,
        -0.07716826388660315,
        0.23388678136628732
      ],
      [
        -0.42754503589292614,
        -0.05705119951764037,
        -0.4712825050254927,
        -0.2948508692946616,
        0.42755972784382146,
        0.20778795753796858,
        -0.1798700583211976,
        -0.37776473382761944,
        -0.6850849945446571,
        -0.09314607283111075,
        0.6376875729299782,
        0.048112209571627595,
        -0.10177778747248882,
        0.19625166155164356,
        -0.3902395882486107,
        -0.07433084067440886
      ]
    ],
    [
      [
        -0.13360264260528287,
        -0.21424820781956042,
        0.7807329394339066,
        -0.02670999460733292
      ],
      [
        0.7986185229495915,
        -0.5483953313890333,
        0.31543625286424404,
        0.3205949935914211
      ],
      [
        -0.6968765230407187,
        -0.6998914716446063,
        1.2077691968382869,
        -0.06322789715922426
      ],
      [
        0.7132542254952172,
        -0.5867751081310854,
        1.0694329265353641,
        -0.295122679040337
      ],
      [
        -0.03685743926196173,
        1.1807478195347043,
        -0.13009110870428564,
        -0.8299323205434634
      ],
      [
        -0.16915947226500136,
        0.14709195793105503,
        -0.5209631173036373,
        0.2161640071359639
      ],
      [
        -0.19048442609815874,
        0.4058130579682384,
        -0.8464988487604472,
        -0.2780929967127053
      ],
      [
        -1.1617473107727554,
        -0.012309969271596612,
        0.022287042454060487,
        0.2875944133119117
      ],
      [
        -0.35183316900788775,
        0.58457440048707,
        0.10687143184870128,
        -0.770138248023835
      ],
      [
        1.108548546722025,
        -0.06025529668522331,
        -0.16504795031212424,
        -0.06615265785599742
      ],
      [
        0.005532640738407031,
        0.8847770481681573,
        -0.1867413084959099,
        -0.018624477418461977
      ],
      [
        -0.3858451174297004,
        -0.7884351970461683,
        -1.0803282251918653,
        0.86901181791416
      ],
      [
        -0.12115715290907796,
        0.33089134352042787,
        -0.08412513082403265,
        -0.28498331698065354
      ],
      [
        0.9863435976262513,
        0.1740116507490293,
        -0.3095004524716134,
        -0.5584545509058766
      ],
      [
        0.19389855090539515,
        0.06645869919769361,
        -0.5119903025767354,
        -0.02403464999668504
      ],
      [
        0.09264364981575933,
        -0.3180901422618369,
        0.0671197752194088,
        -0.5143574223742244
      ]
    ]
  ],
  "biases": [
    [
      [
        0.24044733839667173,
        0.21302917484456738,
        0.19651875859109014,
        0.3246828442265641,
        0.24732527668953067,
        -0.12700747746319513,
        0.0,
        0.43854171926507646,
        0.41881744279333166,
        0.2099903660149451,
        -0.08471195480759894,
        0.4045157511654999,
        0.07395238793374635,
        0.35064440270205155,
        0.0,
        0.0
      ]
    ],
    [
      [
        0.10974221410855658,
        -0.2270171214680256,
        -0.27802605253909807,
        0.395300959898567
      ]
    ]
  ]
}