{
  "layer_sizes": [
    32,
    16,
    4
  ],
  "learning_rate": 0.3,
  "seed": 42,
  "output_activation": "softmax",
  "weights": [
    [
      [
        0.07617926993860784,
        -0.25803565035591314,
        0.16899746499634083,
        0.2501869304060277,
        -0.423342406439722,
        -0.3255448767155795,
        0.03196010079182134,
        -0.08644793913385435,
        -0.0025716656955049734,
        -0.22467157537541044,
        0.3094800546482444,
        0.12725846987863215,
        0.04681555498371877,
        0.27831597858105817,
        0.1708170230649201,
        -0.21482311572080956
      ],
      [
        0.09218769602062471,
        -0.2377602740030391,
        0.20099724137154465,
        0.002564273561661085,
        0.018200799837421962,
        -0.17023238610098534,
        0.30563533466850756,
        -0.04601966156515932,
        -0.10545333186020957,
        -0.09944398110407282,
        0.2227078573208746,
        0.024171502112414655,
        0.13349103349241193,
        0.10421092759102057,
        0.5893515877195243,
        -0.1016037540961539
      ],
      [
        -0.12806068226788433,
        -0.314532030756952,
        0.05672125501286121,
        0.7522584877381387,
        -0.10631649126230035,
        -0.210039119240632,
        -0.2061203039228099,
        0.12091626069689296,
        0.18581354280086057,
        0.14836359155543755,
        -0.21017503070738427,
        0.04560593631507297,
        0.029171452285182056,
        0.05467214918225324,
        0.7434333359862842,
        0.05589888719367057
      ],
      [
        0.16972839076797372,
        -0.09419408132275973,
        -0.02499375095851665,
        0.6278374710175512,
        -0.44211858181249813,
        -0.07991780408932533,
        -0.11759316357319888,
        -0.2014513983201178,
        -0.06878556280667093,
        0.38631035228773786,
        -0.2602553828085216,
        0.22963519419626316,
        -0.4207174429039512,
        -0.08372125749644371,
        0.5662644077754883,
        0.14655558283981954
      ],
      [
        0.17780664494821374,
        0.20029718500419194,
        -0.1057966020173829,
        -0.10054219685791745,
        0.2789103610380256,
        -0.04782608122040372,
        -0.31892158083448047,
        -0.290709094548829,
        -0.22823444781983562,
        0.11287959253142558,
        0.1252369949501787,
        0.10543182453833712,
        -0.07650528099071872,
        0.03614059960822846,
        0.2103372859937429,
        -0.0773366349300596
      ],
      [
        0.11419380938935286,
        0.04849701608322817,
        -0.09007004422275229,
        -0.11287661809966115,
        -0.4046677684245275,
        0.12174312019639545,
        -0.12300619865531014,
        0.0031235296819218574,
        0.08351687732178788,
        0.1683799663462148,
        -0.07037336668629239,
        0.3135287523772433,
        -0.14579988434654018,
        -0.019929552726599763,
        -0.4968167441870047,
        -0.3617781181057718
      ],
      [
        -0.3306749030886006,
        -0.2244266923598266,
        0.023616398151513583,
        0.13502806289004368,
        -0.21146326938084775,
        0.32480707444651635,
        -0.09203862658334244,
        0.1514769542316839,
        -0.25267834105823467,
        -0.011618347411232275,
        -0.39645770520594503,
        0.08317260588678178,
        0.18906570724681096,
        -0.43183010579808717,
        0.48356446737838155,
        0.05943390058306947
      ],
      [
        -0.1485374889241986,
        -0.14753596224722257,
        0.018725794346983016,
        -0.14981532186602947,
        -0.04753880418859153,
        0.00546303638086072,
        0.3947891092255997,
        -0.05983890686825607,
        -0.29254416056015564,
        0.1015660810778078,
        -0.18172047293654764,
        0.6779470173147079,
        0.16880250514314288,
        0.08921776478737733,
        0.2908425871073932,
        -0.2971907635807127
      ],
      [
        -0.15993788318743693,
        -0.017665484001490223,
        -0.09675903337042634,
        -0.36161368148915607,
        0.05307987967633355,
        -0.055555674274693344,
        -0.37335718723029365,
        -0.2538947703018854,
        0.041708674457859446,
        0.26627881431232386,
        0.2624630789934578,
        1.0666157400064316,
        0.06362705198349741,
        -0.24738453000796604,
        -0.6079947058803243,
        0.06692786558595895
      ],
      [
        -0.2032352738275815,
        -0.10187893884071064,
        -0.1716395337202255,
        -0.02015197029587203,
        0.330911448420648,
        0.039262141861336156,
        -0.039658709259672076,
        -0.2663007292544117,
        -0.41704211249552203,
        -0.13298757075034814,
        0.07618492322795725,
        0.3747929644163658,
        0.06287651096163623,
        0.24219055459481428,
        -0.07088421213287928,
        -0.29623594160425615
      ],
      [
        -0.24127919055809297,
        -0.17934613992972767,
        0.5135020991535175,
        -0.19030091849787234,
        0.2740386916578234,
        -0.2257317945217566,
        0.23289325321856102,
        0.088850450478507,
        -0.037530850733955366,
        -0.021601225015873953,
        -0.0740663629248102,
        0.044328536391915224,
        -0.08343798949178016,
        -0.3098957641027621,
        -0.26554470607799613,
        0.04314697943052987
      ],
      [
        0.3947728141026087,
        0.07882159231681811,
        -0.04475821881887097,
        0.08072341092900966,
        0.36077747407073013,
        0.054845625340964085,
        -0.10371558564124965,
        0.2705325830290907,
        0.10214201076003017,
        0.38448109969429056,
        0.0779107558114052,
        -0.30222883408857326,
        -0.3242147125598904,
        0.409875144907298,
        0.4619725555291193,
        -0.04487980332065016
      ],
      [
        -0.09579683028399694,
        0.407390233986219,
        -0.3222985683683825,
        -0.18981310356806838,
        0.30043797795124555,
        -0.0986512807148974,
        -0.002264244612833183,
        -0.058979508088772566,
        0.0820095514940716,
        0.3337547513163907,
        0.2013060864878894,
        0.0550094615848463,
        -0.4451605813724146,
        -0.020750114934072677,
        -0.09155298435008132,
        -0.304703265105907
      ],
      [
        -0.2195380917321877,
        -0.00748621832939096,
        0.21399761628925765,
        -0.3253653149494003,
        0.02354733011917277,
        -0.12104235833339462,
        -0.08388582945612093,
        0.24464986184026957,
        0.12310315496537941,
        0.34476263810493657,
        -0.04770098342887987,
        -0.11127697494661179,
        -0.045093208033980696,
        0.057767359667291004,
        0.062156361335097304,
        -0.27109701805834163
      ],
      [
        0.022622445406968554,
        0.09588077145818481,
        0.6142698720920797,
        0.4784780288487915,
        -0.17903379899568075,
        -0.07184584038729402,
        -0.3668442783920661,
        -0.15371634797675307,
        0.07385415204221192,
        0.30200550691735095,
        -0.15016881292997333,
        -0.15964818617539708,
        -0.5189971701831377,
        -0.04352331828674131,
        -0.2345474776315956,
        -0.13235985684151844
      ],
      [
        -0.21921519454189706,
        0.015258050360319294,
        -0.4545307351305581,
        -0.3574944353193737,
        0.5665888166510992,
        -0.32185564531850774,
        -0.27518017254647525,
        0.45318878759444703,
        0.7212196934547285,
        -0.29234955551104286,
        -0.059960092691078944,
        0.08927731157667934,
        0.44999949835292397,
        -0.24957110775757377,
        -0.03026333615223228,
        0.194334394015436
      ],
      [
        0.10869151861665466,
        0.2625918177756269,
        -0.03230004543148422,
        -0.37279419309262696,
        -0.23572319770577885,
        -0.06659687250223878,
        0.04861644973218205,
        -0.138831804704754,
        0.05676831829513579,
        0.34775757501950494,
        -0.3556754079653651,
        0.6515226412741328,
        -0.053336673664702676,
        2.1098272853545107e-05,
        -0.30536140121487404,
        0.079123565418327
      ],
      [
        -0.024321649603372367,
        0.8085967456991702,
        0.39426328217683154,
        0.07320544533902001,
        -0.33170811179338194,
        -0.2781028679958545,
        0.2902449201327107,
        0.06568730628678462,
        0.07114280097498354,
        -0.3604836002919097,
        -0.08376657151644012,
        0.5644719158930562,
        -0.33090807955095514,
        -0.11788120186248724,
        -0.03404821317419987,
        0.013116699589060907
      ],
      [
        -0.07304279645088875,
        0.01295162190696833,
        -0.07809298184312168,
        0.0474075040539911,
        0.4021500318923132,
        -0.6416646102328244,
        -0.06019634406023642,
        0.038088510857230265,
        0.06895139856640169,
        -0.0924365436350299,
        -0.40707829911371696,
        0.08588729477007936,
        0.4496626407925721,
        -0.3863221893795488,
        0.24701312875784218,
        -0.08213130578072347
      ],
      [
        -0.015331086457211825,
        -0.2244009387525286,
        -0.0987126803803695,
        0.3342780247031136,
        0.17994084914095101,
        0.433077901352486,
        0.2933691943116081,
        0.10373207524651258,
        0.43093653268657484,
        0.11029039137986725,
        0.23909919070519353,
        -0.07025431454212513,
        0.0344615412163271,
        -0.17721279397558362,
        0.27845210898200834,
        -0.2945759057787164
      ],
      [
        0.19558758560441533,
        -0.07901211925182534,
        0.21630238208500516,
        0.5536989362946636,
        0.36601933809204706,
        0.1826936727846612,
        -0.39449638082230315,
        -0.04964023110963796,
        -0.30263875867658674,
        -0.10474229269489801,
        0.28106574559608666,
        0.23844718045105237,
        -0.18523827070345555,
        -0.2534293416100997,
        0.402859934860861,
        -0.30414003734528194
      ],
      [
        -0.16778506934914528,
        0.046653013012275465,
        0.21231861774484936,
        0.5181720571679587,
        -0.6619645784691782,
        0.07609168225756495,
        0.016522076399151497,
        0.07057063345808552,
        0.39441545988491905,
        -0.49098190130451513,
        -0.24451721902087015,
        0.22679030842496703,
        -0.4059042634222545,
        0.3689872620133772,
        0.4867535648169605,
        0.211645996460851
      ],
      [
        -0.14273591538044864,
        0.24226461141501124,
        0.2520192517058593,
        0.06748638106266604,
        0.09287726181869824,
        0.06758580982043147,
        -0.2168200941176608,
        -0.04292176454596971,
        -0.0431777319684629,
        0.09639056778366634,
        0.28205820823350236,
        -0.2607455966530505,
        -0.01342717032836852,
        0.3675070487642289,
        -0.15484093186984593,
        -0.20556250432258008
      ],
      [
        0.050576547957798396,
        0.21305667382554064,
        -0.01575882006510866,
        0.3472858989174715,
        0.27861488636536885,
        0.21045501672251546,
        0.13852912533102332,
        0.5745259840385624,
        -0.04966179853594381,
        -0.512291166498644,
        0.49069415131182254,
        -0.1816143717178113,
        0.05727799167917302,
        0.3238933480541817,
        -0.34662519776282263,
        -0.31291180352653486
      ],
      [
        -0.4003194842797134,
        -0.19657369630214536,
        0.09129381754897488,
        0.14609271201141694,
        0.1334849355558756,
        -0.3531914709730916,
        -0.577525859158161,
        0.0062011052996367826,
        -0.1163153847290167,
        0.10343584944713752,
        0.26511896748785485,
        -0.03262915596393446,
        0.22034115193737813,
        0.05380852036781701,
        0.1864558639022754,
        -0.1761683157174706
      ],
      [
        -0.044902853457864635,
        0.05115440036845006,
        0.18651678489908122,
        -0.08338954174791868,
        0.19470820465676536,
        -0.06645969797884475,
        -0.02938554183203259,
        0.19999246945805949,
        -0.49663646908297177,
        -0.33552867550070564,
        -0.28091578842816795,
        -0.650593543940681,
        -0.13925822944537947,
        0.183864151770985,
        -0.01728132909373499,
        0.04944752048546303
      ],
      [
        0.27230437417769815,
        0.3707452219903816,
        -0.032383120972935206,
        0.3476633484207233,
        0.05730870325255157,
        -0.20934955595686552,
        -0.14958386598249918,
        -0.37617372262713555,
        -0.2270805622887863,
        -0.08896207032331473,
        0.2329984013505792,
        0.43408088163304775,
        -0.32772029159273414,
        0.09535002891446534,
        -0.2290798594560885,
        0.11867427211580049
      ],
      [
        -0.03277166267193165,
        -0.3604569136958609,
        0.21679130850132297,
        -0.44747774514494104,
        0.24615494354114145,
        -0.2674381028224225,
        -0.16357081917188887,
        0.103375451633115,
        -0.039264388228081835,
        0.01587379472467573,
        0.56785729454711,
        0.007999166253048256,
        0.06404851078086023,
        -0.38647919133443054,
        0.1189403176645575,
        -0.08287204302431367
      ],
      [
        0.27864811114434423,
        -0.3553653010257251,
        -0.052168853299604134,
        -0.28853313365983785,
        1.2236731623280115,
        0.5192451322634383,
        0.017345283783194675,
        0.03548510883825947,
        0.2792662542018984,
        -0.2114152581918368,
        0.4379758090899795,
        -0.14079575351361504,
        0.29261658876823865,
        -0.20834220148735144,
        -0.23558663294138882,
        -0.5182458589978229
      ],
      [
        -0.27934602824740196,
        -0.5658784005561762,
        -0.09268236741095837,
        0.10858068343596754,
        1.0124183647732616,
        -0.2405227790854068,
        0.08692711311273923,
        -0.10633209857859062,
        -0.06088474467472182,
        0.046331412353845504,
        0.5095009951792643,
        -0.2191446624961548,
        0.48010241908744,
        -0.285484556535601,
        0.16339000597642048,
        0.6494184316489581
      ],
      [
        0.05576993565631878,
        0.9328872872461031,
        0.022880044543302044,
        0.14519427383244918,
        -0.26860329879779465,
        -0.04260189529105111,
        -0.1948705991813549,
        0.1075753397393883,
        -0.21288429729644198,
        0.08231368596526971,
        0.5221055142575676,
        -0.182664141276742,
        -0.09576911286564882,
        0.09159326494599306,
        -0.426521870931901,
        0.23388678136628732
      ],
      [
        -0.4578515210537809,
        0.4906818185648982,
        -0.49770299878099944,
        -0.37376520755680126,
        0.0865580572538557,
        0.2237962454929215,
        -0.1798700583211976,
        -0.37562586401022424,
        -0.7411322094604128,
        -0.2199565000962462,
        0.8558875162079408,
        -0.1655759252201377,
        -0.16410000098909827,
        0.0943719224938956,
        -0.7395931952939084,
        -0.07433084067440886
      ]
    ],
    [
      [
        0.03517059787236524,
        -0.030441177383622633,
        0.2795921856254451,
        0.12185048828754223
      ],
      [
        -0.11456121978437575,
        -0.8837960647331993,
        1.012734274452755,
        0.8718774480810434
      ],
      [
        -0.2395565536065124,
        -0.3540984324317557,
        0.4117307703542104,
        -0.07030247932220578
      ],
      [
        1.3215948866806173,
        -0.2723781942001612,
        0.2279829554740426,
        -0.37641028309534036
      ],
      [
        -0.43901183459559123,
        1.5293361754265105,
        0.012110643646598838,
        -0.9185680334525246
      ],
      [
        -0.15859139664721128,
        0.15992420193033224,
        -0.5535794288215994,
        0.22537999903685876
      ],
      [
        -0.19142345987256235,
        0.40469971449094677,
        -0.8474588962268212,
        -0.27508057199463604
      ],
      [
        -0.583443046704477,
        -0.2912916077259965,
        0.07993838673138334,
        -0.06937955657928967
      ],
      [
        -0.10251288640361929,
        -0.0545196170920989,
        0.05919496169135629,
        -0.33268804289158876
      ],
      [
        0.18959950704025447,
        0.15385288951936194,
        0.07243141421898866,
        0.40120883109007494
      ],
      [
        -0.4767806091348156,
        0.6743896720111717,
        1.0591531405114294,
        -0.5718183003955922
      ],
      [
        -0.46420336745744567,
        -0.8373799411008362,
        -0.8788485664207027,
        0.7948351532254101
      ],
      [
        -0.10435618995601942,
        0.44115294541870836,
        -0.18183650445282745,
        -0.31433450820319775
      ],
      [
        0.31673983990945953,
        0.25903311313765953,
        -0.05137718651587304,
        -0.23199552153345565
      ],
      [
        1.1522575087325984,
        0.028115280002651323,
        -1.0691782953666014,
        -0.38686219583898035
      ],
      [
        0.09264364981575933,
        -0.3180901422618369,
        0.0671197752194088,
        -0.5143574223742244
      ]
    ]
  ],
  "biases": [
    [
      [
        0.0,
        0.6035242359168924,
        -0.23527116381464408,
        0.2677298619637238,
        0.3821699000093532,
        0.0,
        -0.016326064846819092,
        -0.09516919131158379,
        -0.08784244108899567,
        0.04167116840945568,
        0.29382431789187197,
        0.2290224078093784,
        0.2198026207026224,
        -0.03864654705206607,
        0.5497155423348294,
        0.0
      ]
    ],
    [
      [
        -0.1593944086197382,
        -0.4482541085559393,
        0.24347756501717321,
        0.36417095215850404
      ]
    ]
  ]
}