{
  "layer_sizes": [
    32,
    16,
    4
  ],
  "learning_rate": 0.3,
  "seed": 42,
  "output_activation": "softmax",
  "weights": [
    [
      [
        0.05129047627586773,
        -0.2672448221131665,
        -0.16043368989646142,
        1.0146136989806476,
        -0.6434671630751203,
        -0.3255448767155795,
        0.03196010079182134,
        -0.5338392984908479,
        -0.025539065009455974,
        -0.3355709412635675,
        0.29925187480375853,
        0.46434791699747135,
        0.01650767439030401,
        0.9302810452180182,
        0.2907275013684239,
        -0.21482311572080956
      ],
      [
        0.09218769602062471,
        -0.23972065020724972,
        0.18050142180098602,
        -0.08311646471534799,
        -0.2342956707672494,
        -0.17023238610098534,
        0.30563533466850756,
        0.18329299390252288,
        -0.18735256969998634,
        0.006496705121364422,
        -0.03223879901984964,
        0.26495260296086015,
        0.1031831528989971,
        -0.028774345454515828,
        0.630663404247974,
        -0.1016037540961539
      ],
      [
        -0.12806068226788433,
        -0.20344318206196943,
        0.12270593282320824,
        0.22573508360519517,
        -0.17895092831846618,
        -0.210039119240632,
        -0.2061203039228099,
        0.3401884884919539,
        0.12159705147349294,
        0.2114126412710362,
        -0.29863030314872296,
        0.1969136002625524,
        0.029171452285182056,
        -0.05451152778293595,
        0.2940583977113342,
        0.05589888719367057
      ],
      [
        0.1657568421190381,
        0.03208397846563683,
        0.08525167099988173,
        0.25687438275465624,
        -0.3180579558792052,
        -0.07991780408932533,
        -0.1213361590365723,
        -0.20678453284557044,
        -0.012911885861931215,
        0.3722169625187819,
        -0.1584424812042646,
        0.23860468019955605,
        -0.4207174429039512,
        0.017250004905903144,
        0.04828392551725556,
        0.14213227323472927
      ],
      [
        0.17455964369094648,
        0.21075498414587085,
        -0.08065791862723685,
        -0.0419782342800207,
        0.2326612437513413,
        -0.04782608122040372,
        -0.3219817248865435,
        -0.2986386105009491,
        -0.19256038674958348,
        0.13291476768064941,
        0.06578398204698167,
        0.18790600709457164,
        -0.10681316158413356,
        0.10794140293739418,
        0.17254878487918937,
        -0.08095298037073793
      ],
      [
        0.11094680813208559,
        -0.15306330992077327,
        -0.0842401122063954,
        -0.02182475961346114,
        -0.28079263796020726,
        0.12174312019639545,
        -0.12041072910274399,
        -0.012193277318156833,
        0.15748934947729656,
        0.12025737567469447,
        0.1965238252725369,
        -0.009336702549726312,
        -0.10582457801103844,
        0.04837692744161586,
        -0.4056824221021521,
        -0.3653944635464502
      ],
      [
        -0.3306749030886006,
        -0.24931170690037044,
        0.053010172449860615,
        -0.3111317482025568,
        -0.32023673436696853,
        0.32480707444651635,
        -0.08906599276535648,
        0.4506893294204397,
        -0.32972915699352057,
        0.06207672182519867,
        -0.4358848282174696,
        0.12355163526866805,
        0.21007703436434888,
        -0.5956056212458708,
        0.22290771572289428,
        0.05943390058306947
      ],
      [
        -0.1485374889241986,
        -0.36151446359711364,
        -0.013256545892198306,
        -0.18888116684097842,
        -0.09229501106607138,
        0.00546303638086072,
        0.40044472283022886,
        0.11770138466752271,
        -0.32009086448283386,
        0.12044298293381644,
        -0.07725370533360813,
        0.4786701633059815,
        0.20877781147864463,
        -0.01996591217781187,
        0.44202692602917726,
        -0.2971907635807127
      ],
      [
        -0.15993788318743693,
        -0.23164398535138123,
        -0.14438583501994054,
        -0.4289335212516189,
        -0.06690835915351995,
        -0.055555674274693344,
        -0.36770157362566447,
        0.012415667001782772,
        -0.017946275128502616,
        0.32296775326570176,
        0.30080340843312237,
        0.9367755207456412,
        0.1036023583189991,
        -0.41116004545574986,
        -0.4187097653463977,
        0.06692786558595895
      ],
      [
        -0.2032352738275815,
        -0.10383931504492133,
        -0.1843131225856177,
        -0.09170571117912413,
        0.11603099379216346,
        0.039262141861336156,
        -0.039658709259672076,
        -0.08137314667067405,
        -0.48288722750345686,
        -0.045952903073595286,
        -0.14569851403112963,
        0.5808557478908432,
        0.03256863036822146,
        0.1365012007905751,
        -0.048622696410501466,
        -0.29623594160425615
      ],
      [
        -0.24127919055809297,
        -0.00239102493953973,
        1.187875547372177,
        -0.04902601640119696,
        0.12963782319886302,
        -0.2257317945217566,
        0.2094367504778883,
        0.34435174543990177,
        0.14810819984885606,
        -0.04700022298442295,
        -0.3129549020051161,
        -0.011456174078742005,
        -0.113745870085195,
        -0.30640144094181204,
        -0.4410471484796616,
        0.04314697943052987
      ],
      [
        0.3947728141026087,
        0.03999790339335956,
        -0.07659296575846916,
        -0.013305449461905976,
        0.10080433956958525,
        0.054845625340964085,
        -0.10273180770843429,
        0.5428826148186401,
        0.01086437262435195,
        0.4973751092911044,
        -0.15257070518434762,
        -0.09780735368631645,
        -0.34203979981141625,
        0.2489564676100286,
        0.5452182350322544,
        -0.04487980332065016
      ],
      [
        -0.09579683028399694,
        0.36536107306055055,
        -0.3236948047418705,
        -0.3084437391014982,
        -0.06486439718485995,
        -0.0986512807148974,
        -0.001280466680017824,
        0.22544971267254,
        -0.011931099791318034,
        0.4653065766205356,
        -0.17573308776438776,
        0.36929460256302304,
        -0.5125430252577556,
        -0.1759551159303133,
        -0.09650576273678785,
        -0.304703265105907
      ],
      [
        -0.2195380917321877,
        -0.16001021852809358,
        0.0025554692456498922,
        -0.6466529131640785,
        0.533069891543627,
        -0.12104235833339462,
        -0.08191827359049021,
        0.16240799009726478,
        0.31874760819642806,
        0.4839538271473386,
        0.39479787597103955,
        -0.3426251561642015,
        -0.05596470422012488,
        0.04491743080017401,
        0.03945620061492927,
        -0.2988168950632507
      ],
      [
        0.022622445406968554,
        -0.019422275818164227,
        0.4029483430401266,
        0.15415641909123012,
        0.3121011807553177,
        -0.07184584038729402,
        -0.3658605004592508,
        -0.23595821971975786,
        0.2631199998430317,
        0.45106770550871106,
        0.25115333634761255,
        -0.3321761132634749,
        -0.5368222574346637,
        -0.05637324715385831,
        -0.2702907419633892,
        -0.16007973384642749
      ],
      [
        -0.2289561983136989,
        -0.02622121441178124,
        -0.529853556265296,
        -0.2955966930162693,
        0.9002545811277457,
        -0.32185564531850774,
        -0.283376826769849,
        0.32088508506611857,
        0.9510632465380475,
        -0.20868007164126398,
        0.2591567014104475,
        0.007004888224615152,
        0.4321744111013981,
        -0.021502985689417855,
        -0.035194320396430556,
        0.16901997593068763
      ],
      [
        0.10869151861665466,
        -0.1543362223844745,
        -0.21813513749970237,
        -0.6032546099325982,
        0.32504053519959036,
        -0.06659687250223878,
        0.05804247240656399,
        -0.17344022541740195,
        0.25046755342430044,
        0.38603442535545673,
        0.35450660338656714,
        -0.0176458990777112,
        0.013288836894466841,
        -0.033882713507949726,
        -0.1690654266395378,
        0.05726889599366239
      ],
      [
        -0.024321649603372367,
        0.7022075684270472,
        1.0490968398821965,
        0.252782291544025,
        -0.2707487801589147,
        -0.2781028679958545,
        0.27432923553154354,
        0.3138013102002206,
        0.30730352511128145,
        -0.4729560881941124,
        0.0826016422417767,
        -0.009369139895671407,
        -0.2776076711036195,
        -0.11788120186248724,
        -0.0556334538106268,
        0.013116699589060907
      ],
      [
        -0.07304279645088875,
        0.15304342417790834,
        0.5927637697116642,
        0.19446128143051686,
        0.2878885155130666,
        -0.6416646102328244,
        -0.0826690688680938,
        0.2922421092565477,
        0.26126617168515365,
        -0.1297882367808869,
        -0.5884384237674143,
        -0.040975353520734704,
        0.43183755354104625,
        -0.3834653512290344,
        0.09439424852479039,
        -0.08213130578072347
      ],
      [
        -0.01930263510614744,
        -0.24803541658257314,
        -0.07064222176158347,
        0.4240634749697606,
        0.19189480958163832,
        0.433077901352486,
        0.29060997678105,
        0.06270659894765912,
        0.49185730848668785,
        0.10822992439475752,
        0.26501234191831097,
        -0.07760764683199123,
        0.016636453964801207,
        -0.07338469342272233,
        0.2549916428897173,
        -0.29899921538380664
      ],
      [
        0.1916160369554797,
        -0.03247355328287591,
        0.30578359469421557,
        0.2867695734778361,
        0.5013925384964121,
        0.1826936727846612,
        -0.3967530593766836,
        -0.06380336400928514,
        -0.2371281212039641,
        -0.13108832588138591,
        0.43582240603822664,
        0.15591854427610985,
        -0.17473260714468658,
        -0.1524580792077529,
        0.015791182460069355,
        -0.3085633469503722
      ],
      [
        -0.1717566179980809,
        0.09319157898122496,
        0.3017998303540598,
        0.25124269435113106,
        -0.526591378064813,
        0.07609168225756495,
        0.014265397844771061,
        0.05640750055843834,
        0.45992609735754164,
        -0.5173279344910028,
        -0.08976055857873025,
        0.1442616722500245,
        -0.3953985998634856,
        0.4699585244157242,
        0.09968481241616875,
        0.20722268685576073
      ],
      [
        -0.14670746402938425,
        0.21863013358496652,
        0.2800897103246453,
        0.15727183132931313,
        0.10483122225938542,
        0.06758580982043147,
        -0.21957931164821884,
        -0.08394724084482318,
        0.017743043831650054,
        0.0943301007985566,
        0.30797135944661985,
        -0.26809892894291626,
        -0.03125225757989441,
        0.4713351493170903,
        -0.1783013979621368,
        -0.20998581392767035
      ],
      [
        0.050576547957798396,
        0.21109629762133003,
        -0.036254639635667274,
        0.26160516064046246,
        0.026118415760697504,
        0.21045501672251546,
        0.13852912533102332,
        0.8038386395062447,
        -0.13156103637572056,
        -0.4063504802732066,
        0.23574749497109837,
        0.05916672913063409,
        0.02697011108575826,
        0.19090807500864515,
        -0.3053133812343732,
        -0.31291180352653486
      ],
      [
        -0.4003194842797134,
        -0.19853407250635596,
        0.07079799797841628,
        0.060411973734407994,
        -0.11901153504879575,
        -0.3531914709730916,
        -0.577525859158161,
        0.23551376076731906,
        -0.1982146225687935,
        0.2093765356725747,
        0.010172311147130682,
        0.20815194488451108,
        0.19003327134396344,
        -0.0791767526777194,
        0.2277676804307249,
        -0.1761683157174706
      ],
      [
        -0.048149854715131925,
        0.061612199510128904,
        0.21165546828922724,
        -0.02482557917002191,
        0.148459087370081,
        -0.06645969797884475,
        -0.03244568588409561,
        0.19206295350593958,
        -0.46096240801271965,
        -0.3154935003514818,
        -0.34036880133136466,
        -0.568119361384447,
        -0.16956611003879418,
        0.25566495510015086,
        -0.05506983020828838,
        0.045831175044784685
      ],
      [
        0.2683328255287626,
        0.3471107441603371,
        -0.004312662354149185,
        0.4374487986873703,
        0.06926266369323876,
        -0.20934955595686552,
        -0.15234308351305723,
        -0.4171991989259891,
        -0.16615978648867333,
        -0.09102253730842445,
        0.2589115525636966,
        0.426727549343182,
        -0.34554537884426,
        0.1991781294673266,
        -0.2525403255483796,
        0.11425096251071024
      ],
      [
        -0.03674321132086726,
        -0.4425372453684684,
        0.24504606921950672,
        -0.052197851907161676,
        -0.08724406050867718,
        -0.2674381028224225,
        -0.1673138146352623,
        0.059907539388994374,
        0.00856259171063837,
        0.0806471352808031,
        0.14849576120125713,
        0.3267005054337278,
        -0.08569653771609483,
        -0.26824319180908596,
        0.2744012633839998,
        -0.08729535262940392
      ],
      [
        0.27467656249540867,
        0.1110334893890316,
        -0.019812561223450518,
        0.18624629980659482,
        0.5339841391162867,
        0.5192451322634383,
        0.013602288319821257,
        -0.007017422455466112,
        0.3249337163113362,
        -0.212933623481654,
        0.14128289087360996,
        -0.009930620436778196,
        0.0784770528643884,
        -0.10737093908500456,
        -0.3897962140862382,
        -0.5226691686029132
      ],
      [
        -0.27934602824740196,
        -0.17496602581178292,
        -0.2641444295679616,
        0.21363924575756954,
        0.6314254146121642,
        -0.2405227790854068,
        0.08692711311273923,
        -0.10138427852599663,
        0.04883470843769342,
        0.1940926054350351,
        0.4443746290210427,
        -0.1630273019519187,
        0.2659628831835896,
        -0.34090878457060536,
        0.027928323306399508,
        0.6275637622242936
      ],
      [
        0.0492759331417842,
        0.3831399773433223,
        0.04000870789529259,
        0.29978575489429876,
        0.04176834588892013,
        -0.04260189529105111,
        -0.20099088728548095,
        0.05377975342173423,
        -0.1299012205060242,
        0.17377952762985802,
        0.3489306064936723,
        0.10408473069140932,
        -0.07156218338892296,
        0.2643484981776465,
        -0.05480712836217152,
        0.22665409048493065
      ],
      [
        -0.46109852231104825,
        -0.07148366668377201,
        -0.49117964934612696,
        -0.30015549367068023,
        0.35913283089053,
        0.2237962454929215,
        -0.1829302023732606,
        -0.39094267101030317,
        -0.7038295247095929,
        -0.1272492953159502,
        0.6352813010911909,
        0.12400573644354144,
        -0.13989307151237237,
        0.18457653254329223,
        -0.37408840186125536,
        -0.07794718611508719
      ]
    ],
    [
      [
        0.04636456428701108,
        -0.03470687748291724,
        0.27583350392985223,
        0.11868090366778387
      ],
      [
        0.11984465664783649,
        -0.36906132615894116,
        0.7380099933909833,
        0.39746111413634444
      ],
      [
        -0.6363458110100763,
        -0.4863486819936442,
        1.3852291256495028,
        -0.5147613276520451
      ],
      [
        1.2427100821915449,
        -0.5392116105854036,
        0.5021740413237776,
        -0.3048831480707604
      ],
      [
        -0.3756061156387465,
        1.1839158299947332,
        -0.07341253400509208,
        -0.5510302293259017
      ],
      [
        -0.15859139664721128,
        0.15992420193033224,
        -0.5535794288215994,
        0.22537999903685876
      ],
      [
        -0.19148722855386258,
        0.40465616230588264,
        -0.8432596945908531,
        -0.2791724527642398
      ],
      [
        -1.1486990333221834,
        -0.5129537754925854,
        0.2333787776184257,
        0.5640982069179633
      ],
      [
        -0.1043631091584088,
        0.4522595669775606,
        0.19018633004289456,
        -0.9686083725579965
      ],
      [
        -0.20290668220475236,
        0.6258620345301514,
        -0.29190820848255666,
        0.6860454980258371
      ],
      [
        0.46490919720024354,
        0.9619706995789016,
        -0.5464888357621451,
        -0.1954471580248081
      ],
      [
        -0.05366881018583468,
        -1.0606158571979265,
        -0.6443299069921637,
        0.3730178526223506
      ],
      [
        -0.02498928858151643,
        0.11819117613918109,
        0.018081448203036535,
        -0.2706575929540375
      ],
      [
        1.0045978428139268,
        0.02382273682966155,
        -0.2944153642300972,
        -0.44160497041570085
      ],
      [
        0.1965903901297641,
        -0.1310810490131043,
        -0.6875262363475175,
        0.34634919276052617
      ],
      [
        0.08856861197422797,
        -0.3055001482983017,
        0.06209288204923579,
        -0.5178454853260552
      ]
    ]
  ],
  "biases": [
    [
      [
        -0.030411657816586897,
        0.1647955916168713,
        0.19550551239334146,
        0.34957759176756054,
        0.14441016410298427,
        0.0,
        -0.043839467039525466,
        0.4541537685277991,
        0.4464451946925582,
        0.40783052225940664,
        0.18394536471034673,
        0.3178486844412461,
        0.0,
        0.3093948169790516,
        0.2894164970914899,
        -0.058258090033034365
      ]
    ],
    [
      [
        0.03662234650895002,
        -0.16789942803143823,
        -0.2274034645480318,
        0.35868054607051997
      ]
    ]
  ]
}