{
  "layer_sizes": [
    32,
    16,
    4
  ],
  "learning_rate": 0.3,
  "seed": 42,
  "output_activation": "softmax",
  "weights": [
    [
      [
        0.07523209983108006,
        -0.26518431440083934,
        0.18078729517735284,
        0.3016617310365195,
        -0.4252610047163665,
        -0.29648040393375596,
        0.03196010079182134,
        -0.09693262191576946,
        -0.0034521212152445976,
        -0.24897112128288112,
        0.2569207934974755,
        0.18144176359766195,
        0.03808733563970606,
        0.33657660266853806,
        0.15611266146588504,
        -0.12232884608382251
      ],
      [
        0.09124052591309693,
        -0.24490893804796515,
        0.21278707155255666,
        0.05403907419215285,
        0.016282201560777306,
        -0.1411679133191618,
        0.30563533466850756,
        -0.056504344347074444,
        -0.1063337873799492,
        -0.12374352701154348,
        0.1701485961701054,
        0.0783547958314445,
        0.12476281414839915,
        0.1624715516785007,
        0.5746472261204887,
        -0.00910948445916677
      ],
      [
        -0.12806068226788433,
        -0.20344318206196943,
        0.28443396967307505,
        0.16103791745364934,
        -0.08612621270814264,
        -0.1621301120979015,
        -0.2061203039228099,
        0.17324050557200457,
        0.1355340358492354,
        0.42611136149535866,
        -0.20808349949262592,
        0.11538401621016701,
        0.029171452285182056,
        -0.017246891506926158,
        0.2057576045881297,
        -0.06039674418351961
      ],
      [
        0.16972839076797372,
        0.016894767372222865,
        0.2027189637016972,
        0.03661690073306144,
        -0.4219283032583406,
        -0.03200879694659479,
        -0.11759316357319888,
        -0.14912715344500618,
        -0.11906506975829612,
        0.6640581222276594,
        -0.25816385159376315,
        0.2994132740913574,
        -0.4207174429039512,
        -0.15564029818562308,
        0.028588676377333616,
        0.030259951462629345
      ],
      [
        0.1768594748406859,
        0.19314852095926588,
        -0.09400677183637088,
        -0.04906739622742574,
        0.276991762761381,
        -0.018761608438580206,
        -0.31892158083448047,
        -0.30119377733074404,
        -0.22911490333957524,
        0.0885800466239549,
        0.07267773379940963,
        0.15961511825736693,
        -0.08523350033473151,
        0.09440122369570855,
        0.19563292439470778,
        0.01515763470692748
      ],
      [
        0.11341943576288029,
        -0.1697232505403634,
        -0.04529235255625463,
        -0.08848697229611324,
        -0.2704228231915229,
        0.16425591170414067,
        -0.11735058505068097,
        -0.007342350451534117,
        0.1011198918162089,
        0.19606427362929246,
        0.18033152476929057,
        -0.012811572977358505,
        -0.08818179092671315,
        -0.003302267353611546,
        -0.39449170962374447,
        -0.3316739056438171
      ],
      [
        -0.3316220731961282,
        -0.2544999947410859,
        0.09311805290659766,
        -0.15984921190129914,
        -0.03204284606275494,
        0.3538715472283399,
        -0.08906599276535648,
        0.1665069182868977,
        -0.23265625184164165,
        -0.08706952885639359,
        -0.2004342139458771,
        -0.0977644892347157,
        0.2316566956137509,
        -0.37706380487155733,
        0.14784123678933797,
        0.15192817022005647
      ],
      [
        -0.14948465903172645,
        -0.3667027514378291,
        0.011206873154205875,
        -0.06585262532723457,
        0.12066684528576846,
        0.03452750916268425,
        0.40044472283022886,
        -0.07771088069812998,
        -0.2551262049946386,
        0.00910876934959293,
        0.09207047077470963,
        0.3267906735505341,
        0.23035747272804666,
        0.14398406571390734,
        0.405061048707764,
        -0.2046964939437258
      ],
      [
        -0.15993788318743693,
        -0.23164398535138123,
        0.0003768847329589087,
        -0.43507540368400743,
        0.1155582254827832,
        -0.01962391891764543,
        -0.36770157362566447,
        -0.24595053884001344,
        0.04066883164882993,
        0.42727373778789013,
        0.4679031684201074,
        0.771473380584448,
        0.1036023583189991,
        -0.30132381052485063,
        -0.5420862626070153,
        -0.020293857946933686
      ],
      [
        -0.20418244393510934,
        -0.10902760288563679,
        -0.1598497035392135,
        0.03132283033461976,
        0.3289928501440035,
        0.06832661464315967,
        -0.039658709259672076,
        -0.2767854120363268,
        -0.4179225680152616,
        -0.1572871166578189,
        0.02362566207718821,
        0.4289762581353957,
        0.054148291617623516,
        0.3004511786822942,
        -0.08558857373191445,
        -0.20374167196726922
      ],
      [
        -0.2422263606656208,
        -0.18649480397465373,
        0.5252919293345296,
        -0.13882611786738047,
        0.2721200933811787,
        -0.19666732173993304,
        0.23289325321856102,
        0.07836576769659188,
        -0.038411306253695,
        -0.045900770923344617,
        -0.1266256240755794,
        0.09851183011094505,
        -0.09216620883579295,
        -0.2516351400152822,
        -0.2802490676770313,
        0.13564124906751693
      ],
      [
        0.40952081920375966,
        0.05127623563266277,
        -0.4933216858559113,
        0.4048242890538489,
        0.2669421649177434,
        -0.1931258735836411,
        -0.10273180770843429,
        0.17024884583587174,
        0.10718910961540337,
        0.5171449205492944,
        -0.23798893682738448,
        -0.35226237160719603,
        -0.34203979981141625,
        1.1701241279917793,
        1.1724788862669835,
        -0.003224407308270876
      ],
      [
        -0.09769117049905254,
        0.3549844973791197,
        -0.29041242805939493,
        -0.09064065086152444,
        0.2858272835664461,
        -0.04052233515125035,
        -0.001280466680017824,
        -0.07660467229087595,
        0.0858899735213886,
        0.28045018654945697,
        0.09678882628897303,
        0.1349722578000643,
        -0.4693837027589515,
        0.09735300137053042,
        -0.13233691576747064,
        -0.11971472583193266
      ],
      [
        -0.2195380917321877,
        -0.08353086017520302,
        0.4246343066328051,
        -0.5134059130247514,
        -0.07880114929303145,
        -0.04917884761929879,
        -0.08191827359049021,
        0.26657791924989493,
        0.059109598823543726,
        0.769833718489276,
        -0.10118552881815358,
        -0.08797012475244513,
        -0.05596470422012488,
        -0.047254363215963685,
        0.02599395476505112,
        -0.4455404651241268
      ],
      [
        0.022622445406968554,
        0.057057082534726286,
        0.7924174019199817,
        0.31770470816220053,
        -0.28536002300773483,
        -0.01195958145888084,
        -0.3658605004592508,
        -0.13443636772108503,
        0.016051867208053638,
        0.6643668982458836,
        -0.23440355027396753,
        -0.0918570032125903,
        -0.5368222574346637,
        -0.13056528099770115,
        -0.28072809033853796,
        -0.2777293960630062
      ],
      [
        -0.2199895681683698,
        -0.02780740383683985,
        -0.4279952591964043,
        -0.3281888709556322,
        0.5758881677487673,
        -0.2918433075117191,
        -0.2741963946136599,
        0.4459987489213935,
        0.7203189856702729,
        -0.284211416577143,
        -0.06719501223617941,
        0.08223652891967191,
        0.4498171981857234,
        -0.21132181476032386,
        -0.03082052864322284,
        0.254782548929028
      ],
      [
        0.10774434850912688,
        -0.09922730564824027,
        -0.040281244903271785,
        -0.2772034001537794,
        0.0029543564534261517,
        -0.037532399720415256,
        0.05804247240656399,
        -0.15670377853462794,
        0.11863279879711236,
        0.217468815065471,
        0.07592863169888484,
        0.07493288184022578,
        0.034868498143868894,
        0.054787399199383496,
        -0.14115418248283826,
        0.171617835055314
      ],
      [
        -0.025268819710900163,
        0.5181037893919332,
        0.3865132218445491,
        0.1629821900778413,
        -0.12826650997659947,
        -0.24903839521403096,
        0.29778573827221627,
        0.04781533245691072,
        0.12078401900873031,
        -0.4718566361330343,
        0.26893092017131354,
        0.10059886429401566,
        -0.2560280098542174,
        -0.06311490093595724,
        0.10516462699200346,
        0.10561096922604805
      ],
      [
        -0.07398996655841653,
        -0.03106035485720566,
        -0.06981984832598288,
        0.10466117996433319,
        0.43037078569538184,
        -0.6126001374510011,
        -0.05921256612742106,
        0.026256131513237836,
        0.07474666558260248,
        -0.12868878471980855,
        -0.40210914583787716,
        0.06899265066895233,
        0.45341721479044833,
        -0.32869905030250457,
        0.25519232932742064,
        0.010362963856263613
      ],
      [
        -0.01627825656473962,
        -0.2684129155167027,
        -0.09043954686323065,
        0.39153170061345566,
        0.20816160294401917,
        0.4621423741343096,
        0.2943529722444234,
        0.09189969590252015,
        0.43673179970277565,
        0.0740381502950886,
        0.24406834398103297,
        -0.08714895864325217,
        0.038216115214203254,
        -0.1195896548985392,
        0.28663130955158683,
        -0.20208163614172947
      ],
      [
        0.1946404154968875,
        -0.052851052217005305,
        0.28598626959256834,
        0.25423779912153094,
        0.517659331858793,
        0.21175814556648476,
        -0.39301006391331017,
        -0.03461026705442411,
        -0.29225362998787635,
        -0.16528009998105478,
        0.4148784081009489,
        0.14637723246484888,
        -0.15315294589528455,
        -0.19866304068356977,
        0.047430849121938734,
        -0.21164576770829496
      ],
      [
        -0.16873223945667312,
        0.07281408004709551,
        0.28200250525241255,
        0.218710919994826,
        -0.5103245847024328,
        0.1051561550393885,
        0.01800839330814448,
        0.08560059751329936,
        0.40480058857362944,
        -0.5515197085906721,
        -0.1107045565160081,
        0.13472036043876354,
        -0.3738189386140835,
        0.42375356293990707,
        0.1313244790780382,
        0.3041402660978382
      ],
      [
        -0.14368308548797648,
        0.1982526346508372,
        0.2602923852229981,
        0.12474005697300813,
        0.12109801562176645,
        0.09665028260225501,
        -0.21583631618484542,
        -0.05475414388996214,
        -0.0373824649522621,
        0.06013832669888767,
        0.2870273615093421,
        -0.27764024075417737,
        -0.00967259633049238,
        0.42513018784127315,
        -0.14666173130026744,
        -0.11306823468559297
      ],
      [
        0.04962937785027059,
        0.2059080097806146,
        -0.003968989884096666,
        0.39876069954796334,
        0.2766962880887242,
        0.23951948950433902,
        0.13852912533102332,
        0.5640413012566472,
        -0.050542254055683446,
        -0.536590712406115,
        0.4381348901610537,
        -0.12743107799878153,
        0.048549772335160314,
        0.3821539721416616,
        -0.3613295593618578,
        -0.22041753388954788
      ],
      [
        -0.401266654387241,
        -0.2037223603470714,
        0.1030836477299869,
        0.1975675126419088,
        0.13156633727923095,
        -0.32412699819126806,
        -0.577525859158161,
        -0.00428357748227834,
        -0.11719584024875633,
        0.07913630353966686,
        0.21255970633708574,
        0.0215541377550954,
        0.21161293259336547,
        0.1120691444552971,
        0.17175150230324027,
        -0.08367404608048348
      ],
      [
        -0.045850023565392445,
        0.04400573632352387,
        0.19830661508009323,
        -0.03191474111742693,
        0.19278960638012058,
        -0.03739522519702123,
        -0.02938554183203259,
        0.18950778667614432,
        -0.49751692460271135,
        -0.3598282214081764,
        -0.3334750495789367,
        -0.5964102502216517,
        -0.14798644878939216,
        0.2421247758584651,
        -0.031985690692770144,
        0.14194179012245003
      ],
      [
        0.27135720407017055,
        0.32673324522620745,
        -0.024109987455796383,
        0.40491702433106536,
        0.08552945705561973,
        -0.18028508317504197,
        -0.1486000880496838,
        -0.38800610197112795,
        -0.2212852952725855,
        -0.1252143114080934,
        0.23796755462641864,
        0.4171862375319209,
        -0.3239657175948579,
        0.15297316799150973,
        -0.22090065888650998,
        0.2111685417527875
      ],
      [
        -0.03371883277945946,
        -0.46291474430259805,
        0.2252487441178596,
        -0.08472962626346675,
        -0.07097726714629615,
        -0.23837363004059886,
        -0.16357081917188887,
        0.0891006363438554,
        -0.04656291707327378,
        0.04645536118113415,
        0.12755176326397932,
        0.3171591936224667,
        -0.06411687646669277,
        -0.3144481532849031,
        0.3060409300458693,
        0.009622226612673418
      ],
      [
        0.2579644060295242,
        0.05205212413320198,
        -0.36269602898478226,
        -0.4830925779065822,
        1.1544520543310166,
        1.0566971591508676,
        0.017345283783194675,
        0.03437137775829137,
        0.27374863936268623,
        -0.2707619074118389,
        0.7676508620695894,
        0.0470145694171597,
        0.1055227273244325,
        -0.33129916821642397,
        -0.44319339135020797,
        -0.5609001911970493
      ],
      [
        -0.27934602824740196,
        -0.11466882123483325,
        0.6775019716431916,
        1.1380957837156118,
        0.0610171741429327,
        -0.347862855066861,
        0.08692711311273923,
        -0.10176955908758127,
        -0.07109095951002378,
        -0.2513151967228724,
        -0.01347552465807909,
        -0.17365681806943964,
        0.3741520462200316,
        -0.5767117612470212,
        -0.4482972932076663,
        1.2300579552922333
      ],
      [
        0.054822765548790967,
        0.35311533881082774,
        0.016054540769040542,
        0.21171482577116524,
        0.04830199384891959,
        -0.013537422509227584,
        -0.1948705991813549,
        0.0897033659095144,
        -0.2121361291356144,
        0.13068616968887117,
        0.308393050893246,
        0.0786266315497324,
        -0.049982522139520875,
        0.16825769575370403,
        -0.0379329379837296,
        0.32638105100327447
      ],
      [
        -0.4587986911613085,
        -0.08909012987037701,
        -0.5045285025552607,
        -0.3072446556180852,
        0.4034633499005699,
        0.25286071827474504,
        -0.1798700583211976,
        -0.3934978378400981,
        -0.7403840412995852,
        -0.17158401637264475,
        0.6421750528436189,
        0.09571484760633676,
        -0.1183134102629704,
        0.17103635330160655,
        -0.3510042623457372,
        0.01816342896257825
      ]
    ],
    [
      [
        0.14553932939720793,
        -0.08348146825022226,
        0.24787886133526957,
        0.09623537191947457
      ],
      [
        0.23620440155095682,
        -0.23982407057297603,
        0.3156731195564292,
        0.5742009874818133
      ],
      [
        -0.8187592571631958,
        -0.61567077809901,
        0.5968672620738226,
        0.5853360781821204
      ],
      [
        0.4740992402872965,
        -0.5894313110532828,
        1.2254840763322004,
        -0.209362640707056
      ],
      [
        0.13907499318919486,
        1.019780349485567,
        -0.048483141539373324,
        -0.9265052501103949
      ],
      [
        -0.4080041009434487,
        0.760197339118295,
        -0.7849549516186736,
        0.105895088942207
      ],
      [
        -0.19048442609815874,
        0.4058130579682384,
        -0.8464988487604472,
        -0.2780929967127053
      ],
      [
        -0.5541038571870766,
        -0.31047474593907415,
        0.07343376945751182,
        -0.07303099060974098
      ],
      [
        -0.10686642205933583,
        -0.070191446496025,
        0.04852779121652878,
        -0.30199550735711866
      ],
      [
        0.2787714396115642,
        -0.2794589788378734,
        -0.5082545588220225,
        1.3260347399170123
      ],
      [
        -0.040113933826741915,
        1.0737747047031652,
        0.12789330778367755,
        -0.4766101756679088
      ],
      [
        -0.527619904590368,
        -0.22915163945738565,
        -0.45375538663628945,
        -0.17506979106953133
      ],
      [
        -0.10892982511364156,
        0.0879305740053094,
        0.1699229772467033,
        -0.30829798333170727
      ],
      [
        1.2613513383787718,
        -0.13196135888774474,
        -0.36233753265518887,
        -0.47465220183804835
      ],
      [
        1.0430747913199772,
        -0.3565809227796994,
        -0.7508580057850526,
        -0.21130356522555702
      ],
      [
        -0.15858688991592695,
        -0.639071654926858,
        0.8438372032012492,
        -0.7188627979593576
      ]
    ]
  ],
  "biases": [
    [
      [
        -0.007672035192429641,
        -0.04202489773069175,
        0.27842376525982815,
        0.22872721235434867,
        0.3587671762919706,
        0.3579893437101236,
        0.0,
        -0.11766325814617243,
        -0.1225728841409445,
        0.45349931820299727,
        0.1935767652291259,
        0.041355916767687725,
        0.1747942837620276,
        0.25960986850600487,
        0.2868492811873319,
        0.45167347954510584
      ]
    ],
    [
      [
        -0.1280693761884755,
        -0.28074901030037286,
        -0.014153746211750725,
        0.4229721327005989
      ]
    ]
  ]
}