{
  "layer_sizes": [
    32,
    16,
    4
  ],
  "learning_rate": 0.3,
  "seed": 42,
  "output_activation": "softmax",
  "weights": [
    [
      [
        0.08043245792178827,
        -0.25217423168379366,
        0.185449090259506,
        0.2593285619116409,
        -0.5042648997071382,
        -0.29765528487734233,
        0.03196010079182134,
        -0.054953834604161686,
        -0.004200289376072199,
        -0.20149023192424662,
        0.2509132306613668,
        0.20647773331207353,
        0.01751319212096769,
        0.32352228644254466,
        0.1513657466260808,
        -0.21913757521283003
      ],
      [
        0.11475539993287716,
        -0.27226724563642113,
        0.001079354989952958,
        0.33615666180604753,
        -0.04621559088631514,
        -0.23989357035678702,
        0.30563533466850756,
        -0.19999762853508693,
        -0.1070819555407768,
        -0.00889612779031017,
        0.026981323209804956,
        0.17563472469531508,
        0.1031831528989971,
        0.39283372197408506,
        1.0204177115161814,
        -0.1016037540961539
      ],
      [
        -0.11955430630152351,
        -0.1877995923093091,
        0.14966743825965714,
        0.33598087045616093,
        -0.047430885288255974,
        -0.1542599355641576,
        -0.2061203039228099,
        0.205034838552402,
        0.18581354280086057,
        0.163605789709464,
        -0.08064830050474041,
        0.039932306394140554,
        0.03012969462784454,
        0.14789916724912863,
        0.29389911058501783,
        0.051584427701650115
      ],
      [
        0.19229609468022615,
        -0.01565182805694847,
        -0.1462533706643692,
        0.5064601960122459,
        -0.3642889549639166,
        -0.14957898834512692,
        -0.11759316357319888,
        -0.32108472007872196,
        -0.06878556280667093,
        0.4528725876403462,
        -0.3225537521018429,
        0.3263432972521658,
        -0.4207174429039512,
        0.2014072137256708,
        0.5256940775748178,
        0.14655558283981954
      ],
      [
        0.20037434886046618,
        0.16579021337080999,
        -0.30571448839897447,
        0.23305019138646918,
        0.21449397031428846,
        -0.11748726547620524,
        -0.31892158083448047,
        -0.44468706151875664,
        -0.22986307150040283,
        0.2034274458451882,
        -0.07048953916089093,
        0.25689504712123756,
        -0.10681316158413356,
        0.32476339399129295,
        0.6414034097904004,
        -0.0773366349300596
      ],
      [
        0.11419380938935286,
        -0.16933351958758852,
        -0.3109384139692294,
        -0.37920400439612445,
        -0.2989599113972599,
        0.49720997070896567,
        -0.11735058505068097,
        0.07637149224150729,
        0.12018666472647724,
        0.11163279400748602,
        0.7466044616954566,
        -0.276034449618561,
        -0.1061869515625282,
        0.10586305842017868,
        -0.4221249590487222,
        -0.3617781181057718
      ],
      [
        -0.3306749030886006,
        -0.25316374122129615,
        -0.12023139564710238,
        -0.5101392947365576,
        -0.09454063850984742,
        0.7002739249590862,
        -0.08906599276535648,
        0.25762685467635704,
        -0.23340442000246925,
        -0.051359389466907504,
        0.34275267072461507,
        -0.33617134746634564,
        0.2097146608128591,
        -0.30603749465130897,
        0.10831456032724959,
        0.05943390058306947
      ],
      [
        -0.1485374889241986,
        -0.36151446359711364,
        0.01803237692846738,
        -0.18375881647752124,
        -0.07662460226795975,
        0.00546303638086072,
        0.40044472283022886,
        -0.004007916598204562,
        -0.25587437315546624,
        0.0038512698778771937,
        -0.17113896801244183,
        0.7438230640690644,
        0.21886509995803646,
        -0.004709691724568312,
        0.29813185231468714,
        -0.33852955726873907
      ],
      [
        -0.15993788318743693,
        -0.23164398535138123,
        -0.09745245078894199,
        -0.3852800482583336,
        0.0509528126182925,
        -0.055555674274693344,
        -0.36770157362566447,
        -0.20922997808584426,
        0.07837846186254882,
        0.1767575308846338,
        0.3182722117186401,
        1.051686552708997,
        0.1116721891025127,
        -0.3225264952175225,
        -0.58716666657499,
        0.03385683063553785
      ],
      [
        -0.19898208584440122,
        -0.09601752016859116,
        -0.15518790845706032,
        -0.01101033879025876,
        0.24998895515323177,
        0.0671517336995734,
        -0.039658709259672076,
        -0.2348066247247189,
        -0.41867073617608924,
        -0.10980622729918434,
        0.017618099241079654,
        0.4540122278498072,
        0.033574148098885134,
        0.28739686245630086,
        -0.09033548857171862,
        -0.30055040109627656
      ],
      [
        -0.23702600257491271,
        -0.1734847212576081,
        0.5299537244166826,
        -0.18115928699225906,
        0.19311619839040717,
        -0.19784220268351926,
        0.23289325321856102,
        0.12034455500819963,
        -0.0391594744145226,
        0.0015801184352898909,
        -0.13263318691168788,
        0.12354779982535666,
        -0.1127403523545313,
        -0.2646894562412756,
        -0.2849959825168355,
        0.03883251993850942
      ],
      [
        0.40480648904270455,
        0.136351865255986,
        0.3924634114847046,
        0.23309666767161985,
        0.3078133942167482,
        -0.03718177549433582,
        -0.10273180770843429,
        0.5048073337574943,
        0.10718910961540337,
        0.42780056554856066,
        -0.009334485938566537,
        -0.3699888347020947,
        -0.34203979981141625,
        0.3966820246573328,
        0.26471635575753927,
        -0.04487980332065016
      ],
      [
        -0.085763155343901,
        0.4617150349231773,
        0.14536157250130316,
        -0.06204162196797241,
        0.14214465746230312,
        -0.19067868155019735,
        -0.001280466680017824,
        0.1873744316113939,
        0.08439363719973339,
        0.39573203287799186,
        -0.03249686851860669,
        0.09711312154724488,
        -0.5125430252577556,
        -0.028229558883008862,
        -0.37700764201150283,
        -0.304703265105907
      ],
      [
        -0.20950441679209172,
        0.01282310168742353,
        0.6510986286011782,
        -0.16995804666390685,
        -0.011029168061353616,
        -0.21306975916869456,
        -0.08191827359049021,
        0.47892461256867325,
        0.13452885925098151,
        0.3782110944102486,
        -0.09376951505651819,
        -0.23785722968964537,
        -0.05596470422012488,
        0.04457423941732603,
        -0.12205673482485727,
        -0.27109701805834163
      ],
      [
        0.0326561203470645,
        0.1534110443973527,
        1.0514915023956544,
        0.6308512855914017,
        -0.231997878849663,
        -0.16387324122259397,
        -0.3658605004592508,
        0.08055840275165047,
        0.07890125089758512,
        0.34532497277162105,
        -0.23741405467994514,
        -0.22740818678891875,
        -0.5368222574346637,
        -0.056716438536706285,
        -0.4318036774031758,
        -0.13235985684151844
      ],
      [
        -0.21921519454189706,
        -0.023565638563139247,
        -0.4394320978391578,
        -0.4181469505593182,
        0.39751812290043875,
        -0.32185564531850774,
        -0.2741963946136599,
        0.5150593723503802,
        0.7262667923101017,
        -0.33385929606753717,
        -0.31820037820239094,
        0.48941505799408236,
        0.44226169958079,
        -0.34064172611900506,
        -0.12901333197573076,
        0.1529956003274096
      ],
      [
        0.11294470659983509,
        -0.08621722293119465,
        -0.03561944982111866,
        -0.3195365692786579,
        -0.07604953853734538,
        -0.03870728066400151,
        0.05804247240656399,
        -0.11472499122302016,
        0.11788463063628475,
        0.2649497044241054,
        0.06992106886277626,
        0.09996885155463733,
        0.014294354625130517,
        0.04173308297338981,
        -0.14590109732264248,
        0.07480910592630655
      ],
      [
        -0.019119390149218197,
        0.5328592551953344,
        0.3906921992851356,
        0.13260603702710566,
        -0.19374622650871168,
        -0.2439898935901292,
        0.29778573827221627,
        0.08804616016415875,
        0.1200358508479027,
        -0.41651935718321625,
        0.29872323887971,
        0.0767422608456698,
        -0.27766549568958904,
        -0.05487092100471329,
        0.1167552028070715,
        0.013116699589060907
      ],
      [
        -0.07304279645088875,
        -0.025872067016490214,
        -0.06299434455172134,
        -0.0029678833436393316,
        0.26003806916298067,
        -0.6416646102328244,
        -0.05921256612742106,
        0.08879289755915294,
        0.07399849742177488,
        -0.12575275641928396,
        -0.620090956823952,
        0.40521980713569156,
        0.4399073843245599,
        -0.4586073164385909,
        0.16180190703238437,
        -0.11520234073114458
      ],
      [
        -0.010128827003057658,
        -0.2536574497133014,
        -0.08626056942264407,
        0.36115554756272,
        0.14268188641190696,
        0.46719087575821133,
        0.2943529722444234,
        0.13213052360976812,
        0.435983631541948,
        0.12937542924490655,
        0.27386066268942966,
        -0.11100556209159802,
        0.01657862937883167,
        -0.11134567496729525,
        0.29822188536665484,
        -0.2945759057787164
      ],
      [
        0.20078984505856945,
        -0.03809558641360401,
        0.2901652470331548,
        0.2238616460707954,
        0.4521796153266806,
        0.2168066471903865,
        -0.39301006391331017,
        0.005620560652823923,
        -0.293001798148704,
        -0.1099428210312367,
        0.4446707268093453,
        0.1225206290165032,
        -0.17479043173065612,
        -0.19041906075232579,
        0.05902142493700679,
        -0.30414003734528194
      ],
      [
        -0.16258280989499116,
        0.08756954585049675,
        0.28618148269299903,
        0.18833476694409038,
        -0.5758043012345448,
        0.1102046566632903,
        0.01800839330814448,
        0.1258314252205474,
        0.4040524204128018,
        -0.49618242964085374,
        -0.08091223780761143,
        0.11086375699041778,
        -0.3954564244494551,
        0.4319975428711512,
        0.1429150548931061,
        0.211645996460851
      ],
      [
        -0.13753365592629452,
        0.2130081004542385,
        0.26447136266358456,
        0.0943639039222725,
        0.05561829908965419,
        0.10169878422615682,
        -0.21583631618484542,
        -0.01452331618271409,
        -0.0381306331130897,
        0.11547560564870571,
        0.3168196802177385,
        -0.30149684420252343,
        -0.03131008216586395,
        0.4333741677725173,
        -0.1350711554851995,
        -0.20556250432258008
      ],
      [
        0.050576547957798396,
        0.20724426330040432,
        -0.21731843843779666,
        0.048470616712705,
        0.2141984956416317,
        0.5859218672350857,
        0.13852912533102332,
        0.6551612376461069,
        -0.05129042221651105,
        -0.5008805730166285,
        0.9813217748315451,
        -0.3658379362304114,
        0.02660773753426849,
        0.45318028236190994,
        -0.4008562358239461,
        -0.31291180352653486
      ],
      [
        -0.39511722482555917,
        -0.18896689454367008,
        0.10726262517057349,
        0.16719135959117318,
        0.06608662074711864,
        -0.3190784965673663,
        -0.577525859158161,
        0.035947250224969696,
        -0.11794400840958394,
        0.13447358248948474,
        0.24235202504548237,
        -0.002302465693250424,
        0.1899754467579939,
        0.12031312438654104,
        0.18334207811830822,
        -0.1761683157174706
      ],
      [
        -0.03486917851776868,
        0.14554798602686572,
        0.6272551118665296,
        0.06320483971484119,
        0.11160477272307018,
        -0.1584870988141447,
        -0.02938554183203259,
        0.4356149167485404,
        -0.498265092763539,
        -0.2802565144691276,
        -0.4256894446047483,
        -0.6472756067340454,
        -0.16956611003879418,
        0.17130851653145573,
        -0.23742109103392878,
        0.04944752048546303
      ],
      [
        0.2775066336318524,
        0.34148871102960876,
        -0.019931010015209794,
        0.3745408712803297,
        0.02004974052350751,
        -0.17523658155114025,
        -0.1486000880496838,
        -0.3477752742638799,
        -0.2220334634334131,
        -0.06987703245827535,
        0.26775987333481527,
        0.39332963408357485,
        -0.34560320343022954,
        0.16121714792275366,
        -0.20931008307144203,
        0.11867427211580049
      ],
      [
        -0.02756940321777746,
        -0.44815927849919673,
        0.2294277215584462,
        -0.11510577931420234,
        -0.13645698367840844,
        -0.23332512841669717,
        -0.16357081917188887,
        0.1293314640511034,
        -0.04731108523410138,
        0.1017926401309522,
        0.15734408197237573,
        0.29330259017412064,
        -0.08575436230206436,
        -0.30620417335365896,
        0.31763150586093736,
        -0.08287204302431367
      ],
      [
        0.28290129912752465,
        0.10366607317194777,
        -0.0349480912429446,
        0.11138135632541131,
        0.47124703748789576,
        0.5471347241016755,
        0.017345283783194675,
        0.0641544618110027,
        0.2690600393665964,
        -0.1996445082226884,
        0.11433133010022353,
        0.005564037466372352,
        0.07948257059505211,
        -0.1666302167868152,
        -0.3629034622641729,
        -0.5225603184898434
      ],
      [
        -0.27934602824740196,
        -0.11466882123483325,
        -0.07329789666219046,
        0.4431992792381228,
        0.16866341839151588,
        -0.2405227790854068,
        0.08692711311273923,
        -0.05710476687154009,
        -0.07109095951002378,
        0.013557301264884037,
        -0.02611773196045815,
        0.23840631523616032,
        0.27403271396710327,
        -0.36062652174515747,
        -0.052570330801595545,
        0.6163473966985369
      ],
      [
        0.05576993565631878,
        0.3583036266515432,
        0.022880044543302044,
        0.10408576246319269,
        -0.12203072268348146,
        -0.04260189529105111,
        -0.1948705991813549,
        0.1522401319554294,
        -0.21288429729644198,
        0.1336221979893958,
        0.09041123990717091,
        0.41485378801647166,
        -0.06349235260540936,
        0.0383494296176175,
        -0.1313233602787658,
        0.20081574641586622
      ],
      [
        -0.4578515210537809,
        -0.08390184202966156,
        -0.49770299878099944,
        -0.42515084676837184,
        0.20617190234684168,
        0.2237962454929215,
        -0.1798700583211976,
        -0.3197948737401725,
        -0.7411322094604128,
        -0.17684151584436056,
        0.37896561405646717,
        0.512747238124867,
        -0.12980578303298054,
        0.022342595863130907,
        -0.457933458738814,
        -0.11566963436243526
      ]
    ],
    [
      [
        0.2415753809231537,
        -0.09318286009195852,
        0.224656929260972,
        0.033122644309562646
      ],
      [
        0.15716048130673707,
        -0.3284282723150674,
        0.5810442438260394,
        0.47647798519851436
      ],
      [
        -0.48050264554090305,
        -0.5482757005333274,
        1.2065817473666323,
        -0.43003009629866573
      ],
      [
        0.9363808755118446,
        -0.34129623867746056,
        0.666310371663416,
        -0.3606056436386418
      ],
      [
        -0.004082736005031262,
        0.43090255585342563,
        -0.17411501286279535,
        -0.06883785596060571
      ],
      [
        -0.3427084986983915,
        0.914373078379225,
        -0.7707340589390366,
        -0.1277971452434166
      ],
      [
        -0.19048442609815874,
        0.4058130579682384,
        -0.8464988487604472,
        -0.2780929967127053
      ],
      [
        -1.1632740940319202,
        0.11720598208443522,
        0.4008304737504239,
        -0.2189381860813186
      ],
      [
        -0.08958249860185169,
        -0.05628035100757468,
        0.07190860207798161,
        -0.35657133716450595
      ],
      [
        0.3761449220288241,
        0.025779728243993685,
        0.4833811581210698,
        -0.06821316652520776
      ],
      [
        -0.1058375061403383,
        1.3862104592346762,
        -0.41557132172467537,
        -0.17985772837747002
      ],
      [
        -0.21208938919100476,
        -1.032569041210581,
        -1.0826809500359091,
        0.9417426586839208
      ],
      [
        -0.22208621720558222,
        -0.06086891473801668,
        -0.105016301203165,
        0.22859717595342752
      ],
      [
        0.6045610543060096,
        0.25532545543225493,
        0.15056998294996066,
        -0.7180562476904346
      ],
      [
        1.1347899374003276,
        -0.20384987434955634,
        -0.7755922548001872,
        -0.43101551072091543
      ],
      [
        0.08462303662950987,
        -0.3304505369604495,
        0.0610437675765158,
        -0.4879004068464693
      ]
    ]
  ],
  "biases": [
    [
      [
        0.06457098519684722,
        0.15632185626496017,
        0.17320887011839808,
        0.3710905590019443,
        -0.3629524045726313,
        0.3472941880083595,
        0.0,
        0.4992212419643927,
        0.0,
        0.14934470933421107,
        0.20477155645813455,
        0.5042027053607693,
        0.023260929611310377,
        0.4929583583027285,
        0.34285990644332465,
        -0.09804666422556783
      ]
    ],
    [
      [
        -0.1317179446845902,
        -0.10595437437487305,
        -0.11200031618619062,
        0.34967263524565373
      ]
    ]
  ]
}