{
  "layer_sizes": [
    32,
    16,
    4
  ],
  "learning_rate": 0.3,
  "seed": 42,
  "output_activation": "softmax",
  "weights": [
    [
      [
        0.14020793151286057,
        -0.28028192125656576,
        0.24626986034185633,
        0.3463543308898479,
        -0.4376188418586422,
        -0.33906538984026396,
        0.03196010079182134,
        -0.06822924865313137,
        0.029270619116456568,
        -0.19549035782986574,
        0.199621109886051,
        0.1744257072406364,
        0.01650767439030401,
        0.2818103017420082,
        0.1331389539276377,
        -0.21482311572080956
      ],
      [
        0.15621635759487748,
        -0.2600065449036916,
        0.27826963671706023,
        0.0987316740454812,
        0.0039243644185017355,
        -0.18375289922566973,
        0.30563533466850756,
        -0.02780097108443636,
        -0.07361104704824799,
        -0.0702627635585281,
        0.11284891255868106,
        0.07133873947441896,
        0.1031831528989971,
        0.10770525075197068,
        0.5516735185822415,
        -0.1016037540961539
      ],
      [
        -0.06403202069363163,
        -0.22372907675841128,
        0.21265191703411593,
        0.39345622497226734,
        0.021653090891098112,
        -0.2235596323653164,
        -0.2061203039228099,
        0.17347959638893948,
        0.2192844512933894,
        0.15355919113982802,
        -0.1866058106518297,
        0.03801805415007935,
        0.029171452285182056,
        0.05467214918225324,
        0.23411881285167377,
        0.05589888719367057
      ],
      [
        0.23375705234222646,
        -0.0033911273242189593,
        0.13093691106273805,
        0.2690352082516794,
        -0.3141489996590997,
        -0.09343831721400975,
        -0.11759316357319888,
        -0.14888806262807128,
        -0.03531465431414216,
        0.3915059518721284,
        -0.23668616275296694,
        0.22204731203126954,
        -0.4207174429039512,
        -0.08372125749644371,
        0.056949884640877704,
        0.14655558283981954
      ],
      [
        0.24183530652246651,
        0.17805091410353943,
        -0.02852420667186735,
        -0.004374796374097322,
        0.26463392561910537,
        -0.06134659434508813,
        -0.31892158083448047,
        -0.2724904040681061,
        -0.19639216300787402,
        0.1420608100769703,
        0.01537805018798521,
        0.1525990619003414,
        -0.10681316158413356,
        0.03963492276917856,
        0.1726592168564605,
        -0.0773366349300596
      ],
      [
        0.17822247096360563,
        -0.1857673799631047,
        -0.032106400251025895,
        0.015778678292462177,
        -0.24881995609244298,
        0.10822260707171105,
        -0.11735058505068097,
        0.013954929114686047,
        0.15365757321900606,
        0.12940341807101535,
        0.14611789341354042,
        -0.04464364774395649,
        -0.10582457801103844,
        -0.019929552726599763,
        -0.4055719901248811,
        -0.3617781181057718
      ],
      [
        -0.2666462415143478,
        -0.26959760159681245,
        0.15860061807110118,
        -0.11515661204797079,
        -0.04440068320503055,
        0.3112865613218319,
        -0.08906599276535648,
        0.19521029154953584,
        -0.19993351150994043,
        -0.03358876540337815,
        -0.2577338975573014,
        -0.10478054559174124,
        0.21007703436434888,
        -0.43183010579808717,
        0.12486752925109067,
        0.05943390058306947
      ],
      [
        -0.08450882734994587,
        -0.3818003582935555,
        0.0766894383187094,
        -0.021160025473906136,
        0.10830900814349283,
        -0.00805747674382369,
        0.40044472283022886,
        -0.049007507435491884,
        -0.2224034646629374,
        0.0625895328026084,
        0.03477078716328518,
        0.3197746171935085,
        0.20877781147864463,
        0.08921776478737733,
        0.3820873411695168,
        -0.2971907635807127
      ],
      [
        -0.09590922161318423,
        -0.25192988004782313,
        -0.038795389398699955,
        -0.2329583850970327,
        0.20892769200841801,
        -0.06907618739937775,
        -0.36770157362566447,
        -0.2430633708691213,
        0.11184937035507762,
        0.22730226603712456,
        0.4789543390932906,
        0.7084433398852318,
        0.1036023583189991,
        -0.24738453000796604,
        -0.5167499518182012,
        0.06692786558595895
      ],
      [
        -0.25097451925274683,
        0.2856320699805971,
        -0.1485748098164689,
        -0.08581363448981177,
        0.1270960494125592,
        0.039262141861336156,
        0.022275221990199674,
        -0.1692915971281085,
        -0.49734051023978704,
        -0.09026545350298126,
        -0.09589123693046793,
        0.4918532264726147,
        0.03256863036822146,
        0.22948601394894796,
        -0.03977913962874657,
        -0.29623594160425615
      ],
      [
        -0.17725052898384022,
        -0.20159241083038018,
        0.5907744944990331,
        -0.09413351801405218,
        0.2597622562389031,
        -0.239252307646441,
        0.23289325321856102,
        0.10706914095922997,
        -0.005688565921993825,
        0.00757999252967083,
        -0.18392530768700374,
        0.09149577375391951,
        -0.113745870085195,
        -0.30640144094181204,
        -0.30322277521527846,
        0.04314697943052987
      ],
      [
        0.4911639605343111,
        0.07457524898098201,
        0.06702635963585589,
        0.24450011825130102,
        0.3842377714166137,
        0.03273781451179811,
        -0.09195857616972794,
        0.30987239990810483,
        0.14823404748998847,
        0.41844284787226865,
        -0.001608627156133302,
        -0.33018142906029835,
        -0.34203979981141625,
        0.40991423667980953,
        0.4722996019152988,
        -0.04487980332065016
      ],
      [
        -0.0317681687097442,
        0.34507517836410867,
        -0.21810435912062995,
        -0.1124686029469122,
        0.21097165397707804,
        -0.11217179383958181,
        -0.001280466680017824,
        -0.030029325198363963,
        0.1178645456922622,
        0.3696410893919586,
        0.002417842895780283,
        0.1409624217026138,
        -0.5125430252577556,
        -0.012179600482529487,
        -0.19454594920859147,
        -0.304703265105907
      ],
      [
        -0.2991035007741299,
        0.5655881148673279,
        0.23639128550314187,
        -0.4159580342444168,
        -0.22467380732531517,
        -0.12104235833339462,
        0.021304945159296044,
        0.40005919145672497,
        0.0034125691448184314,
        0.3865353998029384,
        -0.17603575185562148,
        -0.09086773945493588,
        -0.05596470422012488,
        0.033626091473111325,
        0.18588460629016357,
        -0.27109701805834163
      ],
      [
        -0.10929089992873933,
        -0.09991712207863845,
        0.2219789434462632,
        0.6124384283840985,
        0.06727392223397824,
        -0.07184584038729402,
        -0.3658605004592508,
        -0.4762843175507769,
        0.29963388983650896,
        0.5301509225374367,
        -0.04541202065279566,
        -0.13967731980181966,
        -0.5368222574346637,
        -0.04066648013622692,
        0.14073130396264844,
        -0.13235985684151844
      ],
      [
        -0.35112853987760523,
        -0.18053984317650404,
        -0.8468216637763749,
        -0.22353403578406644,
        0.812896537880758,
        -0.32185564531850774,
        -0.2741963946136599,
        0.13062081802042336,
        0.9469994312490256,
        -0.06420413989095704,
        0.04479669958609884,
        0.10924817795025678,
        0.4321744111013981,
        -0.24671426960705936,
        0.34501544544201174,
        0.194334394015436
      ],
      [
        0.04503919138310082,
        0.42525616222649976,
        -0.027523221197699416,
        -0.4112118359401159,
        -0.2454087803728019,
        -0.06659687250223878,
        0.14062104740639297,
        -0.019336016600294666,
        0.012991598551354296,
        0.29492765280875904,
        -0.0710701337174006,
        0.15443343286999264,
        0.013288836894466841,
        -0.02157738680290171,
        -0.06699649504432313,
        0.079123565418327
      ],
      [
        -0.08797397683692619,
        1.0425872572666735,
        0.3992712455501213,
        0.02897375429150462,
        -0.3766296468028276,
        -0.2781028679958545,
        0.38036431327204523,
        0.185183094391244,
        0.015142818762972255,
        -0.39439779838974626,
        0.12193215475502812,
        0.1800994153237826,
        -0.2776076711036195,
        -0.1394796869382425,
        0.17932231443051852,
        0.013116699589060907
      ],
      [
        -0.028999276350909372,
        0.025290326724021244,
        -0.014264394594184054,
        0.12026017251547076,
        0.38461763034284346,
        -0.6527185156474073,
        -0.04843933458871475,
        0.06857294896968293,
        0.08767877441369755,
        -0.07300344505376961,
        -0.47005965283037826,
        0.07430422289732948,
        0.43183755354104625,
        -0.3862830976070373,
        0.24404523658414956,
        -0.08213130578072347
      ],
      [
        -0.14724443179291974,
        -0.420198832289352,
        -0.49100360902618606,
        0.4682384242384207,
        0.4262485703706099,
        0.433077901352486,
        0.2943529722444234,
        -0.21883589432751116,
        0.656716270480872,
        0.3384358069999531,
        0.34385598298237113,
        -0.05028344816854769,
        0.016636453964801207,
        -0.17435595582506921,
        0.6537308905762521,
        -0.2945759057787164
      ],
      [
        0.0903985088641655,
        -0.38062901297790014,
        0.3108736351842945,
        -0.45160210351089225,
        0.8647963255256441,
        0.1826936727846612,
        -0.39301006391331017,
        0.056669241231988146,
        -0.26334013756054575,
        -0.3998739993748692,
        1.263093404160738,
        0.24173124281600264,
        -0.17473260714468658,
        -0.2534293416100997,
        0.16364512959279087,
        -0.30414003734528194
      ],
      [
        -0.27297414608939513,
        -0.2549638807137994,
        0.3068898708441387,
        -0.48712898263759724,
        -0.16318759103558148,
        0.07609168225756495,
        0.01800839330814448,
        0.17688010579971164,
        0.43371408100096,
        -0.7861136079844869,
        0.7375104395437807,
        0.2300743707899173,
        -0.3953985998634856,
        0.3689872620133772,
        0.2475387595488902,
        0.211645996460851
      ],
      [
        -0.07870725380619593,
        0.18315502779511075,
        0.32577495038750176,
        0.1694326568263366,
        0.10874017847949081,
        0.05406529669574706,
        -0.21583631618484542,
        -0.026050770627324055,
        -0.004659724620560919,
        0.11361909015190307,
        0.2297276778979175,
        -0.28465629711120294,
        -0.03125225757989441,
        0.3703638869147433,
        -0.16963543883851473,
        -0.20556250432258008
      ],
      [
        0.1146052095320511,
        0.19081040292488818,
        0.061513575280406844,
        0.44345329940129175,
        0.2643384509464486,
        0.19693450359783105,
        0.13852912533102332,
        0.5927446745192855,
        -0.017819513723982276,
        -0.48310994895309906,
        0.3808352065496292,
        -0.13444713435580707,
        0.02697011108575826,
        0.32738767121513174,
        -0.38430326690010497,
        -0.31291180352653486
      ],
      [
        -0.3362908227054606,
        -0.2188199672027978,
        0.16856621289449042,
        0.24226011249523716,
        0.11920850013695526,
        -0.36671198409777606,
        -0.577525859158161,
        0.02441979578035975,
        -0.08447309991705514,
        0.13261706699268222,
        0.1552600227256614,
        0.014538081398069847,
        0.19003327134396344,
        0.057302843528767106,
        0.14877779476499298,
        -0.1761683157174706
      ],
      [
        0.01912580811638811,
        0.02890812946779749,
        0.2637891802445969,
        0.012777858735901421,
        0.1804317692378451,
        -0.07998021110352915,
        -0.02938554183203259,
        0.21821115993878246,
        -0.4647941842710104,
        -0.30634745795516083,
        -0.3907747331903612,
        -0.6034263065786768,
        -0.16956611003879418,
        0.1873584749319351,
        -0.05495939823101739,
        0.04944752048546303
      ],
      [
        0.33633303575195095,
        0.311635638370481,
        0.04137257770870713,
        0.44960962418439376,
        0.07317161991334414,
        -0.22287006908154994,
        -0.1486000880496838,
        -0.35930272870849,
        -0.18856255494088428,
        -0.07173354795507798,
        0.18066787101499426,
        0.41017018117489534,
        -0.34554537884426,
        0.09820686706497973,
        -0.24387436642475732,
        0.11867427211580049
      ],
      [
        0.0312569989023211,
        -0.47801235115832447,
        0.2907313092823632,
        -0.04003702641013835,
        -0.0833351042885718,
        -0.2809586159471069,
        -0.16357081917188887,
        0.11780400960649348,
        -0.013840176741572624,
        0.09993612463414957,
        0.07025207965255482,
        0.3101431372654411,
        -0.08569653771609483,
        -0.36921445421143295,
        0.2830672225076221,
        -0.08287204302431367
      ],
      [
        0.8472165478621239,
        0.16781905635104616,
        0.8515281110055882,
        0.6024759074943762,
        0.44608266599849483,
        0.43451514627552257,
        0.017345283783194675,
        0.5247225971080229,
        0.19884325977325884,
        -0.390111910177376,
        -0.2170873057599729,
        -0.16220325788030932,
        0.0784770528643884,
        -0.20834220148735144,
        -0.810868309545636,
        -0.5182458589978229
      ],
      [
        -0.21531736667314924,
        -0.13495471593127512,
        -0.014640835271948408,
        0.5955209423994237,
        0.32663829778164144,
        -0.2540432922100912,
        0.08692711311273923,
        -0.0909381596548171,
        -0.03762005101749501,
        0.06410203641737486,
        0.13456439541419218,
        -0.10483689758760446,
        0.2659628831835896,
        -0.285484556535601,
        0.017846383955193387,
        0.6494184316489581
      ],
      [
        0.11979859723057147,
        0.3380177319551013,
        0.08153710593354406,
        0.25640742562449353,
        0.035944156706644,
        -0.056122408415735514,
        -0.1948705991813549,
        0.11840673917215248,
        -0.17941338880391317,
        0.1841669331418866,
        0.25109336728182147,
        0.07161057519270686,
        -0.07156218338892296,
        0.11349139482717402,
        -0.06090664552197686,
        0.23388678136628732
      ],
      [
        -0.3938228594795281,
        -0.10418773672610342,
        -0.4390459373907573,
        -0.2625520557647568,
        0.39110551275829425,
        0.2102757323682371,
        -0.1798700583211976,
        -0.3647944645774602,
        -0.707661300967884,
        -0.11810325291962932,
        0.5848753692321944,
        0.08869879124931122,
        -0.13989307151237237,
        0.11627005237507657,
        -0.37397796988398435,
        -0.07433084067440886
      ]
    ],
    [
      [
        -0.18399260972820924,
        -0.23878891494216517,
        0.9301744582728505,
        -0.1012208392007461
      ],
      [
        -0.1447148991248332,
        -0.677871963781477,
        0.22162777499927028,
        1.4872135259232635
      ],
      [
        -1.0171241574288872,
        -0.18465766416582163,
        0.891632574197761,
        0.057922552390684307
      ],
      [
        0.9863262795642261,
        -0.42572271168752596,
        0.8409842004993233,
        -0.5007984035168649
      ],
      [
        0.3753396200318703,
        0.6625999764361503,
        0.12168966325437285,
        -0.9757623086973999
      ],
      [
        -0.16405385024302002,
        0.15202650771417464,
        -0.5359134685326814,
        0.22107418655990713
      ],
      [
        -0.26010159471326033,
        0.3524977874139771,
        -0.9431910269963993,
        -0.0584683793073897
      ],
      [
        -0.8529457524849738,
        -0.3370301043332053,
        0.2846125880032882,
        0.04118744453651124
      ],
      [
        0.4272700082695736,
        0.1423328319994742,
        -0.3726587178019909,
        -0.6274697071630078
      ],
      [
        0.9224494893228358,
        -0.33707315714601427,
        -0.1036814145937963,
        0.3353977242856548
      ],
      [
        -0.2218303913031298,
        1.5117981117527899,
        -0.18601617933218248,
        -0.4190076381252846
      ],
      [
        -0.48435968481183167,
        -0.1694393160057967,
        -0.5338068579318682,
        -0.19799086300407748
      ],
      [
        -0.02498928858151643,
        0.11819117613918109,
        0.018081448203036535,
        -0.2706575929540375
      ],
      [
        0.3165248907139072,
        0.25960127926586013,
        -0.05839970978424504,
        -0.22532621519773194
      ],
      [
        0.42121437257612815,
        0.3467344657597248,
        -1.174849064104593,
        0.13123252329840823
      ],
      [
        0.09264364981575933,
        -0.3180901422618369,
        0.0671197752194088,
        -0.5143574223742244
      ]
    ]
  ],
  "biases": [
    [
      [
        0.26856096936664337,
        0.6567247337833408,
        0.3282143815963761,
        0.4504132561748936,
        0.3490607410306792,
        -0.10698691580366448,
        0.16840846731298278,
        0.24197693798419334,
        0.1525850830904769,
        0.16745687857795066,
        0.14993530601340072,
        0.031172745517909196,
        0.0,
        -0.04404735450929986,
        0.6018566788058107,
        0.0
      ]
    ],
    [
      [
        -0.0645226064357205,
        -0.17336594756386267,
        -0.10394226524615686,
        0.34183081924573994
      ]
    ]
  ]
}