{
  "layer_sizes": [
    32,
    16,
    3
  ],
  "learning_rate": 0.3,
  "seed": 42,
  "output_activation": "softmax",
  "weights": [
    [
      [
        0.07388558604826145,
        -0.2599960265601239,
        0.21005709359160385,
        0.2632108484286608,
        -0.4660495159377717,
        -0.3255448767155795,
        0.03196010079182134,
        -0.059083686116765864,
        0.0504199545187638,
        -0.1927411707023226,
        0.24917446448815608,
        0.18595943225387174,
        0.024240873176752113,
        0.27853466873349364,
        0.13727006688190535,
        -0.21482311572080956
      ],
      [
        0.08989401213027833,
        -0.23972065020724972,
        0.24205686996680767,
        0.01558819158429433,
        -0.0245063096606279,
        -0.17023238610098534,
        0.30563533466850756,
        -0.018655408548070854,
        -0.052461711645940844,
        -0.067513576430985,
        0.16240226716078612,
        0.08287246448765413,
        0.11091635168544522,
        0.10442961774345615,
        0.5558046315365094,
        -0.1016037540961539
      ],
      [
        -0.13035436615823068,
        -0.20344318206196943,
        0.17643915028386345,
        0.3103127425110802,
        -0.006777583188031518,
        -0.210039119240632,
        -0.2061203039228099,
        0.1826251589253051,
        0.24043378669569662,
        0.15630837826737115,
        -0.13705245604972463,
        0.04955177916331454,
        0.036904651071630185,
        0.05139651617373869,
        0.2382499258059414,
        0.05589888719367057
      ],
      [
        0.16743470687762738,
        0.016894767372222865,
        0.09472414431248556,
        0.18589172579049257,
        -0.34257967373822923,
        -0.07991780408932533,
        -0.11759316357319888,
        -0.13974250009170566,
        -0.01416531891183493,
        0.39425513899967124,
        -0.18713280815086186,
        0.23358103704450486,
        -0.4129842441175031,
        -0.08699689050495825,
        0.06108099759514532,
        0.14655558283981954
      ],
      [
        0.1755129610578674,
        0.1983368087999813,
        -0.06473697342211987,
        -0.08751827883528428,
        0.2362032515399757,
        -0.04782608122040372,
        -0.31892158083448047,
        -0.26334484153174065,
        -0.17524282760556678,
        0.1448099972045134,
        0.06493140479009019,
        0.16413278691357672,
        -0.09907996279768544,
        0.036359289760664014,
        0.17679032981072812,
        -0.0773366349300596
      ],
      [
        0.11190012549900648,
        -0.16548148526666281,
        -0.06831916700127842,
        -0.06736480416872476,
        -0.27725063017157253,
        0.12174312019639545,
        -0.11735058505068097,
        0.023100491651051543,
        0.1748069086213133,
        0.13215260519855848,
        0.1956712480156455,
        -0.03310992273072132,
        -0.09809137922459031,
        -0.0232051857351143,
        -0.40144087717061366,
        -0.3617781181057718
      ],
      [
        -0.332968586978947,
        -0.24931170690037044,
        0.12238785132084867,
        -0.19830009450915773,
        -0.07283135728416015,
        0.32480707444651635,
        -0.08906599276535648,
        0.20435585408590146,
        -0.1787841761076332,
        -0.03083957827583513,
        -0.20818054295519636,
        -0.09324682057850607,
        0.21781023315079684,
        -0.43510573880660175,
        0.1289986422053582,
        0.05943390058306947
      ],
      [
        -0.15083117281454494,
        -0.36151446359711364,
        0.04047667156845689,
        -0.1043035079350931,
        0.07987833406436323,
        0.00546303638086072,
        0.40044472283022886,
        -0.03986194489912638,
        -0.20125412926063016,
        0.06533871993015138,
        0.08432414176539016,
        0.3313083422067439,
        0.2165110102650926,
        0.0859421317788628,
        0.38621845412378425,
        -0.2971907635807127
      ],
      [
        -0.16223156707778327,
        -0.23164398535138123,
        -0.07500815614895247,
        -0.3161018675582199,
        0.18049701792928832,
        -0.055555674274693344,
        -0.36770157362566447,
        -0.23391780833275558,
        0.13299870575738487,
        0.23005145316466769,
        0.5285076936953955,
        0.7199770648984674,
        0.11133555710544722,
        -0.25066016301648053,
        -0.5126188388639332,
        0.06692786558595895
      ],
      [
        -0.20552895771792784,
        -0.10383931504492133,
        -0.13057990512496248,
        -0.007128052273238756,
        0.2882043389225983,
        0.039262141861336156,
        -0.039658709259672076,
        -0.23893647623732306,
        -0.36405049228125336,
        -0.10105716607726033,
        0.015879333067868776,
        0.4334939267916055,
        0.04030182915466959,
        0.24240924474724987,
        -0.10443116831589408,
        -0.29623594160425615
      ],
      [
        -0.2435728744484393,
        -0.1813065161339383,
        0.5545617277487809,
        -0.17727700047523906,
        0.23133158215977348,
        -0.2257317945217566,
        0.23289325321856102,
        0.11621470349559548,
        0.015460769480313368,
        0.010329179657213871,
        -0.13437195308489866,
        0.10302949876715468,
        -0.10601267129874688,
        -0.3096770739503266,
        -0.299091662261011,
        0.04314697943052987
      ],
      [
        0.37923863645446576,
        0.03999790339335956,
        0.16329407797407264,
        -0.23192753429668822,
        0.5322532089894373,
        0.054845625340964085,
        -0.10273180770843429,
        0.7178421070946872,
        0.2638839667911812,
        0.8280844348758386,
        -0.13294717858640934,
        -0.33439784522399485,
        -0.34203979981141625,
        0.39054746788615047,
        0.7831555535737191,
        -0.04487980332065016
      ],
      [
        -0.1113310079321399,
        0.36536107306055055,
        -0.08380776100932882,
        -0.5270658239362807,
        0.3665844722349923,
        -0.0986512807148974,
        -0.001280466680017824,
        0.40040920494858645,
        0.24108849437551122,
        0.7960159022052696,
        -0.15610956116644945,
        0.13270411102534468,
        -0.5125430252577556,
        -0.03436411565419141,
        0.1414315558046772,
        -0.304703265105907
      ],
      [
        -0.22183177562253403,
        -0.08353086017520302,
        0.25141993022899295,
        -0.3035285101040337,
        0.029367154374291618,
        -0.12104235833339462,
        -0.08191827359049021,
        0.27066641829528054,
        0.18914910314581757,
        0.3548693380517582,
        -0.009301449040026222,
        -0.1824742045210411,
        -0.04823150543367675,
        0.057348564809290854,
        0.06453607093232169,
        -0.27109701805834163
      ],
      [
        0.020328761516622173,
        0.057057082534726286,
        0.6518128040234699,
        0.49728082215127484,
        -0.1916015564140178,
        -0.07184584038729402,
        -0.3658605004592508,
        -0.1276997915217418,
        0.13352149479242117,
        0.32198321641313066,
        -0.1529459886634532,
        -0.17202516162031448,
        -0.5290890586482158,
        -0.04394211314474146,
        -0.24521087164599692,
        -0.13235985684151844
      ],
      [
        -0.2215088784322434,
        -0.023565638563139247,
        -0.4169878031991682,
        -0.33869164201689034,
        0.5540210592327616,
        -0.32185564531850774,
        -0.2741963946136599,
        0.479205344049458,
        0.7808870362049375,
        -0.27237184601526315,
        -0.06273726842455876,
        0.07690033613176193,
        0.43990760988784616,
        -0.24998990261557388,
        -0.040926730166633514,
        0.194334394015436
      ],
      [
        0.10639783472630827,
        -0.09403901780752481,
        -0.011011446489020752,
        -0.31565428276163815,
        -0.03783415476797907,
        -0.06659687250223878,
        0.05804247240656399,
        -0.11885484273562427,
        0.17250487453112082,
        0.2736987656460294,
        0.06818230268956539,
        0.07945055049643542,
        0.021022035680914937,
        -0.003254534735660992,
        -0.15999677706681792,
        0.079123565418327
      ],
      [
        -0.026615333493718748,
        0.5232920772326487,
        0.41578302025880015,
        0.12453130746998271,
        -0.16905502119800467,
        -0.2781028679958545,
        0.29778573827221627,
        0.0856642682559143,
        0.17465609474273877,
        -0.4156266855524759,
        0.2611845911619941,
        0.10511653295022529,
        -0.26987447231717143,
        -0.12115683487100178,
        0.08632203240802383,
        0.013116699589060907
      ],
      [
        -0.07533648034123513,
        -0.025872067016490214,
        -0.04055004991173183,
        0.06621029735647466,
        0.38958227447397664,
        -0.6416646102328244,
        -0.05921256612742106,
        0.06410506731224144,
        0.12861874131661086,
        -0.07245883413925007,
        -0.4098554748471966,
        0.07351031932516196,
        0.4395707523274943,
        -0.386740984237549,
        0.236349734743441,
        -0.08213130578072347
      ],
      [
        -0.017624770347558206,
        -0.26322462767598725,
        -0.06116974844897965,
        0.35308081800559693,
        0.16737309172261397,
        0.433077901352486,
        0.2943529722444234,
        0.12974863170152381,
        0.4906038754367839,
        0.1302681008756472,
        0.23632201497171368,
        -0.08263128998704254,
        0.024369652751249308,
        -0.17763158883358374,
        0.2677887149676071,
        -0.2945759057787164
      ],
      [
        0.193293901714069,
        -0.047662764376289864,
        0.31525606800681943,
        0.21578691651367243,
        0.4768708206373878,
        0.1826936727846612,
        -0.39301006391331017,
        0.0032386687445794767,
        -0.23838155425386798,
        -0.10905014940049627,
        0.40713207909162946,
        0.15089490112105866,
        -0.16699940835823862,
        -0.2567049746186143,
        0.028588254537959108,
        -0.30414003734528194
      ],
      [
        -0.17007875323949162,
        0.07800236788781097,
        0.31127230366666364,
        0.18026003738696741,
        -0.551113095923838,
        0.07609168225756495,
        0.01800839330814448,
        0.12344953331230296,
        0.4586726643076377,
        -0.49528975801011377,
        -0.11845088552532747,
        0.13923802909497332,
        -0.3876654010770375,
        0.36571162900486265,
        0.11248188449405853,
        0.211645996460851
      ],
      [
        -0.14502959927079498,
        0.20344092249155263,
        0.2895621836372491,
        0.0862891743651496,
        0.08030950440036123,
        0.06758580982043147,
        -0.21583631618484542,
        -0.016905208090958548,
        0.01648961078174627,
        0.11636827727944617,
        0.2792810325000227,
        -0.2731225720979676,
        -0.023519058793446308,
        0.36708825390622873,
        -0.1655043258842471,
        -0.20556250432258008
      ],
      [
        0.04828286406745201,
        0.21109629762133003,
        0.02530080853015438,
        0.3603098169401046,
        0.23590777686731892,
        0.21045501672251546,
        0.13852912533102332,
        0.6018902370556509,
        0.003329821678324925,
        -0.4803607618255562,
        0.4303885611517343,
        -0.12291340934257186,
        0.03470330987220638,
        0.32411203820661716,
        -0.38017215394583753,
        -0.31291180352653486
      ],
      [
        -0.4026131681700598,
        -0.19853407250635596,
        0.13235344614423789,
        0.15911663003405022,
        0.09077782605782571,
        -0.3531914709730916,
        -0.577525859158161,
        0.03356535831672526,
        -0.06332376451474798,
        0.13536625412022532,
        0.20481337732776647,
        0.026071806411305094,
        0.1977664701304114,
        0.05402721052025256,
        0.1529089077192606,
        -0.1761683157174706
      ],
      [
        -0.04719653734821102,
        0.04919402416423931,
        0.22757641349434424,
        -0.07036562372528551,
        0.15200109515871538,
        -0.06645969797884475,
        -0.02938554183203259,
        0.22735672247514807,
        -0.4436448488687031,
        -0.303598270827618,
        -0.34122137858825613,
        -0.5918925815654412,
        -0.16183291125234622,
        0.1840828419234206,
        -0.05082828527674976,
        0.04944752048546303
      ],
      [
        0.27001069028735175,
        0.3319215330669229,
        0.0051598109584546446,
        0.36646614172320663,
        0.04474094583421456,
        -0.20934955595686552,
        -0.1486000880496838,
        -0.35015716617212456,
        -0.16741321953857705,
        -0.06898436082753488,
        0.23022122561709935,
        0.4217039061881307,
        -0.33781218005781194,
        0.0949312340564652,
        -0.2397432534704897,
        0.11867427211580049
      ],
      [
        -0.04424008212366355,
        -0.4577264564618826,
        0.34429572109206885,
        -0.010901831547895046,
        -0.024928653464952433,
        -0.2674381028224225,
        -0.16357081917188887,
        0.20685742001937776,
        0.2257901342400786,
        0.18476455652598206,
        0.23710531734445536,
        0.28772265586521467,
        -0.04703054378385435,
        -0.3855926192540057,
        0.36876926073746524,
        -0.08287204302431367
      ],
      [
        0.27864811114434423,
        0.0958442782956176,
        0.2846116407369184,
        0.6482826664656544,
        0.12163019883772122,
        0.5192451322634383,
        0.017345283783194675,
        -0.28027579888142934,
        0.7530453319055544,
        -0.4011691941285481,
        -0.005247981661390734,
        0.11076544111253683,
        0.13085082775232515,
        -0.20834220148735144,
        -0.49359314239648905,
        -0.5182458589978229
      ],
      [
        -0.27934602824740196,
        -0.11466882123483325,
        0.24409812662556404,
        1.0453964835614606,
        -0.08962459871702926,
        -0.2405227790854068,
        0.08692711311273923,
        -0.42209300629827945,
        0.4128943330289346,
        -0.14342252358286575,
        0.06627720442789377,
        0.032416532129997115,
        0.3183366580715265,
        -0.285484556535601,
        -0.0946165034786798,
        0.6494184316489581
      ],
      [
        0.05576993565631878,
        0.3583036266515432,
        -0.33546366148857576,
        0.07759397602285804,
        0.2932024022299711,
        -0.04260189529105111,
        -0.1948705991813549,
        0.12192460470711262,
        -0.48364399920302553,
        0.05097704999337446,
        0.7371990801528169,
        -0.05480718285492661,
        -0.07156218338892296,
        0.11349139482717402,
        -0.1950945360492443,
        0.23388678136628732
      ],
      [
        -0.4578515210537809,
        -0.08390184202966156,
        -0.856046704812877,
        -0.4413655053663923,
        0.6483637582816213,
        0.2237962454929215,
        -0.1798700583211976,
        -0.3612765990425001,
        -1.0118919113669966,
        -0.25129313606814163,
        1.0709810821031898,
        -0.03771896679832227,
        -0.13989307151237237,
        0.11627005237507657,
        -0.5081658604112518,
        -0.07433084067440886
      ]
    ],
    [
      [
        0.04454004554743046,
        -0.03505274124948183,
        0.2748343018162391
      ],
      [
        0.12185048828754223,
        0.236288929723784,
        -0.24337635437311497
      ],
      [
        0.44349662261287776,
        0.848333324745372,
        -0.7414877367478879
      ],
      [
        -0.8339104843814454,
        1.1351701125238893,
        -0.21048667109351457
      ],
      [
        0.47371820109204116,
        -0.39885360267235825,
        0.7794375100929818
      ],
      [
        0.04648725634649368,
        0.09129767603465035,
        0.5532113618837944
      ],
      [
        -0.1279051789169342,
        -0.3327369079765173,
        -0.15859139664721128
      ],
      [
        0.7130820212357306,
        -0.8998001509865912,
        0.018442901896452184
      ],
      [
        0.10632843062920007,
        0.7597078319715898,
        -1.4972064794911573
      ],
      [
        0.49284560806590444,
        -1.1264343253017959,
        -0.5328770417142473
      ],
      [
        -0.6431214475648958,
        -0.40800691377195686,
        0.9857428006940545
      ],
      [
        -0.23218920581537802,
        0.05890083014624351,
        -0.1676547104249646
      ],
      [
        0.16351086811879573,
        0.3648783192130455,
        0.09193916887358207
      ],
      [
        0.20457866872867897,
        0.10108187238547525,
        0.7154104000543047
      ],
      [
        0.5745646156413448,
        -0.3820347294352241,
        -0.5983048696600267
      ],
      [
        -0.36495996716566187,
        -0.4399872200040327,
        -0.31423730364298325
      ]
    ]
  ],
  "biases": [
    [
      [
        -0.027306970535924614,
        0.0,
        0.2672058233539975,
        0.33417753710391235,
        0.2584552759344791,
        0.0,
        0.0,
        0.2378315138298898,
        0.650269811362742,
        0.24429429092460103,
        0.3491222640662934,
        -0.10105866353308604,
        0.09206596963895333,
        -0.03899735897630628,
        0.2427813682677818,
        0.0
      ]
    ],
    [
      [
        -0.2910684006637911,
        -0.2927631578373863,
        0.5838315585011769
      ]
    ]
  ]
}