{
  "layer_sizes": [
    32,
    16,
    4
  ],
  "learning_rate": 0.3,
  "seed": 42,
  "output_activation": "softmax",
  "weights": [
    [
      [
        0.07617926993860784,
        -0.242738409217504,
        0.2043687282726676,
        0.23368477040339228,
        -0.5018724528184157,
        -0.32953065207041443,
        0.0807955331534322,
        -0.06584174423203253,
        0.012080428265902353,
        -0.1997691981554234,
        0.20645538787940532,
        0.20119105208974739,
        0.025468367906936334,
        0.2984653557596409,
        0.1507765508851478,
        -0.21482311572080956
      ],
      [
        0.09218769602062471,
        -0.24294541546266984,
        0.2651980707435678,
        -0.010766756914180168,
        -0.04905655331235141,
        -0.17510756152323878,
        0.37122858002544434,
        -0.08499647395683844,
        -0.08026990337476612,
        -0.07153099934723141,
        0.12330670268350928,
        0.10574526764445438,
        0.12550881951466128,
        0.1462753739610685,
        0.5784984566625363,
        -0.1016037540961539
      ],
      [
        -0.12806068226788433,
        -0.1861855647193496,
        0.1707507849649272,
        0.28078666448581163,
        -0.04260052006867535,
        -0.21402489459546692,
        -0.1572848715611991,
        0.17586710081003837,
        0.20209426044283507,
        0.14928035081427035,
        -0.1797715326584754,
        0.06478339899919024,
        0.03813214580181439,
        0.07132720319988578,
        0.2517564098091839,
        0.05589888719367057
      ],
      [
        0.16972839076797372,
        0.013670002116802745,
        0.11786534508924577,
        0.15953677729201815,
        -0.3671299173899529,
        -0.08479297951157876,
        -0.05199991821626206,
        -0.20608356550047333,
        -0.04197351064066026,
        0.39023771608342483,
        -0.22622837262813872,
        0.2564538402013052,
        -0.3983917762882869,
        -0.04515113428734597,
        0.08377482272117226,
        0.14655558283981954
      ],
      [
        0.17780664494821374,
        0.1951120435445612,
        -0.04159577264535965,
        -0.11387322733375875,
        0.2116530078882522,
        -0.05270125664265714,
        -0.2533283354775437,
        -0.32968590694050803,
        -0.20305101933439215,
        0.14079257428826697,
        0.02583584031281337,
        0.18700559007037684,
        -0.08448749496846941,
        0.07820504597827631,
        0.19948415493675506,
        -0.0773366349300596
      ],
      [
        0.11419380938935286,
        -0.16870625052208293,
        -0.0451779662245182,
        -0.09371975266719923,
        -0.3018008738232962,
        0.11686794477414203,
        -0.05175733969374415,
        -0.04324057375771602,
        0.14699871689248792,
        0.12813518228231197,
        0.15657568353836865,
        -0.010237119573921087,
        -0.08349891139537427,
        0.01864057048249799,
        -0.3787470520445865,
        -0.3617781181057718
      ],
      [
        -0.3306749030886006,
        -0.25253647215579045,
        0.14552905209760883,
        -0.22465504300763214,
        -0.0973816009358837,
        0.31993189902426294,
        -0.023472747408419706,
        0.13801478867713382,
        -0.20659236783645857,
        -0.0348570011920815,
        -0.24727610743247322,
        -0.07037401742170582,
        0.2324027009800131,
        -0.3932599825889895,
        0.15169246733138522,
        0.05943390058306947
      ],
      [
        -0.1485374889241986,
        -0.34425684625449376,
        0.03478830624952064,
        -0.1338295859603618,
        0.044055397183719404,
        0.0014772610260258166,
        0.4492801551918397,
        -0.046620003014392994,
        -0.2395936555134918,
        0.05831069247705075,
        0.04160506515663947,
        0.34653996204261933,
        0.21773850499527694,
        0.10587281880500987,
        0.399724938127027,
        -0.2971907635807127
      ],
      [
        -0.15993788318743693,
        -0.13583485964842365,
        -0.2959920147723747,
        -0.34848993782583637,
        0.14127212891707255,
        -0.055555674274693344,
        -0.4764694012342934,
        -0.3158363785855341,
        0.01468545759212467,
        0.33430335668927935,
        0.4806732877103423,
        0.9786222563952326,
        0.0895637638478679,
        0.04843441402583744,
        -0.4786460573388994,
        0.06692786558595895
      ],
      [
        -0.2032352738275815,
        -0.020440417726247186,
        -0.36553720657549377,
        -0.035197721604096316,
        0.2668736810893262,
        0.039262141861336156,
        -0.16843529929215806,
        -0.4354481044724302,
        -0.48864956333445125,
        0.036680121862483456,
        -0.02656303150553844,
        0.7688884868679381,
        0.03256863036822146,
        0.649405324177226,
        -0.0533254755859312,
        -0.29623594160425615
      ],
      [
        -0.24127919055809297,
        -0.16404889879131845,
        0.5488733624298445,
        -0.20680307850050772,
        0.19550864527912967,
        -0.2297175698765915,
        0.2817286855801719,
        0.10945664538032882,
        -0.022878756772548057,
        0.003301152204113193,
        -0.17709102969364943,
        0.11826111860303043,
        -0.10478517656856268,
        -0.28974638692417937,
        -0.28558517825776825,
        0.04314697943052987
      ],
      [
        0.3947728141026087,
        0.12339680071203368,
        -0.24217258833801228,
        0.07145653490063572,
        0.3268790588191215,
        0.054845625340964085,
        -0.2315083977409202,
        0.10003751124899495,
        0.03721028245704136,
        0.5421960971298144,
        0.032691215504518215,
        0.020788750542842318,
        -0.34203979981141625,
        0.8164524294792741,
        0.5024148542446812,
        -0.04487980332065016
      ],
      [
        -0.09579683028399694,
        0.44875997037922477,
        -0.4892744273214137,
        -0.2236817547389566,
        0.16121032206467636,
        -0.0986512807148974,
        -0.1300570567125039,
        -0.2173953908971054,
        0.014414810041371398,
        0.5101275644592455,
        0.00952883292447807,
        0.4878907067921818,
        -0.5125430252577556,
        0.39154084593893185,
        -0.13930914352436088,
        -0.304703265105907
      ],
      [
        -0.2195380917321877,
        -0.03935963098385621,
        0.6983878871597377,
        -0.15896646607103973,
        -0.009629571814460412,
        -0.15029341086691514,
        -0.03503384935142032,
        0.11643749613785988,
        0.1881529635830029,
        0.36693520309541056,
        -0.08887731949560897,
        -0.2149249873032652,
        -0.011313370988796524,
        0.07696407147693306,
        0.0960606630236732,
        -0.27109701805834163
      ],
      [
        0.022622445406968554,
        0.1363642845009252,
        1.221956535199726,
        0.7342992078738315,
        -0.23149312752986398,
        -0.10239745787450422,
        -0.497935978018635,
        -0.21273173704795217,
        0.07890125089758512,
        0.3008068035923009,
        -0.23038365801895697,
        -0.27274740770481076,
        -0.5368222574346637,
        -0.1359220130518114,
        -0.3192719167308844,
        -0.13235985684151844
      ],
      [
        -0.21921519454189706,
        0.12892568179742403,
        -0.5966691194110495,
        -0.3886706874172388,
        0.44193197440699195,
        -0.32185564531850774,
        -0.3109228249627445,
        0.8511067433628902,
        0.6830361022295657,
        -0.2928916572063354,
        -0.1335001503163813,
        0.04693276575511552,
        0.3609497030996618,
        -0.360760771994641,
        -0.07149011958151404,
        0.194334394015436
      ],
      [
        0.10869151861665466,
        0.09657513264317935,
        -0.23000201809387488,
        -0.3711106721793595,
        -0.1725181904937695,
        -0.06659687250223878,
        0.012134434470208316,
        0.35101614689844834,
        0.0638462680356147,
        0.25317895445495714,
        -0.012940056982100585,
        0.039868949624786,
        -0.07574204810770352,
        -0.14253702971162344,
        -0.19310283100569517,
        0.079123565418327
      ],
      [
        -0.024321649603372367,
        0.5405496945752685,
        0.41009465493986386,
        0.09500522944471394,
        -0.20487795807864845,
        -0.2820886433506894,
        0.34662117063382714,
        0.07890621014064765,
        0.13631656848987722,
        -0.42265471300557644,
        0.21846551455324337,
        0.12034815278610103,
        -0.26864697758698713,
        -0.1012261478448547,
        0.09982851641126629,
        0.013116699589060907
      ],
      [
        -0.07304279645088875,
        -0.20878703799035425,
        -0.15739541373804258,
        -0.21620166088999004,
        0.36787299324828926,
        -0.6416646102328244,
        0.612697477500022,
        -0.004835554353618882,
        0.3120023679629765,
        -0.14716242229727866,
        -0.43918044561964564,
        -0.045553501243148345,
        0.571747437291132,
        -0.45022005973591905,
        0.4681405597961361,
        -0.08213130578072347
      ],
      [
        -0.015331086457211825,
        -0.44613959864985125,
        -0.17801511227529043,
        0.0706688597591323,
        0.14566381049692675,
        0.433077901352486,
        0.9662630158718665,
        0.060808010035663426,
        0.6739875020831495,
        0.055564512717618544,
        0.20699704419926473,
        -0.20169511055535289,
        0.15654633771488694,
        -0.2411106643319539,
        0.49957954002030225,
        -0.2945759057787164
      ],
      [
        0.19558758560441533,
        0.10482855598427339,
        0.13557475179493814,
        0.1658078711133237,
        0.3647817358116179,
        0.1826936727846612,
        -0.42973649426239474,
        0.3751400680580117,
        -0.33623248822924007,
        -0.12956996059156867,
        0.33636919719980674,
        0.12092733074441213,
        -0.24595731514642288,
        -0.36747584399768135,
        -0.001975134876921446,
        -0.30414003734528194
      ],
      [
        -0.16778506934914528,
        0.011257781908523218,
        0.13851422537318767,
        -0.00843829948105982,
        -0.5754216691687142,
        0.07121650683531153,
        0.43027668656763235,
        -0.08682419254600067,
        0.538112681242855,
        -0.43287852751212846,
        -0.1659191125484381,
        0.2893556759579719,
        -0.28377026678516476,
        0.6226382508179342,
        0.3417777248793652,
        0.211645996460851
      ],
      [
        -0.14273591538044864,
        0.22069853983417248,
        0.2838738183183128,
        0.056763096339880886,
        0.0444865675197174,
        0.06360003446559656,
        -0.16700088382323464,
        -0.023663266206225168,
        -0.021849915471115148,
        0.10934024982634553,
        0.23656195589127182,
        -0.25789095226209213,
        -0.022291564063262086,
        0.387018940932376,
        -0.15199784188100463,
        -0.20556250432258008
      ],
      [
        0.050576547957798396,
        0.4017104480720342,
        -0.1936897630746997,
        0.30485342752238326,
        0.10122374114152852,
        0.21045501672251546,
        0.09262108739466764,
        1.0717612266897236,
        -0.1053287848171811,
        -0.5008805730166285,
        0.34926620148006815,
        -0.16249501021422122,
        -0.06206077391641209,
        0.18482954323065487,
        -0.41327820788471464,
        -0.31291180352653486
      ],
      [
        -0.4003194842797134,
        -0.046042752145792655,
        -0.0473278700676432,
        0.10913758463370155,
        -0.021311258767944107,
        -0.3531914709730916,
        -0.6142522895072458,
        0.4054667576301575,
        -0.16117469849011998,
        0.11484644292915294,
        0.13405049543594388,
        -0.0038957639653414144,
        0.11880856334222718,
        -0.056743658858814425,
        0.12234551830438,
        -0.1761683157174706
      ],
      [
        -0.044902853457864635,
        0.2016853445248026,
        0.04789509728246311,
        -0.12034466912563424,
        0.03991201033294562,
        -0.06645969797884475,
        -0.06611197218111714,
        0.5992581217885802,
        -0.5414957828440751,
        -0.32411808201869025,
        -0.41198426048007886,
        -0.6218601519420882,
        -0.24079081804053049,
        0.07331197254435363,
        -0.08139167469163029,
        0.04944752048546303
      ],
      [
        0.27230437417769815,
        0.3286967678115029,
        0.028301011735214855,
        0.3401111932247324,
        0.020190702182491027,
        -0.21422473137911896,
        -0.08300684269274702,
        -0.41649823158089194,
        -0.19522141126740242,
        -0.0730017837437813,
        0.1911256611398225,
        0.4445767093449308,
        -0.32321971222859575,
        0.13677699027407753,
        -0.2170494283444627,
        0.11867427211580049
      ],
      [
        -0.03277166267193165,
        -0.4609512217173026,
        0.27765974330887083,
        -0.1495354573697997,
        -0.13631602201942492,
        -0.2723132782446759,
        -0.09797757381495209,
        0.06060850673409142,
        -0.020499033068090686,
        0.09866788884544625,
        0.080709869777383,
        0.3445496654354766,
        -0.06337087110043066,
        -0.33064433100233526,
        0.30989216058791674,
        -0.08287204302431367
      ],
      [
        0.27864811114434423,
        0.17515148026181654,
        0.5598036432654092,
        0.3522820285649876,
        0.46957085014141586,
        0.4886935147762281,
        -0.11473019377618951,
        -0.025007335227811765,
        0.2690600393665964,
        -0.21207185982159438,
        0.03515489457150896,
        -0.11567650967632592,
        0.0784770528643884,
        -0.30359773440293597,
        -0.45106018709323586,
        -0.5182458589978229
      ],
      [
        -0.27934602824740196,
        -0.0974112038922134,
        -0.05654196734113722,
        0.48285138191296795,
        0.26238468682186783,
        -0.24450855444024172,
        0.13576254547435004,
        -0.08855065523371825,
        -0.054810241868049225,
        0.05982319609181721,
        0.1413986734075465,
        -0.07807155273849356,
        0.274923576700222,
        -0.26882950251796833,
        0.03548398091270355,
        0.6494184316489581
      ],
      [
        0.05576993565631878,
        0.4376108286177421,
        0.6154680703595476,
        0.410282328885863,
        -0.032378088488331874,
        -0.07315351277826129,
        -0.3269460767407391,
        0.042520356182307706,
        -0.21288429729644198,
        0.16573970744859967,
        0.2232090525284227,
        -0.017577945878554324,
        -0.07156218338892296,
        0.018235861911589494,
        -0.13083657765259665,
        0.23388678136628732
      ],
      [
        -0.4578515210537809,
        -0.004594640063462668,
        0.09488502703524619,
        -0.10867715250338744,
        0.3227832675633183,
        0.1932446280057113,
        -0.3119455358805818,
        -0.440680847567305,
        -0.7411322094604128,
        -0.13653047861291623,
        0.5569910544787957,
        -0.0004897298219499543,
        -0.13989307151237237,
        0.02101451945949204,
        -0.44390790201460434,
        -0.07433084067440886
      ]
    ],
    [
      [
        0.03517059787236524,
        -0.030441177383622633,
        0.2795921856254451,
        0.12185048828754223
      ],
      [
        0.3217074948237294,
        -0.6024988278303037,
        0.4855789481596436,
        0.6814668228631537
      ],
      [
        -0.8514052274550425,
        -0.3013299405724049,
        1.4269536764436863,
        -0.5264452034225022
      ],
      [
        0.3481222680949449,
        -0.12255656584720619,
        0.8258821180368463,
        -0.15065845542542625
      ],
      [
        0.062168073509183415,
        0.4855736292799612,
        -0.1683173087587803,
        -0.19555744300537115
      ],
      [
        -0.16210212429236892,
        0.15555523145539296,
        -0.5422152600291869,
        0.22189552836454315
      ],
      [
        -0.4119675395447043,
        1.1957414290610153,
        -1.082972362480725,
        -0.6100647406386592
      ],
      [
        -1.0417033256822616,
        -0.44987566396284934,
        -0.5311784803510842,
        1.158581645717815
      ],
      [
        -0.269231593002937,
        0.5157745428634053,
        -0.08902958400656735,
        -0.5880389505498518
      ],
      [
        0.6620161679199733,
        -0.04768756956895174,
        0.2914391677281428,
        -0.08867512421048432
      ],
      [
        0.09202136199624948,
        0.6662353687292962,
        0.020226986980861585,
        -0.09353981471421477
      ],
      [
        0.6052135239116709,
        -0.6066171755137636,
        -0.7155205981578124,
        -0.6686724719936693
      ],
      [
        -0.08633472438522527,
        0.21465241429259113,
        -0.009534830289011517,
        -0.27815711681169064
      ],
      [
        1.1427188943568005,
        -0.12236296967358452,
        -0.2245430375856328,
        -0.5034126420997929
      ],
      [
        0.15545758321027106,
        0.6644890603545627,
        -0.7803527834202996,
        -0.3152615626148667
      ],
      [
        0.09264364981575933,
        -0.3180901422618369,
        0.0671197752194088,
        -0.5143574223742244
      ]
    ]
  ],
  "biases": [
    [
      [
        0.0,
        0.45434257959262614,
        0.308992530291794,
        0.10450409868156772,
        -0.2847102377017892,
        -0.06993263128250231,
        0.49136068946967765,
        0.4423597423397221,
        0.146999848052365,
        0.24562448443184298,
        -0.2502671569453576,
        0.12948962269989667,
        0.05155894095605442,
        0.2291420825151974,
        0.4434007359264998,
        0.0
      ]
    ],
    [
      [
        0.0433874030578985,
        -0.24021651575128386,
        3.94866175103804e-05,
        0.196789626075875
      ]
    ]
  ]
}