{
  "layer_sizes": [
    32,
    16,
    3
  ],
  "learning_rate": 0.3,
  "seed": 42,
  "output_activation": "softmax",
  "weights": [
    [
      [
        0.07862321663190186,
        -0.23443101052380955,
        0.21774870433063773,
        0.26591399068769095,
        -0.46653599684870106,
        -0.3255448767155795,
        0.03196010079182134,
        -0.07906064808589555,
        -0.004200289376072199,
        -0.1890608427961395,
        0.2243338370538412,
        0.19419335034975774,
        0.01650767439030401,
        0.27372541416949664,
        0.1168773355630114,
        -0.19334646628826316
      ],
      [
        0.09463164271391873,
        -0.21415563417093544,
        0.24974848070584155,
        0.018291333843324275,
        -0.024992790571557146,
        -0.17023238610098534,
        0.30563533466850756,
        -0.03863237051720054,
        -0.1070819555407768,
        -0.06383324852480185,
        0.13756163972647123,
        0.09110638258354026,
        0.1031831528989971,
        0.09962036317945913,
        0.5354119002176153,
        -0.08012710466360742
      ],
      [
        -0.1256167355745904,
        -0.17787816602565515,
        0.18413076102289733,
        0.3130158847701102,
        -0.007264064098960748,
        -0.210039119240632,
        -0.2061203039228099,
        0.16264819695617527,
        0.18581354280086057,
        0.15998870617355426,
        -0.16189308348403952,
        0.05778569725920059,
        0.029171452285182056,
        0.04658726160974169,
        0.21785719448704746,
        0.07737553662621705
      ],
      [
        0.17217233746126764,
        0.04245978340853715,
        0.10241575505151945,
        0.18859486804952258,
        -0.3430661546491586,
        -0.07991780408932533,
        -0.11759316357319888,
        -0.15971946206083548,
        -0.06878556280667093,
        0.3979354669058546,
        -0.21197343558517676,
        0.24181495514039086,
        -0.4207174429039512,
        -0.09180614506895526,
        0.0406882662762514,
        0.16803223227236594
      ],
      [
        0.1802505916415077,
        0.2239018248362956,
        -0.05704536268308601,
        -0.08481513657625425,
        0.23571677062904645,
        -0.04782608122040372,
        -0.31892158083448047,
        -0.28332180350087016,
        -0.22986307150040283,
        0.14849032511069654,
        0.04009077735577543,
        0.17236670500946272,
        -0.10681316158413356,
        0.03155003519666701,
        0.15639759849183418,
        -0.05585998549751314
      ],
      [
        0.11663775608264688,
        -0.13991646923034853,
        -0.060627556262244524,
        -0.06466166190969473,
        -0.2777371110825019,
        0.12174312019639545,
        -0.11735058505068097,
        0.0031235296819218574,
        0.12018666472647724,
        0.13583293310474154,
        0.1708306205813306,
        -0.024876004634835237,
        -0.10582457801103844,
        -0.028014440299111303,
        -0.42183360848950746,
        -0.3403014686732254
      ],
      [
        -0.3282309563953067,
        -0.22374669086405616,
        0.13007946205988255,
        -0.19559695225012771,
        -0.07331783819508941,
        0.32480707444651635,
        -0.08906599276535648,
        0.18437889211677164,
        -0.23340442000246925,
        -0.027159250369652013,
        -0.23302117038951126,
        -0.08501290248261995,
        0.21007703436434888,
        -0.43991499337059875,
        0.10860591088646433,
        0.08091055001561594
      ],
      [
        -0.14609354223090465,
        -0.33594944756079914,
        0.048168282307490776,
        -0.10160036567606305,
        0.079391853153434,
        0.00546303638086072,
        0.40044472283022886,
        -0.05983890686825607,
        -0.25587437315546624,
        0.06901904783633458,
        0.05948351433107541,
        0.3395422603026298,
        0.20877781147864463,
        0.08113287721486578,
        0.36582572280489045,
        -0.2757141141481663
      ],
      [
        -0.157493936494143,
        -0.20607896931506695,
        -0.06731654540991858,
        -0.3133987252991899,
        0.18001053701835906,
        -0.055555674274693344,
        -0.36770157362566447,
        -0.2538947703018854,
        0.07837846186254882,
        0.2337317810708508,
        0.503667066261081,
        0.7282109829943527,
        0.1036023583189991,
        -0.2554694175804776,
        -0.5330115701828273,
        0.08840451501850542
      ],
      [
        -0.20079132713428754,
        -0.07827429900860713,
        -0.12288829438592859,
        -0.004424910014208823,
        0.28771785801166894,
        0.039262141861336156,
        -0.039658709259672076,
        -0.2589134382064529,
        -0.41867073617608924,
        -0.09737683817107717,
        -0.008961294366445969,
        0.4417278448874914,
        0.03256863036822146,
        0.23759999018325284,
        -0.12482389963478802,
        -0.27475929217170975
      ],
      [
        -0.22472734474533482,
        0.059122654500907666,
        0.9204623612072717,
        -0.882955401334237,
        0.7168966997105194,
        -0.2257317945217566,
        0.23289325321856102,
        0.09623774152646579,
        -0.0391594744145226,
        0.3233614615406982,
        -0.11557761937375842,
        0.13910230127515677,
        -0.113745870085195,
        -0.3192217649125725,
        -0.3194843935799048,
        -0.10052133509191956
      ],
      [
        0.4113246599153669,
        0.28042707402820555,
        0.3586853465710105,
        -0.6061521966275045,
        0.8337748342031394,
        0.054845625340964085,
        -0.10273180770843429,
        0.2765721775149722,
        0.10718910961540337,
        0.7174910910735542,
        0.09392791378906572,
        -0.2785330070254886,
        -0.34203979981141625,
        0.39991165908705195,
        0.43091643019582426,
        -0.18854811784309958
      ],
      [
        -0.09335288359070291,
        0.39092608909686505,
        -0.24662551513184858,
        -0.19290894314906912,
        0.1820544989870191,
        -0.0986512807148974,
        -0.001280466680017824,
        -0.040860724631128144,
        0.08439363719973339,
        0.3760706044256848,
        0.02713057006357054,
        0.16073006481173513,
        -0.5125430252577556,
        -0.020264488055041028,
        -0.21080756757321778,
        -0.2832266156733606
      ],
      [
        -0.21709414503889374,
        -0.05796584413888877,
        0.2591115409680268,
        -0.3008253678450037,
        0.02888067346336236,
        -0.12104235833339462,
        -0.08191827359049021,
        0.25068945632615103,
        0.13452885925098151,
        0.3585496659579415,
        -0.034142076474341,
        -0.1742402864251551,
        -0.05596470422012488,
        0.05253931024529385,
        0.04414333961342776,
        -0.24962036862579529
      ],
      [
        0.02506639210026257,
        0.08262209857104047,
        0.6595044147625033,
        0.4999839644103049,
        -0.19208803732494703,
        -0.07184584038729402,
        -0.3658605004592508,
        -0.14767675349087162,
        0.07890125089758512,
        0.325663544319314,
        -0.17778661609776808,
        -0.16379124352442848,
        -0.5368222574346637,
        -0.04875136770873846,
        -0.2656036029648908,
        -0.11088320740897199
      ],
      [
        -0.21677124784860313,
        0.0019993774731750288,
        -0.40929619246013443,
        -0.33598849975786027,
        0.5535345783218328,
        -0.32185564531850774,
        -0.2741963946136599,
        0.4592283820803285,
        0.7262667923101017,
        -0.2686915181090798,
        -0.08757789585887342,
        0.08513425422764806,
        0.4321744111013981,
        -0.2547991571795709,
        -0.061319461485527436,
        0.2158110434479824
      ],
      [
        0.11113546530994868,
        -0.06847400177121062,
        -0.0033198357499868987,
        -0.3129511405026081,
        -0.03832063567890832,
        -0.06659687250223878,
        0.05804247240656399,
        -0.138831804704754,
        0.11788463063628475,
        0.27737909355221274,
        0.04334167525525063,
        0.08768446859232154,
        0.013288836894466841,
        -0.008063789299658,
        -0.18038950838571186,
        0.10060021485087348
      ],
      [
        -0.021877702910078352,
        0.548857093268963,
        0.42347463099783406,
        0.12723444972901266,
        -0.1695415021089339,
        -0.2781028679958545,
        0.29778573827221627,
        0.06568730628678462,
        0.1200358508479027,
        -0.41194635764629256,
        0.23634396372767924,
        0.11335045104611141,
        -0.2776076711036195,
        -0.1259660894349988,
        0.0659293010891299,
        0.034593349021607364
      ],
      [
        -0.07059884975759473,
        -0.0003070509801759328,
        -0.03285843917269794,
        0.06891343961550468,
        0.3890957935630473,
        -0.6416646102328244,
        -0.05921256612742106,
        0.04412810534311174,
        0.07399849742177488,
        -0.06877850623306692,
        -0.43469610228151145,
        0.08174423742104808,
        0.43183755354104625,
        -0.391550238801546,
        0.21595700342454707,
        -0.060654656348177016
      ],
      [
        -0.012887139763917806,
        -0.2376596116396729,
        -0.053478137709945764,
        0.355783960264627,
        0.16688661081168474,
        0.433077901352486,
        0.2943529722444234,
        0.10977166973239405,
        0.435983631541948,
        0.13394842878183022,
        0.21148138753739879,
        -0.07439737189115642,
        0.016636453964801207,
        -0.18244084339758077,
        0.24739598364871326,
        -0.27309925634617
      ],
      [
        0.19803153229770926,
        -0.022097748339975597,
        0.32294767874585323,
        0.21849005877270244,
        0.47638433972645844,
        0.1826936727846612,
        -0.39301006391331017,
        -0.01673829322455021,
        -0.293001798148704,
        -0.10536982149431312,
        0.3822914516573146,
        0.15912881921694466,
        -0.17473260714468658,
        -0.2615142291826113,
        0.008195523219065198,
        -0.28266338791273554
      ],
      [
        -0.16534112265585132,
        0.10356738392412516,
        0.31896391440569744,
        0.18296317964599743,
        -0.5515995768347667,
        0.07609168225756495,
        0.01800839330814448,
        0.10347257134317327,
        0.4040524204128018,
        -0.4916094301039302,
        -0.14329151295964235,
        0.14747194719085932,
        -0.3953985998634856,
        0.36090237444086565,
        0.0920891531751646,
        0.2331226458933974
      ],
      [
        -0.1402919686871547,
        0.2290059385278669,
        0.297253794376283,
        0.08899231662417961,
        0.07982302348943199,
        0.06758580982043147,
        -0.21583631618484542,
        -0.03688217006008823,
        -0.0381306331130897,
        0.12004860518562932,
        0.25444040506570786,
        -0.26488865400208167,
        -0.03125225757989441,
        0.36227899934223173,
        -0.18589705720314104,
        -0.18408585489003368
      ],
      [
        0.05302049465109238,
        0.2366613136576443,
        0.03299241926918824,
        0.3630129591991347,
        0.2354212959563897,
        0.21045501672251546,
        0.13852912533102332,
        0.5819132750865212,
        -0.05129042221651105,
        -0.4766804339193729,
        0.40554793371741943,
        -0.11467949124668574,
        0.02697011108575826,
        0.31930278364262016,
        -0.40056488526473133,
        -0.29143515409398846
      ],
      [
        -0.4003194842797134,
        0.11414561881849045,
        0.6078057538129364,
        0.8004516827253824,
        -0.5864118043270822,
        -0.3531914709730916,
        -0.577525859158161,
        0.013588396347595566,
        -0.11794400840958394,
        -0.16575498353349757,
        -0.023102141765730055,
        0.0330626231266984,
        0.19003327134396344,
        0.015367549105359318,
        0.13251617640036667,
        -0.282641960005025
      ],
      [
        -0.044902853457864635,
        0.3618737154890858,
        0.7030287211630425,
        0.5709694289660469,
        -0.5251885352261926,
        -0.06645969797884475,
        -0.02938554183203259,
        0.20737976050601825,
        -0.498265092763539,
        -0.6047195084813409,
        -0.5691368976817527,
        -0.5849017648500484,
        -0.16956611003879418,
        0.14542318050852732,
        -0.07122101659564369,
        -0.0570261238020913
      ],
      [
        0.2894120010307562,
        0.5108766453211232,
        0.19366685397162883,
        0.5538061535215615,
        0.17159126681183343,
        -0.20934955595686552,
        -0.1486000880496838,
        -0.37013412814125407,
        -0.2220334634334131,
        0.07989680166218133,
        0.23228665821158956,
        0.4284100232391406,
        -0.34554537884426,
        0.04161265405739892,
        -0.2601359847893836,
        0.26901081814362565
      ],
      [
        -0.03277166267193165,
        -0.8376939791301535,
        -0.45006918961058895,
        0.06536542802904953,
        0.15846418885547595,
        -0.2674381028224225,
        -0.16357081917188887,
        0.1069726101737293,
        -0.04731108523410138,
        0.19311242308542098,
        0.27132232043816784,
        0.3023543698443186,
        -0.08569653771609483,
        -0.36921445421143295,
        0.26680560414299576,
        0.31272242952405155
      ],
      [
        0.2835360045309321,
        0.14697431036824601,
        0.027487428207210538,
        0.14873959669134887,
        0.5301987406610907,
        0.5192451322634383,
        0.017345283783194675,
        0.040047648329268826,
        0.2690600393665964,
        -0.1630149799973257,
        0.09223627983083202,
        -0.00697497900342277,
        0.0784770528643884,
        -0.22451197663237454,
        -0.39739187332724224,
        -0.4752925601327301
      ],
      [
        -0.27934602824740196,
        -0.49463634390310457,
        -0.7554413341649004,
        0.7009233968386113,
        0.5684375909256895,
        -0.2405227790854068,
        0.08692711311273923,
        -0.10176955908758127,
        -0.07109095951002378,
        0.15727833486864623,
        0.3356346361998053,
        -0.11262566500872716,
        0.2659628831835896,
        -0.285484556535601,
        0.0015847655905671105,
        1.045012904197323
      ],
      [
        0.06065782904290681,
        0.40943365872417176,
        0.08315185530134886,
        0.20673989701222426,
        0.028249802031343144,
        -0.04260189529105111,
        -0.1948705991813549,
        0.1075753397393883,
        -0.21288429729644198,
        0.21479658727286838,
        0.2802904377877456,
        0.09112358479434877,
        -0.07156218338892296,
        0.09732161968215093,
        -0.07716826388660315,
        0.2768400802313802
      ],
      [
        -0.452963627667193,
        -0.032771809957033014,
        -0.43743118802295267,
        -0.3122195843770263,
        0.3834111580829933,
        0.2237962454929215,
        -0.1798700583211976,
        -0.37562586401022424,
        -0.7411322094604128,
        -0.08747359878864767,
        0.614072439738119,
        0.10821180085095314,
        -0.13989307151237237,
        0.10010027723005348,
        -0.3902395882486107,
        -0.0313775418093159
      ]
    ],
    [
      [
        0.20908793966976588,
        -0.11286535139475824,
        0.18809901783918
      ],
      [
        0.41144055805017493,
        0.5788668792757193,
        -0.8755443736876835
      ],
      [
        0.7839203740972719,
        0.9589265555406756,
        -1.192504719027587
      ],
      [
        -1.347120163101368,
        0.9461903179867216,
        0.4917028021635756
      ],
      [
        1.1152476245799565,
        -0.9510094337480977,
        0.690063917680807
      ],
      [
        0.04648725634649368,
        0.09129767603465035,
        0.5532113618837944
      ],
      [
        -0.1279051789169342,
        -0.3327369079765173,
        -0.15859139664721128
      ],
      [
        0.15992420193033224,
        -0.5535794288215994,
        0.22537999903685876
      ],
      [
        -0.19048442609815874,
        0.4058130579682384,
        -0.8464988487604472
      ],
      [
        0.19005798847375227,
        -1.1566892580648616,
        -0.19983448935902945
      ],
      [
        -0.0404340473996078,
        -0.4436695241629999,
        0.4187180109198097
      ],
      [
        -0.12004064691709317,
        -0.31255226936489733,
        0.0916498301878913
      ],
      [
        0.24990908717949742,
        0.23428780066056978,
        0.13613146836535608
      ],
      [
        0.19395410133776889,
        0.12283376470729081,
        0.704283075123399
      ],
      [
        -0.03079243947652543,
        -0.10857031303648419,
        -0.2664122309408965
      ],
      [
        -0.7445829646822766,
        -0.7691240294677973,
        0.3945225033373963
      ]
    ]
  ],
  "biases": [
    [
      [
        0.03230597253002377,
        0.3379381015408377,
        0.3983596426278531,
        0.40677876020060344,
        0.2805393447655983,
        0.0,
        0.0,
        0.0,
        0.0,
        0.3198961053626541,
        0.05927750924129049,
        -0.003365942113395068,
        0.0,
        -0.10687228021076434,
        0.0,
        0.2838949182110201
      ]
    ],
    [
      [
        -0.20253955017931285,
        -0.09420623531708901,
        0.29674578549640207
      ]
    ]
  ]
}