{
  "layer_sizes": [
    32,
    16,
    4
  ],
  "learning_rate": 0.3,
  "seed": 42,
  "output_activation": "softmax",
  "weights": [
    [
      [
        0.07519364948438137,
        -0.3090449154734399,
        0.22248084491551476,
        0.2248159648390181,
        -0.48899399313099545,
        -0.3880607456969593,
        0.03196010079182134,
        -0.06850148986353077,
        -0.003951358957184598,
        -0.213260981893395,
        0.29295390481820877,
        0.2234896813852761,
        0.01650767439030401,
        0.3354253583572191,
        0.14501681151511617,
        -0.16577297656463244
      ],
      [
        0.09120207556639824,
        -0.2887695391205657,
        0.2544806212907186,
        -0.022806692005348555,
        -0.04745078685385128,
        -0.23274825508236519,
        0.30563533466850756,
        -0.02807321229483578,
        -0.1068330251218892,
        -0.0880333876220574,
        0.2061817074908386,
        0.12040271361905869,
        0.1031831528989971,
        0.16132030736718164,
        0.5635513761697203,
        -0.05255361493997674
      ],
      [
        -0.1290463027221108,
        -0.2524920709752855,
        0.18886290160777433,
        0.2719178589214376,
        -0.02972206038125492,
        -0.2725549882220119,
        -0.2061203039228099,
        0.1732073551785401,
        0.18606247321974817,
        0.13578856707629874,
        -0.0932730157196721,
        0.08708202829471902,
        0.029171452285182056,
        0.1082872057974642,
        0.24599667043915222,
        0.10494902634984772
      ],
      [
        0.16874277031374726,
        -0.03215412154109316,
        0.10714789563639654,
        0.14749684220084974,
        -0.36552415093145296,
        -0.14243367307070517,
        -0.11759316357319888,
        -0.14916030383847065,
        -0.06853663238778333,
        0.37373532780859897,
        -0.1433533678208094,
        0.2711112861759093,
        -0.4207174429039512,
        -0.030106200881232798,
        0.06882774222835612,
        0.19560572199599666
      ],
      [
        0.1768210244939873,
        0.14928791988666532,
        -0.05231322209820885,
        -0.12591316242492712,
        0.21325877434675228,
        -0.11034195020178361,
        -0.31892158083448047,
        -0.2727626452785056,
        -0.22961414108151523,
        0.12429018601344101,
        0.10871084512014277,
        0.2016630360449811,
        -0.10681316158413356,
        0.09324997938438953,
        0.18453707444393894,
        -0.028286495773882432
      ],
      [
        0.11338800008498506,
        -0.07081859101134352,
        -0.09160897198025086,
        -0.10565441728699401,
        -0.2999697650372591,
        0.19016801222265703,
        -0.11810291105422,
        0.04440918064664337,
        0.09595297301995513,
        0.11163279400748602,
        0.159586651696985,
        -0.013420229985969838,
        -0.10582457801103844,
        -0.03364775500037832,
        -0.39257985927671935,
        -0.3557105529226055
      ],
      [
        -0.33166052354282705,
        -0.2983605958136864,
        0.13481160264475966,
        -0.23669497809880055,
        -0.09577583447738362,
        0.26229120546513657,
        -0.08906599276535648,
        0.19493805033913647,
        -0.23315548958358165,
        -0.051359389466907504,
        -0.16440110262514387,
        -0.05571657144710152,
        0.21007703436434888,
        -0.3782150491828763,
        0.13674538683856904,
        0.10848403973924663
      ],
      [
        -0.14952310937842506,
        -0.41056335251042964,
        0.05290042289236789,
        -0.14269839152473596,
        0.05693385687113984,
        -0.057052832600519125,
        0.40044472283022886,
        -0.04927974864589131,
        -0.2556254427365786,
        0.04481890873907904,
        0.1281035820954427,
        0.36883859133814834,
        0.20877781147864463,
        0.14283282140258824,
        0.39396519875699487,
        -0.2481406244245356
      ],
      [
        -0.15993788318743693,
        -0.2947655913430793,
        -0.52124162406646,
        -0.3441715368890772,
        0.2177523635060064,
        -0.19672013071074504,
        -0.36770157362566447,
        -0.6230407528394697,
        0.07837846186254882,
        0.20953164197359528,
        0.21527480324857023,
        1.3709428411202675,
        0.1036023583189991,
        0.212163205467315,
        -0.605964738302598,
        0.2018468135973568
      ],
      [
        -0.2032352738275815,
        -0.1669609210366194,
        -0.57681337304247,
        -0.035197721604096316,
        0.32545968449931645,
        -0.10190231457471555,
        -0.039658709259672076,
        -0.6280594207440372,
        -0.41867073617608924,
        -0.12157697726833272,
        -0.29735355737895647,
        1.0844597030134062,
        0.03256863036822146,
        0.7052326132310454,
        -0.1977770677545591,
        -0.16131699359285834
      ],
      [
        -0.24226481101231942,
        -0.2303554050472543,
        0.5669854790726918,
        -0.21567188406488189,
        0.20838710496655005,
        -0.2882476635031364,
        0.23289325321856102,
        0.10679689974883057,
        -0.038910543995635004,
        -0.010190631533858506,
        -0.09059251275484613,
        0.14055974789855916,
        -0.113745870085195,
        -0.25278638432660117,
        -0.2913449176278004,
        0.09219711858670704
      ],
      [
        0.39378719364838227,
        -0.009050985519956438,
        0.005208464436429839,
        0.061131320641850395,
        0.32526523945916985,
        -0.007670243640415755,
        -0.10273180770843429,
        0.2871313357373368,
        0.10743804003429097,
        0.383938997998998,
        0.11891302040797798,
        -0.27707556040208586,
        -0.34203979981141625,
        0.46634703967302327,
        0.4590559061479287,
        0.00417033583552701
      ],
      [
        -0.09579683028399694,
        1.1400996416893256,
        -0.44550474697077747,
        -0.2339055753153392,
        0.1608316986722611,
        0.5885442462879319,
        -0.005605492723807137,
        0.1468563208962756,
        -0.05609275206175534,
        0.3518704653284292,
        -0.3598105564229732,
        0.0888803337084894,
        -0.5125430252577556,
        -0.34303883219217984,
        -0.17488928225515524,
        -0.500361172457608
      ],
      [
        -0.22052371218641414,
        -0.132579749088519,
        0.26384368155290366,
        -0.3419233936936763,
        0.006422677181068204,
        -0.18355822731477447,
        -0.08191827359049021,
        0.2612486145485156,
        0.1347777896698691,
        0.3343495268606859,
        0.03447799129002635,
        -0.14494395538963672,
        -0.05596470422012488,
        0.11423925443301633,
        0.07228281556553248,
        -0.22204687890216468
      ],
      [
        0.02163682495274209,
        0.00800819362141029,
        0.6642365553473808,
        0.45888593856163223,
        -0.2145460336072412,
        -0.1343617093686739,
        -0.3658605004592508,
        -0.13711759526850678,
        0.07915018131647272,
        0.3014634052220584,
        -0.10916654833340066,
        -0.1344949124889101,
        -0.5368222574346637,
        0.01294857647898402,
        -0.23746412701278605,
        -0.08330971768534128
      ],
      [
        -0.2202008149961235,
        -0.07261452747645529,
        -0.40456405187525746,
        -0.37708652560653294,
        0.5310765820395386,
        -0.38437151429988753,
        -0.2741963946136599,
        0.4697875403026931,
        0.7265157227289893,
        -0.2928916572063354,
        -0.018957828094506177,
        0.11443058526316649,
        0.4321744111013981,
        -0.19309921299184837,
        -0.03317998553342275,
        0.24338453317161313
      ],
      [
        0.10770589816242819,
        -0.1430879067208408,
        0.0014123048348902009,
        -0.35404916635128075,
        -0.0607786319612025,
        -0.12911274148361862,
        0.05804247240656399,
        -0.12827264648238917,
        0.11813356105517235,
        0.25317895445495714,
        0.11196174301961796,
        0.11698079962783997,
        0.013288836894466841,
        0.05363615488806448,
        -0.1522500324336071,
        0.1281737045745042
      ],
      [
        -0.02530727005759883,
        0.47424318831933276,
        0.428206771582711,
        0.08613642388033987,
        -0.19199949839122807,
        -0.34061873697723427,
        0.29778573827221627,
        0.0762464645091494,
        0.1202847812667903,
        -0.43614649674354816,
        0.3049640314920468,
        0.14264678208162976,
        -0.2776076711036195,
        -0.06426614524727631,
        0.09406877704123463,
        0.06216683874523806
      ],
      [
        -0.07402841690511522,
        -0.07492095592980624,
        -0.02812629858782084,
        0.027815413766831814,
        0.3666377972807529,
        -0.7041804792142043,
        -0.05921256612742106,
        0.0546872635654765,
        0.07424742784066247,
        -0.09297864533032246,
        -0.36607603451714404,
        0.11104056845656651,
        0.43183755354104625,
        -0.32985029461382354,
        0.24409647937665183,
        -0.033081166624546306
      ],
      [
        -0.01631670691143829,
        -0.31227351658930325,
        -0.048745997125068635,
        0.3146859344159543,
        0.14442861452939057,
        0.37056203237110624,
        0.2943529722444234,
        0.12033082795475883,
        0.43623256196083565,
        0.10974828968457469,
        0.28010145530176633,
        -0.04510104085563801,
        0.016636453964801207,
        -0.12074089920985824,
        0.2755354596008177,
        -0.24552576662253922
      ],
      [
        0.19460196515018888,
        -0.0967116532896059,
        0.3276798193307302,
        0.1773920329240296,
        0.45392634344416405,
        0.12017780380328136,
        -0.39301006391331017,
        -0.006179135002185454,
        -0.29275286772981635,
        -0.12956996059156867,
        0.450911519421682,
        0.18842515025246304,
        -0.17473260714468658,
        -0.19981428499488876,
        0.036334999171169884,
        -0.2550898981891048
      ],
      [
        -0.17261992517535207,
        0.511216158536516,
        0.31310736964506597,
        0.09264910990013345,
        -0.5788814989895201,
        0.36710532312795274,
        0.014246763290449318,
        0.31853362990516404,
        0.28308747880886254,
        -0.5158095692011857,
        -0.12180633776690952,
        0.22747577709925587,
        -0.3953985998634856,
        0.34423007256800636,
        0.26136376467646244,
        0.28208552516003593
      ],
      [
        -0.1437215358346751,
        0.15439203357823664,
        0.30198593496115994,
        0.04789429077550676,
        0.05736502720713784,
        0.005069940839051627,
        -0.21583631618484542,
        -0.02632301183772347,
        -0.0378817026942021,
        0.09584846608837377,
        0.3230604728300753,
        -0.2355923229665632,
        -0.03125225757989441,
        0.4239789435299542,
        -0.15775758125103626,
        -0.15651236516640296
      ],
      [
        0.049590927503571934,
        0.16204740870801404,
        0.03772455985406531,
        0.321914933350462,
        0.21296329967409552,
        0.14793914774113562,
        0.13852912533102332,
        0.592472433308886,
        -0.05104149179762345,
        -0.5008805730166285,
        0.47416800148178684,
        -0.0853831602111673,
        0.02697011108575826,
        0.3810027278303426,
        -0.3724254093126269,
        -0.26386166437035774
      ],
      [
        -0.4013051047339399,
        -0.24758296141967195,
        0.14477719746814885,
        0.1207217464444074,
        0.06783334886460224,
        -0.4157073399544714,
        -0.577525859158161,
        0.024147554569960327,
        -0.11769507799069634,
        0.11484644292915294,
        0.24859281765781896,
        0.06360205554270955,
        0.19003327134396344,
        0.11091790014397807,
        0.16065565235247145,
        -0.12711817656129348
      ],
      [
        -0.046874094366317565,
        -0.04890375366239272,
        0.2748682107821557,
        -0.11908572157371368,
        0.12782142199795585,
        -0.1914914359416045,
        -0.02938554183203259,
        0.2284980769507478,
        -0.4977672319257638,
        -0.32411808201869025,
        -0.2243375271557023,
        -0.5253206349059978,
        -0.16956611003879418,
        0.29458858816235695,
        -0.014942064691434307,
        0.14754779879781738
      ],
      [
        0.26612771457122625,
        -0.12966287057147646,
        -0.06857387607114163,
        0.26069852256868015,
        0.023031664608527302,
        -0.20934955595686552,
        -0.1486000880496838,
        -0.3961233009670821,
        -0.22047347301664372,
        -0.08950417201860729,
        1.0172998666476507,
        0.3684424304754962,
        -0.34554537884426,
        -0.02008144873479659,
        0.2843084597746693,
        -0.19607824940629756
      ],
      [
        -0.03894832227840355,
        -0.9193108601002821,
        0.1807848555025144,
        -0.228948128025852,
        -0.13347505959338865,
        -0.2674381028224225,
        -0.16357081917188887,
        0.08098343734790144,
        -0.04575109481733199,
        0.08216550057062026,
        0.9068840752852113,
        0.26841538656604197,
        -0.08569653771609483,
        -0.48750277001120956,
        0.8112500487070484,
        -0.397624564546412
      ],
      [
        0.27784230183997644,
        0.32527074743414736,
        -0.06298231554210851,
        0.07519562515566813,
        0.4867432863915757,
        0.7072057355768805,
        0.01584063177611661,
        0.11398614652032851,
        0.22038913902488086,
        -0.2114152581918368,
        0.009980695800216622,
        -0.007806920399678907,
        0.0784770528643884,
        -0.2796124279584302,
        -0.36189024033902195,
        -0.5462124314148429
      ],
      [
        -0.28015183755176976,
        -0.020005926979514043,
        -0.07414340700117338,
        0.47408784681996746,
        0.27548848883682536,
        -0.17209788705914522,
        0.08617478710920021,
        -0.06048390812285976,
        -0.09532465121654589,
        0.046331412353845504,
        0.14803315369763675,
        -0.0736134798296177,
        0.2659628831835896,
        -0.2992027588093795,
        0.030838514803355442,
        0.6554859968321248
      ],
      [
        0.05576993565631878,
        0.5756313857653453,
        0.7164687376517808,
        0.1581864501842607,
        -0.08090111808409733,
        -0.2932101958477801,
        -0.1948705991813549,
        0.5688823422786107,
        -0.21288429729644198,
        0.16639630907835729,
        0.19695480537348753,
        -0.30709662085621836,
        -0.07156218338892296,
        0.10822536193033601,
        -0.3723158334654863,
        0.7211064403814321
      ],
      [
        -0.4578515210537809,
        0.133425917084141,
        0.1958856943274793,
        -0.36077303120498977,
        0.274260237967553,
        -0.0268120550638076,
        -0.1798700583211976,
        0.08568113852899802,
        -0.7411322094604128,
        -0.13587387698315864,
        0.5307368073238609,
        -0.29000840479961393,
        -0.13989307151237237,
        0.11100401947823856,
        -0.6853871578274938,
        0.41288881834073604
      ]
    ],
    [
      [
        0.03512948011939906,
        -0.03030516169860963,
        0.27953766116526,
        0.12181011481568049
      ],
      [
        -0.1852116861535089,
        -0.9050355543973783,
        0.5303795554517384,
        1.4461221231153703
      ],
      [
        -0.7121225718118621,
        0.13156620115313267,
        0.9067016310354504,
        -0.5783719553829842
      ],
      [
        0.48381511682182365,
        -0.11724073361927692,
        0.49969138257339046,
        0.034523599083221466
      ],
      [
        0.29786514984585505,
        0.4443255751883885,
        -0.17125129317455776,
        -0.3870724808346922
      ],
      [
        -0.3468868910516671,
        0.008825263651391711,
        -0.8330597597946108,
        0.8442547626932665
      ],
      [
        -0.190830659256543,
        0.40550737531550285,
        -0.8468453765740916,
        -0.277094553087941
      ],
      [
        -1.1242948728845406,
        -0.2599203765888084,
        0.48906743938338504,
        0.030971985811584047
      ],
      [
        -0.1489968369193666,
        -0.1053948856324113,
        0.006247751257268893,
        -0.1823816134014417
      ],
      [
        0.24990908717949742,
        0.23428780066056978,
        0.13613146836535608,
        0.1967642856632567
      ],
      [
        -0.11375323149315958,
        1.320088367114792,
        0.24560062067596428,
        -0.7669918533054049
      ],
      [
        0.9111319417030476,
        -0.433141932368966,
        -1.2550081101183383,
        -0.6085786209693178
      ],
      [
        -0.02498928858151643,
        0.11819117613918109,
        0.018081448203036535,
        -0.2706575929540375
      ],
      [
        0.8151886334667268,
        -0.1802618394837436,
        0.16222682929629212,
        -0.5047533782814847
      ],
      [
        -0.17536450026838046,
        0.922640079293377,
        -0.874445189422507,
        -0.1484980920728214
      ],
      [
        0.05143384501615637,
        -0.6042495306424913,
        0.6317518127725307,
        -0.7516202667470886
      ]
    ]
  ],
  "biases": [
    [
      [
        -0.011177692466185326,
        0.5222736608203701,
        0.1605201737511316,
        -0.1313285957626148,
        -0.014008070349379264,
        0.24767772938267335,
        -0.006020936568598547,
        0.381072801283663,
        -0.19275024319076842,
        0.0,
        0.29663604891668793,
        0.22897752447514785,
        0.0,
        0.14744157029905208,
        0.36912566397866997,
        0.2838877859908189
      ]
    ],
    [
      [
        0.16892416380815067,
        -0.03429039783315421,
        -0.09660038030389301,
        -0.03803338567110345
      ]
    ]
  ]
}