{
  "layer_sizes": [
    32,
    16,
    3
  ],
  "learning_rate": 0.3,
  "seed": 42,
  "output_activation": "softmax",
  "weights": [
    [
      [
        0.07617926993860784,
        -0.24408565171398966,
        0.19873775293935173,
        0.2231630829988617,
        -0.4906103038199521,
        -0.3255448767155795,
        0.03196010079182134,
        -0.09629107217326908,
        0.04603525760417017,
        -0.2055872232555289,
        0.22955930301708047,
        0.19699343221513285,
        0.01650767439030401,
        0.3320078041041009,
        0.1168773355630114,
        -0.21482311572080956
      ],
      [
        0.09218769602062471,
        -0.22381027536111556,
        0.23073752931455555,
        -0.02445957384550498,
        -0.04906709754280834,
        -0.17023238610098534,
        0.30563533466850756,
        -0.055862794604574065,
        -0.05684640856053444,
        -0.08035962898419127,
        0.1427871056897105,
        0.09390646444891534,
        0.1031831528989971,
        0.1579027531140634,
        0.5354119002176153,
        -0.1016037540961539
      ],
      [
        -0.12806068226788433,
        -0.18753280721583526,
        0.16511980963161133,
        0.27026497708128117,
        -0.03133837107021199,
        -0.210039119240632,
        -0.2061203039228099,
        0.14541777286880173,
        0.23604908978110284,
        0.14346232571416487,
        -0.15666761752080025,
        0.06058577912457572,
        0.029171452285182056,
        0.10486965154434605,
        0.21785719448704746,
        0.05589888719367057
      ],
      [
        0.16972839076797372,
        0.03280514221835707,
        0.08340480366023348,
        0.14584396036069333,
        -0.3671404616204096,
        -0.07991780408932533,
        -0.11759316357319888,
        -0.17694988614820903,
        -0.018550015826428585,
        0.38140908644646504,
        -0.20674796962193748,
        0.24461503700576598,
        -0.4207174429039512,
        -0.03352375513435095,
        0.0406882662762514,
        0.14655558283981954
      ],
      [
        0.17780664494821374,
        0.21424718364611547,
        -0.07605631407437194,
        -0.12756604426508356,
        0.2116424636577951,
        -0.04782608122040372,
        -0.31892158083448047,
        -0.3005522275882437,
        -0.17962752452016056,
        0.13196394465130712,
        0.04531624331901457,
        0.17516678687483783,
        -0.10681316158413356,
        0.08983242513127136,
        0.15639759849183418,
        -0.0773366349300596
      ],
      [
        0.11419380938935286,
        -0.14957111042052865,
        -0.0796385076535305,
        -0.10741256959852401,
        -0.3018114180537529,
        0.12174312019639545,
        -0.11735058505068097,
        -0.014106894405451669,
        0.1704222117067195,
        0.11930655264535214,
        0.1760560865445699,
        -0.022075922769460125,
        -0.10582457801103844,
        0.030267949635493018,
        -0.42183360848950746,
        -0.3617781181057718
      ],
      [
        -0.3306749030886006,
        -0.23340133205423627,
        0.1110685106685966,
        -0.23834785993895696,
        -0.0973921451663407,
        0.32480707444651635,
        -0.08906599276535648,
        0.1671484680293981,
        -0.18316887302222695,
        -0.043685630829041366,
        -0.22779570442627198,
        -0.08221282061724486,
        0.21007703436434888,
        -0.3816326034359945,
        0.10860591088646433,
        0.05943390058306947
      ],
      [
        -0.1485374889241986,
        -0.3296937139048453,
        0.04028228490394223,
        -0.15632936946383408,
        0.05246603952568954,
        0.00546303638086072,
        0.40044472283022886,
        -0.09429975504300311,
        -0.1554032791949815,
        0.06016642601481131,
        0.07441878959568786,
        0.3448877905259007,
        0.20877781147864463,
        0.18961276951156295,
        0.36582572280489045,
        -0.2971907635807127
      ],
      [
        -0.15993788318743693,
        -0.21573361050524706,
        -0.08632749680120455,
        -0.35614963298801894,
        0.15593623004710772,
        -0.055555674274693344,
        -0.36770157362566447,
        -0.2711251943892589,
        0.12861400884279112,
        0.2172054006114614,
        0.5088925322243197,
        0.7310110648597286,
        0.1036023583189991,
        -0.1971870276458733,
        -0.5330115701828273,
        0.06692786558595895
      ],
      [
        -0.2032352738275815,
        -0.0879289401987871,
        -0.1418992457772146,
        -0.04717581770303808,
        0.2636435510404179,
        0.039262141861336156,
        -0.039658709259672076,
        -0.2761438622938264,
        -0.36843518919584684,
        -0.1139032186304666,
        -0.0037358284032068477,
        0.4445279267528664,
        0.03256863036822146,
        0.2958823801178571,
        -0.12482389963478802,
        -0.29623594160425615
      ],
      [
        -0.24127919055809297,
        -0.16539614128780414,
        0.5432423870965283,
        -0.2173247659050383,
        0.20677079427759287,
        -0.2257317945217566,
        0.23289325321856102,
        0.07900731743909227,
        0.011076072565719745,
        -0.0025168728959923813,
        -0.15398711455597427,
        0.1140634987284159,
        -0.113745870085195,
        -0.25620393857971935,
        -0.3194843935799048,
        0.04314697943052987
      ],
      [
        0.3947728141026087,
        0.05590827823949374,
        -0.018534627539733214,
        0.05947843880169396,
        0.32364892877021323,
        0.054845625340964085,
        -0.10273180770843429,
        0.2593417534275987,
        0.15742465659564564,
        0.39161275663686407,
        0.05551841860684979,
        -0.3035718095722294,
        -0.34203979981141625,
        0.4629294854199051,
        0.43091643019582426,
        -0.04487980332065016
      ],
      [
        -0.09579683028399694,
        0.44491294729122177,
        -0.2211366505721848,
        -0.2835722352336654,
        0.14657416538979487,
        -0.0986512807148974,
        -0.001280466680017824,
        -0.1270128450679958,
        0.33557137210094534,
        0.3902392585177598,
        0.07119527323230276,
        0.17371194010869334,
        -0.5125430252577556,
        0.23880791132793439,
        -0.21080756757321778,
        -0.304703265105907
      ],
      [
        -0.2195380917321877,
        -0.06762048532906878,
        0.2401005895767407,
        -0.34357627553383274,
        0.004806366492111131,
        -0.12104235833339462,
        -0.08191827359049021,
        0.23345903223877748,
        0.1847644062312238,
        0.342023285498552,
        -0.028916610511101844,
        -0.17144020455977999,
        -0.05596470422012488,
        0.11082170017989822,
        0.04414333961342776,
        -0.27109701805834163
      ],
      [
        0.022622445406968554,
        0.05923792016230633,
        1.0276569541370462,
        0.38808843426682027,
        0.02081756054293112,
        -0.07184584038729402,
        -0.3658605004592508,
        -0.14767675349087162,
        -0.09331505193289631,
        0.3652157615802038,
        -0.239546347553273,
        -0.2187843913041629,
        -0.5368222574346637,
        -0.2046605002244247,
        -0.2656036029648908,
        -0.13235985684151844
      ],
      [
        -0.21921519454189706,
        0.22811043213598975,
        -0.4910267548962926,
        -0.36676131134774764,
        0.07543518747659082,
        -0.32185564531850774,
        -0.2741963946136599,
        0.3425338062267739,
        1.4895930905721395,
        -0.5100057370675043,
        -0.141693591919573,
        0.3140427685299235,
        0.4321744111013981,
        -0.4000003889483419,
        -0.061319461485527436,
        0.194334394015436
      ],
      [
        0.10869151861665466,
        -0.24014150088469788,
        -0.304804790912655,
        -0.34372395209249546,
        0.14389267453102336,
        -0.06659687250223878,
        0.05804247240656399,
        -0.138831804704754,
        -0.13300066586133508,
        0.4585118891659831,
        0.21152461772663236,
        -0.06822772256605276,
        0.013288836894466841,
        0.6572682760844483,
        -0.18038950838571186,
        0.079123565418327
      ],
      [
        -0.024321649603372367,
        0.5392024520787828,
        0.40446367960654817,
        0.08448354204018346,
        -0.19361580908018525,
        -0.2781028679958545,
        0.29778573827221627,
        0.0484568821994111,
        0.170271397828145,
        -0.4284727381056821,
        0.24156942969091852,
        0.1161505329114865,
        -0.2776076711036195,
        -0.06768369950039442,
        0.0659293010891299,
        0.013116699589060907
      ],
      [
        -0.07304279645088875,
        -0.009961692170356001,
        -0.0518693905639839,
        0.02616253192667539,
        0.3650214865917963,
        -0.6416646102328244,
        -0.05921256612742106,
        0.026897681255738215,
        0.12423404440201724,
        -0.08530488669245634,
        -0.42947063631827237,
        0.08454431928642317,
        0.43183755354104625,
        -0.3332678488669417,
        0.21595700342454707,
        -0.08213130578072347
      ],
      [
        -0.015331086457211825,
        -0.2473142528298531,
        -0.07248908910123172,
        0.3130330525757979,
        0.1428123038404334,
        0.433077901352486,
        0.2943529722444234,
        0.09254124564502052,
        0.48621917852219043,
        0.11742204832244081,
        0.21670685350063806,
        -0.07159729002578133,
        0.016636453964801207,
        -0.12415845346297645,
        0.24739598364871326,
        -0.2945759057787164
      ],
      [
        0.19558758560441533,
        -0.03175238953015568,
        0.3039367273545674,
        0.1757391510838732,
        0.4523100327552074,
        0.1826936727846612,
        -0.39301006391331017,
        -0.03396871731192373,
        -0.24276625116846168,
        -0.12189620195370254,
        0.3875169176205537,
        0.16192890108231978,
        -0.17473260714468658,
        -0.20323183924800697,
        0.008195523219065198,
        -0.30414003734528194
      ],
      [
        -0.16778506934914528,
        0.0939127427339452,
        0.2999529630144116,
        0.14021227195716818,
        -0.5756738838060181,
        0.07609168225756495,
        0.01800839330814448,
        0.08624214725579975,
        0.4542879673930442,
        -0.5081358105633196,
        -0.13806604699640307,
        0.15027202905623444,
        -0.3953985998634856,
        0.4191847643754699,
        0.0920891531751646,
        0.211645996460851
      ],
      [
        -0.14273591538044864,
        0.2193512973376868,
        0.27824284298499713,
        0.04624140893535032,
        0.05574871651818079,
        0.06758580982043147,
        -0.21583631618484542,
        -0.05411259414746176,
        0.012104913867152647,
        0.1035222247262399,
        0.2596658710289469,
        -0.26208857213670667,
        -0.03125225757989441,
        0.420561389276836,
        -0.18589705720314104,
        -0.20556250432258008
      ],
      [
        0.050576547957798396,
        0.2270066724674642,
        0.013981467877902252,
        0.32026205151030557,
        0.21134698898513835,
        0.21045501672251546,
        0.13852912533102332,
        0.5646828509991478,
        -0.0010548752362686878,
        -0.49320681437876257,
        0.4107733996806585,
        -0.11187940938131065,
        0.02697011108575826,
        0.37758517357722443,
        -0.40056488526473133,
        -0.31291180352653486
      ],
      [
        -0.4003194842797134,
        -0.1826236976602218,
        0.12103410549198584,
        0.119068864604251,
        0.06621703817564516,
        -0.3531914709730916,
        -0.577525859158161,
        -0.00364202773977796,
        -0.06770846142934157,
        0.12252020156701907,
        0.18519821585669086,
        0.03710580637256625,
        0.19003327134396344,
        0.10750034589085991,
        0.13251617640036667,
        -0.1761683157174706
      ],
      [
        -0.044902853457864635,
        0.05137486179181936,
        0.603420563607921,
        -0.1795580116097403,
        0.3644202121156643,
        -0.06645969797884475,
        -0.02938554183203259,
        0.20737976050601825,
        -0.6704813955940205,
        -0.26036572566054483,
        -0.42782173747807606,
        -0.6386518112492897,
        -0.16956611003879418,
        0.023364454843737243,
        -0.07122101659564369,
        0.04944752048546303
      ],
      [
        0.27230437417769815,
        0.3341023706945032,
        0.3810039610720315,
        0.25727375383875206,
        0.25716006279116344,
        -0.20934955595686552,
        -0.1486000880496838,
        -0.37013412814125407,
        -0.3942497662638945,
        -0.02575181566046182,
        0.14362086672727953,
        0.37494467650428226,
        -0.34554537884426,
        -0.06578715302321815,
        -0.2601359847893836,
        0.11867427211580049
      ],
      [
        -0.03277166267193165,
        -0.4555456188343023,
        0.6303626926456873,
        -0.23237289675578005,
        0.10065333858924748,
        -0.2674381028224225,
        -0.16357081917188887,
        0.1069726101737293,
        -0.2195273880645828,
        0.1459178569287658,
        0.033205075364840034,
        0.27491763259482804,
        -0.08569653771609483,
        -0.5332084742996307,
        0.26680560414299576,
        -0.08287204302431367
      ],
      [
        0.27864811114434423,
        0.09802511592319765,
        0.36550406220273013,
        0.006071254957976509,
        0.7218815382142111,
        0.5192451322634383,
        0.017345283783194675,
        0.040047648329268826,
        0.09684373653611496,
        -0.1476629018336913,
        0.025992205037192906,
        -0.06171349327567784,
        0.0784770528643884,
        -0.37233622157554924,
        -0.39739187332724224,
        -0.5182458589978229
      ],
      [
        -0.27934602824740196,
        -0.1124879836072532,
        0.3249905480913759,
        0.40318507205378196,
        0.5106267406594608,
        -0.2405227790854068,
        0.08692711311273923,
        -0.10176955908758127,
        -0.24330726234050515,
        0.11008376871199099,
        0.09751739112647745,
        -0.14006240225821756,
        0.2659628831835896,
        -0.44947857662379886,
        0.0015847655905671105,
        0.6494184316489581
      ],
      [
        0.05576993565631878,
        0.609979697350672,
        -0.028714612513832678,
        0.14519427383244918,
        -0.4710723891286563,
        -0.04260189529105111,
        -0.1948705991813549,
        -0.009119236114166318,
        0.5504420009655956,
        -0.05071777078281171,
        0.22169039838891222,
        0.3202867326041036,
        -0.07156218338892296,
        -0.03979472451410872,
        -0.07716826388660315,
        0.23388678136628732
      ],
      [
        -0.4578515210537809,
        -0.2300043251068346,
        -0.7690520485646439,
        -0.37376520755680126,
        0.5444016679781669,
        0.2237962454929215,
        -0.1798700583211976,
        -0.37562586401022424,
        -0.9920175059580324,
        0.0694590577278671,
        0.7777710388713663,
        -0.04744575679994176,
        -0.13989307151237237,
        0.773517230186671,
        -0.3902395882486107,
        -0.07433084067440886
      ]
    ],
    [
      [
        0.03517059787236524,
        -0.030441177383622633,
        0.2795921856254451
      ],
      [
        0.00834829503295509,
        0.5823795158554044,
        -0.4759647472501482
      ],
      [
        1.4612091641585905,
        0.021751669914490256,
        -0.9326186234627191
      ],
      [
        -0.22932838752653278,
        0.4219503870379804,
        -0.10184904246251819
      ],
      [
        0.7801635785174995,
        -0.5411616688644849,
        0.6153001988596508
      ],
      [
        0.04648725634649368,
        0.09129767603465035,
        0.5532113618837944
      ],
      [
        -0.1279051789169342,
        -0.3327369079765173,
        -0.15859139664721128
      ],
      [
        0.12542299257235992,
        -0.49641695891957366,
        0.20271873849280542
      ],
      [
        -0.7657080473834621,
        1.357513279160199,
        -1.2229754486671054
      ],
      [
        -0.3454157468177346,
        -0.8529658733276637,
        0.03191586119525977
      ],
      [
        -0.35453692824085586,
        -0.1656712885365373,
        0.4548226561345954
      ],
      [
        -0.40930057879752807,
        0.33469859386695117,
        -0.2663411011635219
      ],
      [
        0.24990908717949742,
        0.23428780066056978,
        0.13613146836535608
      ],
      [
        -0.42031509793948213,
        -0.04446208543563005,
        1.4858481245435708
      ],
      [
        -0.03079243947652543,
        -0.10857031303648419,
        -0.2664122309408965
      ],
      [
        -0.36495996716566187,
        -0.4399872200040327,
        -0.31423730364298325
      ]
    ]
  ],
  "biases": [
    [
      [
        0.0,
        0.19072618842627942,
        0.4932144792726681,
        -0.2156748416361436,
        0.1785200178855061,
        0.0,
        0.0,
        -0.20440825879740865,
        0.43975971046822343,
        0.14885710869055693,
        0.0632423620642569,
        -0.019911022001494385,
        0.0,
        0.44676576469545015,
        0.0,
        0.0
      ]
    ],
    [
      [
        -0.03003886058967468,
        -0.2236326871761641,
        0.2536715477658387
      ]
    ]
  ]
}