{
  "layer_sizes": [
    32,
    16,
    4
  ],
  "learning_rate": 0.3,
  "seed": 42,
  "output_activation": "softmax",
  "weights": [
    [
      [
        0.07566913114265318,
        -0.2599960265601239,
        0.19961044595989358,
        0.2963657947751926,
        -0.44780791538553816,
        -0.3196521782000923,
        0.03196010079182134,
        -0.09580917748916368,
        -0.004200289376072199,
        -0.2072620966444034,
        0.2728925709797766,
        0.20455217767730652,
        0.0157335202502256,
        0.3564251817880387,
        0.11966601982770478,
        -0.17889377715498397
      ],
      [
        0.09156372304207758,
        -0.23972065020724972,
        0.23886661276754206,
        0.06664579482555798,
        0.02973817336941188,
        -0.2094055795497521,
        0.30563533466850756,
        -0.09682908036440693,
        -0.1070819555407768,
        -0.08373890566491587,
        0.21649928542062194,
        0.1008655167600473,
        0.1031831528989971,
        0.2076386494609312,
        0.5344023488197329,
        -0.0570982437947164
      ],
      [
        -0.12868465524643147,
        -0.20344318206196943,
        0.17324889308459784,
        0.3613703457523443,
        0.04746689984200828,
        -0.24921231268939878,
        -0.2061203039228099,
        0.10445148710896891,
        0.18581354280086057,
        0.14008304903344015,
        -0.0829554377898888,
        0.06754483143570762,
        0.029171452285182056,
        0.15460554789121367,
        0.2168476430891651,
        0.10040439749510807
      ],
      [
        0.1691044177894266,
        0.016894767372222865,
        0.09153388711322004,
        0.23694932903175622,
        -0.2883351907081896,
        -0.11909099753809207,
        -0.11759316357319888,
        -0.21791617190804188,
        -0.06878556280667093,
        0.37802980976574035,
        -0.13303578989102605,
        0.2515740893168978,
        -0.4207174429039512,
        0.016212141212516778,
        0.03967871487836904,
        0.19106109314125702
      ],
      [
        0.1771826719696666,
        0.1983368087999813,
        -0.06792723062138538,
        -0.036460675594020615,
        0.29044773457001555,
        -0.08699927466917043,
        -0.31892158083448047,
        -0.34151851334807676,
        -0.22986307150040283,
        0.1285846679705825,
        0.11902842304992604,
        0.18212583918596972,
        -0.10681316158413356,
        0.139568321478139,
        0.15538804709395182,
        -0.03283112462862213
      ],
      [
        0.1111108863309312,
        -0.16548148526666281,
        -0.6731708799310533,
        0.36347869894265683,
        -0.6497633748688676,
        0.10906258232699415,
        -0.11735058505068097,
        -0.16771177222318742,
        0.12018666472647724,
        0.2872036962176975,
        0.2005820974128832,
        0.2262424542731177,
        -0.10699418992261342,
        0.7782219541191389,
        -0.4163733960245591,
        -0.3734350510909321
      ],
      [
        -0.3306749030886006,
        -0.24931170690037044,
        0.04255003259359539,
        -0.27952175867960255,
        -0.4340505940012105,
        0.906123081388038,
        -0.08906599276535648,
        0.6570296134572704,
        -0.23340442000246925,
        -0.013219610602922052,
        -0.46991118436273027,
        -0.04898278069894338,
        0.1982089991349548,
        -0.5404795217285152,
        0.16401060816483262,
        0.05243051193773705
      ],
      [
        -0.1485374889241986,
        -0.36151446359711364,
        -0.010664385115164501,
        -0.15894917468574424,
        -0.11158592490700557,
        0.2961210398516215,
        0.40044472283022886,
        0.17648645380199363,
        -0.25587437315546624,
        0.06388879817107178,
        -0.06120366432460115,
        0.35768463794820776,
        0.2028437938639476,
        0.034893056822163315,
        0.39352807144407453,
        -0.30069245790337895
      ],
      [
        -0.16095816077934624,
        -0.23164398535138123,
        -0.07345715677238322,
        -0.22172230553429872,
        0.2386895002594426,
        -0.04377027724371898,
        -0.36770157362566447,
        -0.28739182910842137,
        0.07837846186254882,
        0.2215294124715783,
        0.6052688774510856,
        0.7486740041419712,
        0.10205405003884228,
        -0.0981547699159045,
        -0.5274342016534405,
        0.13878654271761026
      ],
      [
        -0.20374541262353615,
        -0.10383931504492133,
        -0.14102655275667275,
        0.026026894073292867,
        0.30644593947483184,
        0.04515484037682335,
        -0.039658709259672076,
        -0.2756619676097207,
        -0.41867073617608924,
        -0.1155780920193412,
        0.03959743955948922,
        0.4520866722150401,
        0.031794476228143055,
        0.32029975780179487,
        -0.12203521537009464,
        -0.26030660303843034
      ],
      [
        -0.24127919055809297,
        -0.1813065161339383,
        0.6035133194190649,
        -0.9947193746279129,
        1.2731293399809591,
        -0.18392301393814584,
        0.23289325321856102,
        -0.06803600810959413,
        -0.0391594744145226,
        -0.061112394353963276,
        0.6226215066825638,
        0.15276638299788023,
        -0.113745870085195,
        -0.2774904829952247,
        -0.3194843935799048,
        -0.28001540614837167
      ],
      [
        0.3942626753066541,
        0.03999790339335956,
        -0.017661934519191236,
        0.1326811505780249,
        0.36645131720462715,
        0.060738323856451275,
        -0.10273180770843429,
        0.2598236481117044,
        0.10718910961540337,
        0.3899378832479895,
        0.09885168656954585,
        -0.2960130641100557,
        -0.34281395395149467,
        0.4873468631038429,
        0.4337051144605177,
        -0.008950464754824482
      ],
      [
        -0.09579683028399694,
        0.36536107306055055,
        -0.312632373065412,
        -0.2569017515136987,
        -0.05136202350984084,
        0.2646712236235535,
        -0.001280466680017824,
        0.25454597620668373,
        0.08439363719973339,
        0.37570782711842016,
        -0.12260731742149168,
        0.18334437849183782,
        -0.519960547276127,
        -0.080085485439047,
        -0.1761796317742375,
        -0.30908038300923973
      ],
      [
        -0.22004823052814235,
        -0.08353086017520302,
        0.22225433147056206,
        -0.28770913618510124,
        -0.06312273203034906,
        0.07444709515001816,
        -0.08191827359049021,
        0.38809639818005515,
        0.13452885925098151,
        0.3527877363695602,
        -0.06138266763561131,
        -0.15221325040635253,
        -0.06060962906059533,
        0.09980297006087,
        0.06500231729602736,
        -0.23745184119644072
      ],
      [
        0.022112306611013904,
        0.057057082534726286,
        0.6413661563917602,
        0.5304357684978067,
        -0.17335995586178424,
        -0.0659531418718068,
        -0.3658605004592508,
        -0.16442528289413963,
        0.07890125089758512,
        0.3074622904710499,
        -0.12922788217183281,
        -0.1534324161968797,
        -0.5375964115747421,
        0.033948399909803834,
        -0.26281491870019735,
        -0.09643051827569274
      ],
      [
        -0.21921519454189706,
        -0.023565638563139247,
        -0.4681288598827896,
        -0.39333730876754136,
        0.3625568002613931,
        -0.031197641847747,
        -0.2741963946136599,
        0.6955537427505781,
        0.7262667923101017,
        -0.27382176777434264,
        -0.20826507451455012,
        0.10327663187322603,
        0.42624039348670106,
        -0.3010389775722735,
        -0.03361711284634329,
        0.19083269969276978
      ],
      [
        0.10806754563810753,
        -0.09403901780752481,
        -0.01420170368828631,
        -0.2645966795203741,
        0.016410328262060712,
        -0.10577006595100552,
        0.05804247240656399,
        -0.1970285145519604,
        0.11788463063628475,
        0.2574734364120985,
        0.12227932094940124,
        0.09744360276882859,
        0.013288836894466841,
        0.09995449698181404,
        -0.18139905978359422,
        0.1236290757197645
      ],
      [
        -0.024945622581919492,
        0.5232920772326487,
        0.4125927630595346,
        0.1755889107112463,
        -0.11481053816796487,
        -0.3172760614446211,
        0.29778573827221627,
        0.007490596439578222,
        0.1200358508479027,
        -0.4318520147864068,
        0.3152816094218298,
        0.12310958522261846,
        -0.2776076711036195,
        -0.017947803153526756,
        0.06491974969124754,
        0.05762220989049838
      ],
      [
        -0.07366676942943587,
        -0.025872067016490214,
        -0.0437403071109974,
        0.11726790059773833,
        0.4438267575040163,
        -0.6808378036815914,
        -0.05921256612742106,
        -0.014068604504094667,
        0.07399849742177488,
        -0.08868416337318094,
        -0.35575845658736105,
        0.09150337159755513,
        0.43183755354104625,
        -0.28353195252007396,
        0.2149474520266647,
        -0.03762579547928598
      ],
      [
        -0.01595505943575895,
        -0.26322462767598725,
        -0.06436000564824516,
        0.404138421246861,
        0.22161757475265378,
        0.3939047079037194,
        0.2943529722444234,
        0.051574959885187656,
        0.435983631541948,
        0.11404277164171621,
        0.2904190332315495,
        -0.06463823771464937,
        0.016636453964801207,
        -0.07442255711610872,
        0.2463864322508309,
        -0.25007039547727883
      ],
      [
        0.19558758560441533,
        -0.047662764376289864,
        0.26411501132319803,
        0.16114124976302133,
        0.2854065616660188,
        0.47335167625542196,
        -0.39301006391331017,
        0.2195870674456994,
        -0.293001798148704,
        -0.11050007115957595,
        0.26160427300163785,
        0.17727119686252268,
        -0.1806666247593836,
        -0.3077540495753139,
        0.035897871858249344,
        -0.30764173166794817
      ],
      [
        -0.1684090423276924,
        0.07800236788781097,
        0.308082046467398,
        0.2313176406282311,
        -0.4968686128937981,
        0.0369184888087982,
        0.01800839330814448,
        0.04527586149596687,
        0.4040524204128018,
        -0.5115150872440439,
        -0.06435386726549165,
        0.15723108136736633,
        -0.3953985998634856,
        0.4689206607223377,
        0.09107960177728225,
        0.2561515067622885
      ],
      [
        -0.14335988835899577,
        0.20344092249155263,
        0.28637192643798354,
        0.13734677760641323,
        0.13455398743040103,
        0.02841261637166472,
        -0.21583631618484542,
        -0.09507887990729462,
        -0.0381306331130897,
        0.1001429480455153,
        0.33337805075985827,
        -0.2551295198255746,
        -0.03125225757989441,
        0.47029728562370376,
        -0.1869066086010234,
        -0.1610569940211426
      ],
      [
        0.04995257497925127,
        0.21109629762133003,
        0.022110551330888798,
        0.4113674201813687,
        0.2901522598973588,
        0.1712818232737487,
        0.13852912533102332,
        0.5237165652393146,
        -0.05129042221651105,
        -0.4965860910594869,
        0.48448557941156983,
        -0.10492035707017869,
        0.02697011108575826,
        0.4273210699240922,
        -0.4015744366626137,
        -0.26840629322509735
      ],
      [
        -0.4009434572582605,
        -0.19853407250635596,
        0.12916318894497245,
        0.2101742332753139,
        0.14502230908786548,
        -0.39236466442185824,
        -0.577525859158161,
        -0.044608313499610835,
        -0.11794400840958394,
        0.11914092488629446,
        0.2589103955876023,
        0.04406485868369821,
        0.19003327134396344,
        0.15723624223772759,
        0.1315066250024843,
        -0.13166280541603312
      ],
      [
        -0.04552682643641176,
        0.04919402416423931,
        0.22438615629507863,
        -0.019308020484021842,
        0.2062455781887552,
        -0.1056328914276115,
        -0.02938554183203259,
        0.14918305065881185,
        -0.498265092763539,
        -0.31982360006154886,
        -0.2871243603284206,
        -0.5738995292930483,
        -0.16956611003879418,
        0.2872918736408955,
        -0.07223056799352603,
        0.09395303078690054
      ],
      [
        0.27168040119915104,
        0.3319215330669229,
        0.0019695537591890824,
        0.4175237449644707,
        0.09898542886425432,
        -0.2485227494056323,
        -0.1486000880496838,
        -0.42833083798846067,
        -0.2220334634334131,
        -0.08520969006146577,
        0.2843182438769352,
        0.4396969584605237,
        -0.34554537884426,
        0.19814026577394023,
        -0.261145536187266,
        0.16317978241723802
      ],
      [
        -0.033395635650478775,
        -0.4577264564618826,
        0.251328285332845,
        -0.07212290563006156,
        -0.0575212953376616,
        -0.3066112962711891,
        -0.16357081917188887,
        0.0487759003265229,
        -0.04731108523410138,
        0.08645998252776178,
        0.17390245251449568,
        0.3396699145510695,
        -0.08569653771609483,
        -0.2692810555024725,
        0.26579605274511336,
        -0.03836653272287618
      ],
      [
        0.2781379723483896,
        0.0958442782956176,
        -0.02078673554255684,
        0.14841858918896286,
        0.5277040218094953,
        0.5251378307789255,
        0.017345283783194675,
        0.02329911892600077,
        0.2690600393665964,
        -0.20541637294284518,
        0.13631067041863312,
        0.0036384818316053612,
        0.07770289872431,
        -0.13372732144132066,
        -0.3946031890625488,
        -0.48231652043199724
      ],
      [
        -0.27934602824740196,
        -0.11466882123483325,
        0.7075026687798608,
        1.1808359785339908,
        0.09148726638818758,
        -0.43907291366627815,
        0.08692711311273923,
        -0.02643711798359772,
        -0.07109095951002378,
        -0.09375623624125792,
        -0.18121349220476587,
        -0.38021742294304783,
        0.2659628831835896,
        -0.7140707523937169,
        -0.004741863806395929,
        1.26539666335297
      ],
      [
        0.05514596267777165,
        0.3583036266515432,
        0.042134081984026,
        0.22432154640457033,
        0.06175796565755417,
        -0.0817750887398178,
        -0.1948705991813549,
        0.04937862989218191,
        -0.21288429729644198,
        0.1706907910354987,
        0.3547437401437621,
        0.1011373524783352,
        -0.07156218338892296,
        0.21342479353613453,
        -0.0781778152844855,
        0.27839229166772483
      ],
      [
        -0.458475494032328,
        -0.08390184202966156,
        -0.4784489613402753,
        -0.2946379349846799,
        0.41691932170920437,
        0.18462305204415472,
        -0.1798700583211976,
        -0.43382257385743084,
        -0.7411322094604128,
        -0.13157939502601723,
        0.6885257420941353,
        0.11822556853493957,
        -0.13989307151237237,
        0.2162034510840371,
        -0.3912491396464931,
        -0.029825330372971404
      ]
    ],
    [
      [
        0.03540182515361108,
        -0.03053348671957103,
        0.27951806639960175,
        0.12178568956808809
      ],
      [
        0.236288929723784,
        -0.24337635437311497,
        0.3174256817704341,
        0.5759161808951202
      ],
      [
        -0.9286309269830095,
        0.35290336127412947,
        0.6764423393311781,
        -0.3529414686285612
      ],
      [
        0.7147817279518192,
        -0.8695018285824729,
        1.387225695914545,
        -0.3317162304247322
      ],
      [
        -0.5694594280372107,
        1.3448062102127318,
        -0.12656875942376572,
        -0.46491107172676227
      ],
      [
        -0.21566786723406572,
        -0.25430629256888165,
        -0.8841074034889289,
        1.027214938790257
      ],
      [
        -0.19048442609815874,
        0.4058130579682384,
        -0.8464988487604472,
        -0.2780929967127053
      ],
      [
        -0.8755452429401422,
        -0.5476618053607512,
        -0.10708372298388967,
        0.6661149470064036
      ],
      [
        -0.08958249860185169,
        -0.05628035100757468,
        0.07190860207798161,
        -0.35657133716450595
      ],
      [
        0.4158896177376083,
        0.07769603687716294,
        0.01605486127050478,
        0.307452125983404
      ],
      [
        0.4867548599582719,
        0.9809548435653139,
        -0.1587779067351815,
        -0.6239878937962113
      ],
      [
        -0.05082328622628065,
        -0.2823782734453206,
        -0.7879311585457971,
        -0.26446400353617605
      ],
      [
        -0.025615602197388385,
        0.11737111712927137,
        0.017457120936335006,
        -0.2685868930615543
      ],
      [
        1.2159176885044687,
        0.09322805131810208,
        -0.44272966773669625,
        -0.5740158270880839
      ],
      [
        0.15696734773145388,
        0.023293775128493423,
        -0.5381769368774452,
        0.08224811154716653
      ],
      [
        -0.39710259701594675,
        -0.5434399235410149,
        0.9054639949402834,
        -0.6376056139842158
      ]
    ]
  ],
  "biases": [
    [
      [
        -0.004327314319621016,
        0.0,
        0.18160697506643858,
        0.4526103225557871,
        0.1472972559732777,
        0.5929196686278356,
        0.0,
        0.305512142227589,
        0.0,
        0.057685871888128286,
        0.2947052264501272,
        0.0801294826190536,
        -0.018161628196405984,
        0.4630422031379352,
        0.07677538251078336,
        0.34463084675644134
      ]
    ],
    [
      [
        0.04571059476367127,
        -0.17800192747059682,
        -0.22968306562017582,
        0.3619743983271014
      ]
    ]
  ]
}