{
  "layer_sizes": [
    32,
    16,
    4
  ],
  "learning_rate": 0.3,
  "seed": 42,
  "output_activation": "softmax",
  "weights": [
    [
      [
        0.0728710056398755,
        -0.27794379585336976,
        0.19445079958092726,
        0.22325000944504575,
        -0.4279584543065851,
        -0.3270790906006017,
        0.019493414352404953,
        -0.09635832208071944,
        0.04370817782491738,
        -0.18735444849552305,
        0.2828646947644038,
        0.2258375701844254,
        0.01650767439030401,
        0.33706587063661064,
        0.1058362919264709,
        -0.2159565891969328
      ],
      [
        0.08887943172189237,
        -0.2576684195004957,
        0.2264505759561311,
        -0.024372647399320924,
        0.013584751970559037,
        -0.1717665999860075,
        0.2931686482290912,
        -0.055930044512024435,
        -0.05917348833978722,
        -0.06212685422418552,
        0.19609249743703377,
        0.12275060241820801,
        0.1031831528989971,
        0.1629608196465731,
        0.5243708565810749,
        -0.10273722757227714
      ],
      [
        -0.13136894656661668,
        -0.2213909513552154,
        0.16083285627318689,
        0.27035190352746524,
        0.0313134784431554,
        -0.21157333312565416,
        -0.21858699036222629,
        0.14535052296135137,
        0.2337220100018501,
        0.1616951004741707,
        -0.10336222577347694,
        0.08942991709386836,
        0.029171452285182056,
        0.10992771807685568,
        0.20681615085050695,
        0.05476541371754732
      ],
      [
        0.16642012646924137,
        -0.00105300192102304,
        0.07911785030180904,
        0.14593088680687738,
        -0.3044886121070426,
        -0.08145201797434748,
        -0.13005985001261527,
        -0.17701713605565939,
        -0.020877095605681375,
        0.39964186120647077,
        -0.1534425778746142,
        0.2734591749750585,
        -0.4207174429039512,
        -0.028465688601841278,
        0.02964722263971088,
        0.1454221093636963
      ],
      [
        0.1744983806494814,
        0.18038903950673535,
        -0.08034326743279639,
        -0.1274791178188995,
        0.2742943131711626,
        -0.049360295105425875,
        -0.3313882672738968,
        -0.30061947749569384,
        -0.1819546042994133,
        0.15019671941131296,
        0.098621635066338,
        0.20401092484413041,
        -0.10681316158413356,
        0.09489049166378098,
        0.14535655485529367,
        -0.07847010840618285
      ],
      [
        0.11148908655025702,
        -0.1801549626961615,
        -0.09619431751989663,
        -0.10515628386270866,
        -0.32865835892299805,
        0.12048879981562437,
        -0.03941150183731511,
        0.1180272196613162,
        0.07443789692645644,
        0.11612874440061106,
        0.15968449702298804,
        0.008876962864343422,
        -0.10582457801103844,
        -0.011909157872972814,
        -0.34932919334222046,
        -0.3830886989319572
      ],
      [
        -0.3333796259276965,
        -0.2639851843298691,
        0.10277872789338226,
        -0.23609157420314156,
        -0.06529722635234872,
        0.3235527540657453,
        -0.07722547174734574,
        0.20249832816758942,
        -0.21546537858874895,
        -0.03435018542978113,
        -0.2005316668240861,
        -0.05713640275222713,
        0.21007703436434888,
        -0.39594372092949076,
        0.11996193219318141,
        0.05341123874811591
      ],
      [
        -0.1485374889241986,
        -0.36151446359711364,
        -0.003087771210459135,
        -0.1323731772659506,
        -0.09243059973520862,
        0.00546303638086072,
        0.5693301389971173,
        0.18745011819132537,
        -0.4186001845283483,
        0.012846866094292036,
        -0.05649222612278224,
        0.3548115881054178,
        0.20877781147864463,
        0.018018646920465398,
        0.5220631899857907,
        -0.3362522268774332
      ],
      [
        -0.15993788318743693,
        -0.23164398535138123,
        -0.3104853742127826,
        -0.3441715368890772,
        0.24316308878396056,
        -0.06517024435658338,
        -0.36770157362566447,
        -0.4821759447604047,
        0.07837846186254882,
        0.25076427198195983,
        0.4765054088229897,
        1.2982715580216513,
        0.1036023583189991,
        -0.2825822971566479,
        -0.5330115701828273,
        0.06692786558595895
      ],
      [
        -0.2032352738275815,
        -0.10383931504492133,
        -0.3660571231887926,
        -0.035197721604096316,
        0.3508704097772703,
        0.02964757177944612,
        -0.039658709259672076,
        -0.4871946126649722,
        -0.41867073617608924,
        -0.08034434725996815,
        -0.03612295180453714,
        1.011788419914789,
        0.03256863036822146,
        0.21048711060708275,
        -0.12482389963478802,
        -0.29623594160425615
      ],
      [
        -0.24127919055809297,
        -0.1813065161339383,
        0.4951571738656698,
        -0.20534666980609653,
        -0.05392709107021178,
        -0.2257317945217566,
        0.5284427315106158,
        0.5289935353807332,
        -0.3239296443170661,
        -0.06614170616223575,
        -0.3588068688098638,
        0.13779376538731017,
        -0.113745870085195,
        -0.43099989720890775,
        -0.0460688260133297,
        -0.025210581338731046
      ],
      [
        0.3947728141026087,
        0.03999790339335956,
        -0.050779729666397155,
        0.07145653490063572,
        0.17590078285282162,
        0.054845625340964085,
        0.06615360845845421,
        0.5238612025745537,
        -0.055536701757478706,
        0.3519669553542109,
        -0.065682787810247,
        -0.2911025636348164,
        -0.34203979981141625,
        0.3415328651909006,
        0.5871538973767243,
        -0.08394126661737068
      ],
      [
        -0.10241335888146162,
        0.32946553447405863,
        0.07020074233461983,
        -0.247464094044472,
        0.20455416601185714,
        -0.1017197084849417,
        -0.0814797631589439,
        0.03224490953835065,
        0.3718444404056708,
        0.53178141025692,
        0.06133753024176984,
        0.1477707907628352,
        -0.5125430252577556,
        0.06101226726152363,
        -0.277702359566464,
        -0.3069702120581535
      ],
      [
        -0.2195380917321877,
        -0.08353086017520302,
        0.7511328115186798,
        -0.331598179434891,
        -0.11122001854716665,
        -0.12104235833339462,
        -0.16850302242846057,
        0.4194238568824272,
        0.43476034582313877,
        0.5350396064304792,
        -0.17545999503862109,
        -0.29304349787624506,
        -0.05596470422012488,
        0.002156349762690358,
        -0.026064421882104047,
        -0.27109701805834163
      ],
      [
        0.019917722567872713,
        0.04238360510522762,
        0.6322036805960032,
        0.4594893424572911,
        -0.18406742548220623,
        -0.07310016076806511,
        -0.35401997944123986,
        -0.12955731744005383,
        0.09684029231130535,
        0.3184726092591848,
        -0.14529711253234293,
        -0.13591474379403556,
        -0.5368222574346637,
        -0.004780095267630389,
        -0.2542475816581737,
        -0.138382518676472
      ],
      [
        -0.21921519454189706,
        -0.023565638563139247,
        -0.4658322830128163,
        -0.36676131134774764,
        0.34406221228971884,
        -0.32185564531850774,
        -0.06308962440504925,
        0.7683396634048054,
        0.522859528093999,
        -0.3328567105123191,
        -0.23142648559166198,
        0.10415725560426307,
        0.4321744111013981,
        -0.3357131669406994,
        0.1339773724905977,
        0.14550756489453537
      ],
      [
        0.10869151861665466,
        -0.09403901780752481,
        0.48870143480066636,
        -0.34372395209249546,
        -0.1784213276894372,
        -0.06659687250223878,
        -0.028542276431406367,
        0.02990259585152218,
        0.41811611720844205,
        0.4538690340247504,
        -0.0979762433090294,
        -0.03111874285876839,
        0.013288836894466841,
        -0.058446749782261526,
        -0.25059726988124364,
        0.079123565418327
      ],
      [
        -0.024321649603372367,
        0.5232920772326487,
        0.3722185774798841,
        0.0964616381391252,
        -0.34136395499757655,
        -0.2781028679958545,
        0.4666711544391047,
        0.3129763313463661,
        -0.04268996052497936,
        -0.46811853938833525,
        0.12036822327382161,
        0.12861977884889936,
        -0.2776076711036195,
        -0.1890803197293992,
        0.22216676827003004,
        -0.02594476370765962
      ],
      [
        -0.07635106074962109,
        -0.04381983630973613,
        -0.05615634392240838,
        0.026249458372859445,
        0.4276733361051633,
        -0.6431988241178466,
        -0.07167925256683746,
        0.02683043134828783,
        0.12190696462276444,
        -0.06707211193245059,
        -0.3761652445709489,
        0.11338845725571584,
        0.43183755354104625,
        -0.328209782334432,
        0.20491595978800656,
        -0.08326477925684672
      ],
      [
        -0.018639350755944164,
        -0.28117239696923313,
        -0.07677604245965616,
        0.31311997902198196,
        0.20546415335380097,
        0.43154368746746385,
        0.2818862858050071,
        0.09247399573757016,
        0.4838920987429375,
        0.13565482308244664,
        0.27001224524796136,
        -0.042753152056488664,
        0.016636453964801207,
        -0.11910038693046678,
        0.23635494001217275,
        -0.29570937925483964
      ],
      [
        0.19558758560441533,
        -0.047662764376289864,
        0.07977884994298906,
        0.18771724718281496,
        0.5395368914920599,
        0.1730791027027712,
        -0.39301006391331017,
        -0.24501946768306976,
        -0.293001798148704,
        -0.08833733058320412,
        0.35512979421922347,
        0.7291893942442428,
        -0.17473260714468658,
        -0.28862710875878156,
        0.008195523219065198,
        -0.30414003734528194
      ],
      [
        -0.16778506934914528,
        0.07800236788781097,
        0.2729878979224793,
        0.15219036805610994,
        -0.6857721165799385,
        0.07609168225756495,
        0.14467245543331086,
        0.28893934013785944,
        0.28200806188314004,
        -0.539788601184776,
        -0.231394404134569,
        0.15898760141982005,
        -0.3953985998634856,
        0.3155879236131932,
        0.20926725356083964,
        0.1823498989883106
      ],
      [
        -0.14544063821954445,
        0.18876744506205395,
        0.26995306020978277,
        0.04849769467116569,
        0.08784363533217271,
        0.06633148943966038,
        -0.2039957951668348,
        -0.018762734009270508,
        -0.020191591699369436,
        0.11285767012550016,
        0.28692990863113293,
        -0.2370121542716889,
        -0.03125225757989441,
        0.4062502717833397,
        -0.17454103589642395,
        -0.21158516615753364
      ],
      [
        0.04726828365906605,
        0.19314852832808407,
        0.00969451451947779,
        0.32034897795648964,
        0.2739988384985058,
        0.2089208028374933,
        0.12606243889160693,
        0.5646156010916976,
        -0.003381955015521492,
        -0.4749740396187567,
        0.464078791427982,
        -0.083035271412018,
        0.02697011108575826,
        0.38264324010973416,
        -0.41160592890127184,
        -0.3140452770026581
      ],
      [
        -0.4036277485784458,
        -0.21648184179960192,
        0.11674715213356139,
        0.11915579105043504,
        0.12886888768901264,
        -0.3547256848581138,
        -0.5899925455975774,
        -0.00370927764722833,
        -0.07003554120859438,
        0.14075297632702494,
        0.23850360760401412,
        0.06594994434185891,
        0.19003327134396344,
        0.11255841242336956,
        0.12147513276382621,
        -0.17730178919359385
      ],
      [
        -0.0656349946932555,
        -0.06328057104581229,
        -0.06113993624121678,
        -0.1729545534397319,
        0.5395495248654875,
        -0.06645969797884475,
        -0.020926686411450197,
        0.1585259388325538,
        -0.498265092763539,
        -0.4036904287404542,
        0.18386649765321933,
        -0.8374407158584863,
        -0.16956611003879418,
        0.6272981948992856,
        -0.07020496875690256,
        0.04234429956004876
      ],
      [
        0.2515722329423073,
        0.2194469378568713,
        -0.2835565387771064,
        0.2638772120087605,
        0.4322893755409869,
        -0.20934955595686552,
        -0.14014123262910141,
        -0.41898794981471826,
        -0.2220334634334131,
        -0.1690765187403712,
        0.755309101858575,
        0.1761557718950861,
        -0.34554537884426,
        0.5381465870323303,
        -0.2591199369506425,
        0.11157105119038621
      ],
      [
        -0.03277166267193165,
        -0.4577264564618826,
        0.7542314238217976,
        -0.15125017820218276,
        -0.2523529512891595,
        -0.2674381028224225,
        -0.2501555680098592,
        0.27570701073000564,
        0.25292040133805593,
        0.2828555801404134,
        -0.04635311174393502,
        0.21110756892347252,
        -0.08569653771609483,
        -0.427682302266548,
        0.19659784264746397,
        -0.08287204302431367
      ],
      [
        0.27864811114434423,
        0.0958442782956176,
        0.4893727933788405,
        0.08719397351157378,
        0.368875248335804,
        0.5192451322634383,
        -0.06923946505477568,
        0.20878204888554497,
        0.5692915259387534,
        -0.010725178622043573,
        -0.053565982071582176,
        -0.12552355694703338,
        0.0784770528643884,
        -0.26681004954246634,
        -0.46759963482277406,
        -0.5182458589978229
      ],
      [
        -0.27934602824740196,
        -0.11466882123483325,
        -0.09969808183584855,
        0.4843077906073792,
        0.08824877675946871,
        -0.2405227790854068,
        0.29803388332134995,
        0.20734172223689562,
        -0.2744982237261264,
        0.006366359047861748,
        0.015428532849193918,
        -0.06604625310186815,
        0.2659628831835896,
        -0.37448345386924103,
        0.1968815995666922,
        0.6005916025280573
      ],
      [
        0.035037794420927915,
        0.24582903144149157,
        -0.2433920105522695,
        0.07067501344886033,
        0.39506191233428667,
        -0.04260189529105111,
        -0.18641174376077252,
        0.058721518065923926,
        -0.21288429729644198,
        0.08682396235659334,
        0.8257345981254018,
        -0.16240383408710238,
        -0.07156218338892296,
        0.5534311147945246,
        -0.07615221604786203,
        0.22678356044087306
      ],
      [
        -0.4611597853525133,
        -0.10184961132290744,
        -0.49086499815168655,
        -0.3856563772095589,
        0.40076590031035136,
        0.22226203160789934,
        -0.192336744760614,
        -0.3929235380050479,
        -0.693223742259423,
        -0.1099673435852868,
        0.6681189541105472,
        0.1401106541931002,
        -0.13989307151237237,
        0.17152562126967896,
        -0.40128063188515123,
        -0.0754643141505321
      ]
    ],
    [
      [
        0.0320089002724145,
        -0.021511777372263383,
        0.276468881771624,
        0.11920608972995476
      ],
      [
        0.20993687390288665,
        -0.17006955342185062,
        0.2921588675017002,
        0.5542282500334871
      ],
      [
        -0.6862061036276942,
        -0.6452343876515295,
        1.1019786754951328,
        -0.02276487922217266
      ],
      [
        0.48070493048742574,
        -0.11266615749280035,
        0.4992353320455868,
        0.03351525981894651
      ],
      [
        0.40450055095456644,
        0.7358427966542509,
        -0.33644745371785817,
        -0.6200289428659655
      ],
      [
        -0.1572370138303667,
        0.1592047459341065,
        -0.5539046470961876,
        0.22507029049082816
      ],
      [
        -0.33284643977860545,
        0.2082096529204681,
        -1.1823560052747462,
        0.3977295785298109
      ],
      [
        -1.2670755742028788,
        -0.5791237002018413,
        0.20923414904299614,
        0.772789301083345
      ],
      [
        -0.2782909618226952,
        -0.2726951906460777,
        0.6338826576439729,
        -0.5134220898711503
      ],
      [
        0.27130617322074796,
        -0.013788169349462158,
        0.8570211935351365,
        -0.2974465555377424
      ],
      [
        0.36567497298715385,
        1.168512468501725,
        -0.2594649168652353,
        -0.5897786216314509
      ],
      [
        1.0260964601720866,
        -1.3091890018577952,
        -0.675408531613474,
        -0.4270956484543914
      ],
      [
        -0.02498928858151643,
        0.11819117613918109,
        0.018081448203036535,
        -0.2706575929540375
      ],
      [
        -0.041740757675333105,
        1.1242916763245323,
        -0.29830551290265345,
        -0.4918451607487554
      ],
      [
        0.09458920514988177,
        -0.054493966973734216,
        -0.7455316239197869,
        0.4297686832733086
      ],
      [
        0.08271705391389811,
        -0.3289819805888141,
        0.053691652452584046,
        -0.48011086537856135
      ]
    ]
  ],
  "biases": [
    [
      [
        -0.03836602299615674,
        -0.20814072494094246,
        0.2411883273607339,
        -0.13790218892841052,
        0.16340650552803818,
        -0.017792316416900926,
        0.3534821197047491,
        0.658234108066712,
        0.17075220236089464,
        0.2869490052487993,
        0.3169413716268976,
        0.3594838798590508,
        0.0,
        0.38919123505248815,
        0.33705240904681305,
        -0.13712048024437162
      ]
    ],
    [
      [
        -0.10055413576783385,
        -0.12374347187179725,
        -0.003480309955712695,
        0.22777791759534377
      ]
    ]
  ]
}