{
  "layer_sizes": [
    32,
    16,
    3
  ],
  "learning_rate": 0.3,
  "seed": 42,
  "output_activation": "softmax",
  "weights": [
    [
      [
        0.07453169088540793,
        -0.23595264036469393,
        0.22603299215624817,
        0.25270012339430753,
        -0.46098647533958914,
        -0.3255448767155795,
        0.03196010079182134,
        -0.08298983024373519,
        0.03938046846366448,
        -0.19271229156055641,
        0.24331330014147706,
        0.19234127147097224,
        0.022620600718074924,
        0.27747397199571794,
        0.1168773355630114,
        -0.21482311572080956
      ],
      [
        0.0905401169674248,
        -0.21567726401181975,
        0.25803276853145196,
        0.005077466549940702,
        -0.019443269062445145,
        -0.17023238610098534,
        0.30563533466850756,
        -0.04256155267504018,
        -0.06350119770104011,
        -0.06748469728921883,
        0.1565411028141071,
        0.08925430370475469,
        0.10929607922676808,
        0.1033689210056804,
        0.5354119002176153,
        -0.1016037540961539
      ],
      [
        -0.1297082613210843,
        -0.17939979586653945,
        0.19241504884850774,
        0.2998020174767271,
        -0.001714542589848775,
        -0.210039119240632,
        -0.2061203039228099,
        0.15871901479833564,
        0.22939430064059718,
        0.15633725740913734,
        -0.14291362039640365,
        0.05593361838041501,
        0.03528437861295298,
        0.05033581943596297,
        0.21785719448704746,
        0.05589888719367057
      ],
      [
        0.16808081171477376,
        0.04093815356765286,
        0.11070004287712976,
        0.175381000756139,
        -0.33751663314004665,
        -0.07991780408932533,
        -0.11759316357319888,
        -0.16364864421867512,
        -0.02520480496693426,
        0.39428401814143765,
        -0.19299397249754088,
        0.23996287626160537,
        -0.41460451657618025,
        -0.08805758724273399,
        0.0406882662762514,
        0.14655558283981954
      ],
      [
        0.1761590658950138,
        0.22238019499541128,
        -0.04876107485747565,
        -0.09802900386963788,
        0.24126629213815848,
        -0.04782608122040372,
        -0.31892158083448047,
        -0.2872509856587098,
        -0.18628231366066622,
        0.14483887634627957,
        0.059070240443411186,
        0.17051462613067722,
        -0.10070023525636258,
        0.03529859302288829,
        0.15639759849183418,
        -0.0773366349300596
      ],
      [
        0.11254623033615295,
        -0.14143809907123284,
        -0.0523432684366342,
        -0.07787552920307834,
        -0.27218758957338995,
        0.12174312019639545,
        -0.11735058505068097,
        -0.0008056524759177831,
        0.16376742256621385,
        0.13218148434032456,
        0.18981008366896648,
        -0.026728083513620816,
        -0.09971165168326745,
        -0.02426588247289003,
        -0.42183360848950746,
        -0.3617781181057718
      ],
      [
        -0.33232248214180066,
        -0.22526832070494046,
        0.13836374988549288,
        -0.20881081954351133,
        -0.06776831668597741,
        0.32480707444651635,
        -0.08906599276535648,
        0.180449709958932,
        -0.18982366216273264,
        -0.03081069913406898,
        -0.21404170730187538,
        -0.08686498136140551,
        0.2161899606921198,
        -0.43616643554437745,
        0.10860591088646433,
        0.05943390058306947
      ],
      [
        -0.15018506797739856,
        -0.3374710774016833,
        0.05645257013310115,
        -0.11481423296944665,
        0.08494137466254598,
        0.00546303638086072,
        0.40044472283022886,
        -0.06376808902609571,
        -0.21229361531572963,
        0.06536759907191755,
        0.07846297741871124,
        0.33769018142384427,
        0.21489073780641554,
        0.08488143504108706,
        0.36582572280489045,
        -0.2971907635807127
      ],
      [
        -0.16158546224063688,
        -0.20760059915595125,
        -0.05903225758430824,
        -0.326612592592573,
        0.1855600585274711,
        -0.055555674274693344,
        -0.36770157362566447,
        -0.25782395245972506,
        0.12195921970228553,
        0.23008033230643388,
        0.5226465293487165,
        0.7263589041155676,
        0.10971528464677008,
        -0.2517208597542563,
        -0.5330115701828273,
        0.06692786558595895
      ],
      [
        -0.20488285288078145,
        -0.07979592884949134,
        -0.11460400656031819,
        -0.01763877730759239,
        0.29326737952078086,
        0.039262141861336156,
        -0.039658709259672076,
        -0.26284262036429257,
        -0.37508997833635255,
        -0.10102828693549415,
        0.010018168721189769,
        0.43987576600870587,
        0.03868155669599237,
        0.2413485480094741,
        -0.12482389963478802,
        -0.29623594160425615
      ],
      [
        -0.24292676961129292,
        -0.15726312993850833,
        0.570537626313425,
        -0.18778772550959266,
        0.23639462275795625,
        -0.2257317945217566,
        0.23289325321856102,
        0.09230855936862614,
        0.004421283425214082,
        0.01035805879898002,
        -0.14023311743157768,
        0.10941133798425524,
        -0.10763294375742402,
        -0.3107377706881023,
        -0.3194843935799048,
        0.04314697943052987
      ],
      [
        0.39312523504940866,
        0.06404128958878955,
        0.0087606116771631,
        0.08901547919713963,
        0.35327275725057616,
        0.054845625340964085,
        -0.10273180770843429,
        0.27264299535713254,
        0.15076986745513998,
        0.4044876883318367,
        0.06927241573124646,
        -0.30822397031638993,
        -0.3359268734836453,
        0.4083956533115221,
        0.43091643019582426,
        -0.04487980332065016
      ],
      [
        -0.09744440933719685,
        0.3894044592559809,
        -0.2383412273062383,
        -0.20612281044245273,
        0.18760402049613112,
        -0.0986512807148974,
        -0.001280466680017824,
        -0.044789906788967784,
        0.12797439503947006,
        0.3724191556612679,
        0.04611003315120625,
        0.15887798593294963,
        -0.5064300989299846,
        -0.01651593022881976,
        -0.21080756757321778,
        -0.304703265105907
      ],
      [
        -0.22118567078538764,
        -0.059487473979773005,
        0.26739582879363705,
        -0.31403923513838683,
        0.03443019497247436,
        -0.12104235833339462,
        -0.08191827359049021,
        0.2467602741683114,
        0.17810961709071813,
        0.3548982171935246,
        -0.015162613386705217,
        -0.1760923653039406,
        -0.049851777892353975,
        0.05628786807151513,
        0.04414333961342776,
        -0.27109701805834163
      ],
      [
        0.020974866353768575,
        0.08110046873015626,
        0.667788702588114,
        0.4867700971169217,
        -0.186538515815835,
        -0.07184584038729402,
        -0.3658605004592508,
        -0.15160593564871125,
        0.12248200873732183,
        0.32201209555489707,
        -0.1588071530101322,
        -0.16564332240321397,
        -0.5307093311068927,
        -0.04500280988251718,
        -0.2656036029648908,
        -0.13235985684151844
      ],
      [
        -0.220862773595097,
        0.0004777476322907711,
        -0.40101190463452413,
        -0.34920236705124347,
        0.5590840998309441,
        -0.32185564531850774,
        -0.2741963946136599,
        0.45529919992248885,
        0.7698475501498386,
        -0.27234296687349674,
        -0.0685984327712377,
        0.0832821753488625,
        0.43828733742916903,
        -0.2510505993533496,
        -0.061319461485527436,
        0.194334394015436
      ],
      [
        0.10704393956345475,
        -0.06999563161209482,
        0.004964452075623457,
        -0.3261650077959913,
        -0.032771114169796306,
        -0.06659687250223878,
        0.05804247240656399,
        -0.14276098686259364,
        0.16146538847602135,
        0.2737276447877958,
        0.062321138342886384,
        0.08583238971353598,
        0.01940176322223775,
        -0.0043152314734367266,
        -0.18038950838571186,
        0.079123565418327
      ],
      [
        -0.025969228656572346,
        0.5473354634280784,
        0.4317589188234443,
        0.11402058243562911,
        -0.16399198059982187,
        -0.2781028679958545,
        0.29778573827221627,
        0.061758124128944984,
        0.1636166086876393,
        -0.4155978064107095,
        0.25532342681531495,
        0.11149837216732585,
        -0.27149474477584856,
        -0.12221753160877752,
        0.0659293010891299,
        0.013116699589060907
      ],
      [
        -0.07469037550408866,
        -0.0018286808210601969,
        -0.024574151347087594,
        0.055699572322121055,
        0.3946453150721592,
        -0.6416646102328244,
        -0.05921256612742106,
        0.0401989231852721,
        0.11757925526151157,
        -0.07242995499748389,
        -0.41571663919387597,
        0.07989215854226252,
        0.4379504798688172,
        -0.3878016809753247,
        0.21595700342454707,
        -0.08213130578072347
      ],
      [
        -0.016978665510411804,
        -0.2391812414805573,
        -0.045193849884335405,
        0.3425700929712438,
        0.17243613232079677,
        0.433077901352486,
        0.2943529722444234,
        0.10584248757455442,
        0.4795643893816847,
        0.13029698001741324,
        0.23046085062503466,
        -0.07624945076994198,
        0.02274938029257212,
        -0.1786922855713595,
        0.24739598364871326,
        -0.2945759057787164
      ],
      [
        0.18734969033841545,
        0.1638576977375689,
        0.6324472650601047,
        0.005128601322140814,
        0.7242509406654344,
        0.1826936727846612,
        -0.39301006391331017,
        -0.02066747538238985,
        -0.3302981854085849,
        -0.1198823297023055,
        0.2809696748209901,
        0.11051251643550439,
        -0.16861968081691567,
        -0.27511099034155106,
        0.008195523219065198,
        -0.30414003734528194
      ],
      [
        -0.16943264840234523,
        0.10204575408324096,
        0.32724820223130774,
        0.1697493123526138,
        -0.5460500553256554,
        0.07609168225756495,
        0.01800839330814448,
        0.09954338918533362,
        0.4476331782525385,
        -0.49526087886834713,
        -0.12431204987200646,
        0.14561986831207382,
        -0.38928567353571464,
        0.36465093226708695,
        0.0920891531751646,
        0.211645996460851
      ],
      [
        -0.1443834944336486,
        0.2274843086869826,
        0.30553808220189327,
        0.07577844933079603,
        0.08537254499854398,
        0.06758580982043147,
        -0.21583631618484542,
        -0.04081135221792787,
        0.0054501247266469845,
        0.11639715642121234,
        0.2734198681533434,
        -0.2667407328808672,
        -0.025139331252123497,
        0.36602755716845303,
        -0.18589705720314104,
        -0.20556250432258008
      ],
      [
        0.04892896890459839,
        0.23513968381676,
        0.04127670709479859,
        0.3497990919057515,
        0.24097081746550172,
        0.21045501672251546,
        0.13852912533102332,
        0.5779840929286816,
        -0.007709664376774369,
        -0.4803318826837898,
        0.4245273968050549,
        -0.1165315701254713,
        0.03308303741352917,
        0.32305134146884146,
        -0.40056488526473133,
        -0.31291180352653486
      ],
      [
        -0.4019670633329135,
        -0.17449068631092599,
        0.14832934470888218,
        0.14860590499969661,
        0.09584086665600845,
        -0.3531914709730916,
        -0.577525859158161,
        0.009659214189755926,
        -0.07436325056984723,
        0.13539513326199148,
        0.19895221298108745,
        0.03245364562840555,
        0.19614619767173436,
        0.05296651378247684,
        0.13251617640036667,
        -0.1761683157174706
      ],
      [
        -0.05606122877256528,
        0.3666203066751499,
        0.7151339522319191,
        -0.43731462102663643,
        0.5405702937712229,
        -0.06645969797884475,
        -0.02938554183203259,
        0.20737976050601825,
        -0.6352020029606941,
        -0.342507454193474,
        -0.5742340545558241,
        -0.6625827438139301,
        -0.16956611003879418,
        0.15799029699629674,
        -0.07122101659564369,
        0.04944752048546303
      ],
      [
        0.26114599886299755,
        0.6493478155778338,
        0.49271734969602937,
        -0.0004828555781440833,
        0.43331014444672145,
        -0.20934955595686552,
        -0.1486000880496838,
        -0.37013412814125407,
        -0.35897037363056816,
        -0.10789354419339098,
        -0.002791450350468185,
        0.35101374393964196,
        -0.34554537884426,
        0.06883868912934135,
        -0.2601359847893836,
        0.11867427211580049
      ],
      [
        -0.03277166267193165,
        -0.5752963766581652,
        0.04209668411904887,
        0.19691763661479206,
        -0.3076054632220708,
        -0.2674381028224225,
        -0.16357081917188887,
        0.08673446047753927,
        0.28130560687812267,
        0.20199181271978295,
        0.3662459049697858,
        0.3795317635471895,
        -0.05421051514613845,
        -0.36921445421143295,
        0.26680560414299576,
        -0.08287204302431367
      ],
      [
        0.27864811114434423,
        0.09400048531139177,
        0.1531705393652724,
        0.5900488911303445,
        0.06016008653444042,
        0.5192451322634383,
        0.017345283783194675,
        0.013436913559458304,
        0.9272388950777986,
        -0.33937646286609213,
        0.0014726296618846066,
        0.14217596973009775,
        0.11987738877173235,
        -0.20834220148735144,
        -0.39739187332724224,
        -0.5182458589978229
      ],
      [
        -0.27934602824740196,
        -0.11651261421905909,
        0.11265702525391817,
        0.9871627082261497,
        -0.15109471102030986,
        -0.2405227790854068,
        0.08692711311273923,
        -0.1283802938573918,
        0.5870878962011784,
        -0.08162979232040984,
        0.07299781575116912,
        0.06382706074755799,
        0.30736321909093367,
        -0.285484556535601,
        0.0015847655905671105,
        0.6494184316489581
      ],
      [
        0.05576993565631878,
        0.20555710331648355,
        -0.4128725435463949,
        0.1001381923011111,
        0.18443669991328315,
        -0.04260189529105111,
        -0.1948705991813549,
        0.1075753397393883,
        -0.43897169375842543,
        0.4519147143323761,
        0.7157151305792615,
        0.007901987394378925,
        -0.07156218338892296,
        0.11349139482717402,
        -0.07716826388660315,
        0.23388678136628732
      ],
      [
        -0.4578515210537809,
        -0.23664836536472128,
        -0.9334555868706967,
        -0.4188212890881393,
        0.5395980559649334,
        0.2237962454929215,
        -0.1798700583211976,
        -0.37562586401022424,
        -0.9672196059223964,
        0.14964452827086025,
        1.0494971325296347,
        0.02499020345098328,
        -0.13989307151237237,
        0.11627005237507657,
        -0.3902395882486107,
        -0.07433084067440886
      ]
    ],
    [
      [
        0.11586851441777106,
        -0.0737327855576501,
        0.24218587725406676
      ],
      [
        0.6799806476293746,
        -0.05652070389807221,
        -0.5086968800930911
      ],
      [
        1.1784837697811945,
        0.42747792040084615,
        -1.0556194795716802
      ],
      [
        -0.6539808312238389,
        1.0046941976620785,
        -0.25994040938931023
      ],
      [
        0.8567670476639881,
        -0.5930968909166142,
        0.5906319517652906
      ],
      [
        0.04648725634649368,
        0.09129767603465035,
        0.5532113618837944
      ],
      [
        -0.1279051789169342,
        -0.3327369079765173,
        -0.15859139664721128
      ],
      [
        0.1569678032333643,
        -0.5484379921543868,
        0.22319496106661418
      ],
      [
        -0.7258503256365877,
        1.219967359769784,
        -1.1252872510235639
      ],
      [
        -0.5977505524074723,
        -0.7305261312203002,
        0.16181092467763392
      ],
      [
        -0.6805418711914321,
        -0.35719216002093723,
        0.9723484705695713
      ],
      [
        -0.40667820215905637,
        0.12766086040365204,
        -0.06192574433869492
      ],
      [
        0.18767881284803417,
        0.329458842651294,
        0.10319070070609504
      ],
      [
        0.21067309446075783,
        0.09688209380817464,
        0.7135157528995264
      ],
      [
        -0.03079243947652543,
        -0.10857031303648419,
        -0.2664122309408965
      ],
      [
        -0.36495996716566187,
        -0.4399872200040327,
        -0.31423730364298325
      ]
    ]
  ],
  "biases": [
    [
      [
        -0.019545587722503085,
        0.28280877369533913,
        0.45187162235975664,
        0.21548135280607447,
        0.31401700955464557,
        0.0,
        0.0,
        -0.04702985141206525,
        0.5237808204801176,
        0.24624320821048576,
        0.28403979013526637,
        -0.023974938662645454,
        0.0731679024639664,
        -0.051442820473591507,
        0.0,
        0.0
      ]
    ],
    [
      [
        -0.08219477991216924,
        -0.40580820304285353,
        0.48800298295502276
      ]
    ]
  ]
}