{
  "layer_sizes": [
    32,
    16,
    4
  ],
  "learning_rate": 0.3,
  "seed": 42,
  "output_activation": "softmax",
  "weights": [
    [
      [
        0.06925192907061982,
        -0.2599960265601239,
        0.18929919197381379,
        0.24716127959148604,
        -0.4469771648539903,
        -0.3255448767155795,
        0.10503713323692586,
        -0.09652853990264244,
        0.02695943069085856,
        -0.1867132493843237,
        0.2765711225227184,
        0.1925493407018089,
        0.03676311888579041,
        0.346243905013043,
        0.1168773355630114,
        -0.21692769678634302
      ],
      [
        0.08526035515263669,
        -0.23972065020724972,
        0.2212989683490176,
        -0.0004613772528806137,
        -0.0054339585768464335,
        -0.17023238610098534,
        0.37871236711361206,
        -0.0561002623339474,
        -0.07592223547384606,
        -0.06148565511298604,
        0.18979892519534858,
        0.08946237293559146,
        0.12343859739448351,
        0.1721388540230055,
        0.5354119002176153,
        -0.10370833516168734
      ],
      [
        -0.13498802313587235,
        -0.20344318206196943,
        0.15568124866607339,
        0.2942631736739056,
        0.012294767895749934,
        -0.210039119240632,
        -0.1330432714777054,
        0.1451803051394284,
        0.21697326286779142,
        0.16233629958537005,
        -0.10965579801516219,
        0.05614168761125185,
        0.04942689678066845,
        0.1191057524532881,
        0.21785719448704746,
        0.05379430612813711
      ],
      [
        0.1628010498999857,
        0.016894767372222865,
        0.07396624269469554,
        0.16984215695331767,
        -0.3235073226544478,
        -0.07991780408932533,
        -0.044516131128094355,
        -0.17718735387758236,
        -0.037625842739740206,
        0.4002830603176703,
        -0.1597361501162994,
        0.24017094549244203,
        -0.4004619984084648,
        -0.019287654225408884,
        0.0406882662762514,
        0.14445100177428608
      ],
      [
        0.17087930408022572,
        0.1983368087999813,
        -0.08549487503990989,
        -0.10356784767245918,
        0.25527560262375715,
        -0.04782608122040372,
        -0.24584454838937603,
        -0.3007896953176172,
        -0.19870335143347198,
        0.15083791852251233,
        0.09232806282465267,
        0.17072269536151388,
        -0.08655771708864715,
        0.10406852604021342,
        0.15639759849183418,
        -0.07944121599559305
      ],
      [
        0.10726646852136484,
        -0.16548148526666281,
        -0.08907706861906844,
        -0.08341437300589966,
        -0.2581782790877911,
        0.12174312019639545,
        -0.044273552605576444,
        -0.014344362134825015,
        0.15134638479340803,
        0.1381805265165574,
        0.22306790605020796,
        -0.026520014282784016,
        -0.08556913351555202,
        0.04450405054443511,
        -0.42183360848950746,
        -0.3638826991713053
      ],
      [
        -0.3376022439565887,
        -0.24931170690037044,
        0.10162994970305865,
        -0.21434966334633263,
        -0.05375900620037874,
        0.32480707444651635,
        -0.015988960320251988,
        0.16691100030002476,
        -0.20224469993553842,
        -0.024811656957836162,
        -0.1807838849206339,
        -0.08665691213056874,
        0.23033247885983524,
        -0.3673965025270524,
        0.10860591088646433,
        0.05732931951753602
      ],
      [
        -0.1485374889241986,
        -0.36151446359711364,
        -0.2111189233197644,
        -0.1323731772659506,
        -0.09358854077021697,
        0.00546303638086072,
        0.32537492883566804,
        -0.360928153073984,
        -0.24180941574325357,
        0.19653276252841334,
        0.14176880184378057,
        0.8465822568115426,
        0.3265753479915312,
        0.34880897855518517,
        0.36582572280489045,
        -0.2971907635807127
      ],
      [
        -0.15993788318743693,
        -0.23164398535138123,
        -0.32660375103717376,
        -0.3441715368890772,
        0.007030143094708126,
        -0.055555674274693344,
        -0.44277136762022523,
        -0.5549840165076134,
        0.09244341927476162,
        0.36124549576292936,
        0.5859523537737856,
        1.2352509795032665,
        0.22139989483188555,
        0.01220668375984182,
        -0.5330115701828273,
        0.06692786558595895
      ],
      [
        -0.2032352738275815,
        -0.10383931504492133,
        -0.15302419976495202,
        -0.035197721604096316,
        0.04725637553137505,
        0.039262141861336156,
        -0.15881588799836288,
        0.135793912408211,
        -0.5098402687345516,
        -0.1738409857123664,
        -0.21113889189689636,
        0.7161880714591212,
        0.00560474844792839,
        0.09826138298783228,
        -0.12482389963478802,
        -0.29623594160425615
      ],
      [
        -0.2846912629598821,
        -0.1813065161339383,
        0.4653491774795538,
        -0.37492853075853055,
        0.6883823963836297,
        -0.2257317945217566,
        0.8493350122306514,
        0.14818472005160746,
        0.03821854471101751,
        0.05230010641307594,
        0.1775561377305544,
        -0.28709779118108375,
        -0.113745870085195,
        -0.1244707031683318,
        -0.3194843935799048,
        0.029958047727374218
      ],
      [
        0.35136074170081955,
        0.03999790339335956,
        -0.09642783715670818,
        -0.09812532605179827,
        0.8052605308762497,
        0.054845625340964085,
        0.5137099513036556,
        0.3285191560401137,
        0.18456712874094355,
        0.44642973594593255,
        0.38706167089337834,
        -0.7047330994817295,
        -0.34203979981141625,
        0.5946627208312927,
        0.43091643019582426,
        -0.058068735023805815
      ],
      [
        -0.09579683028399694,
        0.36536107306055055,
        -0.276761420510872,
        -0.2236817547389566,
        -0.05840698349327473,
        -0.0986512807148974,
        -0.1204376454187087,
        0.3538466259835357,
        -0.006775895358728837,
        0.2996064568843955,
        -0.17504702746687983,
        0.43519029138336474,
        -0.5395069071780487,
        -0.15960309525046162,
        -0.21080756757321778,
        -0.304703265105907
      ],
      [
        -0.2195380917321877,
        -0.08353086017520302,
        0.4706141359373381,
        -0.13850903064279949,
        -0.09187351233736266,
        -0.12104235833339462,
        -0.1711696777458906,
        0.438608747914894,
        0.19841820293145618,
        0.28633370492744736,
        -0.13480035076732144,
        -0.21460184438210037,
        -0.054074278939562764,
        0.001818900743269098,
        0.04414333961342776,
        -0.27109701805834163
      ],
      [
        0.022622445406968554,
        0.057057082534726286,
        0.9358563074440219,
        0.714120254463418,
        -0.2847441090613536,
        -0.07184584038729402,
        -0.44927529491586654,
        -0.008001797828884171,
        0.1827291653616147,
        0.25362742559103874,
        -0.2548320825015498,
        -0.283604497044471,
        -0.5276835221911019,
        -0.0783976693033885,
        -0.2656036029648908,
        -0.13235985684151844
      ],
      [
        -0.21921519454189706,
        -0.023565638563139247,
        -0.4394320978391578,
        -0.36676131134774764,
        0.3130730958415389,
        -0.32185564531850774,
        -0.3933535733523508,
        0.8539357326949922,
        0.6350972597516396,
        -0.3451556656503691,
        -0.2897554933893238,
        0.3595944807992776,
        0.405210529181105,
        -0.3941377643749917,
        -0.061319461485527436,
        0.194334394015436
      ],
      [
        0.06712747340872643,
        -0.09403901780752481,
        -0.21896457438112482,
        -0.4279256562574715,
        0.23074128969440058,
        -0.06659687250223878,
        0.5497472498579495,
        -0.33279187051242065,
        0.23857093817952962,
        0.44299843566028235,
        0.4255019296850779,
        0.15318502014693158,
        0.12898836754083298,
        0.41070604719017423,
        -0.18038950838571186,
        0.06649607902512628
      ],
      [
        -0.02998520467877209,
        0.5232920772326487,
        0.39471746241580197,
        0.10628885791293474,
        -0.1860246056165777,
        -0.2781028679958545,
        0.3419857109312282,
        0.10289982757225481,
        0.1336169527015744,
        -0.42126036780662784,
        0.25244213333455107,
        0.14782578279152433,
        -0.26456523602666454,
        -0.08443543299480291,
        0.0659293010891299,
        0.01139606666476336
      ],
      [
        -0.07304279645088875,
        -0.025872067016490214,
        0.24349345350882087,
        0.28304972966861763,
        0.29643972182664075,
        -0.6416646102328244,
        -0.14262736058403702,
        0.18380306100509924,
        0.17782641188580445,
        -0.14081462496134214,
        -0.5117415686852935,
        -0.03806901609899441,
        0.440976288784608,
        -0.42119654039619586,
        0.21595700342454707,
        -0.08213130578072347
      ],
      [
        -0.015331086457211825,
        -0.26322462767598725,
        0.22287375497157305,
        0.5699202503177401,
        0.07423053907527813,
        0.433077901352486,
        0.2109381777878074,
        0.24944662539438162,
        0.5398115460059774,
        0.06191231005355496,
        0.13443592113361694,
        -0.19421062541119882,
        0.025775189208363084,
        -0.21208714499223077,
        0.24739598364871326,
        -0.2945759057787164
      ],
      [
        0.19558758560441533,
        -0.047662764376289864,
        0.599299571427372,
        0.4326263488258154,
        0.3837282679900519,
        0.1826936727846612,
        -0.47642485836992593,
        0.12293666243743719,
        -0.18917388368467442,
        -0.17740594022258835,
        0.30524598525353247,
        0.03931556569690217,
        -0.16559387190112468,
        -0.2911605307772612,
        0.008195523219065198,
        -0.30414003734528194
      ],
      [
        -0.1747124102171333,
        0.07800236788781097,
        0.29051440204887347,
        0.16421046854979252,
        -0.5320407448400563,
        0.07609168225756495,
        0.09108542575324897,
        0.08600467952642639,
        0.43521214047973256,
        -0.4892618366921143,
        -0.09105422749076507,
        0.14582793754291049,
        -0.3751431553679992,
        0.433420865284412,
        0.0920891531751646,
        0.20954141539531754
      ],
      [
        -0.14966325624843665,
        0.20344092249155263,
        0.268804282019459,
        0.07023960552797469,
        0.09938185548414266,
        0.06758580982043147,
        -0.14275928373974092,
        -0.054350061876835096,
        -0.00697091304615895,
        0.12239619859744513,
        0.3066776905345849,
        -0.26653266365003037,
        -0.010996813084408003,
        0.43479749018577807,
        -0.18589705720314104,
        -0.20766708538811354
      ],
      [
        0.050576547957798396,
        0.21109629762133003,
        0.30934431195070705,
        0.5771492492522478,
        0.14276522421998306,
        0.21045501672251546,
        0.05511433087440739,
        0.7215882307485085,
        0.05253749224751854,
        -0.5487165526476476,
        0.3285024673136373,
        -0.23449274476672818,
        0.03610884632932013,
        0.2896564820479703,
        -0.40056488526473133,
        -0.31291180352653486
      ],
      [
        -0.4003194842797134,
        -0.19853407250635596,
        0.41639694956479073,
        0.3759560623461932,
        -0.002364726589510143,
        -0.3531914709730916,
        -0.6609406536147773,
        0.15326335200958305,
        -0.014116093945554348,
        0.0670104632981332,
        0.10292728348966966,
        -0.08550752901285132,
        0.19917200658752535,
        0.019571654361605535,
        0.13251617640036667,
        -0.1761683157174706
      ],
      [
        -0.051830194325852674,
        0.04919402416423931,
        0.20681851187655417,
        -0.08641519256246041,
        0.1710734462424969,
        -0.06645969797884475,
        0.04369149061307192,
        0.18991186868927137,
        -0.46710537269660823,
        -0.2975703495096189,
        -0.3138247205536939,
        -0.5853026731175043,
        -0.14931066554330782,
        0.2517920782029699,
        -0.07122101659564369,
        0.04734293941992958
      ],
      [
        0.26537703330971,
        0.3319215330669229,
        -0.015598090659335422,
        0.350416572886032,
        0.06381329691799599,
        -0.20934955595686552,
        -0.07552305560457928,
        -0.3876020199580011,
        -0.19087374336648225,
        -0.06295643950953593,
        0.2576178836516618,
        0.4282938146360679,
        -0.3252899343487736,
        0.16264047033601456,
        -0.2601359847893836,
        0.11656969105026704
      ],
      [
        -0.03277166267193165,
        -0.4577264564618826,
        0.23207424789212108,
        -0.15125017820218276,
        -0.29790407121754076,
        -0.2674381028224225,
        -0.25293870322590706,
        0.4030031231347271,
        -0.11568823465294806,
        0.04296749423759498,
        -0.057789477162026245,
        0.5358196086801544,
        -0.10591944915631464,
        -0.47978207528738215,
        0.26680560414299576,
        -0.08287204302431367
      ],
      [
        0.2717207702763561,
        0.0958442782956176,
        -0.031097989528636752,
        0.09921407400525639,
        0.5285347723410436,
        0.5192451322634383,
        0.09042231622829916,
        0.022579756512521955,
        0.30021975943352713,
        -0.1848675256827655,
        0.13998922196157518,
        -0.008364355143892221,
        0.09873249735987481,
        -0.1439085982163166,
        -0.39739187332724224,
        -0.5203504400633564
      ],
      [
        -0.2862733691153901,
        -0.11466882123483325,
        -0.07161150363999096,
        0.4963278911010619,
        0.31727997478629333,
        -0.2405227790854068,
        0.16000414555784376,
        -0.11923745090432815,
        -0.039931239443093056,
        0.07287914486291683,
        0.21151440805085972,
        -0.08671326412643196,
        0.286218327679076,
        -0.22105095326456625,
        0.0015847655905671105,
        0.6473138505834246
      ],
      [
        0.04884259478833074,
        0.3583036266515432,
        0.02456643756550151,
        0.15721437432613175,
        0.026585833711295834,
        -0.04260189529105111,
        -0.1217935667362504,
        0.09010744792264143,
        -0.18172457722951116,
        0.1929440415874286,
        0.32804337991848875,
        0.08973420865387936,
        -0.051306738893436565,
        0.17792499809820886,
        -0.07716826388660315,
        0.23178220030075386
      ],
      [
        -0.4578515210537809,
        -0.08390184202966156,
        -0.49770299878099944,
        -0.37376520755680126,
        0.17653654582932551,
        0.2237962454929215,
        -0.2692379423752158,
        -0.07959535104922633,
        -0.8095093588792596,
        -0.17507188331618392,
        0.4568338124176133,
        0.31437526266402477,
        -0.16011598295259222,
        0.0057024312991274355,
        -0.3902395882486107,
        -0.07433084067440886
      ]
    ],
    [
      [
        0.02152980955019638,
        0.010341420819210466,
        0.26491728719461344,
        0.10938357683770972
      ],
      [
        0.236288929723784,
        -0.24337635437311497,
        0.3174256817704341,
        0.5759161808951202
      ],
      [
        -0.7048116859986998,
        -0.14868297856112597,
        1.0831986677910268,
        -0.48193069823746476
      ],
      [
        0.30569494120093943,
        -0.38433754901953565,
        1.2432540453231449,
        -0.26382207264539065
      ],
      [
        -0.3356153647827269,
        0.8975751651771525,
        -0.16674356307021979,
        -0.21134928629921276
      ],
      [
        -0.15859139664721128,
        0.15992420193033224,
        -0.5535794288215994,
        0.22537999903685876
      ],
      [
        0.003779762948892541,
        0.9797994524637056,
        -1.147824863891259,
        -0.7450175651244125
      ],
      [
        -1.4289221371383138,
        -0.2557675841590552,
        0.23284338762629675,
        0.5876705093926927
      ],
      [
        -0.14720372869455356,
        0.05788275609445886,
        0.23923679545475246,
        -0.5804414075506085
      ],
      [
        0.5692798484063122,
        0.40740601774937824,
        -0.025055298090960923,
        -0.13453792619604954
      ],
      [
        0.6110403042518339,
        0.6527761784228536,
        -0.08011893143548553,
        -0.49875364824700935
      ],
      [
        0.6486288951349644,
        -1.4142656851497182,
        -1.0810928398805992,
        0.46113290814177815
      ],
      [
        0.25042946601280464,
        -0.02146135315767603,
        -8.331164681429521e-05,
        -0.38825905840165076
      ],
      [
        0.5853347072248987,
        0.5063258848377415,
        -0.18390783927667612,
        -0.615352507788174
      ],
      [
        0.19389855090539515,
        0.06645869919769361,
        -0.5119903025767354,
        -0.02403464999668504
      ],
      [
        0.0915248229712829,
        -0.31439350912552233,
        0.06564188090236801,
        -0.5154573343490219
      ]
    ]
  ],
  "biases": [
    [
      [
        -0.07874448864265574,
        0.0,
        0.2797226370666097,
        0.3448383711143547,
        -0.04543531267751244,
        0.0,
        0.5161256500603993,
        0.7272451675556795,
        0.25604967219608865,
        0.15424174785687225,
        0.1788533576454554,
        0.4370179372927875,
        0.18288329694897432,
        0.3989142017157523,
        0.0,
        -0.023923199820911956
      ]
    ],
    [
      [
        0.02361500313390881,
        -0.28939668574183414,
        -0.22757342711583486,
        0.49335510972376023
      ]
    ]
  ]
}