{
  "layer_sizes": [
    32,
    16,
    4
  ],
  "learning_rate": 0.3,
  "seed": 42,
  "output_activation": "softmax",
  "weights": [
    [
      [
        0.06139694528074867,
        -0.2599960265601239,
        -0.014061934142674972,
        0.6528499833341315,
        -0.4960556323390497,
        -0.3255448767155795,
        0.07780984273126172,
        -0.3220790701245233,
        -0.06564221172071534,
        -0.16829682571553284,
        0.13277942369762624,
        0.17734019816445348,
        0.01650767439030401,
        0.555715128178528,
        0.5834389279313612,
        -0.21482311572080956
      ],
      [
        0.07740537136276554,
        -0.23972065020724972,
        0.017937842232528787,
        0.40522732648976445,
        -0.0545124260619058,
        -0.17023238610098534,
        0.3514850766079479,
        -0.28165079255582814,
        -0.16852387788541998,
        -0.04306923144419525,
        0.04600722637025626,
        0.07425323039823595,
        0.1031831528989971,
        0.38161007718849055,
        1.0019734925859654,
        -0.1016037540961539
      ],
      [
        -0.1299891898283475,
        -0.21066495194927218,
        0.18101668179368804,
        0.31360394211164255,
        0.002091493717090582,
        -0.21523859157192862,
        -0.1605275273182268,
        0.19285321427797233,
        0.21497403190679568,
        0.13724632233481351,
        -0.15726288233421284,
        0.04958928844824432,
        0.02621808508623867,
        0.078163449189769,
        0.2526115510597899,
        0.05589888719367057
      ],
      [
        0.16736954918173252,
        0.008061506105493351,
        0.10982172839262527,
        0.19878478259824797,
        -0.3041493003058665,
        -0.08627750514158747,
        -0.05315489466688403,
        -0.12299991105303966,
        -0.026701473398347723,
        0.3686657284138538,
        -0.1918669626530401,
        0.19376955314712635,
        -0.4207174429039512,
        -0.05195671986388319,
        0.08852879003755502,
        0.14655558283981954
      ],
      [
        0.17544780336197255,
        0.1895035475332518,
        -0.04963938934198021,
        -0.07462522202752889,
        0.27463362497233856,
        -0.05418578227266586,
        -0.25448331192816587,
        -0.2466022524930742,
        -0.18777898209207966,
        0.11922058661869585,
        0.06019725028791202,
        0.12432130301619819,
        -0.10681316158413356,
        0.07139946040173906,
        0.20423812225313792,
        -0.0773366349300596
      ],
      [
        0.11419380938935286,
        -0.15040539119045587,
        0.45177803217897833,
        0.09007633431775257,
        -0.3961987265045104,
        0.08188831763999613,
        -0.36159135170620194,
        0.4855852072121557,
        0.43496516666718427,
        0.0348986094497928,
        0.008498112956731906,
        -0.21750978719053002,
        -0.10582457801103844,
        -0.0951364185062672,
        -0.5790609108497897,
        -0.3617781181057718
      ],
      [
        -0.33303374467484187,
        -0.2581449681671,
        0.13748543540098837,
        -0.1854070377014023,
        -0.03440098385179736,
        0.3184473733942542,
        -0.024627723859041654,
        0.22109844312456747,
        -0.19132033059414608,
        -0.05642898886165264,
        -0.2129146974573746,
        -0.1330583044758845,
        0.21007703436434888,
        -0.40006556816552663,
        0.15644643464776808,
        0.05943390058306947
      ],
      [
        -0.1485374889241986,
        -0.36151446359711364,
        -0.010107353279082345,
        -0.14869111168855823,
        -0.08432441136930947,
        0.00546303638086072,
        0.3461007829701972,
        -0.058425617045365405,
        -0.2960859064541752,
        0.0877628686838405,
        -0.029241422841596205,
        0.5777036337352371,
        0.18613977071401921,
        0.07022126135888965,
        0.332417827913413,
        -0.2971907635807127
      ],
      [
        -0.15993788318743693,
        -0.23164398535138123,
        -0.17483670885970373,
        -0.38904585655124807,
        -0.2330692898683589,
        -0.055555674274693344,
        -0.5171474082407517,
        -0.2500082232889361,
        -0.03220325470890076,
        0.32762753182168936,
        0.26752108987796863,
        1.3827091512959333,
        0.04134774621627932,
        -0.2996249144363072,
        -0.6248832811343907,
        0.06692786558595895
      ],
      [
        -0.2055941154138227,
        -0.15762849693789704,
        -0.18288564408802574,
        -0.21541135542642004,
        0.6345553694973419,
        0.03290244080907402,
        0.409163056472534,
        -0.2281492114984305,
        -0.369951746272906,
        -0.12664657666307783,
        0.26583658003340854,
        0.3345201562677523,
        0.03256863036822146,
        0.2776812314828618,
        -0.08306535115140232,
        -0.29623594160425615
      ],
      [
        -0.24127919055809297,
        -0.25173865302120974,
        0.4265171026271984,
        -0.5518621775299531,
        0.6920395125529073,
        -0.2257317945217566,
        0.8351042787857583,
        0.08690757521140066,
        -0.028764620669394513,
        -0.010190631533858506,
        0.23532637279187002,
        0.018828895923372564,
        -0.113745870085195,
        -0.3060382562338659,
        -0.32901298312611077,
        0.04314697943052987
      ],
      [
        0.3928443065421456,
        0.03277613350605681,
        -0.0026377553776564203,
        0.10281740383205537,
        0.3570787935575155,
        0.04964615300966746,
        -0.05713903110385122,
        0.3067771948367693,
        0.13634959872133856,
        0.38539675325751277,
        0.054923153793437166,
        -0.3145683002485608,
        -0.3449931670103596,
        0.43622328306532804,
        0.46567078676856666,
        -0.04487980332065016
      ],
      [
        -0.10051451345647937,
        0.34769455052709153,
        -0.20167766307061344,
        -0.1417563024617308,
        0.2811110079883611,
        -0.11137068281942167,
        0.1275960711326118,
        0.03257837738446359,
        0.16856181601637982,
        0.3417312665389389,
        0.07182785926597783,
        0.06438462731772666,
        -0.5125430252577556,
        0.05134947478259159,
        -0.11512652005061064,
        -0.304703265105907
      ],
      [
        -0.2195380917321877,
        -0.08353086017520302,
        0.2008359053814536,
        -0.34791611385749854,
        -0.13483559105938106,
        -0.12104235833339462,
        -0.13626221345052197,
        0.2521027461490416,
        0.09431732595227259,
        0.37729348680544744,
        -0.1228670136470126,
        0.06392108700745187,
        -0.07860274498475026,
        0.04162769438931771,
        0.010735444721950203,
        -0.27109701805834163
      ],
      [
        0.007840120749109378,
        0.057057082534726286,
        0.42769377628919075,
        0.8869199570567454,
        -0.2216076728152957,
        -0.07184584038729402,
        -0.3200107585198104,
        -0.3906951755294993,
        0.01745932855294198,
        0.34642756139992065,
        -0.26934102945398314,
        -0.18064439570973273,
        -0.5368222574346637,
        0.23323834630029291,
        0.20095798940345894,
        -0.13235985684151844
      ],
      [
        -0.22114370210236023,
        -0.030787408450442005,
        -0.4124102716893438,
        -0.33540044241632805,
        0.5628901361378836,
        -0.3270551176498044,
        -0.22860361800907686,
        0.4894333994021256,
        0.7554272814160369,
        -0.29143390194782065,
        -0.08294769470904705,
        0.07693784541669173,
        0.42922104390245475,
        -0.22322296959954369,
        -0.02656510491278495,
        0.194334394015436
      ],
      [
        0.1067630110561915,
        -0.10126078769482758,
        -0.01010503462449499,
        -0.31449192694130024,
        -0.04755482808158096,
        -0.0717963448335354,
        0.09654551845041905,
        -0.10844240906820242,
        0.14179910818590172,
        0.26023919466401496,
        0.036981817272433264,
        0.11052546135722785,
        0.0073821024965800685,
        0.021034107393642965,
        -0.149993558177906,
        0.079123565418327
      ],
      [
        -0.024321649603372367,
        0.45285994034537724,
        0.287738395137218,
        -0.25005386958473147,
        0.2916529091951292,
        -0.2781028679958545,
        0.8999967638394137,
        0.05635713997171952,
        0.13043070459303074,
        -0.43614649674354816,
        0.6308829170387625,
        0.020915930106443166,
        -0.2776076711036195,
        -0.11751801715454084,
        0.05640071154292395,
        0.013116699589060907
      ],
      [
        -0.07304279645088875,
        -0.025872067016490214,
        -0.11223887241493334,
        0.00958424278605384,
        0.11850943088431473,
        -0.6416646102328244,
        -0.15431446088247655,
        0.04660136253317038,
        0.0036283141490342408,
        -0.01782671542698999,
        -0.5866014848300862,
        0.4983356657975009,
        0.39222098220295176,
        -0.4167092322288879,
        0.15749318736446144,
        -0.08213130578072347
      ],
      [
        -0.017689928043453037,
        -0.27205788894271676,
        -0.046072164368840006,
        0.36597387481335253,
        0.20580346515497672,
        0.4267182003002239,
        0.358791241150738,
        0.14649122074018986,
        0.4780677209502711,
        0.10467869028982953,
        0.23158786046953544,
        -0.12244277388442101,
        0.016636453964801207,
        -0.1425914181925086,
        0.29523650741001684,
        -0.2945759057787164
      ],
      [
        0.19365907804395216,
        -0.05488453426359262,
        0.31983359951664386,
        0.2190781161142346,
        0.4857398975425097,
        0.1774942004533646,
        -0.3474172873087271,
        0.013466724097246825,
        -0.2638413090427689,
        -0.1281122053330539,
        0.3869216528071412,
        0.1509324104059884,
        -0.17768597434362998,
        -0.22993804160258408,
        0.04294987979180767,
        -0.30414003734528194
      ],
      [
        -0.16971357690960845,
        0.0786479293116931,
        0.598970493642354,
        0.28035847230505523,
        -0.5929872666323752,
        0.05009432060108181,
        -0.06385379430173195,
        0.385446106617557,
        0.5974773902183068,
        -0.5543948947139515,
        -0.22103303216567607,
        0.03861836102429007,
        -0.3983519670624289,
        0.3532324995478389,
        0.04479578090119292,
        0.211645996460851
      ],
      [
        -0.14273591538044864,
        0.21851701656775957,
        0.8096593828175057,
        0.24373031285162675,
        -0.038638591932576474,
        0.027731007264032142,
        -0.46007708284036625,
        0.44557950747014563,
        0.27664786882761727,
        0.01911428153068054,
        0.09210789744110898,
        -0.4575224365577763,
        -0.03125225757989441,
        0.295157021135076,
        -0.34312435956342313,
        -0.20556250432258008
      ],
      [
        0.04821770637155718,
        0.20226303635460052,
        0.04039839261029402,
        0.3732028737478602,
        0.2743381502996818,
        0.20409531567025332,
        0.20296739423733812,
        0.6186328260943174,
        -0.009206332808187829,
        -0.5059501724113736,
        0.42565440664955595,
        -0.16272489323995026,
        0.02697011108575826,
        0.3591522088476923,
        -0.3527243615034278,
        -0.31291180352653486
      ],
      [
        -0.4026783258659547,
        -0.20736733377308547,
        0.1474510302243776,
        0.17200968684180565,
        0.12920819949018844,
        -0.35955117202535375,
        -0.5130875902518461,
        0.05030794735539144,
        -0.07585991900126071,
        0.10977684353440778,
        0.20007922282558824,
        -0.013739677486073439,
        0.19003327134396344,
        0.08906738116132763,
        0.1803567001616704,
        -0.1761683157174706
      ],
      [
        -0.04726169504410585,
        0.040360762897509804,
        0.24267399757448396,
        -0.05747256691753013,
        0.19043146859107812,
        -0.07281939903110689,
        0.03505272707428222,
        0.24409931151381406,
        -0.4561810033552159,
        -0.3291876814134354,
        -0.3459555330904345,
        -0.6317040654628205,
        -0.16956611003879418,
        0.21912301256449573,
        -0.023380492834340037,
        0.04944752048546303
      ],
      [
        0.27230437417769815,
        0.3319215330669229,
        -0.04542421388908461,
        0.3220785379697418,
        -0.11946179959945818,
        -0.20934955595686552,
        -0.20294402790971552,
        -0.3687208383183635,
        -0.26224499673212204,
        -0.046560212073845884,
        0.11665566101011292,
        0.6680991977166238,
        -0.3681834196088854,
        0.07921036363649203,
        -0.29354387968086104,
        0.11867427211580049
      ],
      [
        -0.035130504258172865,
        -0.4665597177286121,
        0.2696161266122502,
        -0.11028745206356984,
        -0.07333540493533858,
        -0.2737978038746846,
        -0.09913255026557403,
        0.14369216118152514,
        -0.005226995825778158,
        0.0770959011758751,
        0.1150712797524817,
        0.2818653783812977,
        -0.08569653771609483,
        -0.3374499165788724,
        0.31464612790429936,
        -0.08287204302431367
      ],
      [
        0.27628926955810296,
        0.08701101702888808,
        0.004757496169292974,
        0.12815669965018664,
        0.5478927946896252,
        0.5128854312111762,
        0.08178355268950953,
        0.07676719933706466,
        0.3111441287749195,
        -0.21648485758658192,
        0.10785840942483456,
        -0.05476574748920801,
        0.0784770528643884,
        -0.17657766385479085,
        -0.3495513495659387,
        -0.5182458589978229
      ],
      [
        -0.28170486983364323,
        -0.12350208250156278,
        -0.03575601794206127,
        0.525270516745992,
        0.33663799713487463,
        -0.24688248013766895,
        0.15136538201905406,
        -0.06505000807978542,
        -0.02900687010170057,
        0.04126181295910037,
        0.17938359551411903,
        -0.13311465647174772,
        0.2659628831835896,
        -0.25372001890304047,
        0.04942528935187073,
        0.6494184316489581
      ],
      [
        0.05341109407007756,
        0.3494703653848137,
        0.06042192326343122,
        0.18615699997106208,
        0.0459438560598772,
        -0.04896159634331324,
        -0.13043233027504011,
        0.14429489074718413,
        -0.1708002078881188,
        0.16132670968361215,
        0.2959125673817482,
        0.04333281630856358,
        -0.07156218338892296,
        0.14525593245973462,
        -0.0293277401252995,
        0.23388678136628732
      ],
      [
        -0.4578515210537809,
        -0.08390184202966156,
        -0.5258427289885493,
        -0.3900831419794088,
        0.19847209324549175,
        0.2237962454929215,
        -0.23421399818122932,
        -0.37421257418733367,
        -0.7813437427591219,
        -0.09292991703839723,
        0.5208631592273132,
        0.34662780779103936,
        -0.1625311122769978,
        0.09727354894658888,
        -0.42364748314008815,
        -0.07433084067440886
      ]
    ],
    [
      [
        0.04221697605158954,
        -0.03243266688643627,
        0.2765730808716201,
        0.1198147043649566
      ],
      [
        0.2293844779912305,
        -0.2280866793407265,
        0.3160002472205883,
        0.568956392145131
      ],
      [
        -0.29281176567874356,
        -0.22470381108860002,
        0.8338097919758904,
        -0.56852091021481
      ],
      [
        1.247981072762997,
        -0.5938825246865894,
        0.6041066002394073,
        -0.3574157834566566
      ],
      [
        -0.223079440336406,
        1.1027723188335388,
        -0.3432452004149428,
        -0.35258072705719623
      ],
      [
        -0.1621872076189196,
        0.15580740866908396,
        -0.5426821191830073,
        0.22219529363122328
      ],
      [
        -0.20775367650369098,
        1.1169224780490183,
        -1.1650296993159142,
        -0.6534023158324866
      ],
      [
        -0.9884512199320715,
        -0.2338426684422209,
        0.6529556633107753,
        -0.29483759921486247
      ],
      [
        -0.25970557768404495,
        -0.17671949144167154,
        0.5737401257930707,
        -0.5678406413633055
      ],
      [
        0.24972573257845113,
        0.08348302977012474,
        0.012548880389777297,
        0.47133499913032634
      ],
      [
        -0.0403220548126107,
        0.8907610128761411,
        -0.03106971855093433,
        -0.13442533652040375
      ],
      [
        -0.6702280736292802,
        -0.6309729670924883,
        -1.0613308970014588,
        0.9769352159696524
      ],
      [
        -0.03414344366150886,
        0.10559742875794846,
        0.011186897735314814,
        -0.24201514002509078
      ],
      [
        0.6509432196903779,
        0.0006470361289010654,
        0.14987677536943692,
        -0.5090667861909257
      ],
      [
        0.9902211449102903,
        -0.07852052224216947,
        -0.9045381765348391,
        -0.28283014860361383
      ],
      [
        0.09264364981575933,
        -0.3180901422618369,
        0.0671197752194088,
        -0.5143574223742244
      ]
    ]
  ],
  "biases": [
    [
      [
        -0.027692821333322674,
        -0.09866757325268642,
        0.25424425117967836,
        0.42455584700207155,
        0.12277963645238721,
        -0.06808067794112385,
        0.5235929404843317,
        0.35783615213646225,
        0.2863866017130083,
        0.1182428645201118,
        -0.05170630451035922,
        0.3892872435701084,
        -0.08702605593496664,
        0.31227092353958014,
        0.4602053156687741,
        0.0
      ]
    ],
    [
      [
        -0.20217661146944066,
        -0.2558391750549947,
        0.09023626757305178,
        0.36777951895138344
      ]
    ]
  ]
}