{
  "layer_sizes": [
    32,
    16,
    3
  ],
  "learning_rate": 0.3,
  "seed": 42,
  "output_activation": "softmax",
  "weights": [
    [
      [
        0.07617926993860784,
        -0.23487620086396413,
        0.20355824356325636,
        0.2604753816227104,
        -0.45814653713735976,
        -0.3255448767155795,
        0.03196010079182134,
        -0.04221409209988341,
        -0.01554965398104452,
        -0.19336718832958819,
        0.22343714696288786,
        0.19597026283930372,
        0.013472308520862883,
        0.2685752785746081,
        0.1168773355630114,
        -0.21482311572080956
      ],
      [
        0.09218769602062471,
        -0.21460082451109,
        0.2355580199384602,
        0.012852724778343799,
        -0.016603330860215815,
        -0.17023238610098534,
        0.30563533466850756,
        -0.0017858145311884263,
        -0.11843132014574911,
        -0.06813959405825054,
        0.1366649496355179,
        0.09288329507308621,
        0.10014778702955597,
        0.09447022758457063,
        0.5354119002176153,
        -0.1016037540961539
      ],
      [
        -0.12806068226788433,
        -0.26520846401016995,
        -0.07446109107315783,
        0.4196300167954507,
        0.31020637004112905,
        -0.210039119240632,
        -0.2061203039228099,
        0.3170889021946485,
        0.12906671977599896,
        0.2676428435105018,
        -0.2627509673954384,
        -0.07167680955250642,
        0.013994622937976408,
        0.0414371260148532,
        0.21785719448704746,
        0.05589888719367057
      ],
      [
        0.16972839076797372,
        0.04201459306838267,
        0.08822529428413803,
        0.18315625898454213,
        -0.33467669493781727,
        -0.07991780408932533,
        -0.11759316357319888,
        -0.12287290607482339,
        -0.08013492741164324,
        0.3936291213724058,
        -0.2128701256761301,
        0.24359186762993684,
        -0.4237528087733924,
        -0.09695628066384376,
        0.0406882662762514,
        0.14655558283981954
      ],
      [
        0.17780664494821374,
        0.22345663449614103,
        -0.07123582345046742,
        -0.0902537456412348,
        0.24410623034038786,
        -0.04782608122040372,
        -0.31892158083448047,
        -0.24647524751485805,
        -0.24121243610537516,
        0.14418397957724785,
        0.03919408726482194,
        0.1741436174990087,
        -0.10984852745357469,
        0.02639989960177852,
        0.15639759849183418,
        -0.0773366349300596
      ],
      [
        0.11419380938935286,
        -0.1403616595705031,
        -0.07481801702962596,
        -0.07010027097467529,
        -0.26934765137116057,
        0.12174312019639545,
        -0.11735058505068097,
        0.03997008566793399,
        0.10883730012150492,
        0.13152658757129282,
        0.16993393049037728,
        -0.023099092145289248,
        -0.10885994388047956,
        -0.0331645758939998,
        -0.42183360848950746,
        -0.3617781181057718
      ],
      [
        -0.3306749030886006,
        -0.2241918812042107,
        0.11588900129250113,
        -0.20103556131510814,
        -0.06492837848374815,
        0.32480707444651635,
        -0.08906599276535648,
        0.22122544810278372,
        -0.24475378460744157,
        -0.031465595903100704,
        -0.2339178604804646,
        -0.083235989993074,
        0.20704166849490774,
        -0.4450651289654873,
        0.10860591088646433,
        0.05943390058306947
      ],
      [
        -0.1485374889241986,
        -0.3363946379009536,
        0.03397782154010937,
        -0.10703897474104364,
        0.0877813128647753,
        0.00546303638086072,
        0.40044472283022886,
        -0.022992350882243946,
        -0.26722373776043856,
        0.06471270230288584,
        0.05858682424012192,
        0.34131917279217594,
        0.2057424456092035,
        0.07598274161997728,
        0.36582572280489045,
        -0.2971907635807127
      ],
      [
        -0.15993788318743693,
        -0.2065241596552215,
        -0.0815070061773,
        -0.3188373343641701,
        0.18839999672970048,
        -0.055555674274693344,
        -0.36770157362566447,
        -0.21704821431587332,
        0.0670290972575765,
        0.2294254355374021,
        0.5027703761701275,
        0.7299878954838988,
        0.10056699244955797,
        -0.26061955317536617,
        -0.5330115701828273,
        0.06692786558595895
      ],
      [
        -0.2032352738275815,
        -0.07871948934876154,
        -0.13707875515330997,
        -0.009863519079189286,
        0.29610731772301024,
        0.039262141861336156,
        -0.039658709259672076,
        -0.22206688222044085,
        -0.43002010078106156,
        -0.10168318370452586,
        -0.009857984457399474,
        0.44350475737703754,
        0.029533264498780333,
        0.2324498545883643,
        -0.12482389963478802,
        -0.29623594160425615
      ],
      [
        -0.24127919055809297,
        -0.15618669043777858,
        0.5480628777204328,
        -0.18001246728118947,
        0.23923456096018564,
        -0.2257317945217566,
        0.23289325321856102,
        0.1330842975124779,
        -0.050508839019494926,
        0.009703162029948316,
        -0.1601092706101669,
        0.11304032935258676,
        -0.11678123595463613,
        -0.31963646410921215,
        -0.3194843935799048,
        0.04314697943052987
      ],
      [
        0.3947728141026087,
        0.06511772908951935,
        -0.01371413691582865,
        0.09679073742554271,
        0.35611269545280555,
        0.054845625340964085,
        -0.10273180770843429,
        0.3134187335009843,
        0.09583974501043105,
        0.4038327915628048,
        0.04939626255265716,
        -0.30459497894805826,
        -0.34507516568085744,
        0.3994969598904123,
        0.43091643019582426,
        -0.04487980332065016
      ],
      [
        -0.09579683028399694,
        0.3904808987567106,
        -0.2608159758992299,
        -0.19834755221404954,
        0.1904439586983605,
        -0.0986512807148974,
        -0.001280466680017824,
        -0.004014168645116044,
        0.07304427259476107,
        0.371764258892236,
        0.026233879972617027,
        0.1625069773012811,
        -0.5155783911271967,
        -0.025414623649929528,
        -0.21080756757321778,
        -0.304703265105907
      ],
      [
        -0.2195380917321877,
        -0.058411034479043215,
        0.24492108020064535,
        -0.3062639769099839,
        0.03727013317470371,
        -0.12104235833339462,
        -0.08191827359049021,
        0.28753601231216314,
        0.12317949464600919,
        0.35424332042449275,
        -0.03503876656529449,
        -0.17246337393560912,
        -0.05900007008956601,
        0.04738917465040536,
        0.04414333961342776,
        -0.27109701805834163
      ],
      [
        0.022622445406968554,
        0.08217690823088608,
        0.6453139539951218,
        0.4945453553453246,
        -0.1836985776136056,
        -0.07184584038729402,
        -0.3658605004592508,
        -0.11083019750485952,
        0.0675518862926128,
        0.3213571987858652,
        -0.1786833061887214,
        -0.1620143310348825,
        -0.5398576233041048,
        -0.05390150330362695,
        -0.2656036029648908,
        -0.13235985684151844
      ],
      [
        -0.21921519454189706,
        0.0015541871330205554,
        -0.4234866532275157,
        -0.34142710882284055,
        0.5619240380331739,
        -0.32185564531850774,
        -0.2741963946136599,
        0.4960749380663406,
        0.7149174277051294,
        -0.2729978636425286,
        -0.08847458594982699,
        0.08691116671719401,
        0.4291390452319569,
        -0.2599492927744595,
        -0.061319461485527436,
        0.194334394015436
      ],
      [
        0.10869151861665466,
        -0.06891919211136502,
        -0.01751029651736829,
        -0.31838974956758836,
        -0.029931175967566958,
        -0.06659687250223878,
        0.05804247240656399,
        -0.10198524871874191,
        0.10653526603131244,
        0.27307274801876397,
        0.042444985164297136,
        0.08946138108186749,
        0.010253471025025713,
        -0.013213924894546494,
        -0.18038950838571186,
        0.079123565418327
      ],
      [
        -0.024321649603372367,
        0.5484119029288087,
        0.4092841702304527,
        0.12179584066403219,
        -0.16115204239759248,
        -0.2781028679958545,
        0.29778573827221627,
        0.10253386227279672,
        0.1086864862429304,
        -0.41625270317974133,
        0.2354472736367259,
        0.11512736353565736,
        -0.2806430369730607,
        -0.13111622502988732,
        0.0659293010891299,
        0.013116699589060907
      ],
      [
        -0.07304279645088875,
        -0.0007522413203304082,
        -0.04704889994007933,
        0.06347483055052415,
        0.3974852532743886,
        -0.6416646102328244,
        -0.05921256612742106,
        0.08097466132912383,
        0.06264913281680257,
        -0.07308485176651561,
        -0.4355927923724648,
        0.08352114991059403,
        0.42880218767160505,
        -0.3967003743964345,
        0.21595700342454707,
        -0.08213130578072347
      ],
      [
        -0.015331086457211825,
        -0.23810480197982753,
        -0.06766859847732717,
        0.3503453511996467,
        0.17527607052302616,
        0.433077901352486,
        0.2943529722444234,
        0.14661822571840613,
        0.4246342669369757,
        0.12964208324838156,
        0.21058469744644545,
        -0.07262045940161047,
        0.013601088095360078,
        -0.1875909789924693,
        0.24739598364871326,
        -0.2945759057787164
      ],
      [
        0.19558758560441533,
        -0.02254293868013006,
        0.30875721797847194,
        0.213051449707722,
        0.48477379943779975,
        0.1826936727846612,
        -0.39301006391331017,
        0.02010826276146191,
        -0.3043511627536763,
        -0.10967616702776184,
        0.38139476156636126,
        0.16090573170649064,
        -0.17776797301412772,
        -0.26666436477749983,
        0.008195523219065198,
        -0.30414003734528194
      ],
      [
        -0.16778506934914528,
        0.10312219358397076,
        0.30477345363831615,
        0.177524570581017,
        -0.5432101171234256,
        0.07609168225756495,
        0.01800839330814448,
        0.14031912732918533,
        0.3927030558078295,
        -0.4959157756373788,
        -0.14418820305059568,
        0.1492488596804053,
        -0.3984339657329268,
        0.3557522388459771,
        0.0920891531751646,
        0.211645996460851
      ],
      [
        -0.14273591538044864,
        0.4447067148164728,
        0.6639598317482021,
        0.0444207928079467,
        -0.18687310109159835,
        0.06758580982043147,
        -0.21583631618484542,
        0.0014805504214130678,
        -0.0381306331130897,
        0.05414648477380272,
        0.3971533260253109,
        -0.08779852764348707,
        -0.03125225757989441,
        0.30219387867016323,
        -0.18589705720314104,
        -0.20556250432258008
      ],
      [
        0.050576547957798396,
        0.4523620899462502,
        0.39969845664110715,
        0.31844143538290187,
        -0.031274828624640705,
        0.21045501672251546,
        0.13852912533102332,
        0.6202759955680225,
        -0.05129042221651105,
        -0.5425825543311997,
        0.5482608546770223,
        0.062410635111908856,
        0.02697011108575826,
        0.25921766297055165,
        -0.40056488526473133,
        -0.31291180352653486
      ],
      [
        -0.4003194842797134,
        0.042731719818564266,
        0.5067510942551905,
        0.11724824847684741,
        -0.17640477943413388,
        -0.3531914709730916,
        -0.577525859158161,
        0.05195111682909686,
        -0.11794400840958394,
        0.07314446161458192,
        0.3226856708530548,
        0.21139585086578586,
        0.19003327134396344,
        -0.010867164715812973,
        0.13251617640036667,
        -0.1761683157174706
      ],
      [
        -0.044902853457864635,
        0.22581942929117296,
        0.5701256525356855,
        -0.6108736607901977,
        0.19859966439605223,
        -0.06645969797884475,
        -0.02938554183203259,
        0.7289123317184537,
        -0.498265092763539,
        -0.3053217384289823,
        -0.3891072357359558,
        -0.7163973121908501,
        -0.16956611003879418,
        0.1451303622350312,
        -0.07122101659564369,
        0.04944752048546303
      ],
      [
        0.27230437417769815,
        0.47253165119512647,
        0.13952144763811186,
        0.8326911917824379,
        -0.3680441079804609,
        -0.20934955595686552,
        -0.1486000880496838,
        -0.8412243320865974,
        -0.2220334634334131,
        -0.16313360958165204,
        0.413003854623557,
        0.7957031622545582,
        -0.34554537884426,
        0.05079961111976787,
        -0.2601359847893836,
        0.11867427211580049
      ],
      [
        -0.03277166267193165,
        -0.40748680506956314,
        0.26396513711540515,
        -0.10058177315236877,
        -0.07425053954118999,
        -0.2674381028224225,
        -0.16357081917188887,
        0.18066572214575347,
        -0.07000981444404603,
        0.12195308769823386,
        0.09765576997657217,
        0.333209971846175,
        -0.09176726945497708,
        -0.3956845005462331,
        0.26680560414299576,
        -0.08287204302431367
      ],
      [
        0.27864811114434423,
        -0.051264996745078575,
        -0.4465919092039081,
        0.27691575616266384,
        1.0110727204503311,
        0.5192451322634383,
        0.017345283783194675,
        0.2391518505864189,
        0.1921954606383735,
        -0.021849682285695553,
        -0.08598142032792987,
        -0.228673364756705,
        0.05791976820913985,
        -0.20834220148735144,
        -0.39739187332724224,
        -0.5182458589978229
      ],
      [
        -0.27934602824740196,
        -0.2617780962755294,
        -0.48710542331526235,
        0.6740295732584691,
        0.7998179228955806,
        -0.2405227790854068,
        0.08692711311273923,
        0.09733464316956891,
        -0.14795553823824667,
        0.23589698825998673,
        -0.014456234238645303,
        -0.30702227373924496,
        0.24540559852834107,
        -0.285484556535601,
        0.0015847655905671105,
        0.6494184316489581
      ],
      [
        0.05576993565631878,
        0.5349290317784767,
        0.38787357822463275,
        -0.3672440939016055,
        0.0541120518648512,
        -0.04260189529105111,
        -0.1948705991813549,
        0.6291079109518236,
        -0.21288429729644198,
        0.1851926526680652,
        0.2527608647362269,
        -0.04136043041946628,
        -0.07156218338892296,
        0.07126328213027013,
        -0.07716826388660315,
        0.23388678136628732
      ],
      [
        -0.4578515210537809,
        0.05670827609854195,
        -0.3408970674613527,
        0.12052951183328708,
        -0.050110215135510776,
        0.2237962454929215,
        -0.1798700583211976,
        -0.8467160679555675,
        -0.7411322094604128,
        -0.20950331454620338,
        0.8172113528407572,
        0.4742317723289739,
        -0.13989307151237237,
        0.0688627964298647,
        -0.3902395882486107,
        -0.07433084067440886
      ]
    ],
    [
      [
        0.03517059787236524,
        -0.030441177383622633,
        0.2795921856254451
      ],
      [
        0.44950297219841956,
        0.3836005316812944,
        -0.7183404402415028
      ],
      [
        1.031245390606653,
        0.47882457729574895,
        -0.9597277572920407
      ],
      [
        -1.00571867433523,
        0.7111856220992762,
        0.3853060092848838
      ],
      [
        0.03897848202994221,
        -0.540392456467696,
        1.3557160829504182
      ],
      [
        0.04648725634649368,
        0.09129767603465035,
        0.5532113618837944
      ],
      [
        -0.1279051789169342,
        -0.3327369079765173,
        -0.15859139664721128
      ],
      [
        0.8604453612742288,
        -1.3928972822216654,
        0.36417669309302847
      ],
      [
        -0.202931281419169,
        0.3921713635955281,
        -0.8204102990667268
      ],
      [
        -0.4503296404513605,
        -0.7311624618684696,
        0.015026343369691185
      ],
      [
        -0.13547424457404167,
        0.6643778639903914,
        -0.5942891800591477
      ],
      [
        -0.5960564280446593,
        0.7220009299848978,
        -0.46688758803433766
      ],
      [
        0.24234575293945618,
        0.22702144387012052,
        0.15096115939584662
      ],
      [
        0.23774578733963847,
        0.12218144386914565,
        0.6611437099596744
      ],
      [
        -0.03079243947652543,
        -0.10857031303648419,
        -0.2664122309408965
      ],
      [
        -0.36495996716566187,
        -0.4399872200040327,
        -0.31423730364298325
      ]
    ]
  ],
  "biases": [
    [
      [
        0.0,
        0.39939173961486724,
        0.3548660737503493,
        0.29587267192270833,
        0.25045983418250395,
        0.0,
        0.0,
        0.45462245803373874,
        -0.13511747027296017,
        0.21949915761909813,
        0.10392559747494379,
        0.09166209153958396,
        -0.036136909149265095,
        -0.18591600385576368,
        0.0,
        0.0
      ]
    ],
    [
      [
        -0.31080011444475925,
        -0.0012612186017715724,
        0.3120613330465308
      ]
    ]
  ]
}