{
  "layer_sizes": [
    32,
    16,
    3
  ],
  "learning_rate": 0.3,
  "seed": 42,
  "output_activation": "softmax",
  "weights": [
    [
      [
        0.07261816976794726,
        -0.24348259389920088,
        0.21686214277013638,
        0.2742009465156035,
        -0.480690417563602,
        -0.333606825282724,
        0.03196010079182134,
        -0.0880708233952164,
        0.05472775470091611,
        -0.213260981893395,
        0.21671495805479304,
        0.20181561204988074,
        0.01611976993663372,
        0.26901933970202374,
        0.135282211444701,
        -0.1959718939546161
      ],
      [
        0.08862659584996413,
        -0.22320721754632666,
        0.24886191914534023,
        0.026578289671236953,
        -0.03914721128645817,
        -0.17829433466813005,
        0.30563533466850756,
        -0.04764254582652132,
        -0.0481539114637885,
        -0.0880333876220574,
        0.12994276072742308,
        0.0987286442836632,
        0.10279524844532681,
        0.09491428871198623,
        0.5538167760993047,
        -0.0827525323299603
      ],
      [
        -0.13162178243854494,
        -0.18692974940104637,
        0.183244199462396,
        0.321302840598023,
        -0.02141848481386181,
        -0.21810106780777672,
        -0.2061203039228099,
        0.15363802164685442,
        0.2447415868778489,
        0.13578856707629874,
        -0.16951196248308767,
        0.06540795895932354,
        0.028783547831511765,
        0.0418811871422688,
        0.23626207036873706,
        0.07475010895986418
      ],
      [
        0.1661672905973131,
        0.03340820003314595,
        0.10152919349101827,
        0.1968818238774352,
        -0.3572205753640595,
        -0.08797975265647,
        -0.11759316357319888,
        -0.16872963737015634,
        -0.00985751872968265,
        0.37373532780859897,
        -0.2195923145842249,
        0.24943721684051384,
        -0.4211053473576215,
        -0.09651221953642816,
        0.05909314215794094,
        0.165406804606013
      ],
      [
        0.17424554477755314,
        0.21485024146090437,
        -0.05793192424358714,
        -0.07652818074834157,
        0.22156234991414536,
        -0.055888029787548324,
        -0.31892158083448047,
        -0.29233197881019085,
        -0.17093502742341452,
        0.12429018601344101,
        0.03247189835672715,
        0.1799889667095857,
        -0.10720106603780385,
        0.02684396072919413,
        0.17480247437352378,
        -0.058485413163866
      ],
      [
        0.11063270921869228,
        -0.14896805260573975,
        -0.06151411782274569,
        -0.05637470608178205,
        -0.2918915317974028,
        0.11368117162925079,
        -0.11735058505068097,
        -0.005886645627398941,
        0.17911470880346556,
        0.11163279400748602,
        0.16321174158228247,
        -0.01725374293471233,
        -0.10621248246470873,
        -0.03272051476658421,
        -0.40342873260781803,
        -0.34292689633957824
      ],
      [
        -0.3306749030886006,
        -0.24931170690037044,
        0.23392792433107845,
        -0.413982226857888,
        -0.04974368345139701,
        0.30056663993267885,
        -0.08906599276535648,
        0.3854592285570279,
        -0.3468727979718225,
        -0.051359389466907504,
        -0.19437193968155758,
        0.1918224210408569,
        0.21007703436434888,
        -0.43183010579808717,
        0.32597865364544015,
        0.05320209129911642
      ],
      [
        -0.1485374889241986,
        -0.36151446359711364,
        0.1520167445786867,
        -0.3199856402838234,
        0.10296600789712647,
        -0.01877739813297672,
        0.40044472283022886,
        0.14124142957200006,
        -0.36934275112481957,
        0.04481890873907904,
        0.09813274503902912,
        0.6163775838261065,
        0.20877781147864463,
        0.08921776478737733,
        0.5831984655638665,
        -0.3034225728646658
      ],
      [
        -0.16349898335809754,
        -0.21513055269045817,
        -0.06820310697041976,
        -0.3051117694712771,
        0.16585611630345798,
        -0.06361762284183799,
        -0.36770157362566447,
        -0.2629049456112061,
        0.1373065059395371,
        0.20953164197359528,
        0.4960481872620323,
        0.735833244694476,
        0.1032144538653288,
        -0.26017549204795054,
        -0.5146066943011379,
        0.08577908735215255
      ],
      [
        -0.2067963739982421,
        -0.08732588238399827,
        -0.12377485594642992,
        0.003862045813703866,
        0.273563437296768,
        0.03120019329419154,
        -0.039658709259672076,
        -0.2679236135157736,
        -0.3597426920991011,
        -0.12157697726833272,
        -0.016580173365494295,
        0.44935010658761426,
        0.03218072591455117,
        0.23289391571577986,
        -0.10641902375309849,
        -0.27738471983806257
      ],
      [
        -0.24484029072875357,
        -0.16479308347301524,
        0.5613667769273137,
        -0.16628690238829644,
        0.21669068053394314,
        -0.2337937430889013,
        0.23289325321856102,
        0.08722756621714495,
        0.019768569662465686,
        -0.010190631533858506,
        -0.1668314595182617,
        0.11888567856316375,
        -0.11413377453886529,
        -0.3191924029817965,
        -0.3010795176982154,
        0.06199820119672349
      ],
      [
        0.39121171393194815,
        0.056511336054282636,
        -0.00041023770894840945,
        0.11051630231843594,
        0.3335688150265633,
        0.046783676773819484,
        -0.10273180770843429,
        0.2675620022056515,
        0.1661171536923917,
        0.383938997998998,
        0.04267407364456237,
        -0.29874962973748154,
        -0.34242770426508656,
        0.3999410210178279,
        0.4493213060775137,
        -0.026028581554456563
      ],
      [
        -0.09935793045465752,
        0.38187450572147374,
        -0.2475120766923498,
        -0.1846219873211565,
        0.167900078272118,
        -0.10671322928204206,
        -0.001280466680017824,
        -0.04987089994044892,
        0.14332168127672168,
        0.3518704653284292,
        0.019511691064522205,
        0.1683523265118581,
        -0.512930929711426,
        -0.02497056252251393,
        -0.19240269169152818,
        -0.2858520433397134
      ],
      [
        -0.2230991919028483,
        -0.06701742751427996,
        0.25822497940752565,
        -0.2925384120170909,
        0.014726252748461326,
        -0.1291043069005393,
        -0.08191827359049021,
        0.24167928101683017,
        0.19345690332796986,
        0.3343495268606859,
        -0.04176095547338928,
        -0.16661802472503212,
        -0.05635260867379517,
        0.04783323577782097,
        0.0625482154951173,
        -0.25224579629214805
      ],
      [
        0.019061345236307967,
        0.07357051519564932,
        0.6586178532020027,
        0.5082709202382177,
        -0.20624245803984811,
        -0.07990778895443869,
        -0.3658605004592508,
        -0.15668692880019247,
        0.13782929497457344,
        0.3014634052220584,
        -0.18540549509681623,
        -0.1561689818243055,
        -0.537210161888334,
        -0.05345744217621135,
        -0.24719872708320137,
        -0.11350863507532485
      ],
      [
        -0.22277629471255767,
        -0.0070522059022161765,
        -0.41018275402063553,
        -0.32770154392994755,
        0.5393801576069318,
        -0.3299175938856522,
        -0.2741963946136599,
        0.4502182067710078,
        0.7851948363870898,
        -0.2928916572063354,
        -0.0951967748579218,
        0.092756515927771,
        0.4317865066477278,
        -0.25950523164704387,
        -0.042914585603837895,
        0.2131856157816295
      ],
      [
        0.10513041844599408,
        -0.07752558514660175,
        -0.004206397310488047,
        -0.30466418467469536,
        -0.052475056393809345,
        -0.07465882106938344,
        0.05804247240656399,
        -0.1478419800140749,
        0.17681267471327308,
        0.25317895445495714,
        0.035722796256202345,
        0.09530673029244448,
        0.01290093244079655,
        -0.0127698637671309,
        -0.16198463250402226,
        0.0979747871845206
      ],
      [
        -0.024321649603372367,
        0.41675907791632266,
        0.22263360533905777,
        0.07931686744971438,
        0.15947799620553732,
        -0.2781028679958545,
        0.29778573827221627,
        0.0741670165239633,
        0.05352635391668428,
        -0.43614649674354816,
        0.1738385175149654,
        0.011629980831112661,
        -0.2802347884318535,
        -0.11788120186248724,
        -0.026794786839292414,
        0.14702008080717774
      ],
      [
        -0.07304279645088875,
        -0.1324050663328164,
        -0.23369946483147416,
        0.020995857336206278,
        0.7181152918775184,
        -0.6416646102328244,
        -0.05921256612742106,
        0.052607815580290415,
        0.007489000490556457,
        -0.09297864533032246,
        -0.4972015484942253,
        -0.01997623279395067,
        0.42921043621281224,
        -0.3834653512290344,
        0.12323291549612475,
        0.0517720754373934
      ],
      [
        -0.015331086457211825,
        -0.26322462767598725,
        0.05037032456125015,
        0.1373986856568668,
        0.1904607655553771,
        0.4088374668386485,
        0.2943529722444234,
        0.3108520061726503,
        0.32251525357259464,
        0.10974828968457469,
        0.2501306182453525,
        0.20243795163232037,
        0.016636453964801207,
        -0.17435595582506921,
        0.4647687264076891,
        -0.30080771506266946
      ],
      [
        0.19558758560441533,
        -0.047662764376289864,
        0.42679614101704894,
        0.0001047841649421408,
        0.49995849447015017,
        0.15845323827082375,
        -0.39301006391331017,
        0.18434204321570583,
        -0.4064701761180573,
        -0.12956996059156867,
        0.4209406823652684,
        0.4359641427404213,
        -0.17473260714468658,
        -0.2534293416100997,
        0.22556826597804103,
        -0.310371846629235
      ],
      [
        -0.16778506934914528,
        0.07800236788781097,
        0.42281237667689314,
        -0.03542209496176286,
        -0.5280254220910753,
        0.05185124774372751,
        0.01800839330814448,
        0.3045529077834295,
        0.29058404244344843,
        -0.5158095692011857,
        -0.10464228225168858,
        0.424307270714336,
        -0.3953985998634856,
        0.3689872620133772,
        0.3094618959341404,
        0.20541418717689797
      ],
      [
        -0.16685378223503067,
        0.4218126096127126,
        0.5019324177050306,
        0.5275124790486778,
        -0.2885678025505046,
        0.03722598238914808,
        -0.21583631618484542,
        -0.30746442842283234,
        0.5409426485269416,
        0.09584846608837377,
        0.2436146696894999,
        -0.3893416911809681,
        -0.03125225757989441,
        0.28373596165614734,
        -0.18589705720314104,
        -0.20556250432258008
      ],
      [
        0.026458681103216353,
        0.4294679847424899,
        0.23767104259793592,
        0.801533121623633,
        -0.13296953008354687,
        0.18009518929123206,
        0.13852912533102332,
        0.3113310167237771,
        0.5277828594235202,
        -0.5008805730166285,
        0.3947221983412115,
        -0.239132528425572,
        0.02697011108575826,
        0.24075974595653582,
        -0.40056488526473133,
        -0.31291180352653486
      ],
      [
        -0.4003194842797134,
        -0.30506707182268206,
        -0.060795968775504465,
        0.11390219001378192,
        0.4193108434613676,
        -0.3531914709730916,
        -0.577525859158161,
        0.022068106584774243,
        -0.1844535053408024,
        0.11484644292915294,
        0.1174673036807377,
        -0.0674147457078076,
        0.18740615401572946,
        0.057302843528767106,
        0.03979208847194438,
        -0.0422649344993537
      ],
      [
        -0.044902853457864635,
        -0.05733897515208682,
        0.03442699857460185,
        -0.11558006374555385,
        0.48053411256225725,
        -0.06645969797884475,
        -0.02938554183203259,
        0.21585947074319695,
        -0.5647745896947572,
        -0.32411808201869025,
        -0.42856745223528486,
        -0.6853791336845543,
        -0.17219322736702816,
        0.1873584749319351,
        -0.16394510452406594,
        0.18335090170357987
      ],
      [
        0.27230437417769815,
        0.3319215330669229,
        0.1166998839686844,
        0.1507840093744765,
        0.06782861966697774,
        -0.23358999047070297,
        -0.1486000880496838,
        -0.16905379170099796,
        -0.33550184140276634,
        -0.08950417201860729,
        0.2440298288907381,
        0.7067731478074935,
        -0.34554537884426,
        0.09820686706497973,
        -0.04276324203040779,
        0.11244246283184743
      ],
      [
        -0.03277166267193165,
        -0.4577264564618826,
        0.3660586155423401,
        -0.33886264122005555,
        -0.0886781045349382,
        -0.29167853733626,
        -0.16357081917188887,
        0.3080529466139856,
        -0.16077946320345468,
        0.08216550057062026,
        0.13361403752829865,
        0.6067461038980391,
        -0.08569653771609483,
        -0.36921445421143295,
        0.48417834690197165,
        -0.08910385230826673
      ],
      [
        0.25728151012038064,
        0.257844979813406,
        0.1643995484033987,
        0.4424854987108145,
        0.29684687065632154,
        0.48519023197722955,
        0.017345283783194675,
        -0.13778294292849974,
        0.7289261360353226,
        -0.2114152581918368,
        0.07325319354061582,
        -0.06538481484507301,
        0.07770124395704782,
        -0.28508797372725814,
        -0.36058212156386305,
        -0.48054341546543616
      ],
      [
        -0.27934602824740196,
        -0.22120182055115942,
        -0.2440030169419433,
        0.4671630199179684,
        0.6267406411060535,
        -0.2405227790854068,
        0.08692711311273923,
        -0.09328984885040259,
        -0.13760045644124222,
        0.046331412353845504,
        0.09677167636926849,
        -0.18678972469348193,
        0.2633357658553556,
        -0.285484556535601,
        -0.09113932233785517,
        0.7833218128670748
      ],
      [
        0.05576993565631878,
        0.2517706273352171,
        -0.14782507573645076,
        0.12804950314303826,
        0.33604650003105635,
        -0.04260189529105111,
        -0.1948705991813549,
        0.11605504997656699,
        -0.2793937942276605,
        0.16639630907835729,
        0.21330064823689782,
        -0.010342251913170597,
        -0.07418930071715696,
        0.11349139482717402,
        -0.16989235181502543,
        0.36779016258440433
      ],
      [
        -0.4578515210537809,
        -0.19043484134598773,
        -0.6684081190607524,
        -0.3909099782462121,
        0.6912078560827065,
        0.2237962454929215,
        -0.1798700583211976,
        -0.3671461537730456,
        -0.8076417063916311,
        -0.13587387698315864,
        0.5470826501872708,
        0.006745964143433757,
        -0.14252018884060635,
        0.11627005237507657,
        -0.48296367617703295,
        0.05957254054370803
      ]
    ],
    [
      [
        0.029346134793763703,
        -0.019218084288845666,
        0.27419355560926967
      ],
      [
        -0.10269082746253458,
        0.5428133666604886,
        -0.3253594755597427
      ],
      [
        0.705984449575475,
        0.6112749393243436,
        -0.7669171782894567
      ],
      [
        -0.7695518187739068,
        0.8812949902551332,
        -0.020970214432296744
      ],
      [
        -0.03313826727495442,
        -0.5056376232018236,
        1.3930779989894426
      ],
      [
        0.00017365698105475916,
        0.19717561609346856,
        0.49364702119041487
      ],
      [
        -0.1279051789169342,
        -0.3327369079765173,
        -0.15859139664721128
      ],
      [
        0.36947661156833994,
        -0.6358142210972286,
        0.09806238167448059
      ],
      [
        -0.42744862963115327,
        1.012686293741908,
        -1.216407881001122
      ],
      [
        -0.2780929967127053,
        -0.5962565329963868,
        -0.2921162292410467
      ],
      [
        0.04881774299205576,
        0.021508974693723402,
        -0.13571227832857713
      ],
      [
        0.936144166915278,
        -0.5259131162033864,
        -0.7511741368059902
      ],
      [
        0.24941916682302173,
        0.23388633261706554,
        0.13702285676533602
      ],
      [
        0.13177010863016372,
        0.2161897377581633,
        0.6731110947801318
      ],
      [
        0.6287611336304004,
        -0.5074122107578951,
        -0.5271239063264116
      ],
      [
        -0.6215597749974844,
        -0.6062581456078078,
        0.10863342979261435
      ]
    ]
  ],
  "biases": [
    [
      [
        -0.04254522486637151,
        0.09513985171816974,
        0.3142382991460776,
        0.2703229717833453,
        0.46323265228420424,
        -0.1195608750812933,
        0.0,
        0.09329112711894492,
        0.5314533220356324,
        0.0,
        -0.051723943180691914,
        0.2554440004862654,
        -0.007153400983624423,
        -0.15281635735268068,
        0.33940692350871815,
        0.347638051197605
      ]
    ],
    [
      [
        -0.12332849657545686,
        -0.3554595398489017,
        0.4787880364243586
      ]
    ]
  ]
}