{
  "layer_sizes": [
    32,
    16,
    4
  ],
  "learning_rate": 0.3,
  "seed": 42,
  "output_activation": "softmax",
  "weights": [
    [
      [
        0.07078341181970964,
        -0.2501611830957912,
        0.19791151674505353,
        0.28529991012412625,
        -0.46589629021526874,
        -0.31948008220268936,
        0.03196010079182134,
        -0.08717121277800853,
        -0.009196371410382848,
        -0.19362008328865427,
        0.2340955836070394,
        0.185591437522544,
        0.015009593129437563,
        0.35005014442681875,
        0.17044561917562723,
        -0.21482311572080956
      ],
      [
        0.09218769602062471,
        -0.23972065020724972,
        -0.04493574652796249,
        0.5012821904273214,
        -0.24558854131857963,
        -0.4467638533223432,
        0.30563533466850756,
        -0.4902975961693386,
        -0.1070819555407768,
        -0.04567400698699656,
        -0.09588453584444286,
        0.16289554052019087,
        0.1031831528989971,
        0.7199201789621892,
        1.4066497711465296,
        -0.1016037540961539
      ],
      [
        -0.13466059132982117,
        -0.19633132447867147,
        0.17269797843134269,
        0.3532514240424844,
        0.02692900744601035,
        -0.24628471186574022,
        -0.2061203039228099,
        0.13190344236917104,
        0.18581354280086057,
        0.16541765637696082,
        -0.12348317227096925,
        0.025847881600873465,
        0.029171452285182056,
        0.1529104970222523,
        0.28337889514278913,
        0.05589888719367057
      ],
      [
        0.1631284817060369,
        0.024006624955520788,
        0.09098297245996481,
        0.22883040732189655,
        -0.30887308310418743,
        -0.11616339671443354,
        -0.11759316357319888,
        -0.19046421664783972,
        -0.06878556280667093,
        0.40336441710926085,
        -0.17356352437210645,
        0.20987713948206374,
        -0.4207174429039512,
        0.014517090343555394,
        0.106209966931993,
        0.14655558283981954
      ],
      [
        0.1364465133332035,
        0.0811923811126778,
        -0.34172386255237436,
        -0.4695691838639506,
        0.8052919929102059,
        0.14139399679455805,
        -0.31892158083448047,
        -0.37436923777670583,
        -0.22986307150040283,
        0.2676095808899709,
        0.7364004362915952,
        0.03239306271297715,
        -0.10681316158413356,
        0.1920236854142268,
        0.07011251169639655,
        -0.0773366349300596
      ],
      [
        0.0728336777743426,
        -0.28262591295396633,
        -0.3453060561315329,
        -0.449415709197391,
        0.2918381111986574,
        0.31096319821135715,
        -0.11735058505068097,
        -0.08792390459391385,
        0.12018666472647724,
        0.25495218888401583,
        0.8671402795171506,
        -0.16484964693132076,
        -0.10582457801103844,
        0.13245920991844845,
        -0.508118695284945,
        -0.3617781181057718
      ],
      [
        -0.3372748121505374,
        -0.2421998493170725,
        0.11864667946832792,
        -0.15536141297775372,
        -0.03912476665011829,
        0.28856148182140834,
        -0.08906599276535648,
        0.15363413752976737,
        -0.23340442000246925,
        -0.02173030016624555,
        -0.19461125917644098,
        -0.11695071814094705,
        0.21007703436434888,
        -0.3335917579580879,
        0.1741276115422059,
        0.05943390058306947
      ],
      [
        -0.15513739798613543,
        -0.35440260601381585,
        0.03673549971593618,
        -0.06136482640368916,
        0.11358492469840517,
        -0.03078255624424745,
        0.40044472283022886,
        -0.0905836614552603,
        -0.25587437315546624,
        0.07444799803974099,
        0.09789342554414565,
        0.30760444464430275,
        0.20877781147864463,
        0.18745611262737646,
        0.4313474234606322,
        -0.2971907635807127
      ],
      [
        -0.15993788318743693,
        -0.2008267045938904,
        -0.1357193250170572,
        -0.40468990410081435,
        -0.020911272585013727,
        0.21807486339050075,
        -0.36770157362566447,
        -0.12339317354602504,
        0.040082679070418924,
        0.1744035543097835,
        0.33957276867206243,
        0.862321515659978,
        0.0921193213758282,
        -0.33995243907280287,
        -0.5330115701828273,
        0.06692786558595895
      ],
      [
        -0.2032352738275815,
        -0.07302203428743044,
        -0.19129107399306725,
        -0.09571608881583339,
        0.08679604840829601,
        0.3128926795265303,
        -0.039658709259672076,
        -0.12841184145059256,
        -0.45696651896821894,
        -0.1567050649321445,
        -0.1730555919554643,
        0.5758383775531164,
        0.021085593425050567,
        0.1531169686909275,
        -0.12482389963478802,
        -0.29623594160425615
      ],
      [
        -0.2478790996200298,
        -0.17419465855064037,
        0.5508205558962598,
        -0.13433831894383505,
        0.2650381727938155,
        -0.26197738714686475,
        0.23289325321856102,
        0.06549298693946155,
        -0.0391594744145226,
        0.019438457766803467,
        -0.12080266930614328,
        0.0793256012047137,
        -0.113745870085195,
        -0.2081630931018129,
        -0.25396269292416307,
        0.04314697943052987
      ],
      [
        0.3881729050406719,
        0.047109760976657505,
        -0.01095645874000183,
        0.1424648857628972,
        0.3819163072864354,
        0.018600032715855908,
        -0.10273180770843429,
        0.24582742292796775,
        0.10718910961540337,
        0.4135680872996599,
        0.08870286385668089,
        -0.33830970709593144,
        -0.34203979981141625,
        0.5109703308978112,
        0.496438130851566,
        -0.04487980332065016
      ],
      [
        -0.10119268840289514,
        0.3751959165248832,
        -0.26646270271743244,
        -0.1735230237126337,
        0.18269420562045155,
        -0.0925864862020073,
        -0.001280466680017824,
        -0.04897128932324104,
        0.07939755516542275,
        0.37151136393316997,
        0.03689231661676865,
        0.1521281519845214,
        -0.5140411065186221,
        0.05606024220228092,
        -0.157239283960602,
        -0.304703265105907
      ],
      [
        -0.22613800079412452,
        -0.07641900259190501,
        0.24767875837647205,
        -0.2605898285726295,
        0.06307374500833347,
        -0.15728795095850276,
        -0.08191827359049021,
        0.2199447017391468,
        0.13452885925098151,
        0.3639786161613478,
        0.004267834738729241,
        -0.20617810208348222,
        -0.05596470422012488,
        0.15886254565780444,
        0.10966504026916934,
        -0.27109701805834163
      ],
      [
        0.01602253634503178,
        0.06416894011802428,
        0.6480716321709488,
        0.5402195036826791,
        -0.15789496577997594,
        -0.10809143301240223,
        -0.3658605004592508,
        -0.17842150807787585,
        0.07890125089758512,
        0.33109249452272027,
        -0.1393767048846978,
        -0.1957290591827556,
        -0.5368222574346637,
        0.0575718677037722,
        -0.2000819023091491,
        -0.13235985684151844
      ],
      [
        -0.21921519454189706,
        0.00725164219435159,
        -0.4776989720672731,
        -0.4272796785594848,
        0.3526127687184597,
        -0.04822510765331374,
        -0.2741963946136599,
        0.589729978836189,
        0.6879710095179716,
        -0.3280197448701473,
        -0.2516721934478918,
        0.21924478689327256,
        0.4206913741582272,
        -0.3392821786718962,
        -0.061319461485527436,
        0.194334394015436
      ],
      [
        0.10869151861665466,
        -0.06322173705003394,
        -0.07172261535712549,
        -0.4042423193042326,
        -0.23924244528228114,
        0.20703366516295535,
        0.05804247240656399,
        -0.008330207948893645,
        0.07958884784415486,
        0.21805086679114533,
        -0.12075262233376764,
        0.22179500125794605,
        0.0018057999512959477,
        -0.09254681079198336,
        -0.18038950838571186,
        0.079123565418327
      ],
      [
        -0.024321649603372367,
        0.6850049016829968,
        1.0296378660229926,
        0.38167241842803074,
        -0.23491068753732358,
        -0.4179343783915621,
        0.29778573827221627,
        0.415729569659851,
        0.1200358508479027,
        -0.43614649674354816,
        0.028836004696080202,
        -0.019443933860106125,
        -0.2776076711036195,
        -0.266847471327107,
        -0.308413861407299,
        0.013116699589060907
      ],
      [
        -0.07304279645088875,
        0.1358407574338578,
        0.57330479585246,
        0.32335140831452264,
        0.32372660813465765,
        -0.7814961206285317,
        -0.05921256612742106,
        0.39417036871617805,
        0.07399849742177488,
        -0.09297864533032246,
        -0.6422040613131107,
        -0.05105014748516943,
        0.43183755354104625,
        -0.5324316206936544,
        -0.1583861590718818,
        -0.08213130578072347
      ],
      [
        -0.015331086457211825,
        -0.20929438635037825,
        -0.15058107298817075,
        0.21910400605419975,
        -0.16880945575814915,
        0.9119313422665758,
        0.2943529722444234,
        0.3381494640551495,
        0.36896601165572074,
        0.04827413627290394,
        -0.07232037573978252,
        0.16010508514307698,
        -0.003458860685747857,
        -0.3363497966885336,
        0.24739598364871326,
        -0.2945759057787164
      ],
      [
        0.16321243689102607,
        0.0073258625260450815,
        0.4976486797032941,
        0.22846168677134993,
        0.7138212569336652,
        0.3276900897051506,
        -0.39301006391331017,
        0.15327068367321905,
        -0.3179822083202573,
        -0.02924662767822782,
        0.603588203924433,
        0.05145160202766437,
        -0.18222301344901884,
        -0.15139298862232842,
        -0.12504283890755938,
        -0.30414003734528194
      ],
      [
        -0.16778506934914528,
        0.10881964864530184,
        0.2505611347985588,
        0.0916720008443729,
        -0.7525213864381396,
        0.34972221992275904,
        0.01800839330814448,
        0.23397416809903362,
        0.3657566376206721,
        -0.5509376568649976,
        -0.3073858105486606,
        0.28158247985648366,
        -0.40688163680665645,
        0.2764193529485404,
        0.0920891531751646,
        0.211645996460851
      ],
      [
        -0.14813177349934686,
        0.2132757659558854,
        0.2774166067906991,
        0.10837823606061492,
        0.08046273012286438,
        0.07365060433332157,
        -0.21583631618484542,
        -0.044992734752201134,
        -0.043126715147400345,
        0.11548936469311455,
        0.2642021516189059,
        -0.2734905668292953,
        -0.032750338840760854,
        0.43860372959955385,
        -0.13232877359052525,
        -0.20556250432258008
      ],
      [
        0.04397663889586162,
        0.218208155204628,
        0.021559636677633633,
        0.4032484984715088,
        0.2696143675013609,
        0.17420942409740728,
        0.13852912533102332,
        0.5511685204995168,
        -0.05129042221651105,
        -0.47125148371596653,
        0.4439578449304896,
        -0.14661730690501287,
        0.02697011108575826,
        0.42562601905513103,
        -0.3350431846089896,
        -0.31291180352653486
      ],
      [
        -0.4069193933416502,
        -0.191422214923058,
        0.1286122742917172,
        0.20205531156545423,
        0.1244844166918676,
        -0.38943706359819963,
        -0.577525859158161,
        -0.017156358239408656,
        -0.11794400840958394,
        0.144475532229815,
        0.21838266110652185,
        0.0023679088488640096,
        0.19003327134396344,
        0.15554119136876615,
        0.19803787705610823,
        -0.1761683157174706
      ],
      [
        -0.05150276251980141,
        0.056305881747537256,
        0.22383524164182347,
        -0.027426942193881566,
        0.18570768579275723,
        -0.10270529060395295,
        -0.02938554183203259,
        0.17663500591901402,
        -0.498265092763539,
        -0.29448899271802836,
        -0.3276520948095008,
        -0.615596479127883,
        -0.16956611003879418,
        0.2855968227719344,
        -0.005699315939902069,
        0.04944752048546303
      ],
      [
        0.26570446511576135,
        0.3390333906502207,
        0.0014186391059339166,
        0.4094048232546108,
        0.07844753646825645,
        -0.2455951485819737,
        -0.1486000880496838,
        -0.40087888272825845,
        -0.2220334634334131,
        -0.059875082717945324,
        0.24379050939585475,
        0.39800000862568957,
        -0.34554537884426,
        0.19644521490497885,
        -0.19461428413364193,
        0.11867427211580049
      ],
      [
        -0.039371571733868425,
        -0.4506145988785848,
        0.2507773706795898,
        -0.08024182733992136,
        -0.07805918773365947,
        -0.3036836954475305,
        -0.16357081917188887,
        0.07622785558672508,
        -0.04731108523410138,
        0.11179458987128223,
        0.13337471803341522,
        0.29797296471623536,
        -0.08569653771609483,
        -0.27097610637143366,
        0.3323273047987375,
        -0.08287204302431367
      ],
      [
        0.27864811114434423,
        0.12666155905310847,
        -0.07105125677895144,
        0.026675606299836715,
        0.30805413074296006,
        0.7928756699286323,
        0.017345283783194675,
        0.17054924508512925,
        0.23076425657446653,
        -0.24654334585564858,
        -0.07634236109632041,
        0.12739018716968104,
        0.06699401592121751,
        -0.3009101105521883,
        -0.39739187332724224,
        -0.5182458589978229
      ],
      [
        -0.27934602824740196,
        -0.0915558606667151,
        -0.10199805233327687,
        0.43891901519857635,
        0.14172408551036342,
        -0.0352998758365112,
        0.08692711311273923,
        -0.003893361520686037,
        -0.09981279660412118,
        0.019985346605986606,
        0.03508531355568521,
        0.015577303397605052,
        0.25735060547621147,
        -0.3549104883342285,
        0.0015847655905671105,
        0.6494184316489581
      ],
      [
        0.05576993565631878,
        0.39682522759840666,
        -0.024953548241841962,
        0.06954631481777784,
        -0.23881956020894143,
        0.29943627679044155,
        -0.1948705991813549,
        0.2707023356842138,
        -0.2607540257866044,
        0.12248619949859246,
        0.07180930829787233,
        0.258952725756989,
        -0.08591597956788657,
        -0.0022184915038720903,
        -0.07716826388660315,
        0.23388678136628732
      ],
      [
        -0.4644514301157177,
        -0.07678998444636355,
        -0.47899987599353067,
        -0.3027568566945398,
        0.3963814293132065,
        0.18755065286781328,
        -0.1798700583211976,
        -0.4063706185972286,
        -0.7411322094604128,
        -0.10624478768249665,
        0.6479980076130549,
        0.07652861870010542,
        -0.13989307151237237,
        0.2145084002150757,
        -0.32471788759286896,
        -0.07433084067440886
      ]
    ],
    [
      [
        0.02194958255070791,
        0.007203646533665571,
        0.26769066378081297,
        0.10932820153654345
      ],
      [
        0.07965987056389227,
        -0.3328095800774605,
        0.6734762242908059,
        0.46592792323898585
      ],
      [
        -0.23884372265066078,
        -0.548330950870029,
        1.185844288354657,
        -0.6508963098402304
      ],
      [
        0.7749430166647896,
        -0.5969525075405197,
        0.8236487295424725,
        -0.10084987380758346
      ],
      [
        -0.24936273600977688,
        0.9926765040389379,
        0.013254849599310869,
        -0.5727016666034787
      ],
      [
        -0.6225957538323553,
        0.21422411332394892,
        -1.0460975637945091,
        1.1276025798012959
      ],
      [
        -0.19048442609815874,
        0.4058130579682384,
        -0.8464988487604472,
        -0.2780929967127053
      ],
      [
        -0.9348559088079542,
        -0.566942455110637,
        0.4198337119987389,
        0.21778882764147242
      ],
      [
        -0.16971659743445575,
        -0.18510863743544576,
        0.003066671531088466,
        -0.07876702135713777
      ],
      [
        0.265196845636679,
        0.5634432585780957,
        -0.011803824437970343,
        0.00025636209187529795
      ],
      [
        -0.053214880846229606,
        1.3848048251890874,
        -0.3311022755231878,
        -0.31554376582747723
      ],
      [
        -0.3662851516950321,
        -0.705111874047478,
        -0.5908892779585543,
        0.2766895819474908
      ],
      [
        -0.026625479504708595,
        0.11562865374679503,
        0.016765729352108336,
        -0.2651431607875311
      ],
      [
        0.9422497612219716,
        0.3663616107458986,
        -0.39657736035294877,
        -0.6196337666171312
      ],
      [
        1.1652161444847937,
        -0.3453140309593597,
        -0.8224729337519862,
        -0.2730968822437789
      ],
      [
        0.09264364981575933,
        -0.3180901422618369,
        0.0671197752194088,
        -0.5143574223742244
      ]
    ]
  ],
  "biases": [
    [
      [
        -0.07187934528023715,
        0.1827042376228192,
        0.21139840231048374,
        0.29789373053602947,
        0.09411113241592624,
        0.6844363110901363,
        0.0,
        0.3471409793869638,
        -0.13079037229241397,
        0.18055761129374923,
        0.041827258650759536,
        0.06912475736066376,
        -0.039217651849474976,
        0.4334932314765715,
        0.257817229788119,
        0.0
      ]
    ],
    [
      [
        -0.006422795945954208,
        -0.11254116060544292,
        0.02776807936077166,
        0.09119587719062545
      ]
    ]
  ]
}