{
  "layer_sizes": [
    32,
    16,
    4
  ],
  "learning_rate": 0.3,
  "seed": 42,
  "output_activation": "softmax",
  "weights": [
    [
      [
        0.07095056587985535,
        -0.2599960265601239,
        0.22012875717065047,
        0.26614291818852037,
        -0.4122280727180956,
        -0.37716903548960257,
        0.03196010079182134,
        -0.06131845739277615,
        0.04407195745274059,
        -0.19729671309232755,
        0.2519891490187416,
        0.2216158750216376,
        0.01650767439030401,
        0.33242221563905794,
        0.11876602058162086,
        -0.21482311572080956
      ],
      [
        0.09218769602062471,
        -0.23972065020724972,
        0.21209323997804228,
        -0.032758765558786374,
        -0.18491897527459034,
        0.11999030586297645,
        0.29958252478905745,
        0.02970713765942729,
        -0.1248264683464369,
        -0.10534779390957622,
        0.06420829026417323,
        0.09746023431947845,
        0.1031831528989971,
        0.029684403848853135,
        0.6145914713594789,
        -0.11474523752087618
      ],
      [
        -0.1332893863266368,
        -0.20344318206196943,
        0.18651081386291007,
        0.31324481227093987,
        0.047043860031644666,
        -0.2616632780146551,
        -0.2061203039228099,
        0.18039038764929471,
        0.2340857896296733,
        0.1517528358773662,
        -0.134237771519139,
        0.0852082219310805,
        0.029171452285182056,
        0.10528406307930298,
        0.21974587950565697,
        0.05589888719367057
      ],
      [
        0.16449968670922124,
        0.016894767372222865,
        0.10479580789153219,
        0.18882379555035203,
        -0.2887582305185531,
        -0.13154196286334835,
        -0.11759316357319888,
        -0.14197727136771604,
        -0.020513315977858174,
        0.3896995966096665,
        -0.18431812362027625,
        0.26923747981227086,
        -0.4207174429039512,
        -0.03310934359939393,
        0.04257695129486087,
        0.14655558283981954
      ],
      [
        0.17257794088946127,
        0.1983368087999813,
        -0.05466530984307322,
        -0.08458620907542483,
        0.2900246947596521,
        -0.09945023999442676,
        -0.31892158083448047,
        -0.2655796128077505,
        -0.1815908246715901,
        0.14025445481450846,
        0.0677460893206759,
        0.19978922968134258,
        -0.10681316158413356,
        0.09024683666622829,
        0.1582862835104437,
        -0.0773366349300596
      ],
      [
        0.0880502890955904,
        -0.16548148526666281,
        0.0718163294539129,
        0.059574221954002415,
        0.07869371082955712,
        -0.1363776736737197,
        -0.11735058505068097,
        0.09183448314751907,
        0.36154789887054134,
        0.19145413801282343,
        0.3270445537583697,
        0.11121808469464675,
        -0.10582457801103844,
        0.23313001675864906,
        -0.41239018339646,
        -0.3617781181057718
      ],
      [
        -0.3349497112688297,
        -0.24931170690037044,
        0.12521951610162244,
        -0.20455098739325994,
        -0.05691638210395437,
        0.3330843554194235,
        -0.09011886186271773,
        0.21077175903267695,
        -0.19702530280229316,
        -0.04131934548515668,
        -0.2232088076856794,
        -0.06148579606714037,
        0.21007703436434888,
        -0.4040230546815385,
        0.12392309629116173,
        0.05714797684402219
      ],
      [
        -0.1485374889241986,
        -0.36151446359711364,
        0.00800659646343306,
        -0.15940956101558149,
        -0.12676879301235763,
        0.39242662566614295,
        0.39237430965762865,
        0.03128043736724769,
        -0.279533723563013,
        0.021733033689053903,
        -0.03682617050594396,
        0.3479291847813876,
        0.20877781147864463,
        -0.014810031083446085,
        0.47139848432737497,
        -0.31471274148034245
      ],
      [
        -0.15993788318743693,
        -0.23164398535138123,
        -0.3229075227625247,
        -0.29972159269147297,
        0.16521168062969013,
        -0.2815560723084429,
        -0.36770157362566447,
        -0.4904145737616388,
        0.04482928002728205,
        0.19476124765956057,
        0.42736382648519095,
        1.3748293848581332,
        0.1036023583189991,
        -0.05516473816923629,
        -0.5330115701828273,
        0.06692786558595895
      ],
      [
        -0.2032352738275815,
        -0.10383931504492133,
        -0.37847927173853474,
        0.009252222593508035,
        0.27291900162300003,
        -0.1867382561724134,
        -0.039658709259672076,
        -0.4954332416662063,
        -0.45221991801135597,
        -0.13634737158236737,
        -0.0852645341423357,
        1.0883462467512717,
        0.03256863036822146,
        0.43790466959449437,
        -0.12482389963478802,
        -0.29623594160425615
      ],
      [
        -0.2740462917433446,
        -0.1813065161339383,
        0.278353930273882,
        -0.41888674686075655,
        0.9432070326373245,
        -0.1406009861217995,
        0.23289325321856102,
        0.1965967331229842,
        0.05222488307404222,
        0.08104381740644304,
        0.31563003421653585,
        -0.23220071470268464,
        -0.113745870085195,
        -0.07024202966584037,
        -0.30764843338471076,
        0.04314697943052987
      ],
      [
        0.36200571291735706,
        0.03999790339335956,
        -0.28342308436237995,
        -0.14208354215402424,
        1.0600851671299445,
        0.13997643374092122,
        -0.10273180770843429,
        0.3769311691114907,
        0.19857346710396823,
        0.47517344693929947,
        0.52513556737936,
        -0.6498360230033299,
        -0.34203979981141625,
        0.6488913943337842,
        0.4427523903910183,
        -0.04487980332065016
      ],
      [
        -0.10007163846422605,
        0.36536107306055055,
        -0.2514854610901087,
        -0.20186297829220134,
        0.198455955078154,
        -0.09037399974199017,
        -0.0023333357773790597,
        -0.014467857715222793,
        0.12077275439990945,
        0.36191050931017993,
        0.03694293276740237,
        0.18425717122721474,
        -0.5125430252577556,
        0.01562745063401917,
        -0.1954903821685204,
        -0.3069891888449543
      ],
      [
        -0.2195380917321877,
        -0.08353086017520302,
        0.7654756633224931,
        -0.05044126374129691,
        -0.2390433625213984,
        -0.18877194694310562,
        -0.08350897520125494,
        0.46366062964147964,
        0.32277092991955547,
        0.34839028755558193,
        -0.21921402153428915,
        -0.2767605498411265,
        -0.05596470422012488,
        -0.04755593308655061,
        0.06495203406501429,
        -0.2745506502172692
      ],
      [
        0.022622445406968554,
        0.057057082534726286,
        1.3123572117659499,
        0.8325821457701099,
        -0.4799856120409205,
        -0.25449313278478225,
        -0.3658605004592508,
        0.0996703391710091,
        0.32357728614967823,
        0.3250437985651687,
        -0.38836709843495,
        -0.295926607705751,
        -0.5368222574346637,
        -0.15187231003853272,
        -0.2656036029648908,
        -0.13235985684151844
      ],
      [
        -0.22444389860064953,
        -0.023565638563139247,
        -0.40691613962012163,
        -0.3357595722570307,
        0.6078425024524379,
        -0.3734798040925308,
        -0.2741963946136599,
        0.4769705727734482,
        0.7745390391389149,
        -0.27692738840526787,
        -0.05992258389397306,
        0.11255677889952796,
        0.4321744111013981,
        -0.19610235571000953,
        -0.05943077646691797,
        0.194334394015436
      ],
      [
        0.10346281455790217,
        -0.09403901780752481,
        -0.0009397829099741144,
        -0.3127222130017785,
        0.015987288451697095,
        -0.11822103127626182,
        0.05804247240656399,
        -0.12108961401163465,
        0.16615687746509744,
        0.2691432232560247,
        0.0709969872201511,
        0.11510699326420144,
        0.013288836894466841,
        0.05063301216990331,
        -0.17850082336710235,
        0.079123565418327
      ],
      [
        -0.029550353662124856,
        0.5232920772326487,
        0.4258546838378468,
        0.12746337722984222,
        -0.11523357797832853,
        -0.32972702676987753,
        0.29778573827221627,
        0.08342949697990401,
        0.1683080976767154,
        -0.4201822279424806,
        0.26399927569257964,
        0.1407729757179913,
        -0.2776076711036195,
        -0.06726928796543749,
        0.06781798610773936,
        0.013116699589060907
      ],
      [
        -0.07827150050964124,
        -0.025872067016490214,
        -0.030478386332685185,
        0.06914236711633412,
        0.4434037176936528,
        -0.6932887690068479,
        -0.05921256612742106,
        0.06187029603623116,
        0.12227074425058759,
        -0.077014376529255,
        -0.4070407903166112,
        0.10916676209292799,
        0.43183755354104625,
        -0.3328534373319847,
        0.21784568844315658,
        -0.08213130578072347
      ],
      [
        -0.015331086457211825,
        -0.26322462767598725,
        -0.09113337843774491,
        0.3047338608625164,
        0.006960426108651504,
        0.7233005933164479,
        0.2883001623649733,
        0.17811117790902187,
        0.418239118736288,
        0.09243388339705587,
        0.13812803807510082,
        -0.06804352015521822,
        0.016636453964801207,
        -0.25237680272818674,
        0.32657555479057665,
        -0.30771738920343866
      ],
      [
        0.19558758560441533,
        -0.047662764376289864,
        0.2852924380180542,
        0.16743995937059186,
        0.3164581550234252,
        0.4729163647486232,
        -0.3990628737927603,
        0.05160121495207761,
        -0.310746310954364,
        -0.1468843668790875,
        0.3089381021950165,
        0.165482670952883,
        -0.17473260714468658,
        -0.3314501885132173,
        0.08737509436092859,
        -0.3172815207700042
      ],
      [
        -0.16778506934914528,
        0.07800236788781097,
        0.2813086736778984,
        0.13191308024388684,
        -0.7115257615378004,
        0.36631437422152685,
        0.011955583428694348,
        0.17181207951980107,
        0.3863079076071418,
        -0.5331239754887046,
        -0.2166448624219403,
        0.15382579892679765,
        -0.3953985998634856,
        0.29096641511025967,
        0.171268724317028,
        0.1985045130361287
      ],
      [
        -0.1479646194392011,
        0.20344092249155263,
        0.29963384721629577,
        0.08922124412500906,
        0.13413094762003747,
        0.015961651046408447,
        -0.21583631618484542,
        -0.019139979366968797,
        0.010141613715723068,
        0.11181273488944124,
        0.2820957170306081,
        -0.2374661293302018,
        -0.03125225757989441,
        0.42097580081179303,
        -0.18400837218453153,
        -0.20556250432258008
      ],
      [
        0.04534784389904589,
        0.21109629762133003,
        0.035372472109201,
        0.36324188669996427,
        0.2897292200869953,
        0.15883085794849247,
        0.13852912533102332,
        0.5996554657796404,
        -0.0030181753876982577,
        -0.484916304215561,
        0.43320324568231966,
        -0.08725696657480585,
        0.02697011108575826,
        0.37799958511218146,
        -0.39867620024612194,
        -0.31291180352653486
      ],
      [
        -0.40554818833846584,
        -0.19853407250635596,
        0.1424251097232845,
        0.16204869979390968,
        0.1445992692775019,
        -0.40481562974711466,
        -0.577525859158161,
        0.03133058704071501,
        -0.06967176158077122,
        0.13081071173022044,
        0.20762806185835211,
        0.061728249179071,
        0.19003327134396344,
        0.10791475742581685,
        0.13440486141897617,
        -0.1761683157174706
      ],
      [
        -0.05013155751661714,
        0.04919402416423931,
        0.23764807707339086,
        -0.06743355396542605,
        0.2058225383783916,
        -0.1180838567528678,
        -0.02938554183203259,
        0.2251219511991377,
        -0.44999284593472594,
        -0.3081538132176227,
        -0.33840669405767076,
        -0.5562361387976753,
        -0.16956611003879418,
        0.23797038882898494,
        -0.06933233157703422,
        0.04944752048546303
      ],
      [
        0.26707567011894573,
        0.3319215330669229,
        0.015231474537501287,
        0.3693982114830663,
        0.0985623890538907,
        -0.2609737147308886,
        -0.1486000880496838,
        -0.3523919374481344,
        -0.17376121660460037,
        -0.07353990321753982,
        0.23303591014768496,
        0.4573603489558965,
        -0.34554537884426,
        0.14881878096202955,
        -0.2582472997707742,
        0.11867427211580049
      ],
      [
        -0.03800036673068415,
        -0.4577264564618826,
        0.2645902061111573,
        -0.12024843911146585,
        -0.05794433514802521,
        -0.3190622615964455,
        -0.16357081917188887,
        0.12471480086684869,
        0.0009611615947114067,
        0.09812976937168773,
        0.1226201187852455,
        0.3573333050464423,
        -0.08569653771609483,
        -0.31860254031438323,
        0.26869428916160515,
        -0.08287204302431367
      ],
      [
        0.2734194070855918,
        0.0958442782956176,
        -0.0002684243318000592,
        0.11819571260229075,
        0.5632838644769383,
        0.4676209734894151,
        0.017345283783194675,
        0.05778983902238825,
        0.31733228619540943,
        -0.19545098939076933,
        0.11540724845759835,
        0.020702179175936423,
        0.0784770528643884,
        -0.1577302875903016,
        -0.39550318830863285,
        -0.5182458589978229
      ],
      [
        -0.27934602824740196,
        -0.11466882123483325,
        -0.08332367712722481,
        0.45727140685774825,
        0.09156049662579095,
        0.1464408101998755,
        0.07885669994013907,
        -0.010650214852077516,
        -0.09475030991757054,
        0.023245537303820375,
        0.06296743774496308,
        -0.0766823299997253,
        0.2659628831835896,
        -0.38951235240642434,
        0.10715752711305165,
        0.6318964537493283
      ],
      [
        0.05576993565631878,
        0.3583036266515432,
        0.0053349287294919895,
        0.09788060227059511,
        -0.33783702883748173,
        0.6345843859581928,
        -0.2089938222334052,
        0.26703419215151997,
        -0.25428816050964875,
        0.12599602774081325,
        0.1106274034884283,
        0.105864361009045,
        -0.07156218338892296,
        -0.06855724794676694,
        0.10758406877774472,
        0.20322332004193533
      ],
      [
        -0.4578515210537809,
        -0.08390184202966156,
        -0.5077287792460334,
        -0.4008015913064322,
        0.15602771160244375,
        0.6107598347782037,
        -0.18794047149379778,
        -0.28450651977472025,
        -0.7647915598679598,
        -0.1589597520331838,
        0.5132784115629654,
        0.11685335883719039,
        -0.13989307151237237,
        0.01224225650425314,
        -0.2846668267261262,
        -0.09185281857403857
      ]
    ],
    [
      [
        0.029285279131098053,
        -0.009582926774457068,
        0.2708057477926717,
        0.11566399425241715
      ],
      [
        0.236288929723784,
        -0.24337635437311497,
        0.3174256817704341,
        0.5759161808951202
      ],
      [
        -0.8400363773503441,
        -0.3535519149839299,
        1.2577300808463605,
        -0.3163684835183495
      ],
      [
        0.2844137671461072,
        -0.4556013579727003,
        0.8501789523730172,
        0.22179800331273505
      ],
      [
        0.25638156730508205,
        1.3258092847791703,
        -0.6416473930277324,
        -0.7566765080315264
      ],
      [
        -0.6235504696196881,
        -0.1549051504220646,
        -0.8059711970229811,
        1.2575601925631135
      ],
      [
        -0.19147801975077594,
        0.4044915255227096,
        -0.8471936266929597,
        -0.2750830926820468
      ],
      [
        -1.1100067118690022,
        0.071652399226862,
        0.21955844841997413,
        -0.045379960056213066
      ],
      [
        -0.21708587193371143,
        0.1394438076048715,
        0.3972550247658023,
        -0.7501385451329131
      ],
      [
        0.14064413691628708,
        0.3993501710868694,
        0.3567699825908305,
        -0.07967164872530687
      ],
      [
        0.2504872209008512,
        0.7238386885821987,
        -0.48948807707132896,
        0.2001060705804717
      ],
      [
        1.0368135548386554,
        -1.3081496712983793,
        -0.8286310214128537,
        -0.28562958388099713
      ],
      [
        -0.02498928858151643,
        0.11819117613918109,
        0.018081448203036535,
        -0.2706575929540375
      ],
      [
        0.4422943918837474,
        0.4749931946726203,
        -0.1589575594379512,
        -0.4659297821206261
      ],
      [
        -0.021298495716699627,
        -0.08873423173084605,
        -0.6232310536232295,
        0.4575960786004438
      ],
      [
        0.09040950958356246,
        -0.3210584736732434,
        0.06555727283962304,
        -0.5075924483508353
      ]
    ]
  ],
  "biases": [
    [
      [
        -0.05724934633238301,
        0.0,
        0.25057806873102834,
        0.22049717345430078,
        0.32128924194836217,
        0.575749167263688,
        -0.023369928620800767,
        0.4304476360700677,
        0.4326507660522732,
        0.10530455156612621,
        0.10905192971894356,
        0.3358227189532524,
        0.0,
        0.265354575044359,
        0.3263920205921372,
        -0.050739331934063034
      ]
    ],
    [
      [
        0.06362842475071638,
        -0.27082141468410775,
        -0.08002483492256249,
        0.2872178248559538
      ]
    ]
  ]
}