{
  "layer_sizes": [
    32,
    16,
    3
  ],
  "learning_rate": 0.3,
  "seed": 42,
  "output_activation": "softmax",
  "weights": [
    [
      [
        0.07617926993860784,
        -0.26992462817935015,
        0.20375278161018592,
        0.28092341732826276,
        -0.4901791585984077,
        -0.3255448767155795,
        0.03196010079182134,
        -0.038266794983557756,
        0.04725603079892514,
        -0.19620912179729574,
        0.21409909483797854,
        0.18238951758443536,
        0.01650767439030401,
        0.2818103017420082,
        0.12168128912657125,
        -0.21482311572080956
      ],
      [
        0.09218769602062471,
        -0.24964925182647604,
        0.23575255798538977,
        0.03330076048389595,
        -0.04863595232126359,
        -0.17023238610098534,
        0.30563533466850756,
        0.0021614825851372626,
        -0.055625635365779434,
        -0.07098152752595813,
        0.12732689751060858,
        0.07930254981821787,
        0.1031831528989971,
        0.10770525075197068,
        0.540215853781175,
        -0.1016037540961539
      ],
      [
        -0.12806068226788433,
        -0.21337178368119575,
        0.17013483830244555,
        0.3280253114106823,
        -0.030907225848667216,
        -0.210039119240632,
        -0.2061203039228099,
        0.20344205005851312,
        0.23726986297585786,
        0.152840427172398,
        -0.17212782569990218,
        0.045981864493878206,
        0.029171452285182056,
        0.05467214918225324,
        0.22266114805060735,
        0.05589888719367057
      ],
      [
        0.16972839076797372,
        0.006966165752996554,
        0.08841983233106766,
        0.20360429469009414,
        -0.3667093163988652,
        -0.07991780408932533,
        -0.11759316357319888,
        -0.11892560895849763,
        -0.017329242631673618,
        0.39078718790469824,
        -0.2222081778010394,
        0.2300111223750685,
        -0.4207174429039512,
        -0.08372125749644371,
        0.045492219839811186,
        0.14655558283981954
      ],
      [
        0.17780664494821374,
        0.188408207180755,
        -0.07104128540353777,
        -0.0698057099356826,
        0.2120736088793401,
        -0.04782608122040372,
        -0.31892158083448047,
        -0.24252795039853242,
        -0.17840675132540554,
        0.14134204610954026,
        0.02985603513991258,
        0.16056287224414034,
        -0.10681316158413356,
        0.03963492276917856,
        0.16120155205539408,
        -0.0773366349300596
      ],
      [
        0.11419380938935286,
        -0.17541008688588913,
        -0.07462347898269632,
        -0.0496522352691231,
        -0.30138027283220853,
        0.12174312019639545,
        -0.11735058505068097,
        0.04391738278425966,
        0.17164298490147453,
        0.12868465410358523,
        0.16059587836546796,
        -0.03667983740015763,
        -0.10582457801103844,
        -0.019929552726599763,
        -0.4170296549259477,
        -0.3617781181057718
      ],
      [
        -0.3306749030886006,
        -0.2691689101388231,
        0.13222352199800244,
        -0.13480528737909683,
        -0.0993813613797443,
        0.32480707444651635,
        -0.08906599276535648,
        0.2659665983214473,
        -0.13049177965247452,
        -0.01725566927470899,
        -0.24900631148310265,
        -0.1088752015207441,
        0.21007703436434888,
        -0.43183010579808717,
        0.11821381801358391,
        0.05943390058306947
      ],
      [
        -0.1485374889241986,
        -0.37144306521633996,
        0.03417235958703899,
        -0.08659093903549141,
        0.05574869140372755,
        0.00546303638086072,
        0.40044472283022886,
        -0.019045053765918273,
        -0.20441805298046892,
        0.06187076883517832,
        0.04924877211521256,
        0.3277384275373075,
        0.20877781147864463,
        0.08921776478737733,
        0.37062967636845023,
        -0.2971907635807127
      ],
      [
        -0.15993788318743693,
        -0.24157258697060754,
        -0.08131246813037037,
        -0.2983892986586178,
        0.15636737526865271,
        -0.055555674274693344,
        -0.36770157362566447,
        -0.21310091719954752,
        0.12983478203754617,
        0.22658350206969455,
        0.49343232404521803,
        0.716407150229031,
        0.1036023583189991,
        -0.24738453000796604,
        -0.5282076166192676,
        0.06692786558595895
      ],
      [
        -0.2032352738275815,
        -0.10383931504492133,
        0.0035173236216526895,
        -0.1575718021302451,
        0.7958185878593477,
        0.039262141861336156,
        -0.039658709259672076,
        -0.3510069767920934,
        -0.41867073617608924,
        -0.13417430260195776,
        0.15899771592726764,
        0.8502400617330489,
        0.03256863036822146,
        0.2456848777557644,
        -0.12482389963478802,
        -0.29623594160425615
      ],
      [
        -0.24127919055809297,
        -0.1813065161339383,
        0.6886589564953958,
        -0.32772075033224535,
        0.738945831096523,
        -0.2257317945217566,
        0.23289325321856102,
        0.0041442029408253625,
        -0.0391594744145226,
        -0.02278795686748352,
        0.008746429774500138,
        0.5197756337085983,
        -0.113745870085195,
        -0.30640144094181204,
        -0.3194843935799048,
        0.04314697943052987
      ],
      [
        0.3947728141026087,
        0.030069301774133254,
        -0.013519598868899035,
        0.11723877313109492,
        0.3240800739917576,
        0.054845625340964085,
        -0.10273180770843429,
        0.31736603061730995,
        0.15864542979040067,
        0.40099085809509727,
        0.0400582104277478,
        -0.3181757242029267,
        -0.34203979981141625,
        0.4127319830578124,
        0.43572038375938404,
        -0.04487980332065016
      ],
      [
        -0.09579683028399694,
        0.3554324714413243,
        -0.26062143785230024,
        -0.17789951650849756,
        0.15841133723731274,
        -0.0986512807148974,
        -0.001280466680017824,
        -6.68715287903426e-05,
        0.1358499573747307,
        0.36892232542452846,
        0.01689582784770766,
        0.14892623204641275,
        -0.5125430252577556,
        -0.012179600482529487,
        -0.2060036140096579,
        -0.304703265105907
      ],
      [
        -0.2195380917321877,
        -0.08353086017520302,
        0.8668435193982498,
        -0.22755597711056494,
        -0.5492933794168505,
        -0.12104235833339462,
        -0.08191827359049021,
        -0.31218547430303895,
        1.1253860552258892,
        0.14769938840385008,
        -0.24050864179123554,
        -0.18797045952671024,
        -0.05596470422012488,
        0.0606241978178054,
        0.09397256433006472,
        -0.27109701805834163
      ],
      [
        0.022622445406968554,
        0.04712848091549998,
        0.6455084920420516,
        0.5149933910508768,
        -0.21573119907465338,
        -0.07184584038729402,
        -0.3658605004592508,
        -0.10688290038853376,
        0.1303575710725825,
        0.31851526531815766,
        -0.18802135831363073,
        -0.17559507628975085,
        -0.5368222574346637,
        -0.04066648013622692,
        -0.260799649401331,
        -0.13235985684151844
      ],
      [
        -0.21921519454189706,
        -0.03349424018236556,
        -0.42329211518058607,
        -0.32097907311728824,
        0.5298914165721259,
        -0.32185564531850774,
        -0.2741963946136599,
        0.5000222351826663,
        0.777723112485099,
        -0.27583979711023615,
        -0.09781263807473638,
        0.07333042146232567,
        0.4321744111013981,
        -0.24671426960705936,
        -0.05651550792196765,
        0.194334394015436
      ],
      [
        0.10869151861665466,
        -0.10396761942675113,
        -0.01731575847043868,
        -0.29794171386203605,
        -0.06196379742861475,
        -0.06659687250223878,
        0.05804247240656399,
        -0.09803795160241621,
        0.16934095081128206,
        0.2702308145510565,
        0.033106933039387776,
        0.07588063582699915,
        0.013288836894466841,
        2.1098272853545107e-05,
        -0.17558555482215196,
        0.079123565418327
      ],
      [
        -0.024321649603372367,
        0.5133634756134224,
        0.40947870827738236,
        0.14224387636958424,
        -0.19318466385864025,
        -0.2781028679958545,
        0.29778573827221627,
        0.10648115938912245,
        0.17149217102290001,
        -0.4190946366474489,
        0.2261092215118166,
        0.10154661828078902,
        -0.2776076711036195,
        -0.11788120186248724,
        0.07073325465268976,
        0.013116699589060907
      ],
      [
        -0.07304279645088875,
        -0.03580066863571653,
        -0.04685436189314969,
        0.08392286625607633,
        0.36545263181334064,
        -0.6416646102328244,
        -0.05921256612742106,
        0.08492195844544959,
        0.12545481759677224,
        -0.07592678523422319,
        -0.44493084449737424,
        0.0699404046557257,
        0.43183755354104625,
        -0.3834653512290344,
        0.22076095698810697,
        -0.08213130578072347
      ],
      [
        -0.015331086457211825,
        -0.2731532292952136,
        -0.06747406043039754,
        0.37079338690519903,
        0.1432434490619784,
        0.433077901352486,
        0.2943529722444234,
        0.15056552283473193,
        0.48743995171694526,
        0.12680014978067392,
        0.20124664532153613,
        -0.0862012046564788,
        0.016636453964801207,
        -0.17435595582506921,
        0.252199937212273,
        -0.2945759057787164
      ],
      [
        0.19558758560441533,
        -0.057591365995516175,
        0.3089517560254016,
        0.233499485413274,
        0.4527411779767518,
        0.1826936727846612,
        -0.39301006391331017,
        0.024055559877787597,
        -0.24154547797370668,
        -0.11251810049546936,
        0.3720567094414518,
        0.1473249864516223,
        -0.17473260714468658,
        -0.2534293416100997,
        0.01299947678262503,
        -0.30414003734528194
      ],
      [
        -0.16778506934914528,
        0.06807376626858465,
        0.3049679916852458,
        0.197972606286569,
        -0.5752427385844736,
        0.07609168225756495,
        0.01800839330814448,
        0.14426642444551113,
        0.45550874058779905,
        -0.4987577091050864,
        -0.153526255175505,
        0.13566811442553695,
        -0.3953985998634856,
        0.3689872620133772,
        0.09689310673872445,
        0.211645996460851
      ],
      [
        -0.14273591538044864,
        0.1935123208723263,
        0.28325787165583133,
        0.10400174326475127,
        0.056179861739725535,
        0.06758580982043147,
        -0.21583631618484542,
        0.00391168304224957,
        0.013325687061907609,
        0.11290032618447304,
        0.24420566284984505,
        -0.276692486767404,
        -0.03125225757989441,
        0.3703638869147433,
        -0.18109310363958114,
        -0.20556250432258008
      ],
      [
        0.050576547957798396,
        0.2011676960021037,
        0.018996496548736454,
        0.3780223858397067,
        0.21177813420668334,
        0.21045501672251546,
        0.13852912533102332,
        0.622707128188859,
        0.00016589795848627296,
        -0.4838287129205289,
        0.39531319150155664,
        -0.12648332401200812,
        0.02697011108575826,
        0.32738767121513174,
        -0.39576093170117155,
        -0.31291180352653486
      ],
      [
        -0.4003194842797134,
        -0.20846267412558228,
        0.12604913416282001,
        0.1768291989336518,
        0.06664818339718996,
        -0.3531914709730916,
        -0.577525859158161,
        0.05438224944993337,
        -0.06648768823458658,
        0.13189830302525216,
        0.16973800767758893,
        0.022501891741868753,
        0.19003327134396344,
        0.057302843528767106,
        0.13732012996392656,
        -0.1761683157174706
      ],
      [
        -0.044902853457864635,
        0.039265422545013,
        0.22127210151292634,
        -0.05265305482568386,
        0.1278714524980798,
        -0.06645969797884475,
        -0.02938554183203259,
        0.2481736136083561,
        -0.44680877258854174,
        -0.307066221922591,
        -0.3762967482384338,
        -0.5954624962348776,
        -0.16956611003879418,
        0.1873584749319351,
        -0.06641706303208383,
        0.04944752048546303
      ],
      [
        0.27230437417769815,
        0.3219929314476966,
        -0.0011445010229632652,
        0.38417871062280873,
        0.02061130317357885,
        -0.20934955595686552,
        -0.1486000880496838,
        -0.32934027503891633,
        -0.1705771432584158,
        -0.07245231192250802,
        0.1951458559669218,
        0.4181339915186943,
        -0.34554537884426,
        0.09820686706497973,
        -0.2553320312258238,
        0.11867427211580049
      ],
      [
        -0.03277166267193165,
        -0.46765505808110885,
        0.24821423055069272,
        -0.10546793997172353,
        -0.13589542102833702,
        -0.2674381028224225,
        -0.16357081917188887,
        0.14776646327606716,
        0.004145234940895937,
        0.09921736066671953,
        0.08473006460448218,
        0.3181069476092401,
        -0.08569653771609483,
        -0.36921445421143295,
        0.27160955770655554,
        -0.08287204302431367
      ],
      [
        0.27864811114434423,
        0.08591567667639129,
        -0.016644399892264627,
        0.13297621174203286,
        0.48533277859662627,
        0.5192451322634383,
        0.017345283783194675,
        0.08084150143160665,
        0.32051635954159363,
        -0.19436339809573752,
        0.07751719427683504,
        -0.01852417826126582,
        0.0784770528643884,
        -0.20834220148735144,
        -0.39258791976368246,
        -0.5182458589978229
      ],
      [
        -0.27934602824740196,
        -0.12459742285405957,
        -0.05715791400361884,
        0.5300900288378386,
        0.2740779810418759,
        -0.2405227790854068,
        0.08692711311273923,
        -0.06097570598524344,
        -0.019634639335026474,
        0.06338327244994478,
        0.14904238036611972,
        -0.09687308724380556,
        0.2659628831835896,
        -0.285484556535601,
        0.006388719154126945,
        0.6494184316489581
      ],
      [
        0.05576993565631878,
        0.2910612912975594,
        -0.6622198981219615,
        0.47359042235277476,
        -0.0029601887532303903,
        -0.04260189529105111,
        -0.1948705991813549,
        1.0388237984118185,
        -0.8552489995662035,
        0.4811290082488704,
        0.2618155328707043,
        -0.3843069576064218,
        -0.07156218338892296,
        0.11349139482717402,
        -0.09446228687651119,
        0.23388678136628732
      ],
      [
        -0.4578515210537809,
        -0.08390184202966156,
        -0.3411614753943948,
        -0.49613928808295005,
        0.8702890876159141,
        0.2237962454929215,
        -0.1798700583211976,
        -0.46771940259586475,
        -0.7411322094604128,
        -0.14847120231678365,
        0.7775471066936989,
        0.5169786512039898,
        -0.13989307151237237,
        0.11627005237507657,
        -0.3902395882486107,
        -0.07433084067440886
      ]
    ],
    [
      [
        0.03517059787236524,
        -0.030441177383622633,
        0.2795921856254451
      ],
      [
        0.11091661951837216,
        0.2253420592631279,
        -0.22149561514328875
      ],
      [
        0.20569076445510562,
        1.096665422786075,
        -0.752013976630819
      ],
      [
        -0.7443227913158554,
        0.29210447131023853,
        0.5429912770545461
      ],
      [
        1.4129234909309496,
        -0.76290122255998,
        0.2042798401416958
      ],
      [
        0.04648725634649368,
        0.09129767603465035,
        0.5532113618837944
      ],
      [
        -0.1279051789169342,
        -0.3327369079765173,
        -0.15859139664721128
      ],
      [
        -0.44898030828141283,
        -0.7423942965835487,
        1.0230993770105532
      ],
      [
        -0.6872441256509998,
        1.1749947096886915,
        -1.1189208009280598
      ],
      [
        -0.5859180870939188,
        -0.5603691146925943,
        -0.020178557163625852
      ],
      [
        0.30153352377874704,
        -0.4489777645967608,
        0.08205868017521607
      ],
      [
        0.7379243396149252,
        -0.24323895163912387,
        -0.8356284740699003
      ],
      [
        0.24990908717949742,
        0.23428780066056978,
        0.13613146836535608
      ],
      [
        0.1967642856632567,
        0.10479958921878134,
        0.7195070662864208
      ],
      [
        -0.08477466259041415,
        -0.02186146253499129,
        -0.29913885832850073
      ],
      [
        -0.36495996716566187,
        -0.4399872200040327,
        -0.31423730364298325
      ]
    ]
  ],
  "biases": [
    [
      [
        0.0,
        -0.08648031895903664,
        0.23849297670458805,
        0.32223358255398304,
        0.3099877697935188,
        0.0,
        0.0,
        0.29772285152240935,
        0.44819594459051776,
        0.14064637953536263,
        0.05776883299483478,
        0.1503160731886042,
        0.0,
        0.0,
        0.041843499454803285,
        0.0
      ]
    ],
    [
      [
        -0.29280666097915714,
        -0.15370331957619168,
        0.446509980555349
      ]
    ]
  ]
}